-0.1213042 0.029096585 -0.051005036 -0.07908801 -0.1342909 -0.1270998 -0.14008933 0.11139025 -0.025682675 0.2019126 -0.08857801 0.15075253 -0.036071725 -0.050270814 -0.025753813 -0.13295929 0.037635285 -0.05796576 0.0034462935 0.14565377 -0.21172528 -0.08317783 0.06568239 0.10205516 0.03769707 -0.061094575 -0.09275801 -0.07099078 -0.06541061 0.09654811 -0.054370195 0.027880145
-0.13481271 0.032033343 -0.019688852 0.022850351 0.11470784 0.048867635 -0.16504583 0.09356905 0.053701617 0.10939922 -0.0609863 0.18077363 -0.11888891 0.015646882 -0.01977071 0.0032226432 -0.10157751 -0.04381452 -0.060251903 0.0071067894 -0.02219272 -0.14321922 0.12781812 -0.030721888 -0.09436688 -0.035974078 -0.005338648 -0.18219103 0.10583737 0.1254032 -0.13802712 0.11514204
-0.10547439 -0.079748645 -0.09379037 -0.002905552 0.118960515 -0.021554863 -0.11130978 -0.018169062 0.0018955901 0.20534922 -0.076126695 -0.14046782 0.018082028 0.0013548066 0.023832433 0.07112355 0.0024555675 -0.021093132 -0.08523927 0.07370368 -0.11276437 -0.17235266 0.06576538 -0.08742054 -0.03110124 -0.089686096 -0.05458641 -0.19637424 0.054800835 0.021079231 -0.093747415 -0.018411506
-0.06679528 0.004399402 -0.05322065 -0.08344154 0.08739756 -0.0204495 -0.048040494 0.12477446 -0.005767246 -0.021462964 -0.063208915 0.10647774 0.06710001 -0.16002944 -0.08292663 -0.0056106923 0.013320111 0.055745687 0.016718222 0.17323221 -0.14149208 -0.13083702 -0.03605942 0.11146139 0.065626025 -0.13678105 0.04238978 -0.1873575 -0.21127056 0.12075449 -0.15805751 0.04676486
0.06937576 0.055461995 0.06347058 0.04583519 -0.070139594 -0.040825155 -0.016708918 0.031977795 -0.020059608 -0.057279687 0.06011238 0.052967332 0.0023801997 0.036624722 -0.00263305 0.055354275 0.08120208 0.0014091581 -0.00085796416 0.06837913 0.01866214 0.02400665 0.002240032 -0.012234785 0.003823623 -0.039135337 -0.008465834 0.017489381 0.04026144 -0.01939623 0.08299271 0.017361239
-0.09663527 0.10640969 -0.13873963 0.034145206 -0.16583687 -0.1029758 -0.042839926 -0.0057653515 0.10173926 -0.036402468 -0.110093154 0.053555075 -0.006995245 -0.09981895 0.0056583835 -0.03233914 0.019503258 -0.014559566 0.05849206 0.019754048 0.03804797 -0.038620707 0.026712893 0.038588714 0.10420186 0.04351243 -0.022064842 0.03567942 0.0749761 0.00993199 -0.06679427 0.118887365
-0.12261993 0.074975386 -0.01588686 0.026745314 -0.039878238 -0.01063112 -0.025406811 0.037596703 -0.05199171 0.13391426 -0.13646361 0.0022544512 -0.11945483 -0.06605167 -0.12601179 -0.029644974 0.036420863 -0.0024510208 -0.008335371 0.051582173 -0.16597337 -0.033716314 0.00612585 0.06858612 0.0125563145 -0.00455898 -0.09803415 -0.04390189 -0.08760809 0.14045101 -0.13641809 0.013802966
0.044543818 0.108454846 -0.0814311 -0.08662992 -0.011440535 -0.08474125 0.016319005 0.11733658 -0.093092754 -0.050147545 -0.088638686 0.05803907 -0.057853907 -0.026510905 -0.04754577 -0.07680415 0.046021342 -0.10823175 -0.10133026 -0.031754974 0.087841794 -0.10377872 -0.07219058 0.097696625 0.072449595 -0.086940296 -0.12964141 -0.03659224 -0.10493296 0.11919933 -0.1388974 0.1788926
-0.07313482 0.0961516 -0.036281828 0.022447977 0.10707723 -0.054051038 -0.06457401 -0.03809639 -0.034739837 -0.058339022 -0.021676175 0.14892499 -0.20031814 0.049552057 0.0037915444 -0.07532519 -0.039350078 0.020285768 -0.107889175 -0.02360696 -0.022487102 0.055923525 -0.06879236 -0.012295157 -0.061447427 -0.04887647 0.06467383 -0.05669164 -0.006048584 0.034136765 0.06642139 0.06960226
-0.16009538 0.13589716 -0.15728496 -0.070447154 -0.33143526 -0.097898655 -0.027221737 -0.027023068 0.01693397 0.07575195 -0.067523904 -0.002939721 -0.0537434 -0.10157029 -0.0970102 -0.015458721 0.00979351 0.033009645 0.013895025 0.071908556 -0.1533695 -0.09434692 -0.11335322 0.020168664 0.03641836 -0.09786727 -0.014970764 -0.104737036 0.10507511 0.11193433 -0.10257503 0.07441076
0.010489148 0.07673026 0.0015193435 -0.044785112 -0.0067666015 -0.016540766 -0.09646178 0.044580467 0.035114188 -0.066475056 -0.022342049 -0.18362543 -0.08667408 -0.070240244 0.15489009 -0.027122416 -0.037498545 0.020926882 -0.08007779 -0.030758772 -0.0775381 0.063796006 -0.05849201 -0.042198922 0.08823483 0.08424278 -0.058757696 0.0028098945 0.22771478 -0.05916951 -0.054805946 0.029187702
-0.022162616 0.14779244 -0.06616122 -0.04319846 -0.067986324 -0.17861861 -0.064754404 0.1499025 -0.0876696 0.0124299815 -0.098399386 0.19435848 -0.16502701 -0.12919973 -0.20071909 -0.02795914 0.01185252 -0.040473472 -0.09162059 0.12561153 -0.034413245 -0.09359624 0.025385791 0.1826586 0.05037888 -0.04566854 -0.024405345 -0.088414535 -0.002624135 0.31224817 -0.03274332 0.19963121
-0.050870325 0.14238732 0.021749426 0.061461654 -0.07847271 -0.031212332 -0.01649602 0.10498192 0.04418277 -0.037092555 -0.1296712 0.22068891 -0.07257559 -0.09333736 -0.095034756 -0.12480535 -0.110507615 -0.11728393 0.020708641 0.07578554 -0.09973042 -0.06088962 0.09345883 0.19980231 0.088625364 -0.15605573 0.0042407108 -0.019818641 0.053747974 0.16048178 -0.054809943 0.18758732
-0.09708629 0.1241069 -0.09062045 -0.023888165 -0.06802824 -0.035860155 -0.106795296 0.07062855 -0.13246746 -0.029399654 0.03038228 0.029783688 -0.045685366 -0.108013645 -0.01621612 -0.0075813895 -0.04932478 -0.11798365 0.036012344 -0.0014387964 -0.12865199 -0.053508732 -0.06645888 0.042542156 0.039297864 -0.12369306 -0.10881443 -0.049371555 -0.0997961 2.773611e-06 -0.025891911 0.15854992
-0.089281894 0.0023715834 0.0022039453 0.01026098 0.016541546 -0.018628234 -0.063972734 -0.0065091327 -0.025261473 0.22658421 -0.046794202 0.05108923 0.11924367 -0.05428972 -0.042507105 -0.05242537 0.016913913 -0.02637455 -0.07468858 0.006791226 0.009039018 -0.10017922 -0.02461502 -0.0077220923 0.13983195 -0.081194706 0.05639929 -0.10686017 0.05291298 0.14161198 -0.124380104 0.062486954
-0.040375166 0.0880917 -0.09693368 -0.07888254 -0.058045976 -0.030319145 -0.16497113 0.14128663 -0.1376683 0.13214043 -0.14036848 0.14572416 -0.035919033 -0.106255785 0.0002217225 -0.095488615 0.008582553 -0.08739503 -0.034468893 0.13276845 -0.06557845 -0.20809984 -0.05689376 0.036964774 0.12923062 -0.15574013 0.0072931843 -0.08882407 -0.08930441 0.15959574 -0.16077594 0.06870671
0.054349005 -0.19883779 0.08289293 0.040473413 0.2420447 -0.03404675 -0.021405425 0.048093386 -0.17677113 -0.0074603055 -0.023667574 -0.027729105 -0.14578612 -0.012056455 -0.13659762 0.0928863 -0.035259683 0.012683058 -0.105501264 0.059881993 0.08189189 -0.010357766 -0.046051655 -0.042649463 -0.025926234 -0.049712587 -0.040453132 -0.028713379 -0.13608909 -0.06877712 -0.070903815 -0.078995645
0.175873 -0.1606228 0.13869156 0.052050356 0.36569583 0.056117825 0.059942406 -0.077702515 -0.103254564 -0.08623131 0.056527503 -0.12922086 -0.042666752 0.10268636 -0.030971138 -0.0059795715 -0.0074264077 0.014214711 -0.038393788 -0.104758844 0.11151628 0.043595746 -0.026491493 -0.094900146 -0.119431116 -0.019779252 -0.012750995 0.0069786534 -0.11100936 -0.088952474 0.019939743 -0.1071861
-0.008067049 0.063789114 0.03289944 -0.085891545 -0.1254429 -0.17030542 -0.0113687115 -0.15819226 0.1318691 0.109849125 0.11618661 0.07697889 0.037842147 -0.008717833 -0.08363243 0.09765605 -0.109242916 -0.0426483 0.05882279 -0.010837906 -0.018640833 0.013454443 0.13477881 0.07323536 -0.014015824 -0.08122621 -0.09099564 -0.020070257 -0.031562276 0.15830399 0.09334534 0.15726987
0.20627522 -0.1390033 0.12957679 0.25386614 -0.032121923 0.2278108 -0.09315894 -0.027048294 0.15082195 0.34417272 0.07251355 -0.08485521 0.50851136 0.0486087 0.17874032 0.040486764 -0.025284663 0.024257945 0.03309063 -0.14803335 -0.0474497 0.16829838 0.25506222 -0.024459008 -0.09393995 0.04246436 0.18421993 0.07909503 0.2136206 -0.114357755 0.093834065 -0.049346175
-0.035807405 0.041434683 -0.033138063 -0.015807189 0.054427825 -0.003510803 -0.028129045 -0.0016573742 0.052858077 0.080158226 0.07015055 0.077221416 0.061626844 0.047526456 -0.07529935 -0.07159142 -0.036807496 0.05940842 0.0066437796 -0.052342366 -0.083791636 -0.015756115 -0.004283555 0.0053667724 0.0702304 0.025850147 -0.0111297965 -0.034978513 -0.034473073 -0.026385028 0.014640413 -0.010610431
-0.028544279 0.14063103 0.024734609 0.022037184 -0.010174347 0.07907816 -0.027961735 0.01542408 0.11379845 -0.08185458 0.06789861 -0.13546234 -0.1548834 -0.0398502 0.06504416 -0.018528353 0.052531186 -0.115638435 0.055336498 -0.041121658 0.024858875 0.05007608 0.061772443 0.079690725 0.07104619 0.02398511 0.03128183 -0.001209919 0.1029522 -0.07557463 0.016332673 0.0030875448
0.035380293 -0.086587526 0.10823317 -0.019717682 0.03163282 -0.001496408 0.0678344 -0.045687675 0.10175776 -0.012804018 0.034211993 -0.03996626 0.08023681 0.07187493 0.012066475 0.046603147 -0.06530643 0.00779284 -0.01485673 -0.076784864 0.098176144 0.0110772615 0.08781713 -0.04485278 -0.061559636 0.120807186 0.10101641 0.113399066 0.14002918 -0.05597668 -0.016585046 -0.008256865
0.047151275 -0.027590815 0.047426734 -0.0025919287 0.027978912 -0.084934816 -0.049031187 0.048599515 0.11744789 -0.0804578 0.03770169 -0.017916035 -0.11141649 -0.04377478 0.068285525 0.07158249 0.07242443 -0.028366195 -0.07428277 -0.09514814 0.0046776915 0.023006134 0.014191853 -0.015168336 0.07476742 0.0056464514 -0.046245012 -0.02611285 0.1589021 0.04129076 0.0075576827 0.0087707825
-0.0806492 -0.015886057 -0.09840034 -0.10297826 0.016103245 0.045954432 -0.03744289 0.011812103 -0.09738121 0.072042905 0.022788549 0.025754213 -0.10041094 0.017136866 -0.044730783 -0.0133422455 -0.020536484 0.008683481 -0.09577519 -0.008197595 -0.118516296 -0.04041694 0.073713 0.035926726 0.08871232 0.00066746556 0.042521488 -0.12118789 0.04001605 0.04471196 -0.02881827 0.06730513
-0.11404688 -0.0056075724 -0.06493968 -0.018888323 -0.036366962 -0.05902501 -0.066421315 0.13013408 -0.21457334 0.11121232 -0.1258278 0.24716264 -0.10575977 -0.023399908 -0.20645092 -0.009521446 0.0059585487 -0.036344394 0.038804807 0.15601642 -0.10714056 -0.1857366 -0.04662178 0.13704039 0.10017646 -0.056585643 0.00091950456 -0.02951848 -0.23974584 0.010923171 -0.13497521 0.08843706
0.08384793 -0.10743012 0.061004665 0.04165519 0.080353916 -0.056747038 0.07227715 0.01220864 -0.076212645 -0.01024381 -0.021098038 -0.1202843 -0.16499916 -0.0940362 -0.015883816 -0.036567837 0.043885387 -0.024546336 -0.10676338 -0.061047234 0.056301814 -0.055959128 -0.0727129 0.07073808 -0.042243153 -0.06902219 -0.018647447 0.047192074 -0.09397728 0.065642945 0.010670532 -0.07103228
0.10213519 -0.0028143318 -0.0008330757 -0.038213257 0.009972385 -0.061980624 0.050823987 0.087180614 0.05388486 -0.08098098 -0.034959428 0.09450751 0.073367454 0.08212223 -0.10344291 0.052047245 -0.09300504 -0.061380453 -0.07686768 0.046953596 0.10049668 -0.019743992 0.059788078 -0.02112504 0.029530298 0.07576701 -0.019339709 -0.073608965 0.08743017 0.00977879 0.013674715 0.071229085
0.10412759 0.0026997009 0.10211684 0.04251357 0.21242239 0.10538859 0.12994228 -0.08514601 -0.08959436 -0.0585873 -0.033774495 -0.07483471 -0.041652948 0.0066878446 -0.13410811 0.0738792 -0.04710278 -0.009841907 -0.01665206 0.058325488 0.05206702 -0.04469699 0.037441667 -0.04370252 -0.062359247 -0.05393306 0.07002091 0.09635169 -0.115330234 -0.028291518 -0.080162175 -0.046239972
-0.02297865 0.13391744 -0.051997434 -0.043046582 -0.18419401 -0.12101208 -0.07840589 -0.04850466 0.20228267 0.009658181 -0.049724743 -0.1045378 -0.08935367 -0.069079004 0.14516073 0.075865485 0.009157911 0.09822261 -0.07192908 -0.05747619 -0.09662146 -0.05040224 -0.045677394 0.011945554 -0.03133727 0.08586323 0.021233495 0.036169887 0.29775015 0.018460335 0.18358605 0.17423642
-0.11045696 0.15847841 -0.1148661 -0.06516205 -0.16515242 -0.19515045 0.010510332 -0.011800907 0.060913056 0.074294664 -0.008608472 0.15600331 -0.16546512 0.027460366 0.05820153 -0.016207693 -0.09059134 0.009205208 0.049625985 -0.024173787 -0.1135473 -0.06662204 -0.12651289 0.10389641 0.05397681 -0.006593256 -0.0570802 -0.14862058 -0.01485748 0.30357048 -0.06290698 0.25570396
-0.053878054 0.12364757 -0.07246835 -0.06252332 -0.0419585 -0.16252135 -0.11446962 0.0766072 0.020918712 0.09909646 -0.07986802 0.1402902 -0.16361769 -0.09943939 0.056576293 0.013019492 -0.09335942 -0.0622915 0.036301747 -0.02980871 -0.10002144 -0.006946679 0.06572436 0.0638231 0.18129157 -0.039784096 -0.08532096 0.020353053 -0.014372382 0.16978742 0.04545907 0.10374416
0.011897628 -0.067371786 -0.030871013 0.07282343 0.15777545 0.13752432 -0.09066622 0.0077395057 0.060472906 -0.036772236 0.092655495 0.050625917 -0.116016075 0.016427819 0.100235395 0.06318435 -0.012619754 0.010440088 -0.083851136 -0.053243052 -0.116128065 -0.03798944 0.0053157983 -0.1234272 -0.096458025 0.05485526 0.102760546 -0.012481461 -0.024218779 -0.05956518 0.037114125 0.0071646785
0.11957523 -0.07057256 0.16254097 0.101853766 0.097243555 -0.027126739 0.015916089 -0.044669725 0.09240379 0.016364465 0.090721264 0.090358384 -0.04106599 0.14275403 0.0016223174 0.10270937 -0.026102383 -0.07371246 -0.056628656 -0.04869483 -0.048304923 0.09471544 0.19721296 -0.11561187 -0.08949272 0.109230585 0.038557116 -0.053869985 0.22661763 -0.021087773 0.11038926 -0.0008431938
0.0062417774 0.15111402 -0.13448443 -0.050939903 -0.13679849 -0.15245643 -0.13936551 0.16194257 0.020424029 0.0023409077 0.060785737 0.11387088 -0.13415132 -0.08938313 0.029118415 -0.14992955 0.039334152 -0.03778628 -0.06565799 0.12285745 -0.1187054 0.02809086 -0.0351687 0.002417978 -0.018455831 0.00652317 -0.23548386 0.0016180585 0.0016790048 0.063820444 -0.12696572 0.26538584
-0.077108614 0.042865574 0.12364989 0.26055282 -0.04760063 0.012637663 0.28359473 -0.18465833 0.2703903 0.17109825 0.037239183 -0.26590794 0.09777329 0.2574513 0.253603 0.21642126 -0.04948301 0.018957295 -0.03605909 -0.25597203 0.25995892 0.1513619 -0.025878271 -0.26693067 0.02044616 0.21174179 0.29163697 0.26267976 0.37801757 0.08367631 0.07189251 -0.0086918585
-0.02297853 -0.038395867 -0.065073594 -0.018092133 0.010278352 -0.03635079 -0.016511694 -0.05966299 -0.08032035 -0.05833391 -0.012308545 0.020512976 -0.011378661 -0.0690031 -0.04058021 -0.056935713 -0.01847972 -0.0523292 0.056207307 0.00057122856 -0.023332749 -0.014020734 0.0737895 0.005893886 -0.025136828 -0.059170224 0.058013268 0.0057262406 -0.068448186 0.04608754 -0.023958012 0.025759049
0.08882385 -0.1251159 0.094672956 0.055971265 0.20666657 0.10554233 -0.010328838 0.021464096 -0.115999356 -0.01411445 0.05854523 -0.08327807 -0.04256811 0.0072187483 0.029192483 0.10161797 -0.09017971 0.01876353 -0.08246169 -0.031480763 0.09589037 -0.057533897 0.094478406 0.0062062116 -0.07770959 0.0877075 0.076431006 -0.059036754 -0.09869617 -0.08945458 -0.06632581 -0.07906914
-0.0021731968 0.052816264 0.01605912 0.013441286 0.046922117 0.009206395 -0.078320615 -0.0011059808 0.01797207 0.005925481 -0.0019526329 0.049914043 -0.0720219 0.089190364 0.031929076 0.004786919 -0.027494373 0.049785346 -0.12030572 -0.051876914 0.008393015 0.0008061169 0.10562959 -0.097666904 0.026502427 0.029356709 0.11995823 -0.09104558 -0.00956646 0.096572205 0.045948114 0.037150223
0.055999078 -0.028916005 -0.023462461 0.042032566 0.13595545 -0.04806059 0.098457724 -0.076171726 -0.068785496 -0.059224613 0.0241661 0.004486636 -0.15611397 0.052586492 -0.08808051 0.022218384 -0.08054496 -0.03197204 -0.038265802 0.044759426 -0.0708047 0.014526312 -0.033769246 0.013440786 -0.027565075 -0.05858481 0.018269021 -0.06724956 0.018630493 0.11935848 0.05278715 -0.055025093
0.07065515 -0.029946767 0.080354765 -0.013156199 0.19879445 0.0997928 0.13179515 -0.054571413 0.102219805 -0.009143154 0.0050262366 -0.1431328 -0.12960292 0.10392791 0.05016957 0.10032053 0.045685984 0.031471916 0.021017203 0.044939432 0.17075741 0.033854797 0.05840483 -0.14376384 0.027971132 -0.00093221857 0.016018886 -0.02376301 -0.011192094 -0.030542923 0.05479575 0.06620125
0.11424761 -0.017960433 0.0155506525 0.11200247 0.12286056 0.0501267 0.01602636 -0.062490407 0.038226143 -0.2125418 0.1630779 -0.19804263 -0.10997493 0.100253314 0.031223617 0.07195532 -0.015306864 -0.04710029 0.044482984 -0.050974064 0.18237841 0.032268457 -0.08354622 -0.06345206 0.123547964 0.13676496 0.057757 0.07992959 0.09267256 -0.25937963 0.10153169 -0.24802592
-0.009839954 0.08291114 -0.027749453 -0.013282932 0.19024897 0.018949546 -0.023935629 0.06972164 -0.07001064 -0.16186295 0.08964633 0.1047713 -0.11740728 -0.02500158 -0.22728916 0.0016498942 -0.08577123 -0.019169413 -0.04468426 -0.012324748 -0.05455204 0.010907337 -0.040816348 0.010987615 -0.026565563 0.059475403 -0.0150109725 -0.08007908 -0.09985979 0.011020793 -0.07961421 -0.0074026594
0.023546569 0.059649006 0.021269219 0.0041657565 -0.110584244 -0.049594406 0.021602904 0.043398164 0.08021125 0.114536084 0.016408788 0.028925603 0.05783813 0.09026324 -0.0003168811 0.0019494751 0.0072583817 0.02519759 -0.080329955 0.025602538 -0.002659204 0.015032099 0.0013496914 0.017647127 0.04436737 0.036592003 0.100738 0.02661901 0.18123472 0.06812975 0.09921288 0.17312676
-0.014261914 0.064798705 0.017382775 -0.03406138 0.042295534 -0.043330606 0.043372247 -0.08241695 0.13212407 0.11050436 -0.0058521954 0.030516243 0.02112717 0.012646601 -0.069395244 0.06539975 -0.06477483 -0.10281695 -0.048634235 -0.07320064 -0.030002778 0.05323415 -0.0035169753 0.063180245 -0.015704934 -0.04255637 0.090447955 -0.0059386045 0.23469745 0.029851273 0.12233651 0.14750355
-0.04559952 -0.014744355 -0.040718634 -0.06297463 0.0918959 0.032211266 0.02980739 0.022897188 -0.06757492 -0.12264502 -0.00297158 0.03122924 -0.18084584 0.06523884 -0.036481623 -0.001116015 -0.054378416 -0.09616434 -0.059573095 0.07748077 -0.057711355 -0.04942575 0.0777743 -0.024874544 -0.037197564 -0.048260603 -0.08198433 0.03459218 -0.15471022 0.05746177 -0.05862382 0.09466095
-0.06330297 0.19068374 -0.09646302 0.004992348 -0.24346612 -0.086084224 -0.10173371 0.010878675 0.036097724 0.047818307 -0.022608008 0.0840061 -0.08816942 -0.12588918 0.01303075 -0.012102958 0.021783903 -0.044205505 -0.021892069 -0.075189196 -0.13200657 -0.012674681 -0.024399044 0.22408502 0.08380112 0.022793662 0.01912508 0.009955846 0.012274459 0.25975484 0.02134392 0.34863928
-0.046976045 0.027362794 -0.054917175 -0.14013639 0.17192186 -0.105900414 -0.024677318 0.048237924 -0.034215625 -0.26839072 0.0037450916 -0.010547686 -0.10307145 -0.04416246 -0.08103361 -0.13473544 0.048098404 -0.016830806 -0.095202334 0.04318387 0.01850017 -0.13046533 -0.08517808 0.034997273 -0.07995474 -0.122673385 -0.074565455 0.009739651 -0.1763957 0.032920737 0.027151357 -0.07748534
-0.08720928 -0.050419793 0.039884098 -0.011235603 0.05165342 0.0059865518 -0.015486633 0.09281742 0.023308141 0.02960928 -0.11023185 -0.060925107 -0.08386887 0.05907911 0.00091963087 -0.036118783 -0.0042141415 0.042437132 -0.00053495023 0.016771832 -0.06738679 -0.07239703 -0.027182555 0.08812921 0.06780139 0.050185855 -0.12938151 0.0052651917 0.028792089 -0.041498046 -0.041759092 -0.0582073
0.014282696 -0.19590934 -0.04591974 -0.043929227 -0.0590536 0.010468003 0.03946214 -0.027227573 0.07852795 -0.2789282 -0.071386516 -0.08541973 0.10603178 0.05829859 -0.011517959 0.036779635 -0.07254711 0.02625377 0.03995837 -0.063488305 0.10371713 0.0402335 0.1103925 0.023812974 -0.027042536 0.02182481 -0.04418792 -0.047807455 0.036448315 -0.12594867 -0.06360701 -0.18307436
0.04594678 -0.053638674 0.03263623 0.16808781 -0.26125145 0.086509004 -0.034553282 0.05901073 0.15823244 -0.008130038 -0.089092456 -0.10315899 0.063124225 0.06931336 0.071027786 -0.033081267 -0.100999214 -0.02279439 -0.099787705 0.05101762 -0.000118604985 0.043057077 -0.049817882 0.044074744 -0.07314774 0.004511715 0.017598946 0.07227974 0.3181352 0.084781125 -0.08019553 0.020877425
0.024636468 -0.15191463 -0.008084362 -0.04653924 -0.07006408 0.025688512 0.036875743 0.012298927 0.008983747 -0.118860975 -0.0919573 -0.30895588 0.08417797 0.046074804 0.076984294 0.022044353 -0.051573105 0.07171004 -0.07598349 -0.046621967 0.13604921 0.099088356 0.041374806 0.1362577 0.024088684 -0.03303179 -0.091523446 -0.01943798 0.030673912 -0.13652691 0.039093565 -0.13599908
0.078552105 0.0017124712 -0.07967953 -0.048711777 0.06815853 0.08562257 -0.014068939 -0.06960228 -0.02649698 0.04717227 0.07070508 -0.029517923 -0.030512124 -0.07727506 0.031633794 0.032398 0.016699173 -0.07315546 0.0030375198 -0.07617295 -0.037610505 0.06563871 0.07377901 0.08126762 -0.049015272 -0.069228865 0.05381503 -0.054839056 -0.07959169 -0.030104794 0.07351678 0.0417986
0.09125753 -0.039748408 -0.025770918 0.07222925 0.088516526 -0.026442073 -0.05232529 -0.0823227 0.16004735 -0.16626076 0.07895462 -0.038793463 -0.14305478 -0.018806268 0.05736979 0.07580184 -0.027478749 -0.0010287141 0.0113187805 0.04196365 0.06485631 -0.023785237 0.14006159 -0.101584144 -0.014917808 0.090281956 -0.048767563 -0.029084409 0.104836345 -0.09700408 0.14604798 -0.08090375
0.078987956 -0.12429716 -0.039875813 0.07630519 0.02579133 0.1253318 0.0072607254 0.06310354 0.0065375776 -0.044808093 -0.07131008 -0.09761252 0.04059277 -0.0018925966 0.046923436 0.01794576 -0.037253074 -0.04834823 -0.054481402 0.037097264 0.01163923 -0.05368132 0.027399352 -0.025834044 -0.11103083 0.07215555 -0.08247833 -0.03350997 -0.039146528 -0.08946268 -0.014504612 -0.22214691
0.012925867 -0.06504742 0.057033386 0.026949206 0.013131357 -0.008923839 0.04282618 0.0117560215 -0.0378658 0.02502619 0.049041193 -0.02874798 -0.028799413 0.07069399 -0.100533634 -0.05317809 0.013325626 -0.017527392 -0.03315946 -0.08717153 -0.0060270624 0.046028003 0.04046223 -0.09797632 -0.020868441 -0.056122392 -0.10868891 -0.051143475 0.007493192 0.088960126 -0.0030541648 -0.033586472
0.0728927 -0.11788545 0.02516599 0.026194574 0.10250355 0.06582656 0.034615085 0.091665715 0.07304294 -0.16779283 -0.00070922344 -0.13199478 -0.0579649 0.09371899 0.06851543 0.06857258 0.014150877 -0.06822042 -0.025532017 -0.0012415132 -0.04218402 -0.08202172 0.0046589104 -0.01622146 -0.03360305 0.066987224 -0.024756033 0.056717522 -0.04517937 -0.0995649 0.063918516 -0.07035781
0.1147272 -0.11089519 0.116276965 -0.02294113 0.043614596 0.10546017 0.086892635 -0.1431931 0.08839843 0.031605422 0.12907305 -0.08812717 -0.04213015 0.04772197 0.029995853 0.10511189 0.0456037 0.017693888 -0.028399222 -0.019014567 0.03515692 0.009191764 -0.019686636 -0.13349894 0.010910232 -0.008647107 0.114052586 -0.04342536 0.12172589 -0.22913262 0.0942868 -0.1556598
0.08839856 -0.010229089 -0.05046336 -0.023523424 0.062484212 -0.1032023 -0.05072719 -0.017439455 0.065255046 -0.015568316 0.026525676 -0.019162862 -0.115067184 -0.07314303 -0.15253949 0.011169818 -0.089803144 -0.10611597 -0.124719664 0.03704114 -0.079824895 -0.051730398 0.07465068 0.029756656 -0.025793081 -0.07301727 0.036519047 0.003581235 0.061970033 0.043541804 0.011551345 0.061743505
-0.024770781 -0.09142811 0.043583315 -0.11654344 -0.112477496 0.08954196 0.016841883 -0.015292826 0.079262294 -0.05707243 -0.100168 -0.043480784 0.054234516 0.036013044 0.10797001 0.044540465 -0.021072624 -0.036444154 -0.026549928 -0.031815976 0.0122114755 0.12206749 -0.030206066 0.071022235 0.06471147 0.04075175 -0.003640549 0.02480599 -0.10529619 0.0733547 -0.040254235 -0.088192806
-0.11477195 0.06260038 0.035429243 -0.025924107 -0.15965858 -0.10630735 -0.06729699 -0.022687674 -0.098075375 0.11093499 -0.1623319 -0.01049591 -0.022955727 -0.01382791 -0.111692235 -0.025003262 -0.058053378 -0.09840809 -0.046086464 0.13566095 -0.06642801 -0.0021359285 0.09541451 -0.02919379 0.043816738 -0.12987614 0.016011445 -0.06317061 -0.0054210285 0.2065702 -0.021209344 0.0065993075
0.11194605 -0.19863719 0.026509307 0.010149724 0.036905147 0.066870555 0.07381524 -0.09490921 0.12483294 -0.04569343 -0.015622769 -0.21037664 -0.023851633 0.1351191 0.15370598 0.046945315 -0.017063767 -0.02672857 -0.010155756 -0.06625625 0.11308422 0.008716716 -0.006876932 -0.04283112 -0.12594241 0.0956356 -0.04573878 0.015953384 0.10805264 -0.16937649 0.07963061 -0.23368801
-0.09474761 -0.00088156294 0.0045452504 -0.034737494 0.01573233 0.019791378 0.09542039 -0.12026139 0.060493104 0.10508426 -0.049054284 -0.04763039 -0.09045811 0.057308063 0.068632 0.095504545 0.03272428 -0.013503239 -0.069141775 -0.053038627 0.1560189 0.085443355 -0.083250456 -0.13587074 0.096305415 0.0769269 0.1102819 0.0077290023 -0.08569106 0.1396845 0.021473708 0.11433925
0.017892307 0.009877137 0.07724332 0.065161906 0.1777715 0.1629212 -0.023091592 -0.1458921 0.2190692 0.035002712 0.0076965024 -0.17953058 0.040707987 0.07665129 0.06595107 0.09226147 0.050820995 -0.040214173 -0.08436597 -0.026688995 0.037725452 -0.005753993 0.07935508 -0.10938113 -0.07654797 0.12686013 0.08144945 -0.029546421 0.06763071 -0.06336974 0.103065036 -0.020840945
-0.06280357 -0.18476573 -0.008478057 -0.030876521 0.030603671 0.03710531 -0.022845076 -0.03511594 -0.02953002 0.12927978 0.030163933 0.06474231 0.04481837 0.0008385898 0.0669817 0.01753537 -0.073088765 0.041637693 -0.010572055 0.080126025 -0.030812658 0.015400133 0.045318864 -0.0284997 -0.08602788 -0.09863479 -0.017151553 0.046187393 0.048070043 0.002133106 0.086221516 -0.041802995
0.04443591 -0.2667406 0.02135028 -0.003016149 -0.069057144 -0.10766826 0.07211741 -0.04671014 0.05695805 -0.053211033 0.013660263 -0.07143153 0.081268586 -0.011737904 -0.016771812 -0.03388922 0.010823232 0.013831171 -0.016547197 -0.03244795 -0.044950638 0.06785481 0.057412878 -0.0049357726 -0.09175401 0.00044831337 0.021313895 0.014758035 0.066122726 -0.08036762 0.09914517 -0.010589885
-0.05110985 0.14382419 -0.08720157 -0.15562482 0.01646892 -0.033817284 -0.028978802 0.03591399 -0.07633519 0.06000825 -0.19205256 0.13546175 -0.020599265 -0.08469177 -0.006674427 -0.11292166 -0.06692784 0.057325944 0.06906523 0.10581772 0.04534709 0.033243068 -0.01754657 -0.0090590855 0.0585262 -0.12051244 -0.20752527 0.026856638 -0.20047174 0.13717218 -0.031660825 0.067917235
-0.019086363 -0.019503864 -0.14227524 0.01985315 0.039850205 -0.18904665 -0.044607863 -0.0030043866 0.013877143 0.09500631 -0.030713942 0.08904462 0.12808144 -0.120115355 -0.06569376 -0.043916762 -0.04653399 -0.0071855537 0.106730275 0.033178583 0.032651335 -0.0526564 -0.0016878753 0.15939197 0.037031732 -0.11451987 -0.19625719 0.016465498 -0.023229381 0.05345627 -0.08792035 0.029684577
0.019732416 0.025299542 0.00579191 -0.046699066 -0.027533524 0.018054701 -0.03833339 0.009511188 -0.017780073 -0.051095575 0.02848351 0.079795115 -0.0014162362 -0.045978837 -0.048301708 0.006492965 -0.07220933 -0.053631127 -0.00032052398 0.019819692 0.026640274 -0.034363203 0.051388957 0.03878361 -0.081007645 0.046862714 -0.02558985 -0.0023237094 0.058408044 0.03455393 -0.02197799 0.067868896
-0.040842544 -0.13725556 0.07901508 -0.03334875 0.10301518 -0.021264313 -0.017567374 -0.08407692 0.06511126 -0.018555632 0.034561682 -0.021610925 -0.026084231 0.08360176 -0.03827906 0.09626277 -0.062819466 -0.04795682 -0.019952383 -0.06222758 -0.07204161 0.0058825444 0.066190936 -3.507001e-05 -0.11456442 -0.053968128 -0.01980578 0.04465555 -0.0091147255 -0.06985145 -0.039341893 -0.011285727
0.07952676 -0.14952631 0.009145335 0.023289027 -0.029991014 -0.11720998 -0.029460013 -0.023248902 -0.0062749963 -0.023854103 0.08532386 -0.08715615 -0.029326137 0.11900093 0.05829115 -0.020978246 0.059923347 0.010698125 0.052116368 -0.054238386 -0.014159865 0.025864106 -0.081302814 0.04557609 -0.08321905 -0.008441276 0.027260749 0.06322004 -0.027581628 -0.17578378 0.10671275 -0.13083784
0.012631275 -0.14758685 0.037955426 -0.019700283 -0.013611432 0.058743767 0.009482761 0.07026998 0.00018855778 0.008247271 0.021315847 -0.084733255 -0.0818604 -0.04637569 0.1122452 0.06509802 -0.0097793415 0.024116484 0.05326914 0.021188091 -0.06852906 0.014068288 0.008033968 -0.044520784 -0.07599765 0.019437382 -0.09625513 -0.059951372 0.08591121 -0.025693702 -0.026121287 -0.009188007
-0.1025387 -0.0083904825 -0.0022687234 -0.021969905 -0.07735045 -0.16369578 0.01687946 0.01572659 0.082155846 0.05568907 -0.019920446 -0.012200431 -0.06043848 0.053660803 -0.014258224 0.039448842 -0.03278929 -0.07951962 0.006079239 0.0436187 0.11378051 0.033955365 0.030056423 0.063768856 0.08865396 -0.03940041 -0.0077055884 -0.0049948036 0.05409977 0.129297 0.066203296 0.055227377
0.009525323 -0.118479624 0.06401276 -0.17715597 -0.0026158132 -0.015472375 -0.01766555 0.035362225 0.07689162 0.064021 -0.049030274 -0.15831383 0.09580876 0.046097916 0.091112785 -0.059389565 -0.022061644 0.07508202 -0.09217811 0.001965505 0.047725562 0.12003635 -0.1198882 0.007111597 0.123014666 0.024308817 0.005284658 0.008508197 -0.1117602 0.11478137 -0.048793364 -0.025581492
-0.121109985 -0.003164909 -0.03504758 -0.10636363 0.058237873 -0.011197764 0.0054356535 0.018987723 -0.043257426 0.011129338 -0.07805941 -0.06820343 -0.0321462 -0.07879444 0.107886605 -0.0033937609 -0.059541207 -0.02430084 -0.12522927 -0.018174993 -0.026267774 -0.053951494 0.03701379 0.08789845 0.017458322 -0.06113004 -0.018977294 0.07224906 -0.012893047 0.11779289 0.0406691 -0.026015593
0.049040325 -0.0032420375 -0.026497575 0.029719785 -0.06541603 -0.12498476 0.06525723 -0.07227691 0.041189585 0.06463411 -0.026569985 0.08920679 -0.08606997 -0.05359192 0.03326132 0.07402484 -0.09569997 -0.034959845 -0.0746829 0.01283792 0.0026781382 0.10196955 -0.018821603 0.086037174 0.06645796 0.10805325 0.01596925 0.029422956 0.082139306 0.038232777 0.09937123 0.058661953
-0.09077557 0.11255956 -0.10376211 -0.16373526 -0.044697188 -0.18422681 0.0032793914 0.100899704 -0.054393765 0.0020439157 -0.024119467 0.105891936 -0.10335923 -0.07662398 0.058839876 -0.051026005 -0.034298588 -0.081538156 0.005333927 0.06517294 -0.089594185 0.09263703 -0.110355414 0.08783634 0.07497493 -0.055845715 -0.07162552 -0.05886398 -0.0024096349 0.09067272 -0.05661762 0.03619042
0.031978797 -0.07058459 0.08710636 0.04816859 -0.051038574 -0.080748804 0.046782218 -0.004129771 0.120772235 0.11831595 0.0008365185 0.036004685 -0.11619787 0.041878223 0.07897997 0.012881129 0.073891446 -0.0002512074 0.037552908 0.05541128 0.057739638 0.054473158 0.10180762 0.010576601 0.018374883 0.005121981 0.028581116 -0.0045670858 0.07831185 -0.01362859 0.023808697 -0.08205421
0.17033467 -0.14180933 0.07405069 0.20309457 0.14186695 0.22151475 0.115583226 -0.052679673 0.09883274 -0.012927493 0.04788252 -0.14400312 0.18251722 0.06415606 0.025186725 0.06706636 0.047396336 -0.058625065 -0.11971171 0.026280059 0.09743021 0.06301805 0.05706054 -0.10401044 -0.032511476 0.14722484 0.043036915 0.117184594 0.15637758 -0.09056651 0.12703072 -0.22877274
-0.15661661 0.1425488 -0.029967882 -0.11097704 -0.03712566 -0.07704071 -0.010568496 0.11127921 -0.094455704 0.005091583 -0.057042472 -0.019231139 0.0246126 -0.16837512 -0.04280261 -0.037836526 -0.060351137 -0.07021082 -0.013458735 0.045461565 -0.1235542 -0.019701116 -0.10809681 0.15680711 0.20989573 -0.08311327 -0.040265225 -0.09475135 -0.09968506 0.25487295 -0.068333104 -0.004550599
0.035306767 -0.09041853 -0.013175653 0.06350246 0.04470673 -0.090151414 0.09928252 -0.12414538 -0.032095734 0.07685871 -0.009901485 0.019848743 0.07388677 -0.021098169 0.03295902 -0.024128255 0.004722034 0.049352583 0.07828013 -0.09043973 -0.019282654 0.060718548 0.1462489 0.047855575 -0.10843654 0.11601389 0.0724043 0.062111095 -0.012238263 -0.0019691288 0.13024734 0.026388358
0.006734298 0.036143932 0.05790546 0.017577967 0.037767842 -0.029224271 -0.0058264835 -0.1274463 -0.09421369 0.11232328 -0.07075889 -0.022141038 -0.11824443 -0.014901516 -0.13222799 -0.049028136 0.047626037 -0.04557026 0.111100286 -0.019772666 0.06699936 0.065095976 0.0027540321 0.079368025 0.06677763 -0.05616316 0.06048665 0.060283385 -0.07566083 0.008259528 -0.0025128638 0.22102137
0.01585065 -0.22356735 0.009230818 0.145155 0.00043545978 -0.06819212 -0.03572314 0.06006853 0.022432232 0.18450199 0.039399847 0.012609803 0.03321027 -0.107273154 0.14253393 0.057208687 -0.035015784 -0.09899307 0.09172703 -0.052255813 -0.07060803 0.057513714 0.12471078 0.044419743 -0.009685225 -0.043389227 -0.10025136 0.042806502 0.12245954 -0.066148885 -0.02056576 -0.06806303
0.23948275 -0.10070988 0.16489512 0.39072993 0.24258971 0.24385418 0.09524137 -0.20811579 0.18945058 -0.06105912 0.4001638 -0.26258847 0.5131705 0.11205757 0.09580208 0.09220528 -0.053535204 -0.036422804 0.047552537 -0.03334639 0.25355372 0.052927617 0.19129942 -0.2754701 -0.14806662 0.13675404 0.24691257 0.10318739 0.2582767 -0.22340453 0.07886816 -0.21137117
0.05203525 -0.056383267 -0.016485795 -0.046864767 0.07657663 0.038544685 -0.012722626 -0.009165287 0.046560146 -0.027051676 -0.015309252 0.0102580115 0.0031240433 -0.053311955 0.042481296 -0.031125247 -0.08268869 0.0063687265 -0.02927529 -0.015827589 0.019196779 -0.031673603 -0.030360878 0.07272989 -0.06667164 0.046886213 -0.019405149 -0.030383408 -0.029996052 -0.015304059 0.052413486 0.04011319
-0.09578605 -0.080477186 0.07591497 -0.02458717 0.0057164887 0.00039695416 0.07808336 0.0007259153 0.044824567 0.018438565 -0.029715857 0.002089703 0.06890801 -0.068065114 -0.038393695 -0.08196409 -0.087620296 0.014300961 -0.09200411 -0.0022084408 -0.04698767 -0.045912288 0.0065970444 0.08839354 0.054196317 -0.10081744 -0.039576184 -0.09009728 -0.02034873 -0.085228615 0.071203634 -0.12546906
0.048328638 -0.014625503 -0.02086756 0.060964487 0.07281207 0.07089594 -0.07962195 -0.044569694 0.010458431 0.06867553 0.09047701 -0.06376586 -0.032139633 -0.007753855 -0.038421765 0.063480064 -0.0824045 -0.0901599 -0.04662681 0.050656375 -0.050004978 -0.06788033 0.05702428 -0.06575497 0.100833155 -0.081064515 0.045396022 -0.0580728 0.059036676 0.06621753 -0.036962714 0.04336335
0.013999153 -0.1260951 0.04369635 -0.05382964 -0.11281137 -0.07733099 0.0450662 0.067790344 0.088996865 -0.05874987 -0.036803845 -0.06213288 -0.01809449 -0.0644937 -0.077386424 0.042264435 -0.09277123 -0.09559654 -0.0135726435 -0.009595702 -0.055903826 0.07492014 0.023428302 0.0037479496 0.024828216 0.036541905 -0.056932002 0.0036741453 0.0065001035 -0.14493902 0.07906623 -0.10090924
-0.07694533 -0.019067805 -0.002198267 0.08773451 0.108106084 0.06790811 0.03777432 0.085343294 -0.092623584 -0.099020995 -0.08290898 0.025146643 -0.02052227 0.021223925 -0.033341546 0.06589338 -0.04879002 -0.052034955 -0.08147217 0.09329281 -0.026909392 0.03324421 0.019122949 -0.079164796 -0.012992283 -0.05672445 -0.009968732 -0.029850584 0.020119233 -0.17668314 -0.051357254 -0.06258872
-0.103797525 -0.21655266 0.08129346 0.025303343 -0.1000807 -0.15174468 -0.05860779 0.02884912 0.0703332 0.12900744 0.039912097 -0.004406949 0.043487314 0.06119764 0.047257442 0.056992743 -0.06685533 -0.011872245 -0.051247153 0.072051965 0.038755044 0.08163542 -0.08485208 0.012103213 -0.13487817 0.009744817 -0.0384287 0.0067026224 0.09136201 -0.25125274 0.061216876 -0.20054995
0.01623863 -0.113044485 -0.096455775 -0.0070041474 0.08307549 -0.009037133 0.03303554 -0.020832248 -0.035376094 0.050969403 0.063657634 -0.062644936 -0.020034786 -0.019286392 -0.049656857 -0.008057515 -0.037071515 0.027836764 0.03747666 0.020059055 0.061477054 0.07384888 -0.018603558 0.071709186 0.03176475 0.07964963 -0.057144802 -0.014355291 -0.03010843 -0.042992976 0.05781221 0.06699169
0.09323794 0.044973806 0.052459467 0.081609115 0.16203028 -0.007394929 0.04749396 -0.032529917 -0.006329014 -0.032110278 0.01613399 -0.052576043 -0.069536015 -0.00775495 -0.002510305 0.006106057 -0.06613326 -0.0657436 0.03846139 -0.07400356 0.027646989 0.0027411457 -0.037058417 -0.052552264 0.12130765 -0.0041492027 0.1217638 0.0066635683 0.19630827 -0.025682883 0.007370265 -0.06735682
0.01264374 0.011873487 0.017376052 0.057444856 0.12954822 0.07834807 -0.037038065 0.038819093 -0.023354115 -0.08848381 -0.069275044 0.018449593 -0.12861241 0.111541584 -0.014815566 0.14081135 -0.08936522 -0.030060215 0.03032244 0.06316273 0.07935256 0.08946724 0.01781714 -0.12395029 0.12680544 0.0058171866 0.03998077 0.07162368 0.008795347 -0.03546821 -0.023823531 0.113239326
0.03860652 -0.1013174 -0.05701158 0.032040663 0.09235833 -0.009077699 0.026560467 0.08414106 0.058469135 -0.006701276 -0.08964469 -0.10336154 0.07973109 -0.061473746 0.11245829 0.024208523 -0.082609184 -0.05471055 -0.09949444 0.0862308 0.02938523 -0.0057405527 -0.035146106 0.074935235 -0.004467961 -0.046328977 -0.018951597 -0.0411201 -0.0025475381 -0.011064508 -0.031753372 0.005721607
0.005562488 0.051725846 0.016847534 0.042240318 -0.26425454 -0.1284794 0.04946991 0.055556025 0.064763285 0.24121462 0.12222063 0.044622052 0.0027476775 -0.0039576436 -0.15140408 0.0074386145 -0.092097744 -0.112271965 -0.039221313 0.12433114 -0.04883546 0.05456438 -0.08552649 0.020383762 0.06853238 -0.048506923 -0.068304054 -0.026096938 0.09228454 0.16224107 0.041165438 0.09406376
-0.062501796 -0.19662629 -0.031736895 -0.057647053 -0.067029364 -0.034854487 -0.07741157 -0.0013592954 -0.076514214 0.09969423 -0.08241891 -0.05536386 -0.05413352 -0.08442313 0.07760612 -0.07425171 0.003685781 0.015430699 -0.09699326 0.009039624 -0.04935844 -0.0040278286 0.030378569 0.09966242 -0.096485235 -0.09007984 0.017818712 0.05214367 0.06715007 -0.12521134 -0.032718714 -0.1086026
0.04453536 0.070204884 0.07010492 0.030550564 0.2731145 0.18769759 0.097944595 -0.14330721 0.043442626 -0.012874687 0.08268969 -0.20749122 0.05307335 0.06950251 -0.0053407205 -0.014177936 0.022228047 0.08787106 -0.11901391 -0.1152376 0.12576328 -0.025471566 0.040555377 -0.051450036 -0.06969191 -0.027884394 0.11828714 0.12822263 0.07151698 0.06100855 0.03387745 0.09450753
-0.074389875 0.25654587 -0.09648213 -0.060766544 -0.2104505 -0.127516 -0.18211122 0.18646789 -0.02687967 -0.20463206 -0.064408384 0.15772943 -0.08878636 -0.07132505 -0.20742166 -0.11696466 -0.073964864 -0.15303242 -0.04940294 0.11238805 -0.29227552 -0.26072413 0.035376124 0.23177966 0.18033263 -0.10047973 -0.0041257935 -0.21746083 -0.11815169 0.20285489 -0.15391491 0.21206762
-0.03650936 0.045513574 0.072053514 0.09221698 0.036823403 -0.089524545 0.058560647 -0.0924183 0.051749837 -0.05948273 -0.046206497 -0.0075966795 -0.012791525 0.09583646 0.16923928 0.07918675 0.008032232 -0.049930006 -0.006904241 -0.0064569535 0.03455847 0.07715185 0.0964591 0.006441413 0.035747245 0.1380407 -0.11240333 0.10335579 0.17484106 -0.05342756 0.08979681 -0.051307216
-0.01376648 0.1968481 -0.11493063 0.0950813 0.07130446 -0.030297931 -0.08448699 -0.025767168 -0.07953242 0.14766361 -0.055254333 0.025023533 -0.03298458 -0.028579274 -0.18402602 -0.04077975 -0.029664554 -0.08482423 -0.04543894 0.110595174 -0.03610805 -0.008899836 -0.030624645 0.12221555 0.056616545 0.01292602 -0.16721968 -0.034223624 -0.108421475 0.25350162 0.023061508 0.14095584
0.08462923 0.061580114 -0.048260245 0.042641677 -0.0048718974 0.027672403 0.027012706 0.08058054 0.080752395 -0.016962692 -0.026600428 0.03223844 -0.011770986 0.029726945 -0.009534106 -0.02961589 -0.058733657 -0.080255665 0.041639216 -0.076374345 0.06580358 -0.004003532 0.08001884 0.07577286 0.06607867 -0.0254854 -0.009958625 0.07925614 0.07066571 -0.06621819 0.020298801 0.067219205
-0.017983869 -0.11836148 0.07380754 -0.049666878 -0.12693444 -0.14126585 0.049269028 -0.08930136 0.016226422 0.010160555 -0.032968603 -0.10979053 -0.009727255 -0.044178225 0.07534246 -0.0659447 -0.083314024 -0.071466714 -0.039336763 0.047655635 0.09004828 0.03193335 0.036489636 -0.0033919746 -0.0504909 -0.025996942 0.05129122 0.0835402 -0.045213625 0.019265005 0.08015624 0.045316618
0.04254359 0.004478844 -0.08782714 0.04523154 -0.010566384 -0.024890939 -0.09467759 0.007397454 -0.12276127 0.08186678 -0.1107842 0.031171292 -0.15191056 -0.09255887 0.00050077756 0.0317528 -0.051625248 -0.16031088 -0.050039127 0.024408534 0.050472885 0.05265463 0.031879693 0.08328609 0.09264751 -0.058504574 -0.029646914 0.05842027 -0.15153979 0.12614761 -0.0043802783 0.034002796
0.04285191 0.16027828 -0.01955666 -0.089312874 0.14764316 0.07152716 0.010659762 -0.0025399039 -0.12654777 0.06969484 -0.096476495 0.1631311 -0.029369375 0.010281973 -0.10817753 -0.12714756 -0.062487945 -0.05761803 0.040371884 0.107292674 -0.036411017 -0.092057765 0.026294503 -0.031671077 0.13922709 -0.09881797 0.057259075 -0.024367511 -0.1304663 0.20227751 -0.056060422 0.18994825
0.068335064 0.061400566 -0.052832022 -0.011481231 -0.06745421 -0.050989676 -0.02206964 0.0136719 -0.030627504 0.027473163 -0.070815206 -0.045743633 -0.1296729 0.039852142 0.023135455 0.05485547 -0.080069646 -0.06504332 -0.039562706 0.060418546 -0.012410857 0.1345725 0.040701803 0.090591505 -0.05748717 0.074717365 -0.06791485 -0.014448301 -0.0038936888 -0.0688305 0.038089797 -0.0032534718
0.043074045 -0.085934915 0.093607485 0.14425632 0.1366716 0.065987706 0.17667946 -0.20934173 0.094250694 -0.08460975 0.120914415 -0.13782436 0.124653876 0.17040104 0.1183598 0.18671674 -0.082091376 0.017838055 -0.07526011 -0.17070411 0.24628656 0.1771041 0.15785205 -0.27840516 0.029395899 0.14525913 0.12746827 0.21241485 0.31228057 -0.14952998 0.11086889 -0.05424503
-0.004456018 -0.17745627 -0.07861026 -0.10620113 -0.018339317 -0.081278846 -0.06677636 0.07726009 -0.06790877 0.06661839 -0.02653604 0.045377336 0.0027454665 0.070082754 0.042508706 0.06499515 -0.07714149 -0.09237215 1.563525e-05 0.05795449 0.10152002 0.022121895 0.056792043 -0.08503938 -0.0755024 0.035730667 -0.041728597 0.06538554 -0.012169492 -0.07018425 -0.079878084 -0.0894176
0.014313452 0.123593435 -0.059776768 0.13334824 -0.05889648 -0.07110862 -0.040534288 -0.03559138 -0.010750588 0.021507537 0.028228423 0.06772804 -0.114928745 0.028620208 -0.15729529 -0.024122307 -0.022741027 0.024310162 -0.0260218 0.011803682 -0.04052148 -0.030647438 0.03565298 -0.044024233 0.022434143 -0.07845478 0.044201918 0.04113059 0.059550423 0.16918717 -0.1399263 0.04159693
0.07069164 0.1901715 -0.00081337756 0.12130874 0.13237967 0.20681229 0.014641963 0.09062076 -0.014796415 -0.14382717 -0.045428798 0.040530782 -0.03843934 -0.014570559 -0.011968385 -0.08546072 -0.03142581 -0.05452438 -0.082052715 0.0047355504 0.020644937 0.0032849645 0.027193516 -0.03904419 0.07003093 -0.09232996 0.07555869 -0.02344035 -0.04478564 0.044249207 -0.017941311 0.1176653
0.08845872 -0.14961526 -0.06053144 -0.017546637 -0.14018127 -0.15948854 -0.057826284 0.05145583 0.02809491 -0.08158342 -0.035094127 -0.03883904 -0.12492913 0.06989477 -0.011971014 0.0275461 -0.07552728 -0.07076843 0.066054426 -0.074718624 -0.038277198 0.034077514 -0.063675694 0.016194707 -0.19160417 0.042077474 -0.024165198 -0.038002532 0.03159805 -0.1122823 -0.004028056 -0.020901352
0.0026449482 -0.09194877 0.10086045 0.10236133 -0.005701563 0.05153915 0.03934772 0.033358883 0.043968096 -0.03855966 0.020902533 0.01762919 0.07208899 0.089555256 -0.0014205907 0.11382374 -0.026895601 -0.060351666 0.043387957 -0.053466026 0.021789208 0.048912186 0.12157634 -0.14735362 -0.07219883 0.042221814 0.081517085 0.059430853 0.19738147 0.043416113 0.029135397 -0.036928367
0.066924825 -0.28343248 0.023103844 -0.07601669 -0.0123188635 0.016136214 -0.034271766 0.016368495 0.05763808 0.014780842 0.001846491 0.0016083366 -0.15554532 -0.0076528164 -0.022578372 0.031450827 0.026506646 0.046837904 0.002217464 -0.10784463 0.1423606 0.028720241 0.07039746 -0.0737717 -0.21263796 0.09603237 0.08929926 0.025002312 0.19449595 -0.10390859 0.14060616 -0.02497407
-0.041449368 -0.008233995 0.0817307 0.079337984 0.009740888 0.068249136 -0.023676528 -0.06915487 0.03409357 0.010736746 0.12040965 -0.07825444 -0.17558223 -0.045609575 -0.05965856 0.03862537 0.07279425 0.025182243 -0.07610207 -0.106146134 -0.081288084 -0.060983196 0.055294484 0.004834182 -0.08485163 0.0019193859 0.056891296 -0.011973169 0.15722893 -0.046426643 0.04422976 0.018540246
0.07520246 -0.012374874 0.046312314 0.12554131 0.086056106 0.099351116 -0.0017650308 -0.04853755 0.1597715 -0.079854235 0.03302859 -0.07935667 -0.123462215 0.05213739 0.10571648 0.032770317 0.060338773 -0.08363967 -0.11199201 -0.13688783 -0.008745085 -0.022329848 0.04629981 -0.11858189 -0.020555872 0.038206346 0.12578371 0.039662354 0.024417158 -0.06158679 0.11146729 0.0630583
-0.17579862 0.2090473 -0.05622699 -0.0468018 -0.1103584 -0.17047882 0.004756987 0.022910474 -0.096738726 0.12988849 0.042660538 0.06314363 -0.010366436 0.02808607 -0.014153194 -0.04522839 -0.08483186 -0.11140479 -0.035661217 0.063413575 0.035176426 -0.09159364 -0.019075418 -0.2204212 0.13987876 -0.090811096 -0.089203775 -0.03583401 -0.054056242 0.106928706 -0.05260535 0.0974229
0.3568265 0.06294753 0.49176967 0.23216929 0.18471317 0.08182728 0.42770457 -0.5117566 0.5656507 0.0056175813 0.35757834 -0.241936 -0.08436991 0.62575805 0.598316 0.5686158 0.05008485 0.020786244 0.028448427 -0.6007586 0.4930193 0.54095167 0.1548209 -0.60854053 0.012757392 0.53615 0.27581626 0.4525074 0.6139287 -0.1627619 0.5491169 0.09263184
0.029913172 0.05734106 0.027067497 0.0067813694 -0.049908664 0.02251964 -0.00091177225 -0.039566115 0.07350784 -0.054264225 -0.06707235 0.056838803 -0.04662645 -0.08222054 -0.012368038 -0.034020416 0.0064727664 0.029817127 0.0034633353 -0.07662886 -0.018861167 0.047329776 -0.048745185 -2.5063753e-05 0.043070115 0.057803594 0.06920133 -0.08104516 -0.06745032 -0.03462904 0.020298988 0.068991624
0.05563752 0.0444275 0.011681186 0.103395246 0.15069169 0.01347193 0.13873535 -0.11903027 -0.1378217 -0.10869769 -0.01551131 -0.034966357 -0.14547536 0.01714002 0.046856526 0.05342156 -0.08375808 -0.006871445 -0.050453473 -0.0976387 0.13510413 0.068773456 -0.018276487 -0.0020652951 -0.030937096 0.016050419 0.059500467 0.05745012 -0.08774396 -0.09041196 -0.03802423 0.0721267
-0.032456852 0.32711065 -0.09603579 0.0846211 -0.06809453 -0.15084305 -0.14104415 0.09724185 0.07147513 -0.08973133 0.0022104143 0.11586897 -0.15148814 -0.047428027 -0.05183736 0.021126594 -0.08719754 -0.01594785 -0.08929036 -0.031116134 -0.10214062 -0.008538267 -0.035757706 0.07553822 0.022085346 -0.11852162 -0.14566736 -0.116009824 0.007832522 0.2632351 0.013702455 0.24701734
-0.09231806 0.091661856 0.0044900454 0.007329558 -0.059609745 -0.018988546 0.037383083 0.025392292 -0.033203185 -0.12900984 0.030410254 0.02450377 -0.043359894 -0.0067786146 -0.077163786 0.09832298 -0.06365683 0.022303835 -0.0025752853 -0.069036275 0.027456848 0.083811626 0.010394501 -0.126649 -0.033310253 0.014593061 -0.055759944 0.06476563 0.04578476 0.09437596 -0.026091276 -0.01589357
0.030059941 0.16016783 0.0022463296 0.010319476 0.032437813 -0.010798424 -0.044970337 0.080173165 -0.02369267 -0.06912007 0.057088636 0.107228406 -0.091269754 -0.054938566 -0.093545966 -0.008997374 0.016857892 0.021379849 -0.016065856 0.068658054 0.08482604 0.041051112 -0.0060477084 0.038908087 0.09184449 -0.09246281 -0.05725647 0.011714376 -0.07481415 0.08702811 -0.01824435 0.20816623
0.24118055 -0.43690974 0.2797434 0.24532838 0.22017567 0.23293848 0.29450846 -0.2894426 0.14327331 0.04821423 0.18745668 -0.12009495 0.26880023 0.29382622 0.19958831 0.23582794 -0.0070141526 0.025838364 -0.05557173 -0.2392226 0.2891086 0.30388168 -0.053947743 -0.16085099 -0.08164683 0.09939718 0.18908007 0.2468329 0.18410484 -0.1953878 0.25353536 -0.19621165
0.017523088 0.0821063 -0.07815809 -0.053973433 -0.042409766 0.058382317 -0.09007247 0.065863 0.08546906 -0.19376913 0.0021248467 0.025016567 -0.08939033 -0.098479986 -0.0038956653 0.043486297 -0.06471814 -0.09537518 -0.021645574 0.024132064 -0.10101752 -0.0802565 0.07260416 -0.06504909 0.035947796 0.043514814 -0.10409638 0.053293735 0.120604016 0.058210585 -0.049801715 0.018944021
0.08818609 0.10370781 0.046554446 0.08061776 0.07809244 0.033094 -0.027020209 0.007880439 0.15096094 0.07542011 0.116479844 -0.0039543533 -0.078322805 0.10267286 0.17630458 0.040192246 0.005559048 0.012173846 -0.0153986225 -0.109266095 0.09281579 -0.016422927 -0.0045973565 -0.06701337 0.1278371 0.06267158 0.09253971 0.12410673 0.21567227 0.12152607 0.064549334 0.15135916
-0.02566393 0.0865125 0.016146196 -0.037051864 -0.095321506 0.08396345 -0.021558765 -0.030302526 0.09132452 0.03923229 -0.023349376 0.0739031 -0.08438929 -0.02281625 -0.031438608 -0.1098977 0.05029891 -0.11694652 -0.022524068 0.07652207 0.018091144 -0.15618655 -0.058390718 0.12282334 0.043181557 -0.010228824 0.10135353 -0.06726411 0.028997328 0.09337392 -0.10549888 0.10153238
-0.02874147 -0.011299605 -0.0468054 0.017264146 -0.0017200232 -0.0100595085 -0.0156843 -0.0045298105 0.07313259 -0.13277242 -0.07945515 -0.0094221765 -0.24153535 0.109193824 -0.09011267 -0.01823632 -0.013907869 -0.10930556 0.027750852 0.03893524 0.10930577 0.026683057 0.07280861 -0.046920788 0.02475798 0.017015424 0.034918714 0.115102194 -0.057792835 0.076096416 -0.01576912 -0.019410154
-0.0033281008 -0.095052704 0.11351507 -0.009650317 0.14118555 -0.020072352 0.036805548 -0.06071923 0.057605274 -0.04437778 0.08005329 0.10757639 -0.058988493 0.0301994 0.052457545 0.1023469 -0.044163343 -0.10589046 0.029246155 -0.0762786 0.1115761 -0.0063380464 0.070395656 -0.16214131 -0.104764976 0.10508313 0.12726395 0.11165903 -0.04007793 -0.05521539 0.025555087 0.0218986
-0.092892446 0.21415691 0.051205575 0.017876634 -0.13723737 -0.12876582 0.08654857 -0.05276641 -0.07978436 -0.115820564 0.04958792 0.07286483 -0.19653583 -0.022298776 -0.09701613 -0.0620063 0.024086144 -0.10667704 -0.08193786 0.04850178 0.09986826 0.0016938205 -0.08177119 -0.13666652 0.06510124 -0.012342521 -0.1253861 -0.04262761 -0.10507735 0.11650033 -0.03863082 0.049477056
0.004908374 -0.12180644 -0.022522295 0.024610957 0.09542 -0.013613743 -0.14647505 0.07670169 -0.0708677 0.15952621 0.004308895 0.05522091 -0.02208315 -0.13584463 -0.14968568 -0.033803757 -0.057580262 0.04507803 0.0061247232 0.053235054 -0.101905026 -0.045605626 0.07091892 0.09258838 -0.0362886 -0.051396847 -0.090324216 -0.045570463 -0.08504488 0.015476846 -0.055906385 -0.126508
0.015406305 -0.04792392 0.039415218 0.0409155 0.0049002124 -0.07107515 -0.043128897 0.08959597 -0.06264616 0.20920488 -0.12304926 -0.071929954 -0.14080843 -0.050531328 -0.01760104 -0.08064379 -0.087679975 0.033365447 -0.053008977 0.010916642 0.06696374 -0.018621633 0.04539012 0.061897594 -0.029416436 0.00046742064 -0.08904149 -0.10074218 -0.075102635 -0.07209271 -0.040316917 -0.0734918
0.010348062 0.06340226 -0.0502464 0.0047780834 0.042476717 -0.04976696 0.06818579 0.017608847 0.10861473 -0.20454526 0.027341716 -0.093507715 -0.14000553 -0.022546414 0.15909861 0.0055276626 0.06866602 0.007832775 -0.025229376 -0.037487205 0.04924255 0.012660182 0.060162313 -0.119130224 -0.05477947 0.122716695 0.019122519 0.0749181 0.18980592 -0.15503557 0.07201721 -0.10757502
0.1299662 -0.28184673 0.06140338 -0.07870814 0.3220336 -0.039045334 0.18929699 -0.053144902 -0.07869399 0.020526111 0.0373391 -0.048173063 0.0009758756 0.026644206 0.017668413 -0.0018797227 -0.044206593 0.017541185 -0.04424496 -0.12856251 0.16890986 0.07666086 0.0045366907 -0.025535176 -0.18871404 0.12978595 0.08744926 0.07824296 -0.17427233 0.00841755 0.010660859 0.14525843
-0.08183207 0.028994963 -0.07078594 -0.034020886 -0.048508603 -0.027073856 0.043298654 0.0032903776 -0.046072632 0.03411223 -0.04416216 0.036730096 0.07200683 -0.058130555 -0.027958151 0.023569614 0.0069301203 -0.04109146 0.05612669 0.083533876 -0.073572524 -0.02818324 0.071242414 0.0015753731 0.048930667 -0.022190161 -0.06723727 -0.03862466 0.02211871 -0.07749587 0.025719099 0.059848763
0.013215791 -0.112003915 -0.052257113 0.025391443 0.05801132 0.060882133 0.0569402 -0.013711066 0.02433025 0.043257866 0.02813629 -0.05718501 -0.062592 -0.010707724 -0.13905399 0.052064832 -0.02152318 -0.03448188 -0.06925429 -0.08480409 0.0979267 0.04877155 0.0073055965 0.015109009 -0.090301305 0.06628095 0.06500703 0.0034781399 0.027192356 -0.0074584414 -0.035982054 0.018957661
0.046436045 -0.16431011 -0.049210023 0.067769505 0.10769677 0.010303248 0.1070017 -0.05215334 -0.13336287 -0.1253408 -0.060817547 0.09424118 -0.13486318 0.06566119 -0.029133527 0.067197934 0.063792475 0.04424187 -0.11058791 0.06667335 0.0255677 -0.011407404 0.06967374 0.056358956 -0.023719357 0.04295184 0.033286147 -0.059226274 -0.16153647 -0.02600119 -0.042857796 -0.09098342
-0.035828497 -0.06732871 -0.11150792 -0.04349958 -0.05076442 -0.057200175 -0.0038777755 0.037425883 -0.05155653 0.060425427 -0.007732833 0.12973373 -0.09230508 -0.1156419 -0.09031581 -0.12265492 -0.02553956 -0.07399464 0.08107172 0.008475684 -0.060358807 0.017046964 -0.09241036 0.108611934 -0.019667344 -0.1244692 -0.07446081 0.009491078 -0.13017693 0.0146114165 -0.12575838 0.051337905
0.12702082 -0.042920876 0.055798586 0.032337356 0.2366733 0.02256903 0.026274262 -0.04980297 -0.10020489 -0.016980689 0.0040811757 -0.00041411814 -0.07543345 -0.06804358 -0.1557474 0.027619146 -0.05154265 -0.05532964 -0.07896409 0.07542708 -0.04336549 -0.107843146 -0.049018174 -0.05555837 -0.047102336 -0.0128715895 0.033484474 -0.021057226 -0.10686194 0.0016853262 -0.016532019 -0.013517855
-0.011665379 -0.108952865 0.04546752 0.060077067 -0.07097603 0.055964004 -0.005904692 0.011123992 0.10521699 0.026339833 0.12626469 -0.022033282 -0.14584939 -0.020259343 0.017245479 -0.014612327 -0.01164821 -0.0033969467 0.015386084 -0.0864189 -0.0041658697 -0.066992894 0.03821415 -0.100399986 -0.08484608 0.030857407 -0.0023075242 0.053587444 0.13198525 0.04178665 0.07422217 0.040725928
-0.02559219 -0.032788992 0.08794918 0.1004401 -0.10698311 -0.08203491 -0.058593538 0.055720314 0.002657335 0.004490531 -0.07719917 0.0034217075 -0.049636405 -0.024972247 -0.1127364 0.006422315 0.061176907 -0.115893975 -0.09635796 0.094098665 0.005439334 0.03825214 -0.10293688 0.08013095 -0.027974572 0.046931688 0.016116524 -0.014913633 0.11613089 0.017921671 0.042999998 0.041105762
-0.047330365 -0.07704131 0.086347304 -0.014339957 0.12318392 -0.0014469181 0.008845353 0.08729185 -0.032017432 0.100585334 -0.0054350444 0.052527912 -0.019963853 -0.00022022698 -0.09909624 -0.08995927 -0.002779255 -0.0962095 -0.036491062 -0.03070185 0.027049486 0.07608188 0.04824126 -0.029199574 -0.031592242 0.076606065 -0.012813663 0.062793694 -0.1365775 0.0753126 -0.037867643 0.052413758
0.087718375 -0.08808985 0.035139088 -0.05335271 0.06578411 0.095896676 -0.051838614 -0.003251737 -0.07222347 -0.0826357 -0.04166795 0.11127013 0.023084411 0.07886167 -0.10162775 -0.021335509 0.045699496 -0.0019393075 -0.121627696 0.0055229454 -0.04110361 -0.063811064 -0.008246218 -0.01639919 -0.0994974 -0.03876583 0.023361195 0.054511923 -0.13563308 -0.032970484 -0.06455047 -0.059858393
0.0100589795 -0.06821995 -0.08486216 -0.12527092 -0.024772814 -0.07836833 -0.055446334 -0.08064267 0.043872 -0.11471088 -0.036338378 -0.116933264 -0.08594303 -0.0035083368 -0.06807222 -0.08906804 0.034767233 -0.093518645 -0.03155371 -0.023938872 -0.07511928 -0.086169854 -0.08978385 0.028141735 -0.038886957 0.05130349 -0.019679097 0.006690925 -0.10194072 -0.10695966 0.020076355 0.036782805
-0.1737678 0.33155397 -0.079992235 -0.17616701 0.06828079 -0.20185217 -0.13600104 0.06837273 -0.02647935 0.14609158 -0.10106518 0.109666124 -0.05966018 -0.12396667 0.057007894 -0.07556021 -0.012240123 -0.10703779 -0.026381718 0.100310385 -0.03167132 0.067213975 0.042060938 0.16687289 0.25511536 0.026596243 -0.120624654 -0.06574024 0.06583033 0.2683597 -0.04364395 0.27549967
-0.090788655 -0.06489457 -0.03005999 -0.059996296 0.05713998 0.10571753 -0.089497976 -0.01867994 0.14269188 0.09266726 0.014152155 -0.1004282 0.019739117 -0.12308665 0.036753282 0.017303465 -0.009010371 -0.025363164 -0.009446139 -0.07920498 -0.13638704 0.03602507 -0.0002626966 -0.043617047 0.046795342 0.10943017 -0.006152705 0.08857483 0.2708292 -0.07089962 0.027072223 -0.08992578
-0.021168837 -0.04715722 -0.041006677 -0.109628215 0.09044735 -0.025352532 -0.07147917 0.06150114 -0.014421151 0.04073057 -0.07400971 0.06021016 -0.16699499 -0.08440914 -0.056625977 -0.010187351 0.0668732 0.0033045898 0.049736254 0.08008911 -0.04055389 -0.16053292 -0.06373814 0.09009332 -0.06570172 -0.10377723 -0.013219999 -0.092264175 -0.014822663 0.018662972 -0.035352085 0.005566616
-0.017560907 -0.01690647 -0.022367049 -0.10124196 0.17226149 -0.09710477 -0.01362513 0.08885297 -0.08486105 -0.052667584 0.047341537 0.08842738 -0.12695944 -0.041948505 0.02577693 -0.04751701 -0.04076814 -0.0022228777 -0.09444754 0.06376231 -0.11011255 0.046439905 -0.004759733 -0.029063098 0.045425 0.04417278 -0.03452506 0.041742567 0.010403198 0.039411534 -0.008425658 0.086666785
-0.066486664 -0.0004966762 -0.048896834 -0.009240759 0.06668843 -0.012081469 -0.1259552 0.057918694 -0.10383761 0.046949826 0.06704026 0.023735456 0.03686149 -0.08878036 0.028859355 -0.10169892 -0.04445416 -0.04940622 -0.017314026 0.055520687 -0.051433675 -0.12169641 -0.013236363 0.0009949834 -0.107072584 -0.15339595 0.060682215 -0.06406731 -0.12484962 0.052352943 -0.13140461 0.13874434
0.35467035 -0.14566872 0.23547675 0.3896264 0.3276521 0.21767245 0.10935294 -0.1530026 0.41176224 -0.20115392 0.22888117 -0.05292055 -0.29465356 0.17382655 0.08600511 0.19769563 0.050414007 -0.062294934 -0.05365681 -0.1758799 -0.01151087 0.016289383 0.15816656 -0.100137286 -0.1773524 0.2857014 0.23901473 0.10213332 0.40288904 -0.048553232 0.2680934 -0.05200861
0.06744792 -0.0095957 -0.07342343 -0.059613988 -0.0712758 -0.03608978 -0.032024447 -0.0417762 -0.010722689 0.06222146 -0.08254871 -0.070359 0.023829646 0.01756198 -0.007978238 0.059176438 -0.06955323 0.06110456 0.013841376 0.03130137 0.030421883 0.033541083 -0.025339186 0.013215579 -0.025260333 -0.0008286461 -0.007848762 0.073828064 0.0403791 0.044381656 -0.019209966 0.085185446
0.07516115 -0.066527754 0.09204397 0.12736352 -0.052201323 0.08002279 -0.10179555 -0.08570493 -0.014494261 -0.016155465 -0.053729083 0.08467278 -0.056128934 0.102387145 -0.012742274 0.06402842 -0.05482018 -0.08240513 -0.008884836 -0.08629353 0.011324194 0.08081998 -0.022821466 -0.051497575 -0.03512295 0.03925447 -0.0015285254 0.09561558 0.09900565 0.01969567 0.113071464 0.049480185
0.027989518 -0.03832233 -0.024964474 0.05381442 0.078428574 -0.09105714 0.05348447 -0.005828922 0.038695473 0.13958362 0.022140594 -0.035615463 -0.07789918 0.08912202 -0.114503026 0.00498779 0.0028677585 0.01653329 -0.008760943 -0.030924281 0.094289586 0.011375012 0.012738123 -0.03238487 -0.074601024 0.060353924 -0.043477107 -0.070318304 0.13815567 -0.02421228 0.020427294 -0.011318364
0.06035618 0.0015675629 0.02140267 0.053254515 -0.04793916 0.01919049 0.04521564 0.11719733 -0.13212702 0.060036846 -0.094661415 0.035977233 -0.14043036 0.018726265 -0.16659297 -0.14301088 -0.045412127 0.0022479377 0.052372567 0.14849249 0.038061164 -0.08734193 -0.10997335 0.0400389 -0.068530075 -0.070910744 0.0021818301 -0.0136322435 -0.16450335 -0.06533363 -0.040417556 -0.02146265
0.09901328 -0.0088237515 -0.018696785 0.12712553 -0.05030569 -0.09269288 -0.054098755 0.066679835 0.09787136 0.075354345 0.012711827 0.02869685 -0.12577865 -0.06375654 -0.20252153 0.054157943 -0.0005947019 -0.15414892 -0.04403812 0.07918416 -0.0075069265 0.029912967 0.104288526 -0.025287122 -0.02061441 0.06413764 0.05724487 -0.02701482 0.099558495 0.055834882 0.072556116 0.0817412
-0.022146625 -0.16065325 -0.046227783 0.095265515 -0.102251835 -0.09549824 -0.01381128 -0.07399229 -0.06375934 0.12879026 -0.03398589 -0.119845144 -0.11369552 -0.008840769 0.013558197 -0.01857312 -0.094286546 -0.044633407 -0.054345015 0.08041051 0.017820701 0.018767733 -0.108514376 -0.08116294 -0.06416587 0.077652544 -0.043491896 0.020196252 0.07424114 -0.034052987 -0.026126035 0.02062494
0.074655 -0.11942127 0.08122604 -0.08114126 0.13825615 0.100235194 0.08937301 0.062615685 -0.054839738 -0.09207952 0.07556663 -0.026146919 -0.13163643 -0.0006910456 -0.13164449 -0.03251391 -0.027331807 -0.12366535 -0.032729 -0.062739484 0.08338824 -0.018688789 -0.0014015635 -0.038487736 -0.005992078 0.034842193 0.049743433 0.07481759 -0.042427745 -0.10096316 0.042172924 -0.14964807
0.14550664 -0.038714852 -0.05997582 0.067336515 0.083662584 0.072364785 -0.06743175 0.065569006 0.11060939 -0.04969099 0.051364463 -0.010745702 -0.030230341 0.03119333 -0.07093541 0.040724654 0.041450173 -0.03905629 -0.10430585 0.06014089 -0.061279856 0.039837282 -0.015719952 -0.046034243 0.04472131 -0.048522722 0.06406025 -0.017127143 0.06763472 -0.058931973 0.016537583 0.11045883
-0.0068869838 0.12281151 -0.057951346 -0.07220253 -0.10510526 -0.16870435 -0.14125681 0.10514472 0.005312104 -0.08988242 -0.06255697 -0.013846088 -0.10085105 -0.004332376 -0.037276268 0.012667178 -0.10902205 -0.035529748 0.0067699663 0.033635285 -0.11422254 -0.088596724 -0.034565646 -0.039327618 0.1763148 0.03264192 -0.13045293 -0.048512813 0.14217155 0.080250524 0.041446574 0.09805764
-0.0054523316 -0.11568956 -0.024765009 0.0028917727 0.013914796 0.04213002 -0.041396245 -0.055236246 -0.11253173 0.1333453 0.06119617 -0.07901798 -0.09500981 0.009311126 -0.15228444 -0.0039903647 -0.06502451 0.0073622987 -0.1151457 -0.023236068 0.03154603 -0.09088233 0.08903571 0.071253754 -0.04968383 0.040458176 -0.030036306 -0.048661098 0.059639756 -0.10049823 -0.063566595 -0.026075529
0.004158976 -0.07407438 0.0001166069 -0.11381475 0.13388091 0.11197078 0.032015227 0.07600262 -0.06863737 -0.13386099 0.076759465 0.11416191 -0.059475977 -0.048407257 -0.012076551 8.53085e-05 0.016948003 -0.008767716 -0.02766766 -0.01685631 -0.11232948 0.011557587 -0.064349025 -0.01170548 -0.05304077 -0.029341253 -0.049227685 0.008673248 -0.084388345 0.010860148 -0.038845178 -0.07967154
0.025671795 -0.19567199 -0.05267994 -0.05595112 0.08720617 0.03271709 -0.054358054 0.07156711 -0.06938798 -0.007858472 -0.06756522 -0.06093201 -0.11965544 -0.066166684 -0.10295976 -0.028071862 0.013123582 0.012360267 0.0251528 -0.018172422 -0.02508328 -0.120286636 0.042745326 0.011715106 -0.1579899 0.01573714 0.014649258 -0.05701902 -0.107786514 -0.09459526 -0.08536693 -0.092374526
-0.036651652 -0.015366958 0.01851017 0.071969904 0.03525959 0.07663689 -0.13276635 0.06799113 0.017132977 0.048256025 0.083810456 -0.022296455 -0.029104808 0.01259967 0.019737631 -0.03234115 0.045679588 -0.087453775 0.015247421 0.019483313 -0.1607178 0.028817879 0.08770377 0.020399597 0.014744209 0.06409696 0.0029160103 0.08347982 0.08736566 0.057653934 -0.042138807 -0.005132311
0.04199707 0.10272145 0.13984938 0.018956896 0.1486824 0.1211578 0.1679731 -0.090176105 0.1510812 -0.26097962 0.03678364 -0.06179816 0.031090597 0.1352269 0.084473975 0.11393314 0.012771912 0.061342206 -0.036164064 -0.08467647 0.2487261 0.083279505 0.21847801 -0.05317434 0.11062661 0.18427847 0.11400015 0.07973204 0.092507586 -0.025474466 0.03370933 0.03409983
-0.035943467 -0.15336391 -0.048867803 -0.052246723 0.29092953 0.043456215 0.03987201 -0.012156575 -0.016114328 -0.08524305 -0.042011563 0.12705621 -0.065840274 0.031981412 0.058145482 0.037683498 0.012982911 -0.049014512 -0.10909705 -0.024397386 0.025945919 -0.023819037 0.0940159 -0.0708725 -0.01925417 0.018870076 -0.017197965 -0.026368553 -0.04158067 -0.18344317 0.032448065 -0.19546697
0.11323173 0.08226266 0.20781446 0.19621392 0.5075573 -2.795052e-05 0.090442814 -0.08674767 0.20578474 -0.0728918 0.096528135 -0.23747054 0.023460394 0.17784904 -0.106801 0.16283287 -0.044173654 -0.0031942348 -0.02061349 -0.099395186 0.18074892 0.13649753 0.2171227 -0.13493983 0.14865795 0.13134497 -0.031351574 0.06690843 0.20170528 0.009384401 0.20282753 0.005687636
-0.015935495 0.084890164 0.028463148 0.07772189 0.014208652 -0.06013313 0.02632691 -0.076948956 -0.012955606 -0.08344339 -0.011939853 0.04030963 0.069785394 0.061773576 -0.0547261 -0.035973985 0.0018119067 0.07893842 0.010118991 -0.068314314 0.030225843 0.04029315 0.06556518 -0.022801712 -0.08323815 -0.04868242 -0.08363867 -0.0691082 0.013035752 0.064458065 -0.015042469 -0.077756375
0.024622528 0.065836415 -0.09274665 -0.008217046 -0.16361906 -0.049891874 -0.03806536 -0.027254388 0.041504752 0.047933087 -0.08460386 -0.043119792 0.06506473 -0.053409103 -0.16818394 -0.03546233 -0.040130526 -0.023572423 -0.05822166 0.07747138 -0.050728366 -0.08504492 -0.030823536 -0.05279211 0.122751 -0.05941155 -0.11889455 0.020149477 0.02660692 0.104117416 0.055451464 -0.061471127
-0.025884084 0.11607333 0.009224209 0.055428818 0.038081504 -0.094608665 -0.021421604 0.03533672 0.081679024 0.024779825 0.024999999 -0.0403609 -0.037317954 0.05262182 -0.0408807 -0.053753957 -0.030550078 0.021783002 0.00056588947 0.030191272 -0.023334622 0.030521525 0.0020783585 -0.01854499 0.1166828 -0.06203339 -0.029328344 0.019795608 0.02111713 0.019877328 0.050026525 -0.04083235
0.036178492 0.009428513 -0.004481995 -0.074085325 0.15560083 0.05947608 -0.06681093 0.011902893 -0.08465266 -0.13572387 -0.09909523 0.11718466 -0.077739045 -0.0062999227 -0.018246867 0.04837109 -0.051500577 -0.030632367 0.026681572 0.06320398 -0.04830877 -0.09317237 -0.068101935 0.068206936 -0.0060583805 -0.09285112 0.025855307 0.030940855 -0.0023602566 0.04689905 -0.02072676 0.053729117
-0.022946356 -0.08684712 -0.007994513 0.013946081 0.046324104 -0.07444945 -0.07619842 -0.021426642 0.01677712 -0.009801706 0.057878423 0.06543114 -0.11980123 -0.06432771 -0.119811624 -0.002505545 -0.016804628 -0.094135486 -0.07983434 0.084686324 0.0124194985 -0.008822694 -0.013788539 0.067287184 0.055309158 0.07261328 0.0113754105 -0.08265478 0.081987284 0.0764764 0.016552227 -0.10413289
-0.013896655 -0.032915495 -0.048896678 -0.070419505 0.09850009 -0.099080995 -0.041849222 0.028346254 -0.09033697 0.28893262 -0.02913143 0.081310794 0.043869495 -0.089204475 0.020444995 -0.028423825 -0.06634121 0.046601035 -0.060666848 0.031705834 -0.100456305 -0.1421993 -0.011359311 0.022604713 0.068040125 0.038573217 0.028441546 -0.106401205 -0.059444383 0.06779835 -0.045134403 -0.048584178
0.010101027 0.13734804 0.0063399216 0.04361218 -0.0012515825 0.024120606 0.018950485 -0.027736865 0.05232066 0.019423913 0.058270045 -0.09867694 -0.056154076 -0.04651401 -0.033719163 0.046625283 -0.036395967 -0.10571421 -0.033338096 -0.03958228 0.042217955 -0.01967433 0.0037112276 0.0043888385 0.040254515 -0.033069674 0.032984536 -0.07288019 0.09900422 0.030601483 0.023960939 0.049331084
-0.045939744 -0.053823646 0.12601618 0.13802896 -0.101512834 0.093412004 0.089310706 -0.12558344 0.18385834 -0.046740208 0.025678808 0.023354853 -0.016073504 0.049637634 0.03413554 0.08729075 -0.07735505 0.015017716 0.03952536 -0.07611327 0.10217531 -0.0008358955 0.076962724 0.013842229 -0.09273701 0.054895546 0.112062365 -0.027909793 0.14376126 0.008107536 0.014408356 0.109052315
-0.054322526 -0.04253913 -0.032350782 -0.041968875 -0.049423866 -0.0042527816 -0.06784641 -0.009193766 0.1358801 -0.009847375 -0.013628075 0.045346033 -0.029830176 -0.032129258 0.038459558 0.018383088 -0.056768842 0.06572982 -0.09744792 0.074075915 -0.058367074 -2.7085993e-05 0.0074335546 0.12046071 -0.039022706 -0.087262236 0.05877017 0.08549271 0.029552514 0.09201672 0.045817077 0.05205459
-0.099598646 0.075328745 -0.13943358 0.024697378 0.009031717 -0.045057476 -0.12604852 0.14487872 -0.05806906 0.0018238967 -0.031839546 0.12574038 0.005784359 -0.021124456 -0.16525559 -0.0020197476 0.0033415232 -0.08391995 0.05284952 0.119682126 -0.06234146 -0.10858527 -0.10544968 -0.025610322 0.033303227 0.004044871 -0.18517812 -0.054988172 -0.15012313 -0.038834568 -0.14010593 0.043269556
0.0033461165 0.12951511 -0.06564301 0.025148332 -0.023528064 -0.002869338 -0.1324143 0.12691343 -0.0690277 0.119833 0.02899615 -0.037198734 -0.0561698 -0.06105903 -0.21514894 -0.11666932 0.023473518 -0.04778247 -0.05530912 0.068184756 -0.050073892 -0.00723161 0.057086892 0.029505486 0.068392225 -0.119197346 0.01971128 0.013931034 -0.0024964563 0.20593768 -0.017909383 0.14777632
-0.06004372 -0.09222951 0.030967416 0.07711439 0.15757656 -0.03508806 0.03541514 -0.0143847875 -0.066129655 0.056997266 -0.047281135 -0.054031324 -0.103368945 0.04894543 -0.01857583 -0.06395839 -0.08080585 -0.003178837 0.030076511 0.03590547 0.024154246 -0.11853461 0.024766881 0.02801512 -0.03830144 -0.0036003287 -0.0024013205 -0.019354492 -0.14521417 0.019780096 -0.06912929 -0.009431792
-0.1447346 -0.047244634 -0.09211331 -0.005906147 0.040289618 0.030205159 -0.011612407 0.029344264 -0.04682765 0.011922526 0.029052341 -0.07361896 -0.05121122 -0.08402999 0.051343706 0.010471361 0.03332551 -0.059625816 -0.063073404 0.01794575 -0.10689411 0.0347016 -0.0023712793 0.06797453 -0.010801283 0.008607726 -0.06630839 -0.06273109 -0.03189327 -0.023580113 -0.086228125 -0.07545371
-0.12824076 -0.067700185 0.031731572 -0.0539194 0.00023680783 0.0030559613 0.02382401 0.09679378 -0.019165158 0.07600741 -0.1189425 0.007224427 0.04460511 0.027058585 0.041583624 -0.069201 0.023146262 -0.04018153 0.023137571 0.012899847 -0.07753523 -0.08257277 -0.023355208 0.104915716 -0.1104762 -0.020488845 0.0046796487 -0.024911629 -0.080142304 -0.09228363 0.01253175 -0.03670642
-0.011510276 -0.042766936 -0.03988078 0.076767676 -0.05059878 -0.051489905 0.059112985 0.036772992 -0.052838217 0.016586496 0.016265007 0.042111557 0.0059102154 0.012527499 0.11282551 0.081821494 -0.07300298 -0.08572992 0.080102295 -0.045633513 -0.042172227 -0.021542873 0.014772084 0.0493466 -0.020726956 -0.026720647 0.070424534 -0.008372327 0.077994876 -0.058673065 0.029417936 0.085718594
-0.014423826 0.08767558 -0.106231086 -0.02861148 -0.31443217 -0.12682967 -0.026734907 0.03752291 0.03701401 0.027888728 -0.0056417165 -0.08227716 -0.14373282 -0.090349786 0.08489336 0.0141869215 -0.081730016 0.04534818 -0.01014663 0.057905175 -0.060656324 0.07935789 0.14658913 0.023915412 -0.07094474 -0.12171789 -0.12898281 -0.046661623 -0.0024031107 0.11553735 -0.03613464 0.10913419
0.06934094 0.017819531 0.06764264 -0.0035607517 0.02786237 0.009665929 0.06422175 -0.07483559 -0.04300054 -0.056250237 0.031633712 -0.06911538 -0.064136535 -0.04868516 0.068255164 -0.063838154 -0.014316581 -0.026986763 -0.03662863 -0.04371746 -0.052904338 0.004914567 -0.060167167 -0.036986627 0.026227444 0.082422726 0.015272513 -0.028464474 -0.016163327 0.04816874 0.06685486 0.06086161
-0.11523263 -0.0069651655 0.0033184288 0.067298785 -0.14132673 -0.05791238 -0.110194944 0.14717601 0.021554718 0.019418215 -0.0010452828 0.07680931 0.021101892 -0.116450675 0.046280034 -0.08455592 -0.027617095 -0.070573546 -0.009023419 0.026406655 -0.16338201 -0.114513345 0.013816143 0.08336418 0.12310716 -0.014640317 3.793782e-05 -0.06591722 -0.06517072 0.22050256 -0.06449918 0.10991377
0.024622437 0.0750434 0.004487823 -0.07587514 -0.08331088 -0.031365294 0.035934836 0.06436036 -0.058534425 -0.0048325183 -0.10321918 0.02452818 0.0027146223 0.0074836495 0.06781194 0.045660615 -0.07585097 -0.056324005 0.0037425626 0.030373726 -0.09809703 0.016157173 -0.03854703 0.01927156 0.003904235 -0.041460145 -0.0025964912 0.026766755 -0.022261467 0.08169357 -0.06761545 0.024245644
-0.06468441 0.10422509 -0.01668835 0.024725173 -0.03400729 -0.01114182 -0.033721745 0.0573654 -0.055638988 0.047745373 0.008547057 -0.029705517 -0.112092204 0.010099845 -0.059435435 0.040916327 -0.06614994 -0.06547397 -0.057319842 0.07065602 -0.080391064 -0.0869317 0.015578282 0.08260919 0.015472268 -0.04481681 -0.07512279 -0.073482715 0.01027676 0.108669445 0.03002323 0.024563676
-0.0673985 0.019534111 -0.055141285 0.0149461515 -0.010976177 -0.08920705 -0.06047626 0.00986183 0.07953554 -0.06306539 0.0030321043 -0.08100878 -0.06583956 0.004735469 0.0508519 0.058228914 -0.0034166486 -0.04283836 -0.0759814 0.0074264444 -0.05977908 -0.04062892 -0.054630935 0.035267618 0.0143062 0.0046265833 0.031926572 -0.0013914411 0.09459272 -0.13338402 0.07213052 0.029034555
0.023807742 0.13892794 -0.014134358 0.07597076 0.30573303 0.02685121 -0.13164759 0.013533324 -0.10703006 -0.11412523 -0.122349754 0.19690536 0.057420682 -0.045803204 -0.26581943 0.013884618 0.015181412 -0.03422826 -0.03586797 0.0944487 -0.08624992 -0.070806056 -0.14238946 -0.056626897 0.20365816 -0.04907424 0.08030354 -0.093233 -0.1299314 0.030441364 -0.097758085 0.024002235
0.031395026 -0.14093488 0.07083954 0.10278294 -0.034982543 0.04869708 -0.06628246 0.047924988 0.059624195 0.01657224 -0.041384887 -0.030680694 0.028410561 0.06266405 0.04622354 -0.014796201 0.0034778402 0.04137266 -0.0057138563 0.0041075754 0.035327166 0.039384484 -0.06544527 -0.011277061 0.02739564 0.020258375 0.05189702 0.01572319 0.039805524 -0.1294323 0.013067711 -0.017093081
-0.03634402 0.025007509 -0.014922873 0.054307178 -0.103033274 -0.037341192 0.02964129 -0.032277737 -0.009062507 0.01658453 -0.12269444 -0.015967868 -0.01498383 0.0006515232 -0.0021920535 0.06518558 0.03762877 -0.028160464 0.0081481775 -0.09003164 0.043412417 -0.0563262 -0.04233536 0.05634746 0.018590966 -0.07027781 -0.0047719595 0.0740978 0.08487845 -0.042534295 -0.054235835 -0.062394295
-0.08281503 -0.04949784 0.011443881 -0.048548896 -0.0582354 -0.055908117 0.040778086 0.006087305 -0.08510391 0.052941628 -0.12545367 0.03831679 0.045781147 -0.07625322 -0.00015332543 -0.0139467195 0.03052748 0.029845443 0.03702284 -0.011937853 0.0004391632 0.09255272 -0.05684575 0.024658764 -0.09130607 0.01774611 -0.0742113 -0.05470022 -0.030403936 -0.10089329 0.074523136 0.025168959
0.05290435 0.06725531 0.016603716 0.03753619 0.090788074 0.015767006 -0.023104077 0.073632546 0.085715696 -0.015059561 -0.0151317855 0.008325949 -0.024072617 -0.03470403 -0.041863512 0.046113014 -0.06981021 0.012096878 0.041262444 -0.07469153 -0.090375155 -0.0143723935 -0.043764014 0.014131537 0.02048687 -0.047339763 0.06418203 0.026392946 0.107632354 -0.011169089 -0.012487747 0.034240607
-0.054587994 0.12807028 -0.043689482 -0.046154812 -0.097838156 -0.07535587 0.017950099 0.06327314 -0.056860138 0.020697242 0.078786746 -0.028883414 -0.11087922 -0.03782407 0.0075554135 -0.062451843 -0.016248817 -0.056011543 -0.06850278 -0.021282176 -0.04241763 -0.012270005 0.12270902 0.016707858 0.116443984 0.044948127 -0.1294619 -0.08969627 -0.06340842 0.15967974 0.05001313 0.1602723
0.05831768 0.04839029 0.023133354 0.06443941 0.2167358 -0.019976567 0.022817235 -0.016048849 0.06855341 -0.15549587 0.057149537 -0.006174195 -0.029956145 -0.03034241 -0.016339082 -0.038555387 0.035213076 -0.061852414 0.011730573 -0.0793178 -0.0952128 -0.11849005 0.053011507 -0.035336405 0.1380991 0.042906642 0.045055475 -0.04374468 -0.02852513 -0.014821363 0.09653806 0.04516788
0.038817145 -0.032850772 -0.038576428 -0.01726666 -0.03096953 -0.011361288 0.00017936659 0.03620777 -0.0011529943 0.08695544 0.060954865 0.08004576 0.09892034 0.08446646 0.09825538 0.09441102 0.062706366 0.003988071 0.04638781 -0.0413939 0.008734837 0.053146694 -0.0023414574 0.013493698 -0.0683909 0.0061617945 -0.042488415 0.00392007 -0.024284156 -0.1432634 0.057499774 -0.0816906
-0.08213849 0.11507814 0.0009362298 -0.10793906 -0.17406818 -0.0041305693 0.030586604 0.06723765 -0.12858552 0.05545179 -0.19849546 0.06814483 0.008174823 -0.07589255 0.09828685 0.002530691 -0.033604 -0.06854797 0.06769444 0.047372658 0.09634233 0.10192848 -0.049180638 0.042787336 0.09092314 -0.028615948 -0.13793609 -0.030522851 -0.14156331 -0.009088838 0.0035982858 0.12978828
-0.016120415 0.008053287 -0.09354424 -0.030731313 -0.086099535 -0.099249355 0.053538 0.07613382 0.07507814 0.07398287 -0.036028136 -0.074820526 0.03138587 -0.037752885 0.037184987 -0.02468828 -0.09777327 -0.10046609 -0.005695442 0.03526697 -0.077638805 0.05931726 0.07900295 0.050401993 -0.041236922 -0.07511894 0.014094377 -0.039215274 0.023311457 0.020674137 -0.03955618 0.02325904
-0.080714755 0.20498888 -0.014903536 -0.08089872 0.11472767 0.12818027 -0.039781503 -0.02430033 -0.13067831 -0.007655256 0.014152508 -0.08875144 0.06947961 0.07734659 -0.1251181 -0.020549633 -0.060742747 0.0011855363 0.0685863 0.09244683 -0.02820504 -0.020485451 -0.0028425057 -0.19885781 0.27077773 -0.007480423 0.12160348 -0.00423045 -0.049985778 0.02222175 -0.02846397 0.057980724
0.052481852 0.019850194 -0.08047356 0.047071703 -0.042117964 -0.085493125 -0.012923017 0.06726714 0.05204817 -0.041244607 0.033465847 -0.07815598 0.018104404 -0.0522749 0.076470114 -0.081406675 -0.041121185 0.045430087 -0.024469487 -0.027691517 0.052394457 -0.010414101 -0.022747837 0.075558506 -0.0010016859 -0.07932993 0.021656297 -0.08246625 -0.047892045 0.08030108 -0.0039679557 0.027224064
0.051774643 -0.12839586 -0.017416855 -0.018443242 0.12981892 0.09742303 0.010206584 0.03689569 0.025106894 -0.12577294 0.031477578 -0.035630718 0.0526821 0.039920427 0.01513075 -0.023024606 -0.089462884 -0.07847863 -0.035643086 -0.03878948 -0.0012054663 0.03608262 -0.037146352 0.0026457903 0.009870688 -0.07430273 -0.027028197 0.025206657 0.002000389 -0.13406053 0.06194256 -0.0018168356
-0.073403515 0.034083936 0.063329 -0.06813453 -0.010250443 -0.08345065 0.021624418 -0.026277635 -0.07043448 -0.040140476 -0.060857784 0.04932771 -0.12583382 -0.0015392348 0.014294891 0.046834476 0.060637932 -0.053088322 0.05980763 0.01753614 0.012557152 0.06810997 0.011747012 -0.10390246 -0.015306354 -0.07420471 -0.008138352 -0.010802112 0.06781264 -0.03261679 -0.057750404 0.014838793
-0.04698524 -0.06921516 0.01657636 -0.0050469725 0.018065881 0.07378972 0.0014802708 0.038851574 -0.0712884 -0.07931562 -0.057642736 0.08261914 -0.058884423 -0.08573141 0.04509633 0.064368024 -0.08664684 -0.030326128 -0.0026972762 0.089093626 -0.09706458 0.036848113 0.05669928 -0.07944506 -0.10680965 -0.029224679 0.0068116486 0.021674007 0.0072024483 -0.084789276 0.036988616 -0.10580781
0.040310238 0.085931815 -0.009091294 -0.08774622 0.021923443 -0.072780594 -0.038069706 -0.042475663 -0.025431495 0.09349383 -0.14201728 0.048849706 -0.11304407 -0.02547217 -0.05554014 0.049345158 0.005797386 -0.08427103 -0.0007726894 0.044497874 0.05186153 0.013001943 -0.01361882 0.11402079 0.09321473 0.06527249 -0.06064016 0.052669864 -0.06791089 -0.0019157182 -0.08452481 0.13090242
-0.022618188 -0.06814943 0.0424984 -0.0036657767 -0.20431589 -0.16842632 0.061474558 -0.056163218 0.05088816 -0.10098983 -0.042901255 0.1376868 -0.0038922972 7.352859e-05 0.07925217 0.037454262 -0.06916446 -0.10301956 0.00315376 -0.09632452 -0.029946918 0.043317616 0.050496593 0.082248546 -0.004368731 0.068017215 -0.06021025 0.03193103 0.050373763 0.034244515 0.15501787 -0.11769116
-0.097149506 -0.089485355 0.042779896 -0.073772505 -0.009853354 -0.085673064 -0.09183928 0.026048208 -0.03626698 -0.0385092 -0.0489666 -0.021170495 0.06304333 0.052877 0.0068811174 -0.09114196 -0.025450416 0.012396225 -0.031292833 -0.0012262231 0.0039405003 0.049055476 0.00045971095 0.08015052 -0.018620325 0.057213914 -0.0139631815 0.045864686 -0.059339926 -0.06730736 0.032510947 -0.08777698
-0.06287242 0.15689051 -0.06755707 -0.1418385 -0.06532278 0.038583387 -0.035002325 0.12530601 -0.16686207 0.114592426 -0.13672169 0.1723969 -0.03816228 -0.0041573867 -0.11117162 -0.10329269 0.0029224833 -0.049614575 -0.024358865 0.07001851 -0.07585315 -0.15527046 0.03658533 0.10411899 0.16218604 -0.101320006 -0.18241276 -0.15575996 -0.21588323 0.17131566 -0.021894032 0.17938527
-0.17493895 -0.027705776 0.033547234 -0.08143366 -0.06281606 -0.091761366 -0.044019397 -0.054409057 -0.00033043124 -0.013321395 -0.13267437 -0.051530834 -0.1107641 -0.05937016 -0.019458503 -0.08285465 -0.05897259 -0.15204684 -0.022309432 -0.015886182 -0.07315392 0.10199676 0.06849332 0.01387329 0.045874063 0.050523005 -0.03340462 0.060668018 0.1119309 -0.00083490176 -0.07485839 0.03502047
-0.05787878 -0.10284564 -0.068135105 -0.029487774 -0.03977892 0.005840772 -0.032569166 0.09662848 0.04607001 -0.08725022 -0.10974658 0.019375559 -0.071016885 0.0033968033 -0.06675463 -0.04421477 0.059051614 -0.07672375 -0.043519713 0.048165586 0.07243731 0.05725398 -0.026540138 -0.039107807 -0.117778644 -0.062348213 -0.0018977456 0.055990607 0.034645546 -0.032723233 -0.06133386 -0.04238008
0.07905446 0.05601294 0.09117407 -0.047293272 -0.008354189 0.02198776 0.090366066 0.02845055 0.01100247 -0.037902858 -0.014497597 0.013463821 -0.05108153 -0.0074197096 0.12851164 0.09434537 0.049878478 0.018637758 -0.012261678 -0.08519186 0.0036080582 0.12669532 -0.090199806 -0.08072446 -0.10999148 0.009568458 0.068369955 0.08206198 0.1551927 -0.008851673 0.0027436612 0.026044764
-0.07638295 -0.024102323 -0.08714328 -0.021033172 -0.07004926 -0.0616589 0.07368128 -0.03128954 -0.06292881 -0.102219254 0.037482228 0.028693669 -0.08576632 -0.06625959 -0.046196826 0.077546515 0.034576103 -0.0276538 -0.050100498 -0.0094421 -0.1140472 -0.0007597772 0.046379246 0.10361779 0.031368144 -0.0090793865 0.0051906747 -0.05027093 -0.016001858 -0.048908975 -0.041423164 -0.11250898
-0.11083738 -0.09088381 0.04108134 -0.06423731 0.0055686664 -0.060277548 -0.1398622 0.11373999 -0.044998962 -0.047234792 -0.061111454 -0.033499703 0.045330457 -0.07758936 0.016570495 -0.088098526 -0.037089784 0.013353318 -0.051742353 0.0654102 0.028187651 0.014486131 -0.001903349 0.05141874 -0.078690164 -0.04241762 0.035237566 -0.014062559 0.060905963 -0.090054154 -0.10322805 0.05507541
0.08643274 -0.21807171 0.06531972 0.07956283 -0.11671829 0.018383827 -0.07604979 -0.040040452 -0.02638415 -0.16296549 0.08007928 -0.10907363 -0.05561061 0.018774707 -0.026180774 0.06638458 -0.03968739 0.03665399 0.01207285 0.08680321 0.03813491 -0.022042304 -0.016555665 -0.010513713 -0.1223774 0.038874544 0.13804813 -0.045218375 0.10651759 -0.089136854 -0.076636046 0.013599205
0.008645805 -0.09559839 0.23063044 -0.05665252 0.24871606 0.08718611 0.16473806 -0.2281504 -0.12130352 0.11728395 -0.1347546 -0.03501023 0.12715927 0.17433089 0.28085318 0.17192452 -0.01952859 0.023489883 0.00019298303 -0.19291985 0.17150462 0.24612032 0.09897132 -0.18628114 -0.14508529 0.082737386 0.12796678 0.20623876 -0.14311166 -0.151341 0.14851204 -0.090604566
0.18761171 -0.17503864 0.24320373 0.14228739 0.3272014 0.1466667 0.29671752 -0.21033265 0.17036343 -0.074190386 0.31237513 -0.14879301 0.08192447 0.25057027 0.08766174 0.19601125 -0.03257902 -0.02863449 -0.004127651 -0.21700604 0.27581483 0.2797593 0.10690632 -0.18111718 -0.15371156 0.15148099 0.10267393 0.2587079 0.03690901 -0.18839882 0.2852311 -0.05094069
-0.010106824 0.047602005 0.052949436 0.032122597 0.023738667 -0.059645347 0.009304576 -0.07948581 -0.069770634 0.060414918 0.06442066 0.015922107 0.07959313 0.004347466 0.045364104 0.040937744 -0.0007193312 0.057225935 0.06881327 -0.050606366 -0.06648125 0.018108107 0.05896177 -0.04381964 -0.047939785 0.039564557 0.07631967 -0.040295504 0.08310784 0.045098938 -0.0076633543 0.079289384
-0.10679405 -0.046745196 0.053936027 0.013357605 0.05092502 0.007426117 -0.09566789 0.107650824 0.06512796 0.097560786 -0.1622709 -0.0018598523 0.0791798 -0.054009896 -0.05303351 0.038362104 0.024188146 -0.08078343 0.044367023 -0.028503384 -0.07612503 -0.041407917 0.036437947 -0.0056178216 -0.013258086 -0.09986041 -0.06256897 0.021606952 0.072384775 -0.12895364 0.0026494602 -0.15002584
-0.07886722 0.06142808 0.012451829 -0.0024310192 -0.043476857 0.022311095 -0.11119296 0.027870854 -0.01894401 0.117197946 -0.08376992 0.086724125 -0.02575458 0.024294697 0.018464692 -0.100379094 -0.06017051 -0.03507325 -0.05764524 0.044633437 0.041728675 -0.10637379 0.053540297 0.031734828 0.058021337 -0.07848114 -0.035960004 0.034121383 -0.13012037 0.026826838 -0.044077456 0.061260685
0.021967843 -0.05909602 0.0034362632 0.001093877 -0.0041850857 -0.068834744 0.023481123 -0.07227928 0.042262293 -0.03639214 -0.08950101 0.021239765 0.011437746 -0.040731333 -0.019393208 -0.06631454 0.05945251 0.02318393 -0.018749313 -0.020981455 -0.03671689 0.044026993 0.069746196 -0.03551722 0.015219348 -0.014273677 0.0002382182 0.01903352 -0.029891897 -0.09444026 -0.027596021 -0.1546593
-0.113074444 -0.06252237 -0.064854115 -0.14073446 0.038234886 -0.0063219382 -0.1009127 0.10016605 -0.022938097 0.00034256844 -0.11577759 0.09088433 0.040166896 0.07296874 0.013859993 -0.04557692 0.03748636 -0.0015474767 -0.06497849 0.11616648 -0.027224919 -0.08344103 0.017805584 0.058647558 -0.015213257 -0.0422139 0.0032399257 -0.043510024 0.0042051547 -0.07972522 0.005816946 0.01854908
0.16117422 -0.22882979 0.07684605 0.045926876 0.06393896 0.1175359 0.01826452 -0.058838874 0.0070245215 0.039121196 0.08233468 -0.07192216 0.12654588 -0.025985153 0.090992995 0.07115403 -0.048269395 0.05137009 0.032216776 -0.06724775 0.03192691 0.15932617 0.008860181 -0.15662616 -0.109510176 0.047666717 -0.025496522 0.07474007 0.15691687 -0.1215827 -0.0096632885 -0.11361567
-0.12699647 -0.0057022483 0.058046643 0.0735094 -0.048258416 0.011601875 -0.0068360153 0.04258458 0.026770039 -0.08084062 -0.079304144 -0.040493067 0.050340522 0.065728515 -0.009832717 0.051479127 -0.010041509 0.0111556435 -0.027602995 -0.01707413 0.06258043 0.021337269 -0.07739328 0.07287256 0.000687166 0.016868008 -0.058963127 0.04568541 0.10178237 -0.14950481 -0.058835473 -0.033746954
0.0036306898 0.2287989 -0.08282184 -0.005300488 -0.12685634 -0.001490298 -0.008191298 0.057106055 0.0028153495 -0.029631434 -0.12889665 0.18479803 -0.059640493 -0.13845892 -0.04843725 -0.09043357 -0.06388253 0.06746828 -0.046999346 0.10663858 -0.025646452 -0.15080358 -0.047426898 0.13552317 0.10793455 -0.16168477 -0.09220186 -0.15314816 -0.050514743 0.21350414 -0.16640842 0.19743091
-0.06119859 0.016073532 -0.0695413 0.11869384 -0.23823562 0.16044067 -0.13074088 0.14599808 0.11503884 -0.07097467 -0.038620472 0.07341676 0.18239914 -0.027108438 -0.098614246 -0.002458775 -0.032559007 -0.063942894 -0.08066802 0.10358197 -0.069248505 -0.0721678 -0.065068044 0.19168513 0.14738648 -0.19024417 0.10982331 -0.0927599 0.084813796 0.056834325 -0.10310009 0.068291605
-0.0456247 -0.08265074 0.05283389 -0.08813589 -0.03421317 -0.0053542736 0.039914057 -0.03211012 -0.058015946 -0.0036779558 -0.06635755 -0.014544995 -0.0936446 0.062556855 0.11679893 -0.019737024 -0.09518596 0.033143822 -0.03461719 -0.069039814 0.09133202 0.051077574 0.025991032 0.03036497 0.034165595 -0.009726365 0.01597631 0.06879673 0.06296288 -0.1200384 0.01683994 0.031095043
-0.08284553 0.12338426 -0.011162365 -0.017546516 -0.0140893115 -0.091947846 0.09912559 -0.04961016 0.02266448 0.022666927 0.049637213 -0.03687283 -0.24044618 0.12576434 -0.113801256 0.1070166 -0.1150487 -0.014688511 -0.07066078 -0.084549226 0.03374607 0.15002114 -0.037876483 0.06622607 -0.031290773 -0.025316104 -0.024316918 -0.00020984985 0.049877763 0.07486178 0.14363006 0.109367765
-0.110802785 -0.020506842 0.042476926 -0.05476615 -0.056505855 -0.049829956 0.075867675 -0.07910583 0.090488985 0.06939699 -0.085003324 -0.018506734 0.015591461 0.0023132865 0.12453718 -0.025771596 -0.01836419 -0.038348537 0.022730306 0.0635651 0.077722274 0.04785921 0.10473917 -0.06623616 0.010657724 -0.032811556 -0.003686524 0.0030480935 -0.07346204 -0.09360822 0.0008324684 -0.13339753
0.018857569 0.21018097 -0.09586314 -0.10285017 -0.048653845 -0.039152127 -0.02374984 -0.038408473 0.061801378 -0.032814063 -0.019709079 -0.1133318 -0.09557992 0.015440232 -0.022801848 0.08044048 -0.0050879023 -0.090570755 0.0042452854 -0.023344727 -0.041797027 -0.0452643 0.02341798 -0.0147605045 0.18648331 -0.06280836 -0.052713312 0.038637143 -0.0014177437 0.14926408 -0.032698724 0.11873594
0.123204716 -0.028161375 0.08249109 0.07291386 0.04536448 0.0084177535 0.15619072 -0.21626404 0.18018852 -0.03454292 0.06559211 -0.07393431 -0.08894074 0.21356411 0.01913407 0.23480222 -0.048654135 -0.11844508 -0.062626675 -0.20057192 0.21047372 0.19834559 0.06446098 -0.092943944 -0.04105267 0.1272536 0.15858607 0.21952455 0.21133453 -0.03177542 0.2043349 -0.04078092
0.07447522 -0.21095586 -0.017737849 0.046547703 0.14320971 0.20115598 0.12687783 -0.16005407 -0.0050864406 -0.013719534 -0.043059 -0.14591822 -0.047014255 0.0563364 0.05136382 0.12756816 0.025278874 -0.05976493 -0.10107031 -0.038568392 0.07528079 0.010457686 0.15403663 -0.08983723 -0.07351524 0.09981705 0.20230725 0.09594384 -0.0034963116 -0.11147675 -0.005407644 -0.060289197
-0.020923136 -0.1515203 0.028132223 0.1433847 0.15348256 0.15463795 -0.07712894 -0.12294739 0.06985055 0.0695409 0.017732214 -0.05834542 -0.05706009 -0.11867473 0.03847623 -0.016659193 0.03891704 -0.055700812 0.0600186 -0.12040334 -0.16386303 -0.094631836 0.18848534 -0.03918189 -0.06382507 0.0939472 0.054633535 -0.042317607 0.09675903 0.042504687 0.0014228367 -0.07211256
0.08321913 0.023934543 -0.029177852 0.03419579 0.006362058 0.031376854 -0.025787119 0.040762253 0.034272492 -0.07227282 -0.026260298 0.07314823 0.08266992 -0.08401836 0.049093552 0.04185622 0.025689289 0.011329822 -0.037168723 -0.010175578 0.05318483 0.08407264 0.052150883 -0.019812822 0.06237083 -0.021581233 0.07888048 0.022815898 -0.03213597 -0.055229682 -0.010666586 0.001006633
-0.09309814 0.058919013 0.038889416 -0.057301622 0.045996618 -0.043343186 -0.082615554 0.079033375 -0.0918241 0.038423985 -0.03798781 0.03563765 -0.06494732 0.06030817 0.032230344 0.029654784 0.06805862 -0.10117524 -0.09278633 -0.01650267 -0.0013696621 0.032414135 -0.029112455 0.06760842 -0.0010645747 0.050104264 -0.0050107767 0.050902568 0.014824511 0.12872188 0.038488664 -0.019543374
0.089738876 0.002856334 -0.036957983 -0.042212438 -0.004352732 -0.016192673 -0.10990742 -0.011194786 0.06576714 -0.0002615769 0.059130415 -0.029259639 -0.106828675 0.006620356 -0.13132383 0.08127686 -0.04360546 -0.08959422 -0.019901304 -0.0486406 -0.0008317326 0.031692233 0.11774134 -0.061013244 -0.01780124 0.0074256756 0.111647904 -0.015623906 -0.038574643 -0.0031629014 0.041453563 0.059018906
-0.046780627 0.1300958 -0.072129644 -0.0005302706 -0.041535206 0.004948609 -0.06773073 -0.06912834 -0.06042723 -0.1373494 0.046570826 -0.015443757 -0.058364514 0.002646767 -0.05367346 -0.06911703 0.023947317 -0.024750626 0.002008617 0.08576803 -0.049661364 -0.0051900703 0.04069205 0.046982598 0.06009741 -0.039259374 0.01071737 0.07584399 -0.16440658 -0.019821348 -0.011512584 0.11860866
0.08086631 0.026026553 -0.044970468 -0.01451681 0.056574553 0.008165729 -0.01677624 0.0071655028 0.048822485 -0.1110523 -0.010230689 -0.12090881 -0.0001868932 -0.045223933 -0.021617668 0.14113043 -0.07282416 -0.074718915 -0.052248895 -0.0062157675 0.022630762 -0.032507636 0.015314551 -0.07376425 -0.109258294 0.13221306 0.054351542 0.12283869 0.12086119 -0.061433278 0.08730849 -0.09476491
-0.012868726 -0.011206756 -0.015620636 0.10211907 0.047226757 0.021168776 0.058627047 -0.014857922 0.056034446 -0.05164528 0.14395803 -0.085411735 0.052674852 -0.0013444889 -0.019686421 0.11458016 -0.071658455 -0.08888875 -0.09480774 -0.09556556 0.046732605 0.048548494 0.011807683 -0.024628878 0.015056167 -0.050342567 0.1115205 -0.03432753 -0.011647063 -0.05769873 -0.016531523 0.04042112
0.016834516 0.03269308 0.04251677 0.021207865 0.24181482 0.072323285 0.13453116 -0.08632649 -0.007884701 -0.119462594 0.03826645 -0.045354337 0.014595104 0.02169586 -0.102758296 0.08090189 -0.00198199 0.013650405 -0.032328587 -0.0068599875 0.028324021 0.12155566 0.059825584 -0.07098419 0.06849055 0.07250155 -0.0073219063 0.06123637 -0.09628945 -0.0049042143 0.09422887 -0.02651154
-0.034123495 -0.048637785 0.014093313 0.10595491 0.069076076 0.06711419 -0.11724791 0.003455885 0.041227896 -0.031161448 0.0045927134 -0.008889063 0.01803366 -0.016910292 -0.039182402 0.043436375 -0.024153536 -0.10037641 -0.031014482 0.06308652 -0.11364484 0.0016397659 0.022877026 0.0367344 -0.08163207 0.030217668 0.02938222 0.003356995 0.052547414 -0.03439668 0.048932478 0.012288803
0.1650251 0.058584012 0.031949475 0.04089297 -0.04292123 0.024373677 0.19761342 -0.11381943 0.24992663 -0.14045209 0.1424025 -0.19422586 0.010997698 0.085949466 0.07812704 0.055976786 0.03577687 0.060903955 -0.032462604 -0.20439309 0.11988346 0.15351191 0.028151253 -0.14686039 -0.011121981 0.16504534 0.043554645 0.1754597 0.24498902 0.023579508 0.120746456 0.012590818
0.09081157 -0.044801567 -0.061817255 -0.0125725325 0.03683971 0.03304272 0.06161569 0.039665326 0.03212268 -0.08453186 0.0009438489 -0.07386366 -0.008678058 -0.034085453 -0.003962996 0.0999849 0.052294318 0.011231905 -0.011476468 -0.083906434 0.05397131 -0.01894648 0.023087597 -0.03788369 -0.07943156 0.044128075 -0.008383669 0.018129371 -0.02989888 -0.07288717 -0.012367539 -0.061670918
-0.13023888 -0.011407568 -0.057201676 -0.08630634 -0.12537669 -0.063263915 -0.03532598 -0.02197837 -0.03671067 -0.02638864 -0.13381575 0.06706842 -0.07312949 0.070581295 0.014718653 -0.060625542 0.03736129 -0.08465506 -0.0043487423 0.0636807 -0.0011679201 -0.009105046 0.013682055 0.005322539 -0.024389256 0.0433197 -0.03125226 0.061538428 -0.05323282 -0.0022307204 -0.0030642494 0.05475058
0.03704968 0.023892956 0.059438735 2.2525943e-05 0.13587902 0.11026138 0.07611462 0.05222648 -0.16321567 -0.07015727 -0.035485778 0.035735097 -0.032194182 -0.020971818 -0.09140408 -0.07193324 -0.02820113 -0.043748576 0.011695978 0.07109357 0.09056468 -0.03303246 0.022426495 -0.09687468 -0.008223077 0.06168975 0.043602712 0.0068388316 -0.17168397 -0.08526169 -0.1027117 -0.105009474
0.059301715 -0.07127081 -0.038516883 0.10413279 0.1442507 0.08493924 -0.12007662 -0.0744136 -0.067776635 -0.034842543 0.036406882 -0.023628063 -0.053730853 0.04175717 -0.07559347 0.010434662 -0.008680186 -0.044912674 0.037592098 -0.030376973 0.0006386576 0.06477007 -0.03472764 -0.03046211 -0.16241322 0.07957648 0.059385493 -0.05093926 0.030060943 0.037736446 0.007856211 0.0018807158
0.027743395 -0.30612323 -0.04720603 0.11867393 0.016797304 0.23399174 -0.040296946 0.0030899527 -0.09063989 0.15142435 -0.03339254 -0.04509963 -0.06006873 -0.027453933 -0.08305146 -0.12407185 -0.02891897 -0.13344215 0.032888703 0.119360805 -0.020674005 -0.07839222 -0.0021356547 0.0817874 -0.21652819 -0.06553025 0.11426006 -0.044237867 0.05154881 -0.10655211 -0.12243 -0.084626496
-0.04616082 0.13701068 -0.111694455 -0.07926405 -0.0375789 -0.025748607 -0.1502056 0.05890917 0.019130928 -0.02145273 -0.1837451 -0.0026583332 -0.09890268 -0.1603444 -0.016527899 -0.065506294 0.047088753 -0.13020256 -0.0027298809 -0.016055882 -0.12145515 -0.035340015 -0.09949048 0.22721931 0.08258199 -0.15180512 -0.11533451 -0.031994257 -0.0970783 0.1631116 -0.039940406 0.044338502
-0.17423838 0.023405502 -0.05296625 -0.08450799 -0.04816894 -0.12462929 -0.22272679 0.114921674 -0.23288858 0.14356543 -0.1565456 0.11338769 -0.0890345 -0.18239242 -0.13108113 -0.1948837 -0.013085741 -0.033485767 -0.04827387 0.15099096 -0.18807171 -0.16450065 0.065540336 0.1374733 0.07460098 -0.2048718 -0.10076629 -0.16927327 -0.13273959 -0.0055470415 -0.22817625 0.1026362
0.028878488 -0.031934164 -0.04575536 0.07931327 -0.044796363 0.064267464 -0.016882412 -0.031076651 -0.016683362 0.037905 -0.06373364 -0.0066758394 0.045337833 -0.025477346 0.012140945 -0.05830243 -0.045378633 -0.07128731 0.027844034 -0.064795 -0.052694947 -0.03052891 0.062490933 -0.02654934 -0.011542521 0.034151055 0.041411273 0.0738694 -0.082328275 -0.035303045 0.02556593 -0.08210245
0.059325162 0.035093363 0.10386984 -0.08434198 0.14184353 0.013467585 0.075166985 0.016733365 -0.13774192 -0.10196785 -0.0060812584 0.018450426 -0.038078107 0.073659375 -0.09495454 0.039370067 -0.0067416765 0.025810858 -0.0083576515 0.08227793 0.014284497 0.011296096 0.015572292 0.037980273 -0.0236997 -0.036465947 -0.067522585 -0.032229584 -0.07772705 0.03718166 0.07214316 0.10828314
-0.0045430926 -0.015764732 -0.033529785 -0.010955663 0.04670818 0.06589881 0.08214355 -0.06841808 -0.02020117 -0.053290606 0.0044858153 -0.014935234 -0.11747655 -0.02176278 -0.1253175 0.073214814 -0.07497003 -0.07607105 -0.033441544 -0.0720032 0.08828126 -0.06545995 0.023397125 0.06622719 -0.07194782 -0.0605243 -0.0769909 0.058327045 -0.088735014 0.04331361 0.08332478 0.030118078
0.10887089 -0.12477833 0.08738614 0.054572497 0.032286767 0.05595136 0.11576989 -0.10358812 0.037994057 -0.08682085 0.032227587 -0.0655796 -0.028638734 0.09064474 0.033169564 0.079383604 -0.02105002 0.0059734597 0.049124986 -0.108854085 0.118079826 0.002210894 -0.047827568 -0.14209826 -0.11624045 0.13968842 0.035724133 0.15632579 0.06962945 -0.116468504 0.09432616 -0.0038883458
-0.029912138 0.06361365 -0.13486847 -0.09323472 -0.014055603 0.021003727 -0.13051648 0.156375 -0.11292255 0.11557036 -0.0023620725 0.052399587 -0.07927467 -0.084416635 -0.042577118 -0.046845317 -0.059650358 0.015151891 -0.004838659 0.16238734 -0.052485004 -0.0839201 -0.07305116 0.16525419 0.05027115 -0.08371431 -0.086028636 -0.0558452 -0.10829598 0.048170675 -0.04662988 0.057917036
-0.074874364 0.07927375 0.034441978 0.07413158 0.10489657 0.0040608863 -0.008203324 -0.13336363 0.12608652 0.030886438 0.05601943 -0.06624528 0.012588033 0.005807653 -0.023949523 -0.020198649 -0.006325516 -0.006304437 -0.07452071 0.060330134 -0.039186206 -0.0042615803 0.019111125 -0.09102146 0.03811148 0.002330904 -0.06994348 0.06724405 0.13162205 0.12121198 0.017268404 0.037241094
-0.010832918 -0.047404304 -0.06976699 0.1396157 -0.02301627 0.059613794 0.1169003 -0.016571803 0.1548318 -0.101170905 0.09085893 -0.068748854 -0.0012056502 -0.012916044 0.15995273 0.12723869 0.04161578 0.015633892 -0.05882929 -0.11533775 -0.0014743612 0.07226673 0.01689262 -0.03280896 0.020099051 0.14405693 -0.0102637 0.08047731 0.290284 0.08847536 0.14573948 0.017867949
-0.04347827 -0.07931917 -0.016575726 -0.057029914 0.0070189666 0.017891183 0.030203702 0.13629007 -0.055188 0.063791215 -0.028000334 0.111873455 -0.0830125 0.06496397 -0.07570632 -0.11085473 -0.014798397 -0.14372174 0.0323637 0.13341749 -0.034034375 -0.036766026 0.06311369 0.11193426 -0.10207255 -0.11681448 0.07008398 -0.10103846 -0.07290636 -0.020627942 -0.05258631 -0.0852309
-0.06438046 -0.040818922 0.0040361723 0.040683687 -0.00212798 0.045471054 0.06411881 -0.01388911 0.036914997 0.1071591 -0.07848116 0.13160214 -0.023860142 0.090519965 -0.078282505 -0.018786436 0.073109604 -0.05678347 0.03841278 0.07517786 0.04073116 -0.016377881 -0.004234357 0.040930375 0.017783843 -0.026317129 0.091518015 0.0633442 -0.010959327 -0.06251204 -0.025957774 0.022157298
-0.07003899 0.03276904 -0.052043155 -0.044233456 0.09365721 -0.061166335 0.035950128 -0.0028311664 0.0045840223 -0.19748893 0.053541042 -0.19255808 -0.14497213 0.055174466 0.035194423 -0.0051813284 -0.08903124 -0.09460983 -0.06431103 -0.05448406 0.06511883 0.044196486 -0.085907646 0.0794342 0.12822053 -0.08429865 -0.035131916 0.014256589 -0.053877167 -0.0051840683 0.0003580454 -0.07532764
0.099891484 -0.013996059 0.007875967 0.048986703 0.037529938 0.0022572132 -0.10623446 -0.08107105 0.02634436 -0.1056269 0.055586454 0.044245675 0.026446734 -0.06471971 0.06642878 0.008882287 -0.058556184 -0.13567662 0.04024764 -0.10571825 0.020000314 -0.04950158 0.009066729 -0.0017101773 -0.014593167 0.106261395 -0.037077744 -0.0005610398 0.073311575 -0.060790636 0.0067643654 -0.07648719
-0.04975994 0.18858957 0.08999755 -0.019949371 -0.035424776 -0.12543616 -0.022224365 0.025870213 0.10441044 -0.106056355 0.08496224 -0.20251451 -0.08490225 0.010268198 0.033477154 0.082187004 -0.117726386 0.066676386 0.06256359 -0.07782267 0.012144464 -0.034108173 -0.07979049 -0.031545926 0.16091122 0.0032257454 0.0031346416 0.003918161 0.25368795 -0.09858554 0.04552969 0.017870571
0.09410731 -0.064980514 -0.042521417 0.008381055 -0.009090377 -0.03564529 -0.071785 0.06881464 0.073705636 -0.0018676682 0.007858298 -0.042803865 0.049659528 0.06119802 0.081860535 -0.028946003 0.008293273 -0.11266082 -0.043685988 0.0738468 0.016819224 -0.06793031 0.006824084 -0.057401113 0.05910999 0.008284883 -0.053855922 -0.0010272982 -0.088665135 -0.047760215 -0.035741538 -0.0479324
-5.8008503e-05 0.13671634 0.039619803 -0.12170286 -0.051098306 0.0045234337 -0.10359581 0.089478955 -0.12190567 -0.08778147 0.026034595 0.10955372 0.07510369 -0.059303865 -0.0365687 -0.002894455 -0.0011656836 -0.0023673472 -0.12819701 0.002860194 -0.11163413 -0.055791773 0.06961411 -0.02379912 0.020885812 -0.025651988 -0.114937775 -0.05261953 -0.0849172 0.041218214 -0.0034516645 -0.004101419
0.01013391 -0.16753101 -0.038669765 0.09044145 0.053782597 -0.026701568 -0.0272181 0.11014316 -0.0020072882 0.015175422 -0.027719958 0.10641981 -0.064970165 -0.13307585 -0.08227651 -0.046941634 -0.011512189 -0.101226896 0.031723242 0.0010188633 -0.029698899 -0.1321052 0.023546223 0.07343103 -0.0055752997 -0.10206728 0.0634111 -0.013863704 -0.08387604 -0.070268966 -0.035549056 -0.09780487
