-0.04451531 -0.014386639 0.036463097 -0.0078122765 -0.015316106 0.1135989 0.0282761 -0.005902052 0.07799941 -0.039473906 -0.105689615 0.06870107 -0.09181347 0.11538099 0.0046652704 -0.06552765 0.048257947 0.068555504 0.01788567 -0.09736099 -0.03515172 -0.13461424 -0.13888212 0.034637377 0.10459679 0.055074215 0.0023208708 -0.12820491 0.06706488 -0.025009148 0.08019431 0.08031179
0.0539385 0.04537111 -0.023912098 0.007083598 0.18962562 0.061829492 -0.11214857 0.026197815 0.007812871 0.104199916 0.06942817 -0.100240156 -0.08868418 -0.119884074 -0.04190102 -0.12735437 -0.114967234 0.0049166656 -0.085820556 -0.27552143 0.07754921 -0.094135016 -0.004602372 -0.057834007 -0.041250814 0.14496657 -0.29137573 0.15246058 -0.09222675 -0.03734226 -0.20252615 -0.014765782
0.10754933 0.030108914 0.012731056 -0.06250037 0.089132585 -0.16143432 -0.022618422 0.11920904 -0.15506668 0.023027094 -0.062177625 -0.0067899595 -0.14910409 -0.10372553 -0.09699581 -0.14094056 -0.053881306 0.039991517 -0.016327368 0.17819041 -0.018670674 -0.0033260172 0.0024577712 -0.007432415 -0.06685299 -0.23528534 -0.15406112 -0.019449547 0.013456882 0.011014404 -0.20929255 0.007288521
-0.022781963 -0.02801184 0.0500986 0.09840879 -0.049757786 -0.07537466 -0.09530287 0.10044826 -0.071668506 -0.093143605 -0.0171223 0.11864263 -0.08677444 -0.0947983 0.09583247 -0.016058685 -0.013417748 -0.01418766 0.04378663 -0.059691023 0.15552478 -0.10366945 -0.1413202 -0.10958104 0.06266411 0.05178931 -0.15798742 0.06002899 -0.12685752 -0.03940653 -0.11935366 -0.2208895
-0.1728097 0.011361414 -0.10923204 0.16205563 0.52215874 0.2690222 -0.06275359 0.43074164 -0.20612496 -0.0064340313 0.07731119 0.19917877 -0.12009973 -0.1982056 0.25650117 0.18310428 -0.10581627 -0.070059255 0.009186352 -0.3640461 0.4014941 -0.16650762 -0.22065854 -0.38702375 -0.09422443 0.33396357 -0.40137607 0.35901883 -0.25905842 -0.062821195 -0.29966247 -0.058155313
-0.3057342 0.021688085 -0.017228337 -0.0596338 0.19911051 0.036497645 -0.20320116 0.11685622 -0.043485295 -0.09822354 0.03734674 0.08226416 -0.15710716 -0.0603721 0.0070244763 -0.17481342 -0.2160009 -0.0337388 -0.07889617 0.061025653 0.1248701 0.01410999 -0.11336994 0.0077924286 0.22956075 0.05513236 -0.28566578 0.107437134 -0.12686476 0.10154533 -0.10321472 0.09413359
-0.005577873 -0.23043944 0.033342 0.06484572 0.18997566 0.22931357 -0.039136644 0.3038927 -0.11645706 0.12071536 -0.15186839 0.15336142 -0.18564934 0.1255131 0.38748303 -0.09066828 -0.1304043 -0.26090524 0.00892081 -0.23826124 0.29884574 -0.13427192 -0.24411264 -0.08168796 -0.015825167 0.3548686 -0.062260427 0.077759326 -0.1579567 -0.060962953 -0.14827995 -0.1832451
-0.037878133 -0.029159 -0.100673944 -0.15304606 0.16545855 0.20215811 -0.0038841984 0.10442037 -0.101467535 0.102315165 0.022010032 0.12374502 -0.23042043 -0.15757234 0.1385331 0.06186092 0.04661827 -0.0036786103 0.0748426 -0.024663113 0.08967565 -0.09592331 -0.14533281 0.0012769137 -0.06753361 0.11163897 -0.16351233 0.25938177 -0.117996976 0.019321332 0.001612599 -0.16842672
0.010528434 0.09964529 0.070322454 -0.06367411 0.20699145 0.0026301998 -0.099020325 -0.018541303 0.12856704 0.004887429 -0.13733746 0.14055407 0.072000846 -0.15222633 0.030916179 -0.006434369 0.067695566 -0.0126334 -0.061514415 -0.024007754 0.12805761 0.054326545 0.04212384 0.07845929 -0.1918977 0.0014870149 -0.13317478 0.046960417 0.0354559 -0.07416634 0.030723302 -0.007961249
-0.05506904 -0.050735526 -0.04335807 -0.122263424 0.05171921 0.17127416 -0.027048068 -0.093478225 0.033562593 -0.09795952 -0.043167267 0.11715254 0.054402135 0.10683377 0.144144 -0.090963915 -0.12475592 0.037387267 -0.049735703 0.09250039 -0.008114306 -0.0564002 0.04810067 -0.047488637 -0.0026765296 0.14196242 -0.06457516 0.01559886 -0.07223684 -0.0055303387 -0.018948127 -0.00073182426
0.059543688 0.014356397 -0.03759972 -0.075487904 0.046241574 0.22302493 -0.11147666 0.05085605 0.1081807 0.06033067 0.09254409 0.15878688 -0.024638632 -0.07678741 -0.009033325 0.079069644 0.06044965 -0.11148795 0.06323942 -0.06365259 0.06194237 -0.060081873 0.13664949 -0.024461363 0.041236397 0.142421 0.073251896 0.09963865 0.071086854 -0.0941989 -0.115292214 -0.027279207
0.005197393 0.037790935 0.07309085 -0.026097441 0.11207964 0.21870153 -0.04470127 0.07959774 -0.095137805 0.008252805 -0.08787145 0.04200737 0.035573997 -0.0010890139 -0.014860799 -0.023626076 0.10559047 -0.114258535 0.06559904 -0.13348766 0.07889201 0.046057533 -0.020258322 0.16241209 -0.19134706 0.18344238 0.08337037 0.088903934 0.12292001 0.025674522 -0.09254485 0.06927249
-0.34937432 -0.20192173 -0.026829395 -0.19208176 -0.015109332 0.11060805 -0.17888223 0.15423967 -0.107942864 0.07410562 -0.05030094 0.09236039 -0.12297376 0.0323044 0.008107934 0.019134384 -0.14986517 -0.033628616 -0.07354173 -0.13872801 -0.015726542 -0.1306118 -0.30985513 -0.03284562 0.02941526 0.055652957 0.039134473 0.13469219 -0.10327075 0.010064705 -0.026778372 -0.062481288
0.12616798 -0.0028022944 -0.08960343 -0.05993206 0.07425932 0.11227314 0.15136977 -0.061001968 -0.0530152 -0.029564656 0.015402231 -0.027171476 0.07166928 -0.06433519 0.0049961046 -0.009533584 0.092702776 0.06535366 -0.031550024 -0.090090744 0.06271385 -0.14789645 0.088672094 0.06270839 0.12517443 -0.034354646 0.14250425 0.009784497 0.0998993 -0.10978145 0.007457963 0.04992127
0.14594132 0.08069807 -0.12347084 -0.1126662 -0.024388768 -0.065611295 -0.085721865 -0.12472883 0.1761893 0.009648157 -0.13695303 -0.025515176 -0.018483272 -0.1214808 0.20919506 -0.002606116 0.064694956 0.085801356 -0.12302528 0.15135643 0.055356614 0.101816095 -0.121550664 0.03137107 -0.19991475 -0.08200591 -0.12304269 -0.10569541 -0.030495998 -0.13461274 0.08401807 0.03736609
0.07092387 -0.2692255 -0.16415115 0.12493348 0.041439384 0.004311206 -0.06517987 -0.02164105 -0.16117989 0.061616324 -0.12444782 0.02539467 -0.0017137206 -0.15362114 0.04065131 0.011482024 -0.08864283 0.01369407 0.08207664 -0.1399366 0.04227721 -0.10236457 -0.115611546 -0.03828695 0.02944334 -0.087208025 -0.122387014 0.010723925 -0.25696698 -0.009947007 -0.06360408 0.021582656
0.0015916788 -0.16140047 0.07557489 -0.055454627 0.26267636 0.049988933 -0.25239936 0.1085456 -0.19296095 -0.07363243 -0.05123008 0.19516098 -0.04868857 -0.08691334 0.21266443 -0.15299758 -0.067078054 -0.06757007 0.006578942 -0.045424156 0.054190833 -0.06690099 -0.04051708 0.10503572 -0.026035208 0.17769724 -0.027227096 0.24169771 -0.07109759 -0.049295474 -0.08369373 -0.02402152
0.032200832 -0.09670622 -0.047032982 -0.039826915 0.0120297 0.17043522 -0.07410009 0.08007247 0.10592756 0.039509583 -0.10782895 -0.13329318 -0.029602943 -0.0020346276 0.123581946 -0.028044129 -0.002324407 0.04003616 0.13197987 -0.11879803 0.05862702 0.016468886 -0.027077984 -0.05064536 -0.035498664 0.15370177 0.026029985 -0.06448408 0.10847663 -0.12383795 0.16069932 -0.009530464
0.03182123 -0.025268942 -0.07954349 0.016339757 0.04606725 0.041808363 -0.16998374 -0.02312462 -0.009618509 0.023911405 0.005195107 0.084235206 -0.11270168 -0.15147375 -0.16190173 0.05442344 -0.115810305 -0.12688549 0.011651926 -0.27268696 -0.023843156 0.008635905 0.107622266 0.035050724 0.09537442 0.09257472 0.016156746 0.09694476 -0.0865085 0.083187796 0.071270965 -0.032364078
-0.2557875 0.16780627 -0.018665941 -0.027038446 0.123433925 0.23380731 -0.022760179 -0.00943379 0.04995807 0.051991027 0.10726918 -0.04216985 0.035103217 -0.11825759 0.030261096 0.028998245 0.09043436 -0.031700812 0.115336 -0.18638717 0.16477825 0.05569983 0.088956565 -0.029068654 -0.0065450678 0.1506362 -0.022753373 0.16093193 0.09281857 -0.008723615 -0.019802798 -0.011920507
-0.0984725 -0.19264348 -0.056962006 -0.060429525 -0.09576041 -0.053211786 -0.1926467 -0.05663651 -0.014133357 0.015978936 0.101711065 0.11621316 0.03463342 0.101597205 -0.08246356 -0.12553227 -0.07644029 -0.070553765 0.016114708 -0.039974622 0.09505789 0.08738515 -0.11628206 -0.10853659 0.120246634 0.032837138 -0.16486123 0.0993783 0.00033704823 0.034956142 -0.11812146 0.00972597
0.014755712 -0.018881764 0.067254744 -0.022504846 0.073413864 0.2132865 0.18108529 0.01579116 -0.01648588 0.07460857 -0.08467838 0.00087516254 0.1383296 -0.012764882 0.27150413 -0.008372077 0.18885157 -0.03530843 -0.16088057 0.11445837 0.078432105 -0.018424127 -0.059540365 0.026785942 -0.078989714 -0.14837961 -0.141215 0.18585418 0.10026465 0.095934875 0.033875052 -0.048985515
-0.06435782 -0.09308416 -0.01987811 0.1430254 0.044713974 0.050195463 0.014562479 0.07793067 0.040734276 -0.0031383238 -0.029485215 0.17837267 -0.16310205 -0.1269318 0.21031848 0.07639707 0.04687555 -0.004770795 0.006711062 -0.24227403 0.24110448 0.09524017 -0.031248368 0.05552518 -0.11143439 -4.510774e-05 0.056580115 0.18951896 0.08107552 -0.14382792 -0.006978138 -0.07218442
0.05281988 -0.13458641 0.077309355 -0.10248218 -0.21645804 -0.13694586 0.2679284 -0.28246954 0.27447414 0.12628616 -0.09235923 -0.103936784 0.08968935 -0.10007354 -0.25278813 0.03482503 -0.061734084 -0.092873804 -0.058478106 0.31804052 0.0002840602 0.095758684 0.100184895 0.173656 -0.18721549 -0.025574699 0.13729061 -0.3176359 0.058269706 0.04296219 0.26302105 -0.064058796
-0.015693255 -0.119441554 -0.019330747 0.037945844 0.011349852 0.19600752 -0.16235939 -0.07156329 -0.13063306 0.0695956 -0.051739212 -0.024158508 -0.090998985 -0.1660252 0.21452655 -0.14090542 0.07007231 -0.07427119 -0.14537692 0.07586665 0.071771 -0.1589745 0.002426926 -0.026229043 -0.24154457 -0.049231954 -0.12285964 0.21098348 0.050006438 -0.14448105 0.13547039 -0.1789734
0.114221744 -0.15991627 0.04034023 -0.09876901 0.08804747 0.0077270297 -0.025920141 0.09357091 -0.024656627 0.0978078 0.12678492 -0.19460326 -0.16620609 -0.02704967 -0.055303033 0.0032074768 0.0318315 0.07966826 -0.0065089567 -0.08923693 0.081446394 0.05823031 -0.04228353 0.03943665 0.04471347 0.015754819 -0.11740346 -0.10463044 0.010827885 -0.09491746 -0.0053281793 -0.14460249
-0.17905736 -0.059915315 -0.11170928 -0.0266127 0.11198266 0.112628296 -0.09102481 0.1967125 -0.00271893 -0.12501189 -0.10293994 0.22487606 0.061606124 -0.16432814 0.1701259 -0.005347929 0.006603021 0.013708679 -0.14068227 -0.016536249 0.17822857 -0.004875818 -0.21266383 0.047572717 -0.017808765 0.08301097 0.031940997 0.11242319 -0.088371634 -0.07960602 -0.15822047 0.052629456
0.017495124 -0.097032994 -0.08485689 -0.091180734 0.15107645 0.09563761 -0.058934968 0.05420099 0.18342339 -0.011731547 -0.03686012 0.080732346 0.07267939 0.058909707 0.19565986 -0.11135951 -0.003421729 0.14826052 0.00050521997 0.1079054 0.055741075 -0.10316539 -0.11506362 -0.0028805442 -0.06390369 0.01924791 0.030597141 0.16436708 -0.033970248 -0.05569237 0.018346218 -0.11414093
-0.11876354 -0.060300287 -0.12839477 0.03734155 -0.07572178 -0.14887765 0.15642682 -0.058648597 0.11192231 0.047748044 0.00021778797 -0.05867092 0.06485892 -0.046927717 -0.13864765 -0.11044092 0.01614495 -0.00891029 -0.11829375 0.057832226 -0.21896 -0.100471735 0.1505686 -0.01696461 -0.044171013 -0.03834847 0.13048548 -0.29467338 0.13224106 0.04418498 0.13453797 0.044445496
0.021548592 -0.07579152 -0.14714596 -0.05131144 -0.15866417 -0.12107449 -0.015008739 0.0048714173 0.11948999 0.06282302 0.09774204 0.0011154586 0.1997237 -0.041131742 0.0016609494 0.038823266 -0.1599947 -0.10813312 0.10210289 -0.149793 -0.24381892 0.08106923 0.036963835 -0.07545173 -0.116248794 -0.12163036 0.10596894 -0.05724089 -0.102359705 0.028194102 0.052359495 0.026171526
0.21993598 0.16727762 -0.11120835 0.0034814496 -0.034167327 -0.076722674 0.2579694 -0.120809615 0.2108125 -0.122880325 -0.00037617053 -0.05980334 0.18277496 -0.14619248 -0.07520959 -0.11632812 0.02619569 0.17152584 -0.081976086 0.19480124 -0.032833762 0.09013445 0.27125153 0.032065976 -0.017471068 -0.015257104 0.31510845 0.022985829 0.15639746 -0.15045683 0.058766637 0.077094436
-0.06634045 -0.10105339 -0.08067805 -0.09899368 0.050377846 0.166132 -0.01424198 0.15064102 0.042306736 -0.111752264 -0.04060345 0.2199869 0.062578574 -0.13499235 0.090033464 0.030168107 -0.24592006 -0.117219046 0.0033010808 -0.060777694 0.20030916 -0.093043044 -0.116727464 0.01824917 0.06251446 0.1954913 -0.08386105 0.0035232056 -0.06734065 -0.10291416 0.020618925 -0.2502764
0.07839481 0.12134422 -0.12769097 -0.049980693 -0.11385069 0.12667103 -0.039955508 0.008315797 -0.09677363 -0.14067766 -0.1376887 -0.09776043 0.0883212 0.085583255 0.040994 -0.07115883 0.17392975 -0.011591557 0.0021365264 -8.2005725e-05 0.058798928 0.10772899 0.011615755 0.051882185 0.03464928 -0.13441114 0.034197506 -0.055685136 -0.015731871 -0.029445654 0.02451499 -0.054026
0.026822893 -0.13445757 -0.0006334091 -0.024211144 -0.13694571 -0.17470977 -0.11322603 -0.0030201394 -0.06659754 -0.040491123 0.037447743 0.11688555 -0.07708447 0.015447163 0.05821268 0.038623657 0.028337568 -0.11306367 -0.09928981 -0.18230699 -0.08643324 -0.14821503 0.022391746 0.018853057 -0.025014795 -0.014457347 0.032358106 -0.02327802 -0.024961842 -0.01660354 0.035661925 0.007904234
-0.0023771075 0.03420867 -0.09514194 0.03743401 -0.05067374 -0.04306773 0.17569074 0.04756441 0.053017706 0.010893805 -0.13729572 0.028358372 -0.18902522 0.033715475 -0.041910343 -0.047157083 0.12236538 0.09763497 0.021917373 0.12265134 -0.023683285 -0.04705247 0.12114146 0.11548362 -0.07150152 -0.016224261 0.09614863 0.056827616 0.11338958 -0.14197163 0.0411037 -0.06714562
0.009874041 0.090516485 0.0053657936 -0.1703472 -0.050579883 0.063688405 -0.04330486 0.023168284 0.09968505 -0.07635448 0.09900994 -0.04693481 -0.02527834 -0.09291055 0.12440508 0.058696143 0.0067864098 0.05666737 0.013387481 -0.09407231 0.167217 -0.067174554 0.0015079312 0.11137539 -0.08946679 0.029842278 -0.1055573 0.039737437 0.043843247 -0.046384826 0.00047001237 0.13125478
-0.1328162 -0.10175292 0.008017648 -0.15816382 0.028473342 -0.112928934 -0.07936262 -0.04421188 0.07790173 0.0312821 0.014725608 0.06710864 0.09237182 -0.0048178774 -0.035949465 0.008076448 0.16899773 -0.20525974 -0.08108311 0.118075415 0.023396337 0.10649335 -0.009187333 0.13362694 0.02753372 -0.21641411 0.041131597 -0.013311736 0.022815034 0.1320403 0.07126015 -0.018737866
-0.25519148 -0.060538486 -0.021263609 -0.058183506 0.09444745 0.10012995 -0.0039036374 -0.06384352 -0.040424336 0.08886467 -0.13072653 0.13665287 -0.06601358 -0.0019515093 -0.10544303 -0.12470943 -0.07004317 -0.23291792 -0.17406365 -0.039485827 0.13324271 -0.09979341 -0.18056378 -0.009675832 -0.010845352 0.10860264 -0.09955295 -0.05354785 -0.10701708 -0.0232415 -0.13139644 -0.03752565
-0.025328603 -0.17285234 -0.014344168 -0.02068078 -0.036655754 -0.014430104 0.04194057 -0.035798877 -0.14987355 0.007771765 -0.020310013 0.022712307 0.1000104 0.04220872 -0.011623459 -0.06750786 0.054019917 -0.09502521 -0.03112363 0.08516965 -0.032501455 0.07831211 -0.06278266 0.012572078 -0.020737987 -0.00840505 0.010894012 -0.12827747 -0.00510901 -0.13376243 -0.19893926 -0.066078015
0.0068678576 0.016761292 0.058634482 0.0470388 -0.11901065 -0.10795155 0.032834586 0.016213657 0.03357842 -0.054100815 -0.080627225 -0.14614382 0.16702639 0.07657369 -0.029123751 -0.10384639 0.013073624 -0.061516006 -0.0034119468 -0.076997325 0.0031643435 -0.07398143 -0.043915935 0.067110404 -0.056484032 -0.14224193 0.13032015 -0.0033989495 -0.043238226 0.025329847 -0.018005596 0.15333664
-0.012958802 -0.03030713 0.00609291 -0.042339135 0.05133743 -0.056757648 0.020783912 0.053655703 -0.012814419 0.06499467 -0.061149403 0.06692993 -0.04375634 -0.04133301 0.046902135 0.069589645 0.012216168 0.1422808 0.008906632 0.0249233 -0.1694598 -0.13377246 0.020594394 -0.11212622 -0.03588476 0.09313316 -0.056654338 -0.1351619 0.117458306 0.00427094 0.044281702 -0.10261861
-0.03206012 0.097728364 0.042120565 -0.12463309 -0.04112586 -0.17508307 -0.040615577 -0.12110751 -0.03232246 -0.035496995 0.026741482 -0.14461263 0.057808418 -0.029163135 -0.18896332 -0.12101614 0.117700435 0.023730116 0.090000466 0.00023323289 -0.12114236 0.045553472 0.03579966 0.030341601 0.03932791 0.012881275 0.027559662 -0.12221133 0.061464768 0.047468387 0.043131903 0.0128205335
0.119417794 0.06286091 0.008307296 -0.18694685 0.04526811 0.0058654584 0.119362004 -0.13442175 -0.0008710349 0.08218985 -0.05370784 -0.1366278 0.02683063 -0.057192802 -0.19220011 -0.024837766 -0.054067645 -0.09489787 -0.0068786726 -0.07297959 -0.12030445 -0.06960821 0.04898472 -0.009340494 0.09808279 -0.2171371 0.13332833 -0.1468637 -0.008268685 -0.12766165 0.19959675 0.018641641
0.027775615 0.075519346 -0.02404757 -0.1007256 -0.0865146 -0.0077331415 0.08497817 -0.061783552 0.11602095 0.10605579 -0.1319192 -0.04169067 0.122712694 0.03108489 -0.06504117 -0.13775171 -0.037679866 -0.12768926 0.05693556 0.12010744 0.05520465 -0.021308096 -0.09726035 0.11794239 -0.037076943 -0.0882114 0.13703327 -0.2247215 0.022083282 0.01717034 0.11966314 0.12623437
-0.15514708 -0.1797091 0.006037548 0.047241937 0.054231726 0.010004505 -0.23435599 -0.05644935 -0.17289418 -0.12853517 -0.051008068 -0.025684368 -0.17378862 0.067539066 -0.10007495 -0.14760135 -0.089941 -0.13132682 -0.0114876 -0.1790122 0.08041529 0.019310113 -0.14065492 -0.20606007 -0.110821754 0.07608022 -0.29343492 0.23378399 -0.13601202 0.018270625 -0.10576184 -0.25848502
-0.11878667 -0.11626954 -0.0040952815 -0.20461592 -0.06855364 -0.07981883 -0.06251138 -0.24232912 0.08729793 -0.07391771 0.028543726 -0.14081338 0.11676526 -0.11105582 -0.09467302 0.0076122023 -0.0093154665 -0.03415339 -0.007990739 0.06926198 -0.19409993 -0.028905462 -0.002160456 -0.031012153 -0.06861894 -0.13422295 0.16223505 -0.2067025 -0.062211186 -0.064546116 -0.034183796 0.0075009917
0.0950875 0.14742658 -0.049161494 0.059240784 -0.082771055 -0.09321801 0.03225922 -0.04505423 0.08108202 -0.094005466 0.02014178 -0.07689378 -0.12644191 -0.071758315 -0.19666821 -0.010830973 0.062675126 0.09513441 -0.13642389 -0.0011808798 -0.20815705 -0.12438074 -0.0627056 -0.008355406 -0.09078902 -0.18023108 -0.08870032 -0.104378276 0.09387875 0.008299977 -0.15721837 0.020464696
-0.1959544 -0.04699139 0.05066664 0.002759704 -0.10014013 0.013114583 -0.0030732523 0.17751394 0.025074068 -0.043104354 0.025727874 -0.05307355 -0.032520268 -0.014471082 -0.09411902 0.015063488 -0.038012013 -0.20352843 -0.07802399 -0.025770172 0.124914326 -0.12180223 0.07550987 -0.034848887 -0.2079134 0.18604657 -0.071929686 0.09981774 -0.02280933 -0.120708495 -0.15736534 0.038887914
0.1715947 0.029624155 0.044499468 -0.13107318 -0.22991735 -0.033721767 -0.068094656 -0.012732867 0.091208614 -0.1152909 -0.032466725 -0.1682461 0.20161574 0.04761583 -0.028647987 0.041583773 -0.037877806 0.11168471 -0.11092161 0.17277536 -0.07774326 -0.16182733 -0.028875906 -0.013856544 -0.09343866 -0.0434111 0.06764694 -0.01159883 0.15642914 -0.103866726 0.08210493 -0.11479344
-0.1979401 -0.20484573 -0.0027045212 0.049671162 0.049603842 0.085864626 -0.24137911 0.18047024 -0.1548187 -0.08428296 -0.023940919 0.026359387 -0.13074097 -0.14816917 0.14132197 0.017296491 -0.107031964 -0.32930252 -0.08637613 -0.23900083 0.059216473 -0.0026162686 -0.18819454 -0.1648614 -0.077766724 0.17588641 -0.19195826 0.17159507 -0.1939796 0.08196657 -0.08880786 -0.1153402
0.11354981 0.06760429 -0.097699 -0.067795746 -0.08639205 0.11569672 0.107574955 -0.08250959 -0.012231172 -0.005789133 -0.010887813 -0.13601692 0.006901831 0.10804198 0.03915841 -0.008586344 -0.024091402 -0.03677924 -0.08123065 0.018783566 -0.14163567 -0.023786154 0.0065507386 0.19644612 -0.0008195314 0.061570924 0.032536626 0.03792776 0.05676429 0.09981015 0.032512575 -0.08796859
0.048456147 0.2531621 -0.1783319 0.12334541 -0.027405282 0.09769344 0.3356548 -0.055924322 0.21265027 0.018339304 0.074327156 -0.15273179 0.19345447 -0.059542317 0.06140934 -0.069672905 -0.06634721 -0.04553553 -0.105654955 0.17440338 -0.13474138 -0.069324635 0.072938696 -0.016017554 -0.049797103 -0.14559513 0.14982225 -0.13264376 -0.0042065084 0.012479721 0.124678835 0.07263224
-0.26616773 -0.08162028 0.0772907 0.1077394 0.13137382 0.15049887 -0.26507422 0.027720114 -0.26617646 0.0001077505 0.11930944 0.13261259 -0.14269699 -0.093725 0.16233988 0.1208848 -0.14830846 -0.012877924 -0.03639355 0.0030982855 0.23810534 0.013823423 -0.12041722 0.0970499 0.00806625 0.09632872 -0.21301605 0.11566671 -0.3218413 0.060574148 -0.09247561 -0.10729906
-0.17974217 -0.22937575 -0.09572945 -0.10300786 0.08758695 0.071859755 0.0028050751 -0.006798519 -0.07042025 -0.00060508115 -0.04731121 0.07833868 -0.17720433 -0.09138373 -0.02834727 -0.052687373 0.10748768 -0.1936718 -0.09365314 -0.24712414 -0.0034194367 -0.1647527 -0.015777033 -0.14241502 0.015643105 0.15354641 -0.09405913 0.012800847 -0.25770384 0.06112887 -0.14799316 -0.03355048
-0.28539833 0.09413379 0.03804525 -0.057039548 0.11286391 0.019389672 -0.08304572 0.112471126 -0.16856676 0.11524217 0.043856382 0.067193575 -0.14660801 -0.05313454 0.072468676 0.10847328 -0.17663471 -0.26276785 0.05452315 -0.09121868 -0.048319083 -0.05028016 -0.29577067 -0.038887467 -0.0016054932 0.12179357 -0.19614094 0.014498124 -0.13281849 -0.055913456 -0.19951421 -0.071841694
-0.07948155 0.08889864 -0.09354276 -0.17021996 -0.017148387 0.07212407 0.0116471145 0.04688227 -0.085437864 -0.041299373 0.014772088 0.12873624 0.07539333 -0.13629934 -0.18348554 -0.064003274 0.087848306 0.14545485 0.047239598 0.15634836 0.05256583 0.06075002 0.065761104 0.08258304 -0.10504249 -0.18865168 0.22965653 -0.18662937 0.10098423 -0.10799421 0.11718021 0.0016952393
0.03990939 -0.092849195 0.010929595 -0.044167608 0.013590166 -0.07716224 -0.013750671 -0.024001064 0.02171261 0.046899345 -0.014734028 0.11776575 0.06706472 0.029974 -0.0033844006 0.029132057 0.042096216 0.0033609483 -0.114852846 -0.04397359 0.10269267 -0.043636605 -0.037332606 0.00391892 -0.109622166 -0.12001841 -0.04280633 -0.06117101 -0.017480858 0.082741246 0.06963457 0.087760076
-0.04921806 -0.11945649 0.09879417 -0.0040951106 -0.09136252 0.061249934 -0.13229537 -0.15162936 -0.043814726 -0.07833683 0.040222526 -0.093482085 -0.08254982 -0.1628956 -0.080237105 -0.09239566 -0.0035349124 0.010934747 0.086917385 0.012473623 -0.1526169 -0.055768985 -0.04860009 0.009953007 -0.085690804 0.055739913 0.033494126 -0.15560266 0.00658213 0.098509565 -0.050373282 0.05516129
-0.0923079 -0.069333114 -0.014451982 -0.06238118 -0.028637044 -0.04927059 0.14849138 0.011018931 -0.008768231 -0.01160958 -0.030471025 -0.071619086 -0.033931058 -0.059863485 -0.05102501 0.1706575 -0.23748575 0.07212883 0.08532226 0.15346079 -0.10700361 -0.11290124 -0.003924276 -0.07801319 -0.0003524886 -0.1474171 0.031803586 0.072759524 -0.13907747 -0.16752926 0.015068633 -0.040017493
-0.14449929 -0.070452005 -0.17294788 -0.0095636565 0.18337378 -0.1571792 0.030488683 -0.18216075 0.017533021 -0.1837974 0.0596578 0.07664391 0.13408703 0.10383301 -0.045156218 -0.05749895 -0.07954387 -0.027073178 -0.07623707 0.054994475 -0.09882605 -0.14255407 0.22936374 0.06409081 -0.091757275 0.16691919 0.122727446 0.058037706 0.15546373 0.07720814 0.13862741 0.14832273
0.21520293 0.25282207 0.092091024 0.047477648 -0.039407425 -0.06074131 0.1088484 -0.07888076 0.043619003 0.052263048 -0.14233166 0.028659392 0.048959244 -0.12786493 -0.0617822 -0.053458292 -0.01946233 0.21648969 0.0944526 0.15778151 -0.039703403 0.121293165 0.18386702 0.117936045 -0.06901098 -0.19843823 0.041486904 -0.052845713 0.1776378 -0.020606462 0.18577605 -0.039252218
-0.058744036 -0.09981269 -0.06793467 0.114143625 -0.096658595 0.06525672 0.031802107 -0.011392636 -0.029317327 -0.12197263 -0.06938494 0.06300066 -0.06678238 -0.16996284 0.041054994 0.09142712 0.01905321 0.006921687 -0.010517662 0.13710302 -0.05317271 0.055282153 0.004032575 0.009656158 0.048957385 0.05632878 0.022795213 -0.052766133 -0.13441084 0.05223764 -0.14911444 0.018848922
-0.05342584 0.078306995 -0.109170295 -0.006332876 0.063464984 0.16676493 0.015394436 0.12179694 0.053773038 0.0031544995 -0.1401853 0.09170408 0.02574022 -0.05310169 0.21878803 0.06606237 -0.11866784 -0.17261842 0.05956974 -0.07812855 0.22035943 -0.19425695 -0.102999955 -0.15784574 -0.02853845 0.21268225 -0.037085056 0.117077135 0.17907947 -0.08945973 -0.14404203 -0.018822955
-0.09444969 -0.027281648 0.07869735 -0.103043646 -0.0379291 -0.015879476 -0.13137823 0.13680676 -0.0947143 -0.047744308 -0.030248918 0.15897447 0.010019853 0.052190166 0.057212517 -0.14954014 -0.08057589 -0.00047237094 0.0038905782 -0.25290924 0.09818476 -0.12462363 -0.037203897 0.035516582 -0.08623197 0.1681379 -0.029176205 0.15019546 -0.069009535 -0.02802699 -0.078337304 -0.08645649
0.05971816 -0.0018905477 -0.021445395 0.04111875 -0.0059432383 0.09118255 -0.018929292 0.13878267 -0.082161 0.038877334 0.015487086 0.08429329 0.065507375 -0.11282733 -0.038952354 0.03207629 -0.090985045 -0.13653104 -0.03688988 -0.07919994 -0.0165756 -0.04856599 0.119417995 -0.06382503 -0.12154151 0.035292216 0.025522672 -0.003399517 -0.050053984 -0.0131920995 -0.035355255 -0.06494864
-0.20209421 0.019917117 -0.12549393 -0.09045555 -0.003878988 0.040389415 0.16241832 -0.038325418 0.0052890624 0.05508213 -0.013884778 0.11838726 -0.073679596 0.049107194 0.042195573 0.16890548 -0.027310377 -0.037294853 -0.09286836 -0.095479056 0.19085181 -0.06161768 0.019144332 -0.12362248 0.17146502 0.06280122 -0.017880045 0.110675395 -0.02633189 -0.14517151 -0.01434437 -0.17485482
0.07990752 0.077355474 0.03498679 -0.06303278 0.07201472 -0.09744072 -0.08742916 -0.018772403 -0.18090507 0.057653267 -0.007861518 0.037936646 0.04624264 -0.080657125 -0.05749305 -0.09783216 0.03642998 -0.16223247 0.083464995 0.020297417 -0.08582289 0.08061587 0.08676463 -0.16841668 0.031072611 0.07521918 0.14043936 -0.024592739 -0.089807585 -0.16097133 0.10166699 0.07361041
-0.11669739 0.026789801 -0.11886184 0.050379336 0.29425415 0.20293915 0.06567663 0.16780002 0.19358036 -0.13456088 -0.13880761 0.08352598 0.118822515 -0.08700694 0.25779018 -0.009524915 -0.0070085074 0.04196245 -0.117778145 -0.087314494 0.10981745 0.0398572 -0.036096353 0.08931839 -0.057131216 0.11543512 -0.0025683625 0.25892642 0.02557535 0.013313516 -0.021878708 -0.015706345
-0.10209012 0.0069278143 -0.08017668 -0.05405694 -0.0025185938 -0.16633388 -0.0059294645 0.051487472 -0.0051159523 -0.089074105 -0.12334041 -0.13196056 -0.12429652 0.060839612 -0.05936733 0.06897293 -0.053032693 0.030874342 -0.008956712 0.056720484 -0.04025403 -0.17430283 -0.078928344 0.09829695 -0.20982912 -0.09080165 0.07852334 -0.05605849 -0.01587048 0.067241855 0.0034434027 -0.16458419
-0.12582417 0.0857043 -0.0556165 0.042494413 -0.016184822 0.17169352 -0.010971877 0.21005678 -0.08315131 -0.039346974 0.086235076 0.012040974 -0.1637487 -0.1380659 0.06786608 -0.11362843 0.0010933322 -0.24307601 -0.16359109 -0.09904887 0.23518561 0.025315152 -0.11999751 -0.038348123 -0.05794767 0.014037933 -0.106464535 0.17533097 -0.117835045 -0.12137174 -0.05680841 -0.046288155
0.03940405 0.045628544 0.03588711 0.045793347 0.027614757 0.015559659 0.03656089 0.04944818 -0.08236523 -0.14727867 -0.154053 -0.0018420477 -0.18537126 0.04622073 -0.08339596 0.08342924 -0.1932562 -0.051932253 -0.046360377 0.026634019 0.056881752 0.064791776 -0.046540245 0.01240771 0.11886752 0.0068269 -0.0694369 -0.050392516 -0.06942354 0.08433681 -0.061407644 -0.037731286
-0.16501082 0.10646116 -0.14692205 -0.05268949 -0.019628175 -0.048665393 -0.061708 -0.02427967 -0.0039132787 0.05430133 -0.037049036 0.03209891 -0.1606116 -0.17750922 -0.03877379 0.1039596 0.0005556439 0.008140675 0.040631138 -0.101694554 -0.021663954 0.050342347 0.08745887 -0.06770603 0.03263459 0.0012772493 -0.094596446 0.13165146 -0.021313058 0.0042338576 0.12673411 0.0610182
-0.08238449 0.07876489 0.09601328 -0.13498572 0.02217851 0.06580078 -0.0024419043 -0.23761377 -0.12128624 0.05507552 0.024225095 -0.17243204 -0.015748367 -0.14768104 -0.008743215 -0.054666094 -0.014947626 -0.008793016 -0.14104919 0.10961834 -0.012140451 -0.008079716 -0.08046361 0.12058926 0.060864106 -0.08400732 0.027509457 -0.12578584 -0.0071181017 -0.12347943 0.14474642 0.0010700696
0.27081275 0.0013281435 -0.102067485 0.023286682 0.019516416 -0.07811977 -0.06862654 -0.15653472 0.22567557 -0.08609297 -0.037493486 0.008118682 0.08182261 -0.06648175 -0.007990215 0.07113387 -0.17426005 0.11146122 -0.018087981 -0.033800654 -0.07938334 -0.036219224 0.18633343 0.05856344 -0.08115455 -0.15176761 -0.014381026 -0.095540084 0.12032168 0.056913972 0.22021243 0.08423901
-0.21040034 0.028679954 -0.11392786 -0.14865835 0.0875468 0.02104828 0.013819885 -0.068447776 0.15299797 -0.025275989 0.042577468 0.056825947 0.08656654 0.021432925 -0.06617265 0.036876723 -0.03148339 -0.18478827 -0.017411282 0.015882699 -0.13551505 -0.027134068 0.05464967 0.028950024 0.07851526 0.002526248 0.048644952 -0.07919172 -0.1208102 0.021240942 0.041334216 0.091923736
-0.13575403 0.0450119 -0.14798974 -0.091352336 0.04018094 -0.14054532 0.05709532 0.0072187604 -0.093693875 -0.046046715 -0.028873654 -0.010050219 -0.004264072 0.12927581 -0.09300145 0.06322594 -0.082917295 -0.21237177 -0.022268517 -0.12780894 -0.025429852 -0.102338456 0.0764517 -0.11011219 0.06292776 -0.06979837 -0.021623647 -0.051672183 0.086970866 -0.110315785 -0.04481236 -0.0034371186
0.18961643 0.08921391 -0.05910719 -0.062115714 -0.15290695 -0.055293605 0.0748575 0.021842409 0.004086851 -0.10496139 -0.1308685 0.050167028 -0.1006004 0.021671262 0.039544657 -0.15255421 0.0927424 0.04706109 -0.012327012 0.050057787 -0.042516645 -0.112773135 0.11354908 0.108368404 -0.044353366 -0.030973004 0.019395068 -0.06559733 0.058429718 0.10577746 0.12868316 0.14744815
0.14970753 0.1389799 -0.14389607 -0.1260068 -0.07451037 0.123733334 0.20409761 0.04639111 0.059615202 -0.12673543 0.08177824 -0.11965874 0.090139195 -0.016873142 0.07245235 -0.14497806 0.008828925 0.16267902 -0.12760913 -0.10092376 -0.00090030255 -0.10532952 0.07058925 0.071545154 -0.05615582 -0.11705471 0.13407226 -0.08415257 0.11931747 0.12098964 -0.064190075 -0.11076924
0.03960324 0.066397555 0.032170095 -0.10004134 -0.019711228 0.1568539 0.06771633 0.11013122 -0.045310568 0.016856842 -0.06672603 -0.041047983 -0.071207546 -0.08243146 -0.015804784 0.11186547 -0.08997817 -0.06328795 0.0692791 0.07372428 0.05729801 0.04021202 -0.0010531228 0.038334902 -0.17233334 0.05758078 0.013990484 -0.042807717 0.060764145 0.082418405 0.11889015 -0.056394763
-0.031621307 -0.142033 -0.18600759 -0.0008103034 0.16673216 0.17676005 -0.089429416 0.19880563 -0.122293815 0.084160976 -0.018382851 0.06568295 -0.29322654 -0.028975775 0.4170594 0.056427553 0.067581296 -0.09719544 -0.0011153871 -0.08166113 0.2195868 0.057540078 -0.031935193 -0.18177497 0.24715094 0.13223289 -0.08596275 0.29030183 -0.18910848 0.058115188 -0.25627378 -0.08497407
0.07524634 0.25487602 -0.009232095 -0.0430835 -0.138796 -0.0810742 0.044037826 -0.19599937 0.07518195 -0.046212286 -0.017014772 -0.008775807 -0.040522613 0.018921953 0.08939228 0.05218044 -0.0771374 -0.01671192 -0.1284801 0.123967566 -0.042854164 -0.032988712 -0.0132605005 0.14949585 -0.01620233 0.013341121 0.096378945 -0.054741684 0.10829041 0.035778426 -0.06543533 0.05251632
-0.13952386 -0.082937166 -0.057854913 -0.003862404 0.11138199 -0.06404563 0.026617145 0.0028936802 -0.1630319 -0.021606155 -0.12652227 0.12444066 -0.12453375 0.026055845 0.12503664 0.025024993 -0.14746739 -0.016128168 -0.15172026 -0.054023996 -0.010178668 -0.14604704 -0.07858368 0.12860447 0.06396901 0.10088836 -0.047315937 0.066762686 -0.02227825 -0.15650561 -0.050791726 -0.09145488
0.018413901 -0.032484777 0.012149041 0.14457276 -0.07939282 -0.22444893 -0.15376729 0.0036472878 0.023253072 0.036571104 -0.087443106 -0.13295543 0.069688424 -0.006838235 -0.02458318 -0.06848137 -0.12077607 -0.0024252376 -0.101929754 -0.035323404 0.005825894 -0.021822292 -0.089647986 -0.03143522 0.10614402 0.09897665 -0.108711235 0.021171778 0.0072886725 -0.10965648 -0.053287916 0.04140641
0.042648584 -0.13169186 0.12406876 0.0028121606 0.017617304 0.30456766 -0.11877197 0.22160913 0.020753052 -0.072867356 0.120161496 0.16021913 -0.0041843643 -0.038915712 0.2311962 -0.008628219 -0.15155771 -0.12037785 0.010099952 -0.16030674 -0.035831712 0.085630946 0.040961992 -0.25750348 -0.0053239805 -0.07690037 0.018641476 0.24200185 -0.2288989 0.034091994 -0.13581066 -0.0496495
0.07273546 0.05995371 -0.07931361 -0.07247114 0.06496339 0.014370067 0.06957081 0.0023475057 0.044050917 0.08048115 -0.03863974 -0.09962367 0.060128722 0.0425549 0.03146384 -0.055290163 0.084542595 -0.020198924 0.045897793 -0.047470607 -0.109752074 0.121303365 0.07274572 0.10357508 0.020512693 -0.04681009 0.2397766 0.07541862 0.022171982 -0.033026516 0.18162833 -0.02821696
-0.07854488 0.11450978 0.07751292 -0.19396766 -0.110306 0.07289643 0.09802297 -0.13899095 0.06987598 -0.039974384 -0.042274307 -0.0464884 0.10256573 -0.16229536 -0.15632954 0.0019206632 -0.14997052 0.047365654 -0.06897609 -0.15912083 -0.111688785 -0.10153899 0.12742548 0.07700314 -0.21764664 -0.19988094 0.10597274 -0.1765344 0.05717584 -0.11160446 0.052759547 0.27669075
0.063568555 -0.12680934 0.07576562 0.062493067 -0.12863736 -0.06733819 0.061102755 0.0155284 0.060949795 -0.116251685 0.043561712 -0.17259544 -0.073834226 -0.18503001 -0.096888244 -0.13552307 0.11554294 -0.13379031 0.036583435 0.076639526 0.023297204 -0.06290777 0.04187104 -0.054511126 0.12790866 0.041178394 -0.0247795 -0.05143619 0.09972284 0.0051202583 0.060081102 -0.08892842
-0.08315292 -0.14285626 0.04199652 -0.02806195 -0.037128635 0.057996653 -0.099098176 -0.05587678 -0.1144643 -0.03249793 0.029629134 0.060113832 0.1405698 -0.12449262 -0.13365576 0.029185144 -0.0025741325 -0.1958252 -0.057804376 0.044282407 0.109309025 0.0040382547 0.0024124014 -0.20027867 -0.03402054 -0.13001771 -0.0047609475 -0.10557123 0.021724153 -0.09169781 0.028659789 0.004103971
0.05074737 -0.057043985 0.005765235 -0.0033403148 -0.014049741 0.060055487 -0.03340219 0.06462902 0.20439526 0.038905807 -0.13923855 0.08266619 0.12529 -0.061225332 0.16771781 0.08286336 0.10353646 -0.20332094 0.12965754 0.13853438 -0.029354183 -0.01636846 -0.16085382 0.0029268586 -0.012680254 -0.02669052 -0.059758086 -0.009202106 -0.042401496 -0.043358266 -0.07393956 -0.048826277
-0.08358618 -0.017343564 -0.06600174 0.09275786 -0.09629411 0.06383585 0.046597414 -0.15065323 -0.15259372 -0.12049326 -0.09006961 -0.084342904 0.15225555 -0.06176313 0.07846923 0.07545065 -0.010090468 0.2669235 -0.1298853 0.11877099 -0.07450048 0.017739344 0.019711785 -0.03496066 -0.1656929 -0.18192023 0.15114632 0.04507997 0.011112217 0.06760489 -0.050266944 0.16467533
-0.15654965 0.0622933 -0.083085686 0.024715228 -0.03750863 0.11078247 0.046448283 0.016063415 -0.04422991 -0.06594912 0.03347548 0.047605086 0.031268004 0.10142821 0.03388428 0.11849822 -0.10876819 -0.068443455 0.09904013 0.047373872 0.12866521 0.0035227167 0.034687407 0.057656165 0.02080728 -0.036259647 0.0060677733 0.04002429 0.008048088 -0.067957945 -0.113756955 -0.004185857
-0.031957258 -0.26098144 0.10166702 -0.0930086 0.048731506 -0.05991384 0.0322418 -0.1208173 -0.2220689 0.040830735 0.024738466 0.065006696 -0.14760673 -0.026599964 0.024527201 -0.017891567 -0.053269293 -0.12966126 -0.0008337433 -0.030632878 0.0771361 -0.011439449 -0.34812847 0.035391744 0.07817101 -0.051797844 -0.27857214 0.008869551 -0.2027874 -0.06766578 -0.058846742 -0.106648475
0.106143296 0.014479758 -0.062140726 -0.041067977 -0.03735415 0.043815147 -0.04348409 -0.10845698 0.08232398 -0.085660726 0.06475368 -0.05884696 0.009278627 -0.095964156 0.11302875 -0.028893337 -0.08797729 0.084702134 -0.042347357 -0.058168795 0.107215315 -0.1075332 0.06983804 0.09343613 0.06915429 0.20432168 0.15246965 0.016465262 0.1801946 -0.081004106 -0.030050352 -0.020892465
-0.005993731 0.17338108 -0.011199319 -0.2685422 0.042496923 -0.070365995 -0.030588802 0.07378128 -0.050475027 0.040333975 -0.1364835 -0.0960941 0.16417077 -0.10734991 0.1091322 -0.0409547 -0.07972326 -0.06833604 -0.08182422 0.18297023 -0.11005921 -0.016351614 0.07457282 -8.398878e-05 -0.029434428 -0.009685652 0.17442171 -0.0020651098 0.063737296 -0.023617936 0.0059176628 -0.066031694
-0.21217209 -0.19033088 0.018961953 0.117756836 0.030977987 0.014929274 0.098444335 -0.11831349 -0.09892459 0.050478153 0.08880643 0.007828939 -0.054163814 0.09499193 0.054462984 0.069776066 -0.1594402 -0.25160536 0.1045322 -0.18063125 -0.010304794 0.06440312 -0.013997536 -0.11230657 0.019507771 0.18791413 0.009122174 -0.013948552 -0.16721293 -0.14224596 -0.043644767 -0.25188574
-0.033378042 0.093039975 0.0056477147 0.08729448 0.1069606 0.11411155 -0.048406135 0.04023416 0.032850076 -0.08908261 -0.15321608 0.09031805 -0.10304409 0.047031883 0.00573906 -0.075394526 -0.055362403 -0.0023250927 0.054563217 -0.049887206 0.10094237 0.02439854 -0.0070792483 -0.060846403 0.014839568 0.059968125 0.060553893 -0.037851233 0.094869465 0.048211753 -0.15348852 -0.060741797
0.09385751 0.06782338 0.057745785 -0.12065542 -0.0857128 -0.13651009 0.07101397 -0.13564073 -0.19070655 0.048034932 0.053430982 -0.089034796 0.021039197 -0.08621551 0.026067423 0.057048183 -0.14468834 0.13826281 -0.019172255 -0.014485585 0.044767156 -0.050257985 -0.025855303 -0.046454992 -0.024729496 -0.011918325 0.029769113 -0.103582695 -0.05611997 -0.07232207 0.05581698 0.013852152
0.021038255 -0.057439327 -0.0024244213 0.09151667 -0.0221406 0.0062734187 -0.23809487 0.14191845 -0.1290554 -0.17254506 -0.12811464 0.1741667 -0.113189675 -0.16032076 0.13900317 0.018008286 0.035452846 -0.07198228 -0.06732655 -0.024347095 -0.034568064 -0.071840465 -0.25782353 -0.11881587 -0.13012964 -0.038174354 -0.23646952 -0.12659061 -0.17801286 0.06056846 -0.14330906 -0.1181899
0.037903123 0.00052939024 -0.04651542 -0.03734327 0.0722395 -0.08781153 0.036686875 -0.02344472 -0.01650208 0.105792366 0.049388643 -0.12389582 -0.16512974 0.034662165 -0.16910811 -0.14750332 -0.00528789 -0.00079891784 -0.06659413 0.14574209 -0.106212795 -0.025202839 -0.0024624225 -0.017631909 0.029229298 -0.025891138 -0.055873364 -0.057906 -0.031657103 -0.041591037 -0.0049436586 -0.076089084
0.06872255 0.07263806 -0.11286489 -0.016904553 0.041090086 0.14748424 0.105546854 0.2158927 0.14505827 -0.1480585 -0.07189633 0.09515228 -0.0782748 -0.17207988 -0.07631203 0.057507787 -0.027113147 0.049031794 -0.04065407 -0.047904216 -0.06181954 -0.06445172 -0.13932617 0.2122548 -0.21934061 0.041271098 -0.02284893 0.18877544 0.19080037 -0.050734397 0.062819086 0.17902102
0.10570649 0.08912162 0.03992193 -0.052573502 0.15570706 0.0847637 0.009690683 0.13774756 0.11014561 -0.023357239 0.11024167 0.098763265 -0.023693217 -0.13169754 0.1850656 -0.0015547563 0.043697387 -0.018655747 -0.067963384 0.059289847 -0.054255705 0.05038624 -0.060998596 0.10434988 -0.01352264 0.040043853 -0.0085048275 0.20264646 -0.035990473 -0.15490079 0.022493178 0.05621141
-0.1548427 0.018753948 -0.17193425 -0.03350569 0.04277724 0.22370635 0.10323238 0.011313797 -0.16646616 -0.087796345 -0.14976273 -0.045055967 -0.083606444 0.049381997 -0.004415831 0.060066257 -0.032110855 -0.015691098 -0.19040483 -0.03043641 -0.049932227 0.10484582 -0.13968752 -0.06364144 -0.059353873 -0.078913 -0.045929495 -0.101592965 0.033056837 -0.031063395 -0.04572482 -0.09326482
-0.25919306 0.05944198 -0.07236015 -0.020024536 -0.040785816 -0.06682167 -0.044542946 -0.011479553 -0.03443633 -0.029486777 0.019754441 -0.077354304 -0.100195006 0.040135253 -0.0036584428 -0.02415828 -0.124921665 -0.08109996 -0.0087074265 -0.0301856 0.003085468 0.027222436 0.022769053 0.08725007 -0.002496203 -0.062193897 0.026170732 0.022263965 -0.018170979 -0.00017946966 0.09357903 -0.012997267
-0.07743434 -0.25396007 0.030634549 -0.07121457 -0.21200573 -0.057387 0.0567931 -0.06570909 -0.04646826 -0.10796105 -0.14745435 -0.017003816 0.15215339 0.00989759 -0.028364332 -0.032499027 0.120832495 -0.021302447 0.034211785 -0.018503483 -0.18535617 -0.07294267 0.10157339 0.050111763 -0.07624916 -0.15235479 0.09624086 -0.00028428287 0.16351964 -0.09104466 -0.12029136 0.044324413
-0.24980393 0.05650502 -0.007743559 -0.15163222 0.12390434 0.0030173634 -0.12983464 0.16231473 -0.146144 -0.11549531 -0.08685824 0.16263515 -0.020765373 0.00063626067 0.0673501 -0.0222105 -0.05789023 -0.12567547 0.08969677 -0.11565186 0.13062039 -0.16260168 -0.013785446 -0.061443772 -0.043093003 0.15307187 0.06892279 0.19833905 0.009615547 -0.019401174 -0.06778445 -0.041994996
-0.08264184 -0.008927471 -0.025981259 0.015522014 0.017998934 0.024802037 0.12288447 -0.060575783 0.003909881 -0.047333997 -0.027302254 0.07817509 -0.0062088235 -0.09341422 0.23031504 -0.13212469 0.09303348 0.010269602 -0.1356848 -0.013176417 0.03414006 -0.07390765 -0.027178915 0.08903355 -0.022100143 0.040807128 0.04858853 0.12954445 0.0020400311 -0.06744838 -0.049184445 0.114418216
0.2466071 -0.015919851 0.08007118 -0.022428352 -0.08864953 0.03333608 -0.023127818 0.07918993 0.08255792 0.08680772 0.09521234 -0.033239022 -0.030718433 0.044712186 -0.24149147 -0.077248655 -0.1526765 -0.056027595 -0.12149765 0.00167768 0.06343519 -0.14848988 -0.057923183 0.13484131 -0.124070786 -0.05783622 -0.03248734 0.013481473 -0.013821742 0.015693394 0.0581975 -0.10423916
-0.028568143 0.10845118 0.086037226 0.03241311 0.117876746 0.0135541605 -0.07912644 -0.070433095 0.012930878 0.015808003 0.067027256 0.04001009 -0.06903422 -0.041922938 0.14227052 0.08182413 -0.14022169 0.16143359 0.04931943 0.06859786 0.26576778 -0.07515608 0.16299853 -0.1252354 0.14596345 -0.04536731 -0.04529311 0.108298376 0.12549827 0.08376757 0.049622446 -0.0043078335
-0.086566895 -0.007538682 -0.09450396 -0.05701536 0.039526835 0.14484547 0.022334494 -0.029042892 0.122929014 0.119209506 -0.15454066 0.011337888 0.0835856 0.028462807 0.03783927 0.065839216 0.09938939 -0.0201037 -0.038146246 0.0011469083 0.047297955 -0.057794165 0.120886154 -0.004790498 -0.036605846 0.017676368 0.07122116 0.00045183368 0.0011413648 -0.014618789 0.07238693 0.18040283
0.013254572 0.34903863 -0.12718265 -0.08655571 -0.21023846 -0.051732518 0.30289128 -0.055693515 0.31776303 0.03294227 0.09649507 -0.1347211 0.49276707 -0.13977209 0.010977209 0.061983243 0.12553586 0.22412229 0.018106092 0.17958504 -0.17910856 0.06466265 0.18815185 0.20901926 -0.13434282 -0.27244607 0.5697026 -0.028995607 0.4375552 0.03564482 0.3393894 0.28327394
0.027726738 -0.06714183 -0.07023895 -0.08277859 0.12318676 0.10907297 0.010869407 0.2066394 -0.006960016 -0.002548393 0.007448707 0.13806435 -0.03976685 -0.022850186 0.13435799 0.02437729 -0.12230324 -0.048416846 0.09588353 -0.03372186 0.08206891 -0.065031275 0.13374315 0.1319385 0.13432053 0.027429791 -0.004437257 0.04934074 -0.03076753 0.04226044 -0.0923119 -0.066730484
0.14549935 0.05443573 0.031973246 -0.12419981 0.035867006 0.28696987 0.111468725 0.0752013 0.15472715 -0.016490655 -0.049193423 0.07959526 -0.040087473 0.03967626 0.105310276 0.0023964522 -0.057670258 0.085077226 -0.0031481187 -0.08081968 0.20233864 -0.055275865 -0.19342563 -0.076270685 0.009911835 0.037006345 -0.0079352325 0.052344237 0.061460853 0.029851977 -0.021801816 -0.050888002
-0.036661096 -0.027093964 0.007143812 -0.119665235 -0.041631572 -0.012305865 -0.11108549 -0.060083367 -0.17205295 0.035228122 0.08745364 0.12202356 -0.04834383 -0.045648385 -0.006687763 -0.067137904 0.035938296 -0.07877642 -0.10212349 -0.06304117 0.021286378 -0.14095399 0.045119386 -0.0146766715 -0.13632625 0.1862339 -0.082534194 -0.091437854 -0.060216013 0.0093812775 -0.13585207 0.021146914
0.11142851 0.18360963 0.06541307 -0.0065400493 0.06122724 -0.15275376 0.06797894 -0.20553997 0.06288602 0.04982168 0.09633556 -0.17523302 0.05128357 0.10200148 -0.15930973 0.069667384 0.047992744 0.043560226 0.09394165 0.22194451 -0.012250855 -0.04566362 0.072317466 0.11165518 0.033650152 -0.08276968 0.095833085 -0.07837249 0.20287125 0.042161442 0.1316519 -0.042767815
-0.14898723 -0.090763964 0.022673152 0.06414692 -0.11927147 -0.23277906 0.029603228 -0.1640793 0.012091822 0.10191784 -0.0027391496 -0.21431547 -0.07995378 -0.0055875126 -0.23048662 -0.05607915 -0.1255078 0.027182775 0.0096037425 -0.018354028 0.036990874 -0.030146183 -0.07048518 0.091781065 0.103289634 -0.20830488 -0.04058214 -0.15052266 -0.013942183 -0.004147693 0.0098545775 -0.01737288
-0.21888213 -0.15335119 0.006618514 0.044315543 0.19529636 0.03347506 -0.10491217 0.18062772 -0.053387266 -0.112379186 -0.0476745 0.12469242 0.07087739 0.043886043 0.07491525 0.06895807 -0.1617219 -0.26089966 0.038511224 -0.10734281 0.24688555 0.03339944 -0.22921489 -0.20331766 0.10588693 0.26269707 -0.18500286 0.24923123 -0.13130364 -0.12083699 -0.14524622 0.003987711
0.04605694 -0.10601769 0.01785603 -0.03834638 -0.11094059 0.053539388 0.002826585 0.20356573 0.17241006 0.010164777 -0.04137967 0.054468624 0.0071724835 -0.15450577 0.16823302 -0.116421826 -0.043560266 -0.017606411 -0.016356913 -0.11171738 0.07220037 -0.09416133 -0.03782466 -0.00997254 0.05854954 0.20661704 -0.07389762 0.051237177 0.06310479 -0.04645273 0.019758925 0.05510009
-0.12814407 -0.2266559 0.06467048 -0.05201368 0.016353838 -0.06258554 -0.0066370354 -0.10436966 -0.012073954 0.022989273 -0.12692207 -0.09953733 -0.14125565 -0.015992241 -0.074442096 0.033593718 -0.17281576 0.043789104 0.010823458 -0.07993689 0.00068126764 0.07863309 0.030910788 -0.057945207 -0.16959122 0.0063999607 0.09010901 -0.18517493 0.048948515 -0.013203303 -0.10976563 0.06910303
-0.07249647 -0.13367407 0.04633833 0.0774804 0.05399449 0.06699539 -0.030326445 0.09567644 0.027418854 -0.013352884 -0.1464858 0.10386171 -0.15474464 0.03483589 0.009036132 0.0045655644 -0.13720098 -0.17943037 -0.02712461 -0.15167318 4.856954e-05 0.031528775 0.11075121 -0.06516692 0.18928924 0.08156001 0.119566716 -0.105830066 0.07156931 -0.0049054124 -0.082466 -0.02857377
0.053114902 -0.09290437 -0.02573341 0.10000606 -0.0406362 0.0014122225 0.0037296508 0.026805026 -0.05768528 0.039303854 0.04677289 -0.027286157 -0.003972836 -0.08722156 -0.20792733 0.015526969 -0.22194327 -0.14012079 0.049666546 0.0018778455 -0.2680925 -0.03191213 -0.07285718 -0.088659 -0.095475905 0.02908289 -0.03604646 -0.19106042 -0.102519915 -0.080605164 0.043051057 -0.076855384
-0.14135489 -0.12358512 -0.058498994 0.008319472 -0.03066702 -0.19244154 -0.13742262 0.106489256 -0.099476814 0.08496735 0.018953862 0.058258675 -0.079899475 -0.058654685 -0.16464868 0.0076274523 -0.022278003 -0.2110944 -0.06910569 -0.20515558 -0.018540876 -0.032376368 0.09010448 -0.1877652 0.08426043 -0.1309019 -0.13897245 -0.01500058 -0.18082394 -0.06815217 -0.053324707 -0.011377471
-0.065594815 0.14173631 0.07095502 -0.21122633 0.03009407 0.08517465 0.0115871355 -0.11150051 -0.05096351 0.0033231936 -0.11017273 -0.10018499 0.10219301 0.059973594 0.0428397 0.15145361 -0.07141686 -0.09587708 -0.0048895497 0.18623842 -0.116535395 -0.041013815 0.061185535 0.03230122 -0.04448161 -0.15247688 0.04148309 0.07666675 0.031230776 -0.10767139 -0.035191253 0.017825993
0.13853343 0.18687183 0.0070110084 -0.1825896 -0.119969204 -0.24888536 0.018651482 0.06272149 0.20195271 0.008582657 -0.016275093 -0.012010841 0.22666994 0.015490724 -0.13023482 -0.070316985 0.00070732355 -0.08773483 0.073020376 0.2028104 -0.08292087 -0.109895475 0.15856117 0.16024426 -0.0744073 -0.07547604 0.021385686 -0.06618048 0.006875905 0.019202022 -0.027488647 0.15344478
-0.021381862 0.051348817 0.0039146435 0.009647215 0.014583862 0.03473656 0.11522404 -0.11264028 -0.062097825 -0.092585914 -0.080697104 -0.042445388 -0.03430429 -0.06626464 -0.1464252 -0.08291264 -0.06603175 0.088050395 0.062367603 0.08391737 0.024006173 0.00018020716 0.05390828 -0.02600914 -0.1323567 -0.124723755 -0.034638576 -0.16247423 -0.019867975 0.007917618 -0.029583488 -0.0045008822
0.0605768 0.01849124 -0.038113996 -0.100868866 0.032661468 -0.11895158 0.08745784 -0.16456942 -0.02574966 -0.05328726 0.10065403 -0.15148927 -0.04257431 0.05966167 -0.06773675 -0.18697506 -0.078114726 0.09137178 -0.08662714 0.023954885 -0.055791777 -0.034843005 0.028307728 0.00040196892 -0.012934014 -0.010731676 -0.05855991 -0.094737306 -0.074951515 -0.013396559 -0.16004358 -0.031472955
-0.16483675 0.10445086 0.004303342 0.038186856 -0.018011542 0.2406821 0.11092632 0.07086756 -0.059352178 -0.018837685 0.053497896 0.10366117 0.11665449 0.021226592 0.060790714 -0.053293303 -0.043091226 -0.2825906 0.069637164 -0.110147156 0.11809829 0.0042678136 -0.03125225 0.0232339 0.02280119 0.09175438 0.18939243 0.025641536 -0.008437155 0.026632637 -0.118779905 -0.10296064
0.12386402 -0.023113156 -0.012505109 0.0869789 0.003281979 -0.06264077 0.02227036 0.12199446 -0.06766021 0.06953306 0.07077719 -0.040957525 0.05813894 0.052944064 0.059295233 -0.028284678 -0.00022002085 -0.05600575 -0.04160089 -0.0014410728 0.069160774 0.036609225 -0.09636187 0.14748177 0.10026918 -0.019953523 -0.19401424 0.044187933 -0.05067683 0.12853922 -0.018173803 0.15774165
0.038916223 0.07055489 -0.029696193 -0.22890696 0.04743431 0.04122491 -0.08090105 0.10250046 0.08068226 -0.08010573 -0.019202383 0.20601505 -0.018569738 0.052211672 0.06075025 -0.096262366 -0.20327555 -0.26871666 0.059310015 -0.17687932 0.116717875 -0.013416143 -0.043577056 -0.10035894 -0.09255839 0.02784398 -0.08015801 -0.02465897 -0.040276494 0.07434781 -0.15707423 -0.02014924
-0.16275828 -0.0819441 -0.080866575 0.017872125 -0.08444255 0.07258454 0.027332585 -0.13048466 -0.014506458 -0.052573025 -0.08649476 0.13182274 -0.14240475 0.06846375 0.05879427 -0.08640959 -0.03826953 0.093064815 0.07861004 -0.088462755 -0.0469156 -0.07548339 0.05761254 -0.123306826 -0.049532946 0.16161449 -0.12569226 0.07041412 0.09382527 0.024276448 -0.06635519 -0.18247369
-0.19103165 0.112845734 -0.05952017 -0.20573963 -0.05463285 -0.09667846 0.0031709995 -0.10751652 0.012277672 0.015270928 -0.017262917 -0.08633633 -0.026014283 -0.1791924 0.037163697 -0.09736614 -0.011598127 0.020082533 -0.077066615 -0.045629628 -0.124256045 -0.034532208 -0.10161912 -0.2496196 -0.06866532 -0.1229255 -0.016963331 -0.08355758 0.04002781 0.018819636 -0.16985022 -0.20347041
0.011082607 0.048380118 -0.09200733 0.0059830197 -0.20902854 -0.016838757 0.09896244 0.002600755 -0.0576898 -0.16124433 -0.13402599 0.06545594 -0.024961088 0.008327675 -0.06827849 -0.12205352 -0.011755016 0.023578798 -0.10528524 0.07690654 -0.12547585 0.03512445 0.08197838 -0.046999793 -0.1725068 0.012685264 -0.043594796 -0.02997326 -0.06096229 -0.034966126 0.031482276 0.039259374
-0.05694898 0.016423672 -0.018725308 -0.1916584 0.04133489 0.09551147 0.08666578 0.060352717 -0.08013597 -0.057633672 -0.0767545 0.04870251 -0.016073024 -0.109792314 -0.03837269 -0.014999194 -0.032492086 0.00392845 -0.06719045 -0.17929167 0.24259384 -0.055103388 -0.03409281 0.058341257 -0.07340101 0.061465774 0.0036798976 -0.054610565 -0.14423019 -0.015312899 -0.023329828 0.12629126
0.15186073 -0.06680084 -0.039024107 0.030973155 -0.19467716 -0.175532 0.089126185 -0.15035589 0.08532748 -0.101572946 -0.013428271 0.032518845 0.08077106 -0.15053384 -0.24058525 -0.06156952 0.036887757 0.07865468 -0.029979646 0.02160253 -0.13246423 -0.15363514 0.120184034 -0.13011079 -0.18817845 -0.071934335 0.13711421 -0.083203994 0.15130904 -0.063560046 0.094310395 0.036020964
-0.044521566 0.12734179 0.05753938 0.010167851 0.17791897 0.11026166 -0.07093268 0.31734332 -0.007561181 -0.12912942 -0.044307843 0.16394731 -0.15770097 0.10044823 0.35928938 -0.05348075 0.071944006 -0.11071649 -0.030512227 -0.27245593 0.12524018 -0.03202684 -0.06260463 0.041406415 -0.02717201 0.24643984 -0.22447665 0.41508174 -0.1603473 -0.011252336 -0.1945434 0.06105928
-0.16451363 0.07303992 -0.01044585 0.0715147 0.14447409 0.069716044 -0.110652916 0.018901596 -0.105210714 -0.14604631 0.017576547 -0.07764152 0.019190734 -0.12160246 0.31765252 -0.026995039 -0.09241842 -0.004505935 -0.015844801 0.037693027 0.12028813 0.084976025 0.104471624 0.12098818 0.21032876 0.10022062 -0.08914543 0.21931535 -0.057829786 -0.05150606 0.02419345 -0.03473118
-0.12629102 -0.15577075 0.005645602 -0.19399638 -0.1862108 0.02889592 -0.0792273 -0.10242319 -0.052996565 0.084380805 -0.025421454 -0.045563456 0.026437035 -0.13735671 0.082733124 0.05375207 0.047011625 -0.0669588 -0.02958509 -0.09748262 -0.19212916 0.07313252 -0.016275866 -0.006412022 0.041248504 -0.063727304 0.16163431 0.057760905 -0.023723431 -0.083630286 0.026682617 -0.06941813
-0.052092202 -0.14227305 -0.13551208 0.027004229 0.15186433 0.04800266 -0.2914675 0.06310699 0.037705883 -0.10805976 -0.07690939 0.22273856 -0.22079484 -0.15444729 0.14715159 -0.16553782 0.0037085873 0.156286 -0.041547943 -0.16459009 -0.09421178 -0.17009357 -0.08401427 -0.20479672 0.0061906776 0.18263522 -0.34058398 0.33529794 -0.31565067 0.03652974 -0.21915871 -0.20621158
0.06643871 -0.030183462 0.07418111 -0.12392521 -0.09481252 0.08636624 0.19500121 -0.097052075 -0.09692809 -0.06538038 0.023096466 0.107372254 0.039165497 -0.15279366 0.07347854 0.06456287 0.14867046 -0.027746046 0.124334656 0.13792217 -0.027017497 -0.026314676 -0.079698384 0.04469506 0.068014584 -0.049357824 0.16261691 0.036181606 0.07220935 -0.048565052 -0.16505906 0.08889565
-0.039562263 -0.015488631 -0.14791338 0.009835613 -0.072806716 0.120277405 -0.13808751 0.06822819 -0.055724796 -0.105719425 -0.025105672 0.04380146 -0.07412511 -0.0042016716 0.11985633 -0.007730175 0.059022058 -0.12198032 -0.10598993 -0.0765392 0.21703547 0.04864535 0.035851028 0.0042887162 0.025278479 0.09084711 -0.008750286 0.12395951 -0.12756637 0.030846488 0.1079199 -0.081008166
0.10692779 -0.13741963 -0.119683884 -0.06373087 -0.08920952 -0.012244692 0.0010409866 -0.06615747 0.14916286 -0.09146833 -0.062829986 -0.02217502 0.12819277 0.100359 -0.17009751 -0.08508632 -0.023960782 0.085469134 -0.0695609 0.21594954 -0.004057045 0.07896218 0.07150977 -0.07678745 -0.14936705 -0.0069421777 0.09357364 -0.0012599074 0.1597033 0.04896512 0.15688756 0.00055029726
0.120162256 -0.05008156 -0.15323901 -0.12270198 -0.047288932 0.094665915 -0.18396327 0.076376915 -0.005229026 0.06851873 0.07605188 0.072020404 0.12155485 0.05410203 0.031161794 -0.036847632 -0.038886007 0.050004613 0.08084118 0.050860967 0.04680522 0.078064896 -0.08882723 0.11785165 -0.18260886 -0.029255612 -0.105097204 -0.053220093 0.10280355 -0.03708366 0.13047569 0.0049520205
0.04559699 -0.049869962 -0.08857948 0.0010905853 -0.004459199 -0.13029139 -0.12900038 -0.023631895 0.05469178 -0.13923717 0.09880922 -0.038067665 -0.005793325 -0.05259311 0.05823174 -0.21221562 -0.092678264 -0.1647241 -0.036654375 -0.08679057 -0.088651784 -0.053218424 -0.07451251 0.084819995 -0.01280561 -0.04790792 0.09373707 -0.22022745 0.029299924 0.06403859 -0.13671194 -0.012166998
0.026848914 -0.043556154 0.083711885 -0.17106766 0.09949732 0.024799068 -0.03269108 -0.058777124 -0.0652329 -0.12719025 -0.005159858 0.01676807 -0.180406 0.024813501 0.14050756 -0.025824584 0.0027396807 0.028023897 -0.004373423 -0.06169978 0.083380215 -0.11783023 -0.055090733 0.050732113 -0.13591321 -0.08385586 -0.04097874 -0.015597008 -0.13151467 -0.1748202 0.025234535 -0.004203283
-0.13453639 -0.12211741 -0.15389897 0.05691135 -0.10307122 0.019493872 -0.016390301 0.06782787 -0.09721613 -0.09864687 -0.1501097 -0.123868234 0.040955406 -0.18931527 -0.14984164 -0.06564119 -0.069338255 -0.18626781 0.100698225 0.13227783 -0.07321789 0.011640287 0.031791486 0.008684646 0.0035811362 0.105378546 -0.016048554 -0.14332569 -0.039967597 -0.0046953047 -0.014920232 -0.07666532
-0.2612341 0.0052562715 -0.10660267 0.16712806 0.0064017344 0.022265945 -0.10497876 -0.004586833 -0.24310549 -0.093847275 -0.0067845643 0.085238405 -0.098768316 0.0040847976 0.12905449 -0.008281196 -0.0679855 0.10544149 -0.09032196 -0.10921701 -0.053199593 0.10604636 -0.011239789 -0.006268788 -0.021409828 0.103865564 -0.07937288 0.16126744 -0.13609247 -0.1840795 -0.19521232 0.031845465
-0.06340492 -0.063999414 -0.11922515 -0.14114852 0.050711937 -0.003849412 -0.12700817 -0.12854677 0.06587973 -0.05564528 -0.042863064 0.057405595 0.09977653 0.0895699 -0.07887215 0.034245215 -0.14660847 -0.15898424 -0.026232207 -0.0337858 0.1276657 0.11066076 0.11191809 0.20308287 0.1343599 -0.03278169 0.109949686 -0.048171084 -0.0484223 0.0136842765 0.03367071 0.0012693079
0.0824894 0.028262828 -0.051589776 0.07900669 -0.071563706 -0.143635 0.068685494 -0.041469187 0.15039425 -0.14229354 -0.0063990117 -0.16229242 0.16857141 -0.19803691 -0.29480097 -0.003757442 -0.091564804 -0.06985302 -0.008935133 -0.07530245 -0.19121838 -0.10399541 0.076811746 -0.13244203 -0.07274031 -0.08257608 0.12866022 -0.06642982 0.10001846 0.025370853 0.09640012 0.12285946
-0.03600333 0.08484437 0.07663675 -0.058964208 -0.10114227 0.06641701 0.14080596 -0.056921676 0.009590008 -0.0057869954 0.091398135 -0.17668107 -0.10432988 -0.09978143 -0.055420417 -0.19850457 0.026035974 -0.029561939 -0.08839132 0.036467325 -0.10097049 0.0019758875 0.035112634 0.0585655 -0.18848018 -0.14027712 0.012635261 -0.08582528 -0.060770724 -0.09479448 0.050162483 -0.18000591
0.08750242 -0.13004357 -0.05558192 0.04666189 -0.15766242 -0.049908865 -0.031698924 -0.16180572 0.13584189 0.009299603 0.02193501 -0.06530388 0.043281626 -0.019908158 -0.117271364 0.025199821 0.06113908 -0.121994846 0.016897354 0.16015723 0.058309156 -0.012828283 0.017849308 0.12172004 0.10486607 -0.16890652 0.06811656 -0.053203367 0.14219119 -0.014620511 0.049326725 -0.021972407
0.10365606 0.1373709 -0.07172492 0.0019035743 0.11031609 -0.01615962 0.037788693 0.013166169 0.19907714 -0.044637274 -0.1469147 -0.046847437 0.04147003 -0.057611138 0.056855224 0.12050653 0.024249578 0.082576774 -0.12915571 0.1446355 -0.050915707 -0.1259544 0.16261224 -0.008050317 -0.09911832 0.063470796 0.048139215 -0.11021959 0.16086315 -0.08929236 0.2335741 0.16378999
0.056292146 -0.084067516 -0.15340114 0.0085948175 -0.15291542 0.063328385 0.1211139 -0.032116238 0.013349168 -0.12193638 0.0027673794 -0.043894388 -0.05318247 0.040290453 0.08263244 -0.08285127 0.07343781 0.32795975 -0.09480892 0.022984652 -0.12073015 -0.04706294 0.22880295 0.07785806 -0.07705479 -0.02021606 0.07504354 -0.07624935 0.22069477 0.098879285 -0.059054554 0.05121176
-0.1079453 0.06336928 -0.12568152 -0.108498186 -0.09686777 -0.0027171911 -0.16465215 0.08684785 -0.07847536 -0.032020308 0.005985226 0.15206885 -0.18010534 -0.08518539 -0.00361095 -0.0813445 0.10983085 0.034633253 -0.071569614 -0.12052776 -0.10172524 -0.11285806 -0.16552803 -0.21032764 -0.074643314 -0.015300056 -0.13138114 0.09592189 -0.17972754 -0.06737788 -0.07258252 -0.06285145
-0.023224734 0.11426573 -0.037708193 0.11489199 0.13219482 0.015106091 0.029339306 -0.0245695 -0.097741984 -0.029377116 0.1274063 0.029577889 0.10721809 -0.17174765 0.15201183 0.18434526 0.015987555 0.12232939 -0.060281653 -0.09058332 0.14760017 -0.030563945 -0.03476933 -0.055023264 0.0646556 0.08162238 -0.044526022 0.18781286 -0.04361603 0.07824195 0.03107841 -0.24896495
-0.030422032 0.106374 0.07962002 -0.031760257 -0.19745634 0.02107641 -0.11711702 -0.11468026 -0.077030025 0.053913042 -0.16445172 -0.1344403 0.082655065 0.07241312 0.0859685 0.12823123 -0.0366273 0.006817904 0.03144696 0.019314017 -0.08062288 -0.11780255 0.02151922 -0.18803115 -0.15658659 -0.09150654 0.007592627 0.029367642 -0.027998222 0.10089788 0.097929895 0.15799592
0.1618975 -0.007863656 0.005089323 -0.026909094 -0.09964704 0.05356369 0.13705242 -0.09255866 0.15942568 -0.055512104 -0.0852335 0.09098496 0.034045134 -0.10000068 0.043964688 -0.08245714 -0.04379007 0.07919119 -0.11579803 0.09180322 0.043635286 -0.051578954 0.06292257 -0.04062224 -0.10577251 -0.0485424 -0.085951366 -0.017803382 0.18812011 -0.14092612 0.042227715 0.18825884
0.03798474 0.19677018 0.052612595 -0.05278555 -0.28370085 -0.04869977 0.03973639 -0.19876468 0.09489753 0.01966158 -0.06517644 -0.043452404 0.16330265 -0.03296887 -0.06999535 0.06476105 0.040786207 0.1292377 0.08481551 0.079942904 -0.22738333 0.0808468 0.14397678 0.13563173 -0.19127953 -0.112630956 -0.10026595 -0.1557994 0.059056412 -0.0311476 0.123662606 0.13631009
-0.025775665 0.24467675 -0.07804493 -0.041087512 0.07835024 -0.02317119 0.24939638 0.03273642 0.23199718 -0.07125997 -0.063404106 0.043415017 0.11913903 0.080539845 0.09358968 0.05467628 0.03804389 -0.021642804 0.07643297 0.13158183 -0.0041655824 -0.15723296 0.20511606 -0.059479438 0.113327995 -0.2291651 0.25571096 0.09465243 0.26136437 -0.06700957 0.10164885 0.14263274
-0.036555182 -0.040328436 0.100972496 0.01036399 0.07696779 0.124970175 -0.088787235 0.13873558 0.0658283 -0.048102353 -0.0391408 0.093650706 -0.04600641 -0.039450806 -0.060675856 -0.068452954 -0.061229292 -0.20347185 -0.096641615 -0.105198026 0.2256568 -0.06038377 -0.11412128 0.055124436 0.08929246 -0.0019896547 0.03043219 0.08524431 0.032652263 0.053042777 0.10143972 0.10420646
0.039721925 -0.21428248 -0.07901582 0.0020000155 -0.053335667 0.08800056 0.08622251 -0.14843345 -0.053235073 0.004455576 -0.042671863 -0.18836233 -0.008313126 0.04911867 -0.01001824 -0.09461004 -0.020719076 0.082195625 0.06279829 0.23535237 -0.20811369 0.06426734 0.1657978 -0.09672111 0.114798285 -0.06352338 -0.06516385 -0.16808791 -0.035975415 0.06900648 0.06416555 -0.009771891
0.07869339 -0.083951935 0.087039955 0.06536814 -0.10715987 -0.11906214 -0.046621993 -0.18859266 -0.02777427 -0.053931095 0.04323496 -0.11805548 0.011070392 -0.006211962 -0.081772566 -0.1482788 -0.06930817 0.030851245 0.059984278 -0.05861231 -0.00814698 0.03759554 -0.12690547 0.024764217 0.17577362 -0.055880934 -0.0011470673 -0.10624802 0.06445778 -0.13276537 -0.10295416 -0.026438791
0.046239838 0.12476551 0.04275457 0.039753105 0.09611798 0.14783245 -0.078833856 0.014533402 0.012931218 0.04541244 -0.11221809 0.049114753 -0.037157387 0.08719495 -0.03591649 -0.015311749 -0.121403664 -0.029445065 -0.0009740776 -0.17106563 0.14018895 0.032858245 -0.13273367 0.03646618 0.028978325 -0.054894663 -0.26074624 -0.12744741 -0.058167122 -0.09602041 -0.1901587 0.037076194
0.09209061 -0.07974591 0.028289111 0.13310932 0.1880943 -0.034210194 -0.06738376 0.12737967 -0.07143037 0.09727534 -0.02697208 0.102323964 -0.015178693 -0.058686495 -0.027040925 0.06483425 0.07624696 0.10128865 -0.13128616 0.041203577 0.0053495485 -0.041483283 -0.039746754 0.11289496 -0.038374398 -0.016194386 0.017045418 0.068034664 -0.08146273 -0.006416613 0.042261098 -0.21697068
0.018924516 -0.05002478 -0.1351323 0.090997316 -0.008997998 0.1650522 -0.06982081 -0.037529077 -0.13536559 0.08115302 -0.13388886 -0.03132312 0.0138399415 -0.13395362 0.038119294 0.07814039 -0.1119359 0.18575157 -0.03923308 -0.04498968 0.080850184 0.011319842 -0.1262523 0.11480914 0.16581643 -0.06658881 -0.0026156623 0.05630702 -0.1340279 -0.17849602 -0.12750432 0.08102156
-0.09601179 -0.084875435 0.027707905 0.11691882 0.030242112 -0.0478583 -0.08877675 0.05315678 0.03926352 0.010313793 0.015789527 0.06850169 -0.0036196536 0.062424913 -0.047878746 -0.20516856 0.060332157 -0.16384429 0.13078237 -0.010314619 -0.023430584 0.07967322 0.12206103 -0.103404894 -0.05294119 -0.00080338976 0.01824673 0.06046057 0.093960665 -0.18910272 0.04157452 -0.06541934
0.019704597 -0.2041427 -0.1284725 -0.14392474 0.02611938 0.056605253 -0.12927234 -0.09051876 0.19009534 -0.039201517 -0.016333822 -0.104626514 0.03342386 -0.13752472 -0.03932408 -0.13303368 -0.13746409 -0.143814 -0.0087438105 0.022236679 -0.10766679 -0.14430076 0.10138271 0.115936115 0.021287657 -0.051969983 0.10201722 -0.012592868 0.105539314 -0.089855246 -0.0098773595 -0.0400232
0.08332712 0.0884162 -0.010785019 0.05093796 -0.08261411 -0.008418786 -0.10071932 0.008249232 -0.109164104 -0.08274736 -0.08679058 0.16146667 0.010958665 -0.15280265 0.017588759 0.0961806 -0.15780239 0.20855094 0.039253686 0.14683847 -0.037608333 0.0807999 0.050971597 -0.019056724 -0.034538064 0.002269549 -0.10551465 -0.08800639 0.048707012 0.047345918 0.026629033 -0.11525919
-0.10803492 -0.056193262 -0.09622948 0.14318289 0.26192853 0.2162741 -0.21824372 0.13775276 -0.0951449 -0.015393495 -0.02209179 -0.042402666 -0.15858288 -0.117889315 0.3268044 0.14531954 0.007059836 -0.30036873 0.0250666 -0.18935749 0.1887421 -0.013020557 -0.04049526 -0.078549035 0.035705186 0.21662383 -0.24627659 0.21123889 -0.28382 -0.13909456 -0.34415162 -0.17771466
0.06755735 -0.060936898 -0.12238648 -0.028788714 0.07944856 0.077141926 0.10782575 -0.047981247 -0.03702886 -0.12492888 -0.14425364 -0.024382124 -0.121506214 0.010080504 -0.03904706 0.032179296 -0.046132285 0.00087864714 0.027798045 0.13615997 0.07222043 0.09530919 0.16263728 -0.038438752 0.11545389 -0.17016111 0.11186553 -0.041055433 -0.10259362 0.057913788 0.07667298 -0.016051432
-0.25488743 -0.08646637 -0.15622799 -0.13343623 0.0039600115 0.14416417 -0.11249016 0.24987921 -0.17232056 -0.016012687 0.09985092 0.104441956 -0.11751075 -0.011414922 0.07233161 0.13836858 -0.19405667 0.010688652 0.023416033 -0.1366655 -0.033112675 0.12789834 -0.03252096 -0.054393902 0.10594081 0.18030433 -0.048048276 0.23361893 -0.1329789 -0.1479733 -0.2865038 0.07017711
0.030751096 -0.099056266 0.043718565 -0.033120945 0.0001988233 -0.050089996 -0.02423479 -0.18312377 0.049228452 -0.049755376 -0.10823664 -0.04161832 0.08663753 -0.027026469 -0.1310036 -0.051430594 -0.10369754 0.028871434 -0.058246214 -0.05261408 0.025568016 -0.087554835 -0.15508182 -0.06257373 0.016073655 -0.028639123 -0.021550145 -0.049956802 0.18979348 0.10414406 -0.015047185 0.09104054
-0.14695539 0.048795234 0.05143582 0.11489455 0.040061202 -0.11452547 -0.22270909 -0.124257535 -0.014329572 -0.0595165 0.0044421735 -0.08536547 -0.20457806 0.04920542 -0.05161811 -0.13061352 0.016617367 -0.02940765 0.015620075 -0.110621035 0.030107794 -0.09383533 -0.07858984 -0.06848723 0.08674884 -0.09577839 -0.25279966 0.021194475 -0.2599102 0.1091748 -0.19608676 -0.27035245
0.10094424 -0.06658564 -0.008937208 -0.0889461 0.04858017 0.05988242 0.04358973 -0.12816536 -0.006975089 0.05939065 0.021982746 -0.05497001 -0.03486161 -0.05164921 0.07287176 0.09545243 -0.032374233 -0.021764774 -0.06813614 -0.08563202 0.018401999 -0.022393612 -0.009242149 -0.14509593 0.05243548 0.06593725 -0.0786286 0.09640419 0.008701851 -0.1598889 -0.05259298 0.063586496
-0.06776714 -0.0048376 -0.007998645 0.12862971 -0.12208385 0.10781362 -0.1118101 0.09324734 -0.1522954 -0.11689074 0.0441853 0.018310823 0.06820457 -0.026972014 0.13717689 0.095783606 0.010251878 -0.12831764 -0.10728369 -0.033556446 0.09217173 0.03257886 -0.10717367 -0.11994021 0.11322086 0.07630371 0.048577614 -0.024245482 -0.0904269 -0.1333428 -0.09170706 -0.110232025
0.08129263 0.04299376 0.029024985 0.1102292 -0.0920792 0.034935966 -0.0943968 -0.007719566 -0.04288953 -0.14280225 -0.11897951 -0.036792748 -0.017171673 -0.072425336 -0.049217083 0.12238513 0.05983099 -0.18845296 0.055136144 -0.17198588 0.025866263 -0.07717916 0.062226504 -0.016347589 -0.07883847 0.028008217 0.002725882 0.06970442 0.0034460337 0.045088943 -0.10554757 0.14890966
-0.1276998 0.1317905 0.06133327 0.032560196 -0.15752138 -0.07805533 0.057186216 -0.11189246 0.14008838 -0.059915595 0.09786759 -0.0074421833 -0.08075602 -0.05913352 -0.10805097 0.012803808 0.10862093 -0.063236356 -0.01703765 -0.08153744 -0.14981863 -0.06510617 -0.085267164 0.06435451 -0.043352492 -0.008663209 0.099176586 -0.19377063 0.15028526 -0.06861822 0.14446922 -0.09181456
0.12238042 0.025755338 -0.17351137 0.0923946 0.0703487 0.027414737 -0.23571084 0.1298082 0.06529588 -0.1476372 0.10719754 0.076045826 -0.099555194 -0.025476351 0.057271592 -0.07183279 -0.12231047 -0.28032967 0.09583741 0.071665965 -0.12086263 -0.14294136 -0.15103452 -0.22950982 -0.11797956 -0.013997725 -0.12752591 -0.054941405 0.0019254626 0.021750523 -0.017734267 -0.008774007
-0.12251522 -0.13015197 0.07255409 -0.15245633 -0.10592884 -0.024407653 -0.08829246 0.015744083 0.01790161 -0.093106255 0.01346162 -0.10104637 0.06637235 -0.12574704 0.036094837 0.13412742 0.11341464 -0.07382854 0.054356616 -0.032125797 -0.009073416 0.050193876 -0.010845311 -0.034465488 -0.021309637 0.05780861 -0.012699899 -0.027304664 -0.0062287506 -0.04492891 0.096061826 0.11042147
0.033960894 -0.021808837 -0.0237859 -0.015489632 -0.1560952 0.012307993 -0.0610397 -0.11702717 0.075163156 0.09446313 0.056124944 0.015644392 0.029117221 -0.07551515 0.09717789 -0.13483423 0.11278728 0.033874366 -0.032914944 0.1143729 -0.004692006 -0.0016532111 0.07132931 0.050827008 -0.12568265 0.027972482 0.0143539095 0.0012528799 0.14212227 -0.03756216 0.22391877 -0.110278755
0.051622573 0.04931408 0.049340393 0.05260694 -0.0242026 0.014328495 -0.12848459 -0.030037867 -0.08842178 0.05879334 0.058738362 -0.067282565 -0.11411839 -0.16511965 0.088095754 -0.11565078 -0.030048054 -0.25475255 -0.07155472 0.041645907 -0.20185465 0.042728588 -0.13569571 -0.164714 -0.14838415 -0.010068383 -0.113330744 -0.13210787 -0.004631685 0.05636366 -0.020815708 -0.002854421
-0.14793848 -0.03505883 -0.11590682 -0.0027422083 -0.011527131 -0.092151135 -0.006760471 0.03391551 0.05996779 -0.08447195 -0.13384642 -0.00912006 -0.03200348 -0.1592882 0.08253541 -0.12412902 0.039686244 -0.15844499 -0.018741148 -0.024236504 0.1756291 -0.16074888 -0.1653413 -0.09868631 -0.05977651 -0.004044955 0.013685785 -0.10847457 -0.09575943 -0.17448084 -0.08180563 -0.09249348
0.028386684 0.009181223 -0.11189203 0.079702675 0.0819833 0.08844418 -0.109515406 0.20135929 -0.051393792 0.011711512 0.04913187 0.007713707 -0.08064586 -0.014845858 0.08676377 -0.15915869 0.05608924 -0.009932667 -0.058476306 -0.019688526 0.16784008 -0.12338738 0.017967481 0.046332236 5.393733e-05 0.16058572 -0.07017025 0.04353082 -0.022479985 0.09520692 -0.0847066 0.017235719
0.047136936 0.01738132 -0.106437184 -0.031992633 0.0084677525 -0.11558906 0.17914899 -0.121389546 0.08849917 -0.07670364 0.12684624 -0.09169403 0.05740876 0.06211008 0.012618751 -0.096927576 -0.076240525 0.056577645 -0.11271794 0.18273564 -0.05047184 -0.026239876 0.18550435 0.14144541 0.08422762 0.062161703 0.23485726 -0.1501533 0.06010183 0.007718822 0.10530825 -0.08427574
-0.0540985 0.02374478 -0.0072448566 -0.089931615 0.03733075 0.029158512 0.03473023 -0.12910528 -0.050739348 -0.0640993 0.031106142 0.048994686 -0.05363331 0.045488995 -0.05812698 -0.15877807 0.08789536 -0.0404026 0.097787134 0.09202396 -0.024947679 -0.1569177 -0.0155374445 -0.0778874 -0.09045561 0.018579055 -0.010224415 0.0038654155 -0.04351466 0.04509391 0.046393972 0.032393444
0.098224245 -0.050114837 -0.12771067 -0.07640484 -0.05528125 -0.13554093 0.09534011 -0.058516126 -0.029386522 -0.11751715 0.074178 -0.08474152 0.012997763 -0.19149779 0.034670148 0.019988595 -0.0748434 -0.065254115 0.008852776 -0.042484626 0.035395768 -0.1343953 -0.0450264 -0.12481019 -0.04756411 -0.05844264 -0.14690067 -0.12574989 0.0362211 -0.14908914 -0.010604106 0.03396629
0.09521631 0.1476805 0.024547054 -0.08145264 0.21463844 0.070249915 0.096704945 0.28333047 -0.06755609 -0.050017163 0.09777685 0.095628634 0.1305176 0.05182585 0.20183694 0.15949345 0.013363063 0.03393975 -0.03179312 -0.2270065 0.14289702 -0.13775781 -0.10726904 0.02753019 -0.12308716 0.11228766 -0.06429776 0.07012936 0.09156584 0.05650991 -0.07427731 -0.07632462
-0.040533688 0.037106566 0.027069822 -0.022597866 -0.07905441 -0.003670102 0.12086308 0.031839605 0.045797702 -0.12043096 -0.13653347 -0.013697606 -0.0010168995 -0.16090216 -0.042439956 -0.060980354 0.037315372 -0.08680309 0.109406725 0.13620694 0.061265003 -0.120791785 0.05825291 -0.08682954 0.061325636 -0.101862326 -0.029351726 -0.13977583 -0.045271054 0.06391165 0.029519754 0.02672114
0.053334903 0.032622274 0.041607443 0.05033593 0.13482131 -0.09218607 0.03246985 -0.097841114 0.10694911 0.042705573 0.011894793 0.073609635 0.14979927 0.036384955 0.061816506 -0.01759656 0.093293495 -0.1735616 -0.10749522 0.17432961 -0.024562877 -0.015452886 0.19306618 0.07510099 0.052747212 -0.12416112 0.020893348 0.09195715 0.12391311 0.033649255 0.0943906 -0.018703846
-0.03180991 -0.1679605 -0.11634271 0.104207695 -0.059041187 0.06167348 -0.10483874 0.060152315 -0.011978235 -0.04455849 0.10574473 -0.14011158 0.05880619 0.011563535 -0.12093158 0.0157447 -0.11492062 -0.1804532 0.01604362 -0.140265 -0.121889725 0.038192626 -0.1267131 -0.089749955 -0.08489073 0.12046392 0.12197885 -0.019647244 0.03868651 0.04592226 0.12357632 0.04160783
0.039690547 0.1097756 -0.03242835 0.025179002 -0.09168962 -0.13218813 -0.118755154 -0.032781065 0.18592241 0.063845545 0.058940154 -0.18015246 0.099912465 -0.17807117 -0.24898957 0.03117769 0.09439287 0.062762275 -0.0006261736 0.035922248 -0.13263519 -0.07531078 0.119327605 -0.05379363 -0.18133688 0.05307517 -0.065906726 -0.14710376 0.019486595 -0.11185118 0.24377847 0.17230378
0.013653085 -0.030097093 -0.16516256 -0.14048843 0.0764091 -0.06340232 0.015289522 -0.0023001505 -0.13132589 -0.10601227 -0.054113034 -0.15837827 -0.014335178 0.040683903 -0.12872253 -0.0011344288 0.028829822 0.19058718 -0.051837776 0.092899166 -0.03916808 0.058651015 0.049620934 0.100557484 0.0911079 -0.10249373 0.039262336 -0.122477256 -0.08157133 -0.06858012 0.07786203 0.04285361
-0.061857816 0.07536126 0.07471633 -0.055878647 -0.17774455 0.006525957 0.25974557 -0.18774465 -0.14353801 -0.13365714 -0.17182568 -0.10645368 0.086382024 0.04566535 -0.101711206 -0.09521321 0.039414775 -0.018333217 -0.09219751 0.12752564 -0.23493734 0.030604023 0.16746202 -0.042807896 -0.16679227 -0.2262061 0.2115974 -0.044499073 0.13463211 -0.0040932004 0.055245314 0.07737031
-0.09034216 0.08638993 0.048542067 0.20201208 0.015886957 0.057169292 0.009337553 0.1675362 0.060528465 -0.13392778 -0.08117655 -0.104580894 0.022452585 -0.15458868 0.10451648 0.041538753 -0.10035768 -0.12910308 -0.06599018 0.07019255 0.12792912 -0.07544054 -0.012814169 -0.20127857 -0.06798898 -0.012043044 0.014532814 0.06476934 0.1025812 -0.041956555 -0.032617036 0.028199112
0.25904903 0.08446098 -0.028499294 -0.091506496 0.024053968 -0.06755965 0.28370556 -0.13495478 0.18930179 -0.04855028 -0.07982399 -0.0049703238 0.14099926 -0.07404862 -0.10265247 -0.14631072 0.13225047 0.04458265 -0.14586179 0.11812475 0.03464347 0.073787436 0.07834396 0.18268412 0.110593 0.053839285 0.15054916 0.10548677 0.13929717 0.10762155 0.008044626 -0.07450305
0.018046213 -0.044386048 0.017452158 0.13648821 0.15780033 0.12643354 0.052113846 -0.11336064 0.012015638 -0.14339732 0.021835018 -0.12633617 -0.08006227 0.06517913 0.083489925 -0.121081576 0.038655978 0.12251848 -0.04096329 -0.13103898 -0.16392212 -0.12360886 -0.019061986 0.070113674 -0.17171724 0.013214928 0.0039230627 0.044954035 -0.12531582 -0.12827414 -0.004887581 0.040287275
0.0036168275 -0.079881586 -0.12491828 -0.06792132 0.057971586 -0.0932586 0.24523133 -0.04993473 0.029912315 0.08301174 -0.12698679 -0.062460642 0.045227855 0.08382434 0.046827298 -0.06195668 -0.040875256 0.08030042 -0.14628334 0.27135122 -0.11950309 -0.077151574 0.12093556 0.11896537 0.02911298 -0.0024269044 0.065787144 -0.073297724 0.07706292 0.01521603 0.087887265 0.0053411364
0.027892502 0.065431654 -0.033912525 0.03160949 0.014859495 -0.21082465 0.015121606 -0.09803039 0.0678035 -0.007370529 -0.09890458 -0.014588813 0.24696542 0.023898207 -0.23091097 -0.12679204 0.08237579 0.0008208638 0.096823595 0.08543462 -0.07556712 0.08251339 0.1280566 -0.0829483 -0.06276943 -0.0854249 0.0007484306 -0.13316105 0.097664066 -0.14656071 0.18652853 0.08953071
0.1178277 0.10311069 -0.11707046 -0.017279403 -0.05199776 0.0841465 0.14488089 -0.018455788 0.11722377 0.032474134 -0.07809665 0.02736218 -0.13336653 -0.024029376 -0.099226706 0.055405635 -0.13686696 0.062110223 -0.12794976 0.22647128 -0.07224874 0.065872654 0.18992421 0.14874706 0.17013954 0.084877476 0.16827042 -0.21085769 0.05338168 -0.121395476 0.12101158 0.03446732
0.10535478 -0.13319546 -0.051425632 -0.059646495 -0.064991534 -0.0048694964 0.022566205 -0.0392896 0.013934709 0.06226498 -0.060039755 0.0797337 -0.03131052 0.060400225 0.0402626 -0.15661612 -0.02448469 -0.13961715 0.044853717 0.096145935 -0.08373883 -0.09656179 -0.068145655 -0.030754386 0.072884016 -0.14230974 0.047062114 -0.09441526 -0.11950555 0.05096527 -0.014442359 0.016666673
-0.007918378 -0.090082176 -0.093461215 -0.058765758 0.00012680175 0.04189702 -0.2112242 -0.061391495 0.03752713 -0.13698478 -0.031096842 0.034291103 -0.1902206 -0.15028432 0.04490635 -0.03657922 -0.23240198 0.03541406 0.06474893 0.14287472 0.025736406 0.013571959 -0.23141427 -0.23234873 -0.14948097 0.116036855 -0.19539735 0.045022946 -0.19652013 -0.016983116 0.012316583 -0.09951747
0.1483453 -0.00067041983 0.09656575 -0.08810157 -0.11967811 -0.1301191 0.05733451 0.02939743 0.1557993 -0.11439845 -0.094656125 -0.20642519 -0.044909645 -0.035890114 -0.04274886 0.01904217 -0.11923588 -0.044792365 0.0152657805 -0.013985386 -0.13160975 -0.14397682 0.14975747 -0.01594656 -0.09450376 -0.19342157 0.18450007 -0.08718132 -0.09262224 0.07844762 0.00823255 0.1620485
0.22355163 0.06889448 -0.12519522 0.06225347 0.03409472 0.02534528 0.23767258 0.029704925 0.09985391 -0.062216263 -0.00886476 0.0031703843 0.03879484 0.06392193 -0.08136405 0.124966264 0.120358355 0.0064263293 0.056871403 0.0035544652 -0.095098056 -0.1031829 -0.14078411 0.063568555 -0.062168684 0.042727165 0.06460802 -0.024560196 0.022814045 -0.092607535 0.1408657 -0.095685184
0.24176383 0.039195128 -0.087997615 -0.051933322 0.08264664 0.057182696 0.080015786 0.01683829 0.18292275 -0.18250778 0.11064051 -0.08872748 0.13692588 -0.07973322 -0.0042006853 -0.14329064 0.091371536 0.049603414 -0.15419088 0.18750598 -0.049816296 -0.0712785 0.2244278 0.15878733 -0.030400438 -0.04831951 0.091778345 -0.103112645 0.26938793 -0.11735001 0.092439316 0.012582985
0.06812935 0.075222746 -0.02082897 -0.060983673 0.07313386 0.11283272 0.061909083 0.07555203 -0.10348035 -0.1317894 -0.16687924 0.04186014 0.1160168 0.050038937 -0.0542109 -0.105883345 -0.15442511 0.062331114 0.115554206 -0.034422442 0.09854886 -0.13145438 -0.14278564 0.07141673 -0.18005425 -0.015388371 -0.06663758 0.18655775 -0.0807808 -0.02598325 0.074893415 0.021300852
-0.054131962 -0.042321913 0.05851579 -0.08267942 0.09210244 0.10335878 0.1637117 0.015236709 -0.18802959 0.052099317 -0.10445689 0.022213006 0.042730045 0.040938202 0.02448847 -0.048805278 -0.003922423 0.2557983 -0.11773197 0.21258831 0.020248152 -0.16304606 0.07059507 0.058592204 -0.026262961 0.017396035 0.19037148 0.10044154 0.072438374 -0.11793876 0.054357886 -0.1646873
0.056367148 -0.12669557 -0.1429056 -0.20786186 0.12681821 -0.21164584 0.038946528 -0.023067467 0.17079474 -0.19872169 0.007820825 0.1059946 0.045870926 0.07836815 -0.17286234 -0.17402384 -0.015315418 0.16127259 0.01618441 0.12050933 -0.027837658 -0.005596469 0.056768186 0.05104039 -0.2427716 -0.083705075 0.12160508 -0.23065194 0.056420047 -0.108542755 0.07017015 0.13407965
-0.0041392352 0.14515594 -0.10733377 0.13152257 -0.08898096 0.051822837 -0.021720866 -0.20570573 0.11729536 -0.14628677 0.0353057 0.09510884 -0.032989312 0.08919335 -0.021359807 -0.06270387 -0.21316074 0.14861554 0.058917288 0.11548461 -0.10253844 -0.079736374 0.28691897 0.009625045 0.10219491 -0.0024946071 -0.0018630084 0.0069699152 0.1553394 0.047805905 0.27461222 0.00862964
0.3192378 0.20656043 -0.14942281 -0.05863419 -0.1499392 -0.079639554 0.1585883 -0.31671444 0.18845387 -0.12891567 -0.03022759 -0.19176266 0.2536033 -0.15549286 -0.13494083 -0.07327248 -0.14003162 0.17421561 -0.035613056 0.12131838 -0.1150363 -0.048623115 0.16332775 -0.10542859 -0.20724191 -0.20580344 0.14266847 -0.03823217 0.26510885 -0.020562349 0.20568703 -0.04684108
-0.002529805 -0.07410206 -0.11305609 -0.027191482 0.17006235 0.18912101 -0.091461144 0.23637334 0.02367782 0.116904214 0.004129327 0.08705068 -0.0994285 0.098426916 0.23218302 0.1725087 -0.17374124 0.04761028 0.055965506 -0.06009471 0.14317103 0.058491193 -0.039961 -0.0130146025 0.07396057 0.06800228 0.011850424 0.13136008 -0.16553496 -0.03436593 -0.281427 -0.06763042
0.15816525 0.2919967 -0.018387241 -0.13926922 -0.038315505 -0.2258412 0.11770498 -0.17152742 -0.035619553 0.020411666 -0.082667254 0.07193259 0.029014016 0.11116667 -0.16580684 0.021866629 -0.11824973 0.25339 -0.021312684 0.10349299 0.007723289 -0.123967834 -0.0029006694 -0.24475044 -0.10235913 -0.24889766 0.0054511027 -0.021601517 0.0013411248 -0.061795767 -0.11588413 -0.051362112
0.12638734 -0.02189005 0.097463146 0.066439815 -0.006921239 -0.11530232 -0.07336782 0.07076854 -0.06244158 -0.050758686 0.0724828 -0.08597612 0.04636444 0.09613411 -0.15850624 0.10033234 -0.13621421 0.06853375 0.009028064 -0.05341958 -0.042492326 -0.16742109 0.062379513 0.019363157 -0.038546097 0.03380018 -0.021353114 -0.0013435946 -0.020336421 -0.13297488 0.117756754 0.032063942
-0.14517304 -0.081433594 -0.16950767 -0.039730575 0.3003232 0.037535083 -0.13697283 0.3218317 0.04404999 0.036996562 -0.13267612 0.20105365 -0.14366084 -0.013435797 0.2401361 -0.055273876 0.050029617 -0.0066124764 -0.021376757 -0.17195213 0.027300978 0.006831504 -0.1787503 -0.056339018 -0.07833119 0.088344954 -0.095760785 0.28057465 0.032864314 -0.0013969773 -0.14187379 -0.014208956
0.076316774 0.059820905 0.04169503 -0.07050496 0.060417335 0.031873006 0.04533872 0.10209424 0.10820698 -0.10030022 0.093958735 0.033156533 -0.08767333 0.012012827 0.10614192 -0.11805446 0.07096051 -0.080553055 0.06389254 -0.06896519 0.15057917 0.04380641 -0.02671187 -0.084237 -0.027597668 -0.11636706 -0.17474812 0.10863232 -0.029661924 0.009240815 0.04569492 -0.13676354
0.016732257 -0.066068664 0.10185328 -0.15229739 0.11537457 0.014462214 -0.24184167 0.16171782 -0.25180376 -0.0009544889 -0.11035691 0.14535747 -0.10831283 -0.10462837 0.077912375 0.011703736 0.07949181 -0.13646658 0.016045237 0.0436926 -0.04687022 -0.05775228 0.0028139693 0.21073604 -0.050292548 0.013235744 0.09310657 0.121707365 -0.05894825 0.047407787 -0.053225122 -0.16883022
-0.011202938 -0.12421538 0.0752227 -0.095519744 -0.01260781 0.058032434 -0.17114857 0.2084244 -0.20282762 -0.11389821 -0.09799715 0.25105596 -0.12704845 -0.026165152 0.07350121 -0.11761615 -0.05972451 -0.080130816 0.018708104 -0.23225057 0.117931776 0.04666507 -0.09466026 -0.036075898 0.12053735 0.17347766 -0.16388258 0.18801692 -0.10725263 0.05757947 -0.23904897 -0.007231942
0.06409441 0.11712035 -0.07991486 -0.08165739 -0.065006316 -0.059937228 -0.13909198 0.03462837 0.13812314 -0.11695525 -0.11637777 -0.069662236 0.05923427 -0.010291794 0.02059541 0.038235012 0.039226983 0.107048534 -0.13314717 0.13884944 -0.16780287 -0.11428547 0.12890294 -0.022540458 -0.070453756 -0.08082095 0.085693374 -0.09381394 -0.07157518 0.05545547 0.11225208 -0.10070921
-0.100713186 -0.07506228 0.06170476 -0.08060863 0.07064806 0.028185466 -0.0119174225 0.16752881 -0.13386211 0.056453824 -0.108061776 0.074903905 0.13967094 0.09204446 0.07330195 0.047610532 -0.0761834 -0.03142761 -0.03954374 -0.11432467 0.14905575 -0.06512209 -0.11223191 -0.045827918 0.1607448 0.10397674 -0.0113053 0.057910252 -0.23416455 0.041734774 -0.018104427 0.03726057
-0.037868362 -0.14794242 0.024749966 0.12181315 0.07608085 0.106927164 -0.14866154 -0.046027865 -0.06519193 0.05953023 0.05129144 0.000118395415 0.17330965 0.054375824 0.06965388 -0.03688107 0.022459805 0.20870838 0.07566709 0.05776464 -0.01645063 0.01659825 0.06812513 0.15653464 0.046227243 -0.16102044 0.06731602 0.05398322 0.027305134 -0.14700516 0.20462747 -0.0009429973
-0.005916873 0.021883922 -0.06742855 -0.09558826 0.053756334 0.18827216 0.0575993 0.043106012 -0.035713404 -0.0107444255 0.06074835 -0.09566382 -0.0060715433 -0.13075726 -0.13330337 -0.027124032 -0.22686842 -0.00070879585 -0.09184395 -0.0576131 0.10501585 -0.08272318 -0.043070514 -0.06684502 0.003256207 0.025652045 -0.068903804 0.06685554 -0.049418323 0.0687574 0.01850437 -0.19701242
-0.027635701 -0.10564787 -0.11715547 -0.122034416 -0.10062322 -0.12314267 -0.2987492 -0.19613114 -0.037087366 -0.015887586 -0.15657789 -0.10984573 0.008726881 0.0099494485 -0.09297535 -0.1209981 -0.059875812 0.019343115 0.043246843 0.057282306 -0.12358538 0.05833058 -0.09609934 -0.107875034 0.051423013 0.041972518 -0.16266382 0.0022116194 -0.16468224 -0.08485708 -0.06618836 0.045800492
0.088540114 0.07030607 -0.07994054 -0.07746487 -0.06502162 -0.10502388 0.0931764 0.015791513 0.10644453 0.014103881 -0.12346271 0.06527616 0.053431362 -0.0035148477 0.02333201 0.03204578 -0.07263094 0.02402412 0.07785868 0.006591833 -0.23326792 0.11410678 0.009577537 0.012900843 -0.13166068 0.004682795 -0.04086001 -0.023709044 -0.051988743 -0.077893086 0.05902456 0.016321035
0.1724184 -0.021932922 0.075856626 0.07953393 -0.03788735 0.064987525 0.027181763 -0.24837461 0.007716389 -0.1531769 0.04192536 -0.11995197 0.026688868 -0.009966894 0.041147977 -0.0795114 0.063890465 0.03841983 -0.009314226 0.27938038 -0.1304208 -0.047565714 -0.14122835 -0.08605695 0.016096964 0.016116792 0.08792407 -0.004836444 0.11936941 0.10759399 -0.0142734805 -0.16658905
0.20978025 0.06434194 0.08545129 -0.033568945 -0.09814429 -0.14234503 0.10098933 -0.0026287155 0.09279344 -0.0570658 -0.01415884 -0.0760855 0.0880346 -0.053243138 0.08254741 0.06715783 0.11118375 -0.05379912 -0.0662782 0.06504269 0.05044659 -0.065935016 -0.050882604 -0.088523 0.016662499 -0.19835225 0.013650433 -0.11375703 -0.036219157 -0.026952103 -0.025579398 0.14602831
-0.13099644 0.01627947 0.015946817 0.008280391 -0.14860411 -0.10927422 0.0016826002 0.019405546 -0.12340722 0.084111735 -0.07400545 -0.1722231 -0.08430345 0.010497883 -0.06933498 -0.025722904 -0.006875621 0.019168727 0.025958156 -0.08018161 -0.035235047 -0.1390502 -0.00936351 -0.11869047 0.096461125 -0.09537654 0.07410866 0.056394123 -0.079326294 -0.1054759 -0.028576707 -0.10769296
-0.021644 0.07436718 0.0020275353 -0.048830092 0.06715453 0.1382633 -0.112601385 0.27590102 -0.06815981 -0.010102106 -0.025544116 -0.054536678 0.018268503 -0.028847313 0.25502315 0.02672229 -0.08179995 -0.09656931 -0.015588806 -0.07282985 0.16286574 -0.15502726 -0.05383595 -0.026758429 0.014126003 0.18524922 -0.025949068 0.014261326 0.026876127 0.036179867 -0.022135725 -0.16678411
0.03416529 -0.009355132 0.002036988 -0.09035814 0.014129457 -0.1350966 0.054172482 -0.2386873 0.014718869 -0.083228596 -0.11817542 -0.032308515 -0.047174074 -0.009279807 -0.14534613 -0.03593854 -0.13537118 0.11450885 -0.008972672 -0.09614239 -0.12454185 -0.11051418 -0.05170875 -0.039659567 0.047524072 -0.1732401 0.052194037 -0.10184582 -0.0020406519 0.04188368 -0.109651044 -0.061147187
0.17730516 0.08344461 0.09876704 -0.11217539 0.09578869 0.022586243 -0.041809395 -0.015986098 -0.059193585 -0.0054392996 0.03813681 0.06326902 0.017572269 -0.036657277 -0.027088962 -0.10304984 0.07600187 0.15058939 0.076793686 0.10607013 -0.12486383 0.060581956 -0.02202721 0.013292338 0.051358633 0.073050134 0.112963066 0.091767244 0.08532595 -0.03589094 0.09746963 0.09546906
-0.04395259 -0.08793518 0.0011712053 -0.041797567 0.14831083 -0.055274416 0.21941936 -0.0059241033 0.010346015 -0.012695817 -0.07833101 0.0014225825 0.2092415 -0.14954445 -0.06799946 0.080252655 0.012658578 0.0064090895 -0.11355238 0.12584966 -0.08984058 0.070123285 0.21122505 0.20030883 -0.08615151 0.014132401 0.1001864 -0.022353252 0.17634141 0.048276648 0.21207388 0.018361632
0.026166284 -0.03587245 -0.041175302 -0.013866343 -0.0009899668 0.107645184 0.1440832 0.032640073 0.08331328 0.052128732 0.09780585 -0.1600457 0.215148 -0.043279264 0.11377027 -0.07982013 0.007947803 -0.05150262 -0.04185415 0.17675424 0.03486208 0.011627549 0.016495792 0.006210702 0.03814006 0.038802426 0.17407723 -0.06689888 0.12474843 0.013096857 -0.014758106 0.17136082
0.09050735 0.013386448 -0.065569155 0.07511157 -0.16499682 -0.2101753 0.02663198 -0.19996966 0.08651922 0.099078536 0.0061218143 -0.068038 0.070311 0.02746033 -0.08371578 0.062593654 -0.07056288 0.06784915 0.028208474 -0.0035685566 -0.20609732 -0.055687115 0.12990111 0.17839837 -0.049682055 -0.15928204 0.21392967 -0.09849409 0.111884154 -0.12105109 0.115239136 -0.020073602
0.053758435 0.12734862 -0.086785085 0.012511965 -0.077602096 -0.004583857 0.050354347 -0.12119938 0.076224685 -0.09060611 -0.04362373 -0.11141449 -0.06218756 0.060227603 -0.16041504 0.06896631 0.03867812 -0.009310181 0.010623531 0.12177548 -0.12950724 -0.050383054 -0.02304832 -0.08857537 0.016890403 -0.062481515 -0.16479927 -0.043510612 0.032060143 0.10449857 0.069385275 -0.028496312
-0.07627719 0.097000465 0.08104243 0.0844405 -0.009163887 -0.101657316 0.08935052 0.008357029 -0.033007372 0.14205933 -0.14620477 -0.084655106 0.086174116 0.010981146 0.043633174 0.12756889 0.055081103 0.051236026 -0.10771437 -0.034488678 0.068895645 0.03960301 -0.015989631 0.050419882 0.024701938 0.047877148 0.17935741 0.05742418 0.18605036 -0.13690926 -0.06791039 -0.046239182
-0.092398874 -0.116382055 0.0010513664 0.036559634 0.1440855 -0.07510355 -0.05868561 0.11648088 0.0036719998 -0.022309726 -0.08806887 -0.029096674 0.025518246 0.022011494 0.08945653 -0.12320596 -0.17487065 -0.11076001 0.050863374 -0.04454033 0.09105287 -0.12360671 -0.17984834 0.015534166 -0.03608869 -0.009780461 -0.034695696 0.024418289 -0.047501113 -0.14473766 -0.08278357 -0.1571426
0.00820172 0.013404724 -0.053703997 -0.015698494 0.002417133 -0.12064651 0.05476468 -0.19775969 -0.003429358 0.008568607 0.007951655 0.0029836136 -0.059230726 -0.05045738 -0.036954023 0.02089281 -0.12412959 -0.13141865 0.013690782 0.05517794 0.029445617 0.10087351 0.19203722 0.038033314 0.018429622 -0.16997924 -0.0843785 -0.11360936 0.07470537 -0.03735165 -0.10398466 0.06246712
0.18722412 0.035171263 -0.16468158 0.08346295 -0.19796705 -0.024786018 -0.04015957 0.030735668 -0.037611004 -0.019654077 0.09658998 -0.051376767 -0.045524884 -0.011123463 -0.049097165 0.114932545 -0.12420869 0.17803001 -0.026377885 0.20834753 -0.094349116 -0.02894682 -0.043098055 0.081644446 -0.050797936 -0.115446225 0.052716073 0.07477553 0.07392926 -0.094846174 0.2181739 -0.07262498
-0.11715134 -0.055885248 0.046836715 0.06032871 -0.16355343 -0.04228897 0.037268694 -0.058482043 -0.024984464 0.008978882 -0.13942368 -0.03567449 0.011828769 -0.06184175 -0.114041544 0.059537336 -0.026055183 0.035060804 0.07294655 -0.012906558 0.018152537 0.11910776 -0.14081281 0.017776033 -0.07069643 0.04648301 -0.048938084 -0.05818588 -0.10982543 0.0552883 -0.13304226 0.02495277
0.21089633 0.07496074 -0.073912196 -0.0021356018 -0.07292576 -0.11508866 0.113628 -0.10091864 0.030536067 -0.11512626 0.05184674 0.045400757 0.061322886 -0.019398676 -0.17373027 -0.15966201 0.015045288 -0.043325007 -0.16824323 0.071384214 -0.16356497 0.032305304 0.21126513 0.06574934 0.079228744 -0.09768504 0.15527333 -0.069889285 0.107835546 0.028927704 0.07353731 0.06725457
0.023646107 -0.078052305 -0.061772075 -0.07427968 -0.012953391 -0.17191996 0.009054721 0.03122091 0.030773573 -0.019471096 0.03420649 -0.18854629 -0.09772657 -0.16341637 -0.10732548 -0.07193273 -0.091440804 0.0038942937 -0.0071948394 -0.0039252345 -0.05353747 0.0090441825 0.07618014 0.036428023 0.064797856 -0.0030532044 0.012811791 -0.019009601 0.035886437 0.07532403 -0.040633347 0.06776685
-0.03519592 -0.18716711 -0.16216867 0.094056755 -0.0058299014 -0.009446003 -0.04830949 -0.10997398 -0.01824111 0.0335902 -0.12631746 0.017773088 -0.10243984 0.09973243 -0.08190345 0.09585016 -0.037630003 -0.025095692 0.033069275 0.07381367 0.008166034 0.08271203 -0.109029956 0.07000466 0.0037431107 -0.028912514 -0.15613042 0.031159682 -0.08205189 0.043066386 -0.19472983 -0.15271813
-0.013180526 -0.1168256 0.01674424 -0.03993744 -0.17042685 -0.08020511 -0.14054827 -0.08041706 -0.114406474 0.021999069 -0.10082711 -0.27639794 -0.060561635 -0.113853 -0.014294515 -0.16668607 0.09180569 -0.103572056 -0.10383433 -0.11029443 -0.015060032 -0.13105246 -0.17005889 -0.021647174 0.08433292 -0.12704332 -0.09606351 -0.105345644 -0.101313934 -0.086214006 -0.1215812 0.06273893
-0.18044063 0.13891798 0.093726315 -0.056334436 0.1651558 -0.025315946 -0.0703628 0.15732716 0.0050751553 0.10282887 0.021903357 0.1444277 -0.034471728 -0.014931717 0.03913976 -0.021320846 -0.11293595 -0.110568985 0.014658917 -0.0021075397 0.26338878 -0.16228753 -0.11990197 0.028015798 -0.0992503 0.04890213 -0.02077749 0.27912316 -0.0759437 0.0406276 0.013294073 0.016165687
-0.13803746 -0.18290842 -0.046162035 -0.08754075 0.24644805 0.00258366 -0.2474816 0.26013613 -0.09127007 -0.11240182 -0.11575892 0.10619537 -0.13152057 0.017927743 0.2784871 -0.04088862 -0.028132368 -0.21703309 -0.041244607 -0.21361579 0.29869846 -0.03637596 -0.042200156 -0.28170875 0.10538961 0.33716893 -0.25360435 0.15855676 -0.12625605 0.06090146 -0.22810203 -0.2202486
0.36282036 0.062540255 -0.05126579 0.105616406 -0.057540666 0.026820807 0.17659731 -0.022943579 0.011667068 -0.082794584 -0.019650327 0.0019222945 -0.09305036 0.055882994 0.0068032094 -0.13152753 -0.07160882 -0.01834212 -0.20291464 0.1087251 -0.0739465 -0.14323077 0.15526932 -0.1486938 -0.31163758 0.0024550979 -0.008915091 0.016545001 -0.0031078432 -0.05317213 0.2276984 -0.1968618
-0.03537871 0.08013114 -0.14397442 -0.22868493 -0.0096113505 -0.077382684 0.08775287 -0.01754336 -0.114904225 -0.04210316 0.07175377 -0.045699533 -0.041611973 -0.09424421 -0.054743517 -0.097704045 -0.184523 0.24763708 -0.07109119 0.24151911 -0.1442794 0.052266955 0.054550443 -0.07131952 0.010545474 -0.17617388 0.13814646 -0.09218923 0.03484697 0.0068800487 0.074627444 -0.0016551676
0.1699498 0.06964646 0.10002965 -0.04102767 0.06594808 0.09807 -0.06276746 -0.043709885 0.19140565 0.0038301842 -0.06026503 -0.084017016 0.2947069 0.026325637 -0.08830253 -0.041007932 0.078611486 0.0028442533 0.047909003 0.18390566 -0.19668072 -0.13125935 0.2093568 0.16882953 0.060672015 -0.06866076 -0.0376836 0.10376294 0.18841851 -0.08717344 0.09900744 -0.05511932
0.032212906 -0.13499705 0.033311427 -0.11999758 -0.029560378 -0.054871846 0.010110226 -0.056464445 -0.09361882 -0.02257718 -0.1334107 0.15733013 -0.100812815 0.009139701 0.1265474 0.08347432 0.0044159866 -0.12743641 -0.15095603 -0.1742363 -0.0037479834 -0.06510369 0.025931338 -0.1815885 0.09245487 0.033022158 -0.1939157 0.057874594 -0.19616914 -0.13430831 -0.16701856 0.06281458
0.11398696 0.10761079 -0.0047429074 -0.04622279 0.09055481 -0.08048329 0.09094365 -0.021753987 -0.118471526 -0.17094819 -0.09873986 0.018042337 0.05038887 0.09367985 0.023064706 0.12001957 -0.11933365 0.06851338 -0.18639685 0.17368358 -0.05980228 -0.030455468 0.07062132 -0.0353939 -0.059307605 0.0731067 0.054411173 -0.09920121 0.032182388 -0.07310571 0.10781405 -0.23498079
0.05730985 0.030687 -0.15321447 -0.09560081 0.06511046 0.06145961 -0.10132956 -0.0516098 -0.0029343215 -0.11642308 -0.02171262 -0.11423699 -0.04961752 -0.087359734 0.010827744 0.051148582 -0.08450202 0.09551196 0.06868305 -0.0044075167 0.016120443 0.07197936 0.076894164 -0.15634364 -0.124972284 -0.053718694 -0.06328972 0.027916076 -0.051476635 0.0009445786 -0.14862877 -0.05134755
0.06806817 -0.1882135 0.073790886 -0.1969639 0.009162365 0.09307659 -0.03019971 -0.12453421 0.08624914 0.011973669 -0.013899444 -0.14467482 0.035487283 0.009229454 0.031071201 -0.038929995 -0.02745453 0.016215889 -0.030384876 0.24619624 -0.0053629973 -0.08937691 -0.11207363 0.031481188 -0.040350743 -0.105446465 -0.014060541 -0.19614592 -0.010942072 0.02616284 0.11034832 -0.09050503
-0.2031587 -0.11752134 -0.14945656 -0.095894404 0.0949153 0.08298462 -0.15991569 0.079343446 -0.020684915 -0.10629481 0.001611686 0.016781341 -0.29131547 -0.067101434 0.03406919 -0.1411477 0.070925675 -0.13325737 0.057456832 -0.0741742 -0.024024274 -0.15352763 -0.14340024 0.055870466 0.15855634 0.039683044 -0.22792366 0.007771417 -0.24495758 0.04598748 -0.23190705 0.024682732
0.11551184 0.017834028 0.024927907 0.041230876 -0.008963255 0.014100815 0.13759726 -0.014668906 0.09346531 -0.18982048 0.073447414 -0.10706776 0.11411375 -0.07246994 -0.06968141 -0.049889565 -0.071819685 -0.061947975 -0.0661661 0.06601189 -0.00023952371 -0.050558444 0.12776469 0.09094594 0.037256297 0.12547891 0.0036317776 -0.07106649 0.11326281 0.009425489 -0.013443391 0.06750148
0.013405297 -0.014910425 0.086758986 -0.22098593 0.11838024 -0.038874615 0.05260847 0.09809393 -0.012072851 -0.11953753 0.06227748 -0.03249062 0.029096186 0.13685207 0.071457885 -0.10356959 -0.13399129 -0.059415206 0.015645673 -0.098025 -0.037726138 -0.06502332 -0.01663763 -0.08233192 -0.040974807 -0.047287993 -0.066866204 -0.023444224 0.037535433 -0.040290408 -0.057575498 -0.015091973
-0.052657977 0.038358346 0.08089031 -0.15890118 0.08183596 -0.044674147 0.11860171 -0.048633263 -0.047170915 0.026021559 -0.14383921 -0.10721859 0.10040787 0.12708433 -0.065197386 0.03139784 -0.0756326 2.9569259e-05 0.06517217 -0.07544142 -0.102278516 0.04383168 -0.14809775 0.06158374 -0.18407261 -0.08489812 -0.047940627 0.012293202 -0.07040791 0.054627273 0.039719556 -0.032161396
0.06419343 0.04235575 0.07586515 0.11230167 -0.037885897 0.09878156 0.14653933 0.07728226 0.035482604 -0.07428165 -0.01531529 -0.010841723 0.05153833 -0.011470243 -0.10749214 -0.06089417 0.04375526 -0.10300145 -0.012008912 0.02520196 0.024673752 -0.093245886 -0.044564083 0.09059552 -0.030821944 0.090099275 0.021867825 0.012886821 0.1224123 0.04210918 -0.0025953015 0.060139764
-0.18724072 -0.3390679 0.0683784 0.054009784 0.1261309 0.24630982 -0.024731465 0.46743593 -0.09961982 -0.055945802 -0.039524 0.16795981 -0.124788046 -0.026918842 0.43043065 0.028124148 0.03666148 -0.24294394 -0.066846535 -0.4552114 0.31991783 0.081672125 -0.12596884 -0.26342738 0.17305812 0.35235962 -0.17787701 0.2901593 -0.14327686 0.019645762 -0.22025578 -0.18779573
-0.15630996 -0.18705708 0.020139255 0.023244616 0.13646993 0.18962266 -0.26445502 0.1868978 -0.10043194 0.08964089 0.05364015 0.2047662 -0.10360741 0.072124735 0.19731197 -0.07976885 -0.21556547 -0.15959989 -0.15810972 -0.24368031 0.27042803 -0.15768836 -0.24764124 -0.021778548 0.16274273 0.3743802 -0.084438235 0.32311088 -0.19402976 -0.08675815 -0.22626288 0.009234496
-0.13344581 0.027931582 0.0025361646 -0.0013202236 0.033589203 0.037570294 0.037840314 0.14708081 -0.083206244 -0.050311323 0.008253102 0.036497924 -0.12456482 -0.052856542 0.15322307 -0.003411966 0.0073693544 -0.027932342 -0.16538234 -0.23114906 0.22582297 -0.01890674 -0.06636801 0.0037322065 0.07108139 0.07489733 -0.1462149 0.27185604 -0.08745995 0.09309121 -0.045313112 -0.17263697
-0.1370075 -0.025872229 0.061675593 0.11119155 0.09444597 -0.007458795 -0.11210749 -0.12167127 -0.1104799 -0.06387366 -0.08336489 -0.078188024 0.04323952 -0.14549133 -0.12718114 -0.16830505 -0.116481595 0.05992016 -0.11040582 -0.03232263 -0.009234496 -0.0017510204 -0.020960417 0.1585643 -0.054616153 0.1256744 -0.013225823 -0.035406843 -0.113856755 -0.089447364 -0.02906385 -0.09370867
-0.23755452 -0.15643868 -0.007317703 0.25961676 0.054035064 -0.041898124 -0.10981371 0.09091075 -0.2746507 -0.15114217 -0.023804938 -0.037354164 -0.27114958 -0.15456085 0.14119276 -0.030745529 -0.023650639 -0.051856626 -0.013605313 -0.08034702 0.2312241 -0.1413771 -0.11981603 -0.01164936 0.056868497 0.23552792 -0.2119787 0.12648408 -0.2880869 0.061139874 -0.107657194 -0.19024885
-0.00750107 -0.09343192 -0.112628266 -0.117624365 0.08081107 -0.0063726557 -0.020078557 -0.003940826 -0.12445092 -0.098744124 -0.036191694 -0.009389341 -0.06287119 -0.06988599 0.15474866 0.048907813 -0.08329279 -0.13729095 -0.09421644 -0.17190315 0.16612582 0.10080957 -0.1859792 0.10213031 0.019292494 0.11498962 0.040634055 0.08545261 0.012237086 0.07208243 -0.060238224 0.13446864
-0.033595245 -0.15002494 0.080595426 -0.10520286 0.124790244 -0.05028337 -0.042610724 0.076957285 -0.043088898 -0.10422911 -0.112809755 0.18729858 0.07312726 -0.13209873 0.19201869 0.07290821 -0.104823075 -0.10646077 0.00719073 -0.044301637 0.07075465 -0.11643843 0.04338456 0.03307432 0.041564442 0.093758665 -0.0046802475 -0.010488368 -0.18143846 -0.06981486 -0.10830651 -0.09720432
-0.029796286 -0.15595396 -0.07795795 -0.045683388 0.0037898803 0.11492217 0.027252799 -0.0019010314 -0.068484135 -0.08966328 -0.13873659 0.29339984 0.006415627 -0.13604787 -0.008136031 -0.02579801 0.049738225 -0.01910404 0.0030329821 0.017558476 0.11677086 -0.08760083 0.012165458 -0.2456095 0.18951318 0.118988216 0.04090242 0.049737744 -0.030178651 0.01297317 -0.018083785 -0.06820361
