0.065005206 0.046786215 -0.14959781 -0.00800991
-0.18868157 -0.06838864 0.008303112 0.04158854
-0.055165704 0.08042154 0.012203595 -0.01972033
-0.022223309 0.13507806 0.1732519 -0.15681463
-0.06056573 -0.08314662 -0.011484353 -0.103436686
0.057003904 0.11035393 0.02965462 0.1162759
0.18978997 -0.17545015 -0.010239675 0.09283213
-0.13074327 0.030097608 -0.13453895 -0.1589617
0.022058329 -0.16651502 0.007403073 0.04129376
0.11331569 0.06971542 0.050738063 0.06624363
-0.10414681 0.096460536 0.16627121 0.04089519
-0.0835537 -0.16839877 0.016199058 0.05383283
0.19451587 -0.2210038 0.021734804 0.0038981594
0.19488013 -0.1940207 -0.14769387 0.058388118
0.0069399406 -0.033686414 0.12574983 -0.053958625
0.0061653885 0.14286067 -0.033310216 0.040461525
0.00964986 0.050892487 -0.037732773 0.016162863
-0.06867176 0.05377571 0.01966862 -0.13954316
0.006643035 0.0663699 0.030858355 -0.11514518
0.03745538 -0.046476882 -0.031478696 -0.03076709
-0.104023956 -0.019200372 0.12732309 0.005946863
0.01043675 0.15755183 -0.070577115 -0.16916229
0.027501788 0.10868807 0.0038899293 0.1553646
-0.044202607 -0.059291862 -0.052611683 -0.08818943
0.038569298 -0.08166581 0.028416065 -0.11498915
0.015220959 0.1723973 -0.015785888 -0.016556887
-0.11756403 0.12290783 -0.07403632 -0.19180474
0.040306024 -0.08886791 -0.056093756 0.01847868
-0.033497922 -0.16709211 -0.070354804 -0.031140108
-0.04348439 0.045302786 -0.043540884 -0.019753141
-0.121970445 -0.009830803 -0.0036188525 -0.13176359
0.015587134 -0.062590264 0.12261942 -0.089281514
-0.0527092 -0.09035531 -0.16262549 0.07417311
0.021684509 0.05324379 0.065980494 0.026576389
0.11384275 0.17701238 -0.040843353 0.08251808
0.11538168 -0.14103095 0.14157811 0.06916957
-0.1123855 0.009814378 0.17640024 0.035002172
0.1209734 -0.103820115 -0.14539187 0.14129478
0.05050549 0.01888965 0.14629166 -0.035387047
-0.031092254 -0.011519516 -0.07921929 0.040324286
-0.15419675 -0.2223323 -0.09900057 0.097964406
-0.09740574 0.04219051 0.013876637 0.060511515
-0.27626997 0.08124084 -0.13276254 -0.20827857
-0.12984641 0.026456133 0.08910727 -0.105177
-0.011617414 -0.13001458 -0.05377768 -0.060932785
0.07049555 -0.19142374 0.11068949 0.14057307
-0.21716839 -0.0054054866 -0.13355754 -0.14907384
-0.11840091 0.14374107 -0.114273906 0.118566096
0.07672635 -0.08369596 0.14847848 0.0073807077
0.042406358 0.13310748 0.052221563 0.046244737
0.06771449 -0.035636283 0.10805813 -0.18350713
0.019109074 -0.16767822 0.10046712 0.04163599
-0.11193526 -0.09302482 -0.09848001 -0.08272166
0.020865165 -0.14081271 0.096724086 -0.19349341
0.1622849 -0.02540987 -0.13477361 -0.0010714827
0.018593919 -0.18820632 -0.033435605 0.03227507
0.083950825 -0.18293522 -0.15923178 -0.1358672
-0.04573676 -0.014850615 -0.1016653 0.12302984
-0.08409841 0.06985334 -0.24662976 0.022950659
0.010582911 -0.2955175 0.10077882 0.032158084
-0.05433715 0.10721044 0.14706208 -0.10998288
0.16793656 -0.0016024332 0.10227728 0.11555343
0.018267363 -0.051915012 0.0065098344 -0.09639443
0.09120339 -0.10538013 -0.028090952 -0.1857514
-0.07850993 0.056450177 0.07767252 0.13019639
0.19425856 -0.021302545 -0.18957035 0.07945334
-0.20168963 0.04848356 0.03971528 -0.115848154
-0.029024366 -0.14996028 0.10607025 -0.17514777
0.19764276 -0.010163902 0.101794794 -0.10224397
0.03255089 0.07124534 -0.06246513 0.022521924
-0.1426671 -0.10858796 -0.11908107 0.054379396
0.06255133 -0.078443885 0.07192868 0.021801392
-0.12307781 -0.0046114903 -0.109389134 -0.1167996
0.07971948 0.08420277 -0.060381297 0.08918582
0.039600156 -0.08409387 -0.039779805 0.13967149
0.16294357 0.12199405 0.049402047 0.15878457
0.029404992 0.039520405 0.0003631096 -0.10331721
0.08242934 -0.1366619 0.005206238 0.061772402
0.082901746 -0.17889863 -0.029051622 -0.010780605
-0.0055127484 -0.053295936 -0.003549787 0.020202002
0.043391317 -0.091550715 0.103353426 0.13065119
0.07648432 -0.059875276 0.01401844 0.046051163
0.08710341 -0.17060153 0.08936608 -0.0110347485
-0.11836727 -0.01436076 0.19560157 -0.03708712
0.06739869 -0.21734469 -0.14198877 0.04375717
-0.14600153 -0.106166 0.008715917 0.08924718
-0.26187867 0.0022276072 -0.005669886 0.09246008
-0.08473696 -0.018039785 -0.099287055 0.004980024
-0.1444292 0.1523023 0.21404256 -0.19865538
0.1352104 -0.15306263 0.012636664 0.101817295
-0.05142153 -0.0744906 -0.16582909 0.110570185
0.16398638 0.02140859 -0.027195776 -0.107439555
0.071688004 -0.03492361 0.03095151 0.03813254
0.030946972 -0.07676243 -0.12812084 -0.06826471
0.20171945 0.02739577 -0.17168938 0.09020488
-0.027198711 0.1257125 -0.052407566 -0.17591721
0.12157975 0.1311865 -0.16186222 -0.010705475
0.07311274 -0.02293092 0.008974796 -0.05313953
-0.078446195 -0.028161312 0.08206602 -0.05759185
0.09289602 -0.11753876 -0.06344254 0.08487199
0.08865454 0.054579917 -0.10880142 0.051946286
0.16616349 -0.08892037 -0.15763652 0.07570818
0.110226646 -0.05726202 -0.043616693 0.14124791
0.10685817 -0.14043753 -0.07940448 -0.177866
-0.11554661 -0.20947425 0.0002346368 -0.12527916
-0.13001151 0.024212226 -0.003763809 -0.12041171
-0.069910824 -0.100611776 0.18681112 -0.19337761
-0.25446367 0.036637276 -0.11327892 0.10376838
0.043529868 -0.053910267 -0.0283905 0.14038278
-0.062472653 -0.09116914 0.064879455 0.06023603
0.10782116 0.015923 -0.17958184 0.08861718
0.15331663 0.069487676 -0.06250207 -0.09871796
0.039892543 0.04891877 -0.03360411 0.17687666
-0.012555564 -0.040595923 -0.060301073 -0.14685091
0.13194114 0.057963688 -0.15320197 0.09602039
-0.029269874 -0.19972798 0.023688057 0.08398941
-0.061682623 0.062926576 -0.07567231 0.0724705
0.15714128 0.13840672 -0.08743282 -0.14363962
-0.03485287 -0.007992403 0.0239879 0.018273765
-0.08454366 -0.1289816 0.16773377 -0.07438011
-0.1378423 -0.12219055 -0.0666213 0.05427069
-0.19378632 -0.014428549 -0.108719885 0.031904966
0.083696336 0.09557922 -0.15208207 0.012198865
0.06134518 -0.32467836 0.19499196 0.19826674
-0.06335382 -0.08593032 -0.040536214 0.056107983
-0.07676157 -0.0151710715 0.09977477 -0.0029341914
-0.1193597 -0.14891256 0.11152658 -0.06394994
0.012885612 0.048748285 0.16910544 0.14962463
-0.042328663 0.06651932 -0.05867406 -0.12561196
0.02583104 0.062941946 -0.09100904 0.09477724
-0.01780457 -0.11787926 0.108152814 -0.08074074
0.065303914 -0.08284304 -0.15124403 -0.09542539
0.12583126 0.029638212 -0.049186528 -0.07597839
-0.038268752 -0.04642795 0.03962108 0.056394987
0.020616816 0.05077151 -0.090807915 -0.17082217
0.0690808 0.037018757 -0.10832177 0.0058762217
-0.11233443 -0.063547224 0.10666176 -0.15176392
0.0026300293 0.12226598 -0.026433429 -0.08861418
0.18905485 0.13904901 -0.16609626 -0.17205459
0.057262115 0.010065973 -0.08076317 -0.30690193
-0.07554135 0.119368844 0.1385443 -0.069667414
-0.2915682 0.10274132 -0.011682985 0.0035898583
0.14524533 -0.1598103 0.21988621 0.083772756
-0.11425338 -0.09172053 -0.077361315 0.039283756
-0.19789156 -0.0375815 -0.09890935 0.13500224
0.036232505 0.04986084 0.14837909 0.022357777
0.04788118 0.010108792 0.16905798 0.10886909
-0.07792132 0.049744282 0.118001826 0.14070377
0.06956465 -0.1604616 -0.0030480418 0.114868134
-0.0511969 0.17163576 0.073966116 0.12577297
0.16135831 -0.031543124 0.08606039 0.06457283
-0.1736378 0.15672463 0.033057284 0.0029587634
-0.1099876 0.025048994 0.23790073 0.10308924
0.07901282 -0.07095394 -0.015233034 -0.0991619
0.05372345 -0.10945429 -0.012019409 0.05714249
0.08025264 0.100445054 -0.051198967 -0.12313408
0.12815465 -0.059900478 0.15154897 -0.06976356
-0.017267287 -0.07258219 0.117412195 0.07597107
0.02082105 -0.23173873 0.07233168 0.038564134
-0.20704192 -0.123533905 -0.10339244 0.14374743
0.027733041 -0.017022867 0.092904314 0.06668803
0.2285444 -0.15926325 -0.113731965 0.12055333
0.1068998 -0.004942759 -0.034919284 -0.10959945
0.072792076 -0.0018386288 -0.13177082 -0.10672195
0.0062145344 0.09988689 -0.036805786 0.14167167
0.08085874 0.11732361 0.029090134 0.115482666
-0.042944953 0.08448686 -0.13870293 0.016519874
0.029741824 -0.058965165 -0.10914346 0.024315458
-0.026891343 -0.050015736 -0.012665904 -0.16718987
0.09305149 -0.004591137 0.055054426 0.19303612
0.0516652 0.04455819 -0.13326465 -0.05772195
-0.1332091 -0.05602227 -0.019319864 -0.18342222
-0.17360058 -0.107823595 -0.009400277 -0.014632935
-0.096804276 0.112109825 -0.06971009 0.12681068
0.040114693 0.0944848 -0.04324558 0.038295437
-0.15094467 0.11650966 0.037398286 0.09515734
-0.12980486 0.07971821 -0.14586757 -0.0028392158
-0.2148659 0.11655208 -0.044637095 0.082729444
0.09788979 0.1073809 0.083734676 -0.14465453
0.1624563 -0.107074276 -0.12525189 0.15848094
0.20062871 -0.13543777 0.015275102 0.13071643
-0.20077167 0.059392482 -0.16507167 -0.043376263
0.03894876 -0.21397099 0.15786348 -0.13960138
-0.20031811 0.110126644 0.12910779 -0.010881376
-0.042114593 -0.14873312 0.12733544 -0.10976863
0.021125443 -0.16525784 -0.033494327 -0.008265713
-0.02101458 -0.13240956 -0.15890726 -0.13885532
-0.017649552 0.025974123 0.056816656 -0.20727842
-0.10280487 0.123932086 -0.08306291 -0.16065247
-0.1121742 -0.07230254 -0.024911473 0.084714934
0.10668855 -0.24454257 -0.0450282 -0.017094642
-0.08945173 -0.021409037 -0.10210887 0.19057602
0.13596733 -0.049190205 -1.3794084e-05 0.0068065496
0.12533173 0.016877644 0.08986775 -0.087616935
0.023133386 -0.010603714 0.12760836 0.16289134
0.041250277 0.10793045 7.8465135e-05 -0.1859748
-0.15890332 -0.18412511 0.0016646925 -0.11004135
-0.14488305 -0.013164512 0.14490649 -0.05748523
-0.0609378 0.077141576 -0.046739645 0.117898814
-0.0671773 -0.019042319 0.060629155 0.18354413
0.07105025 0.09728921 -0.04793676 -0.13149467
-0.056744218 0.09588275 0.10233108 0.068133496
-0.13003415 0.13083757 -0.12845148 0.021984668
-0.15557592 0.19582428 0.04556755 -0.28168312
0.062477533 -0.1156782 0.026875839 -0.10862015
-0.14737333 0.15258822 -0.025089933 -0.09970064
-0.06910879 -0.122254625 0.07827319 -0.01588571
0.09047927 -0.05609112 -0.009069594 -0.0801882
-0.110651255 0.067902066 -0.12144571 0.08097876
0.03132858 -0.17440215 -0.056552727 -0.121149234
0.15939927 0.15084419 -0.099793404 -0.08275552
0.0553858 -0.008685187 -0.15136772 -0.13903822
0.034035247 0.057591833 -0.118159324 -0.05132448
0.02427372 0.16093057 0.11106755 0.055355955
0.12830873 0.092491135 0.13506243 0.060360476
-0.16384183 0.08607932 0.04341342 0.0055507896
0.13882938 0.008537623 -0.060028717 -0.0030227292
0.047634736 0.023493726 -0.034085188 -0.062101148
0.18201739 -0.061880823 -0.015660966 -0.21676749
-0.039169658 -0.114999115 0.10239699 0.08151059
0.0995652 0.018597364 -0.12920758 0.043118134
-0.08050682 0.11020648 0.06244024 -0.024172092
0.061119713 0.055529326 -0.1376049 0.02157453
0.088327564 -0.1314011 0.053683076 0.109878674
0.023036182 0.07464142 0.058979392 0.025040269
-0.1238647 -0.03462778 -0.034368813 -0.10802893
0.022110239 -0.13670239 0.12518929 0.11035587
-0.12754758 0.13770269 -0.07260303 0.10125317
-0.056702107 -0.08114285 8.884072e-05 0.14016591
0.08399552 0.11361052 -0.09487483 0.09946759
0.1464334 -0.026556596 0.12196757 0.07093531
-0.095711306 -0.061851524 0.04393947 -0.11286624
0.0009626597 -0.0459065 0.016655907 -0.10369084
-0.1332902 -0.118335396 0.052329883 0.12923507
-0.087445386 -0.017385617 0.1502681 -0.075143196
0.117582634 0.1460528 -0.059917085 -0.10207836
0.018754259 0.019485146 0.07916191 0.020952746
0.09757508 -0.10658538 -0.051324345 -0.10222897
-0.08187979 0.07247649 -0.02016908 0.14009894
-0.028930567 0.11394839 -0.03954885 0.0038327426
-0.01757899 -0.086856306 -0.05534178 -0.10841955
-0.033594348 0.11284013 -0.037612773 0.10309504
-0.08054498 0.035693154 -0.037927695 0.13581462
0.068993166 -0.10000899 -0.11360799 -0.13520142
0.03287749 0.120664075 0.1352907 0.0933612
0.11893152 -0.15014777 0.0822745 0.027999744
0.09603703 -0.08228213 -0.08226509 -0.13031809
-0.1350851 0.0012837797 0.025683254 0.13554455
-0.082901575 0.004326701 0.1188903 -0.15095095
-0.039914183 0.01563105 0.031908587 -0.075274415
0.06794195 0.0061487556 0.09121746 0.06900948
0.05329609 0.04097265 -0.045497917 -0.08453898
0.10567577 0.059188217 0.026631996 -0.056189463
0.055336088 -0.0019419193 -0.038996607 -0.051724456
-0.038073584 0.13703267 0.07368016 -0.035859264
0.13240089 -0.14901921 -0.016803145 -0.079494976
0.10735411 -0.006029572 -0.12219011 0.03160201
0.057232477 -0.07778764 0.18891133 0.15905802
-0.1580823 -0.046656266 0.08432162 -0.12560713
0.087406576 -0.06459963 -0.03931156 0.101984486
-0.0008054688 -0.070094116 -0.10917256 -0.15878215
0.051246073 -0.030475039 0.015734777 -0.038665783
-0.1288434 -0.13834688 -0.040778816 -0.055288848
0.06581415 0.185412 0.039160367 -0.059473775
-0.13162512 0.035400715 0.16308963 0.0040872074
0.072413035 -0.0626328 0.07091679 0.04192016
-0.08128265 -0.13890857 0.09682984 -0.05396856
-0.08191049 -0.15250637 -0.13793524 -0.049403425
-0.10841019 -0.083113045 -0.044976626 -0.012419448
-0.09406365 -0.13034979 0.034267172 -0.13880308
0.10411897 0.036213875 -0.12432055 0.01653624
-0.18103716 -0.037931487 0.019731386 -0.022449328
0.046666544 0.037923627 0.22225907 -0.15127683
-0.028759297 -0.051087596 0.0059994375 0.0305972
-0.1697483 0.17226316 0.0447176 -0.01366937
0.14876439 -0.07183373 -0.040155288 -0.108019
0.035127245 -0.03156297 0.10867513 -0.19459875
0.0337368 0.0136011755 0.122016795 0.0055481168
0.0071650115 -0.14851455 -0.1552366 0.15541305
0.14170307 0.086226575 -0.013758287 0.10686996
-0.011616632 -0.0929587 0.017032074 0.08101702
-0.018075436 -0.07531092 0.07960143 -0.014295936
-0.14323798 0.11708439 -0.15594152 0.06306099
0.13646677 0.06366135 -0.18710864 -0.17766131
-0.056235444 -0.004641909 -0.033199497 0.098346144
0.120086625 -0.13305919 -0.051714443 -0.1371365
0.072401226 -0.10720872 0.09225931 -0.1754439
-0.085359536 0.16838175 -0.16454944 -0.035252396
-0.10080221 0.024945542 -0.14557676 -0.0129593015
0.1416981 -0.07252978 0.016193882 0.05571416
0.1352817 -0.018521458 0.025523737 -0.11881829
-0.055766053 -0.09278026 -0.08926682 0.029674485
-0.123935044 -0.024477795 0.10430093 -0.12822226
-0.039148152 -0.046075568 -0.09905436 0.013393834
-0.012049019 0.07349995 -0.02462934 0.07426727
-0.10390108 -0.112512216 -0.047061443 0.10190345
0.15239151 0.08283873 0.024655148 0.12577392
0.14836507 -0.054913886 0.058931097 -0.07904449
0.0077415556 0.07506819 0.14871527 0.102975175
0.14576443 0.104666665 0.037935108 -0.07234158
0.031479567 0.015637502 -0.11418185 0.117686465
0.020062506 0.13997157 0.097451255 0.09453264
-0.034320123 -0.09040077 -0.029484898 0.12718572
-0.04679054 0.04099123 -0.016793907 -0.07511327
0.15218 0.014896661 -0.06462905 0.05872433
-0.05013655 -0.039992876 -0.0067041516 -0.07607731
-0.024006978 -0.005550489 0.09844269 0.12703209
0.11011292 0.007385388 0.06329343 0.03391318
-0.08192812 0.051084578 0.017696008 0.06786358
0.13320549 -0.10815113 -0.12097356 -0.0833579
0.038797498 -0.04766304 -0.111625336 -0.0025676787
0.11278598 0.11686455 0.028288856 -0.04315982
-0.04029488 -0.13132145 -0.11997071 -0.044765033
0.04336053 -0.08490603 -0.03105674 -0.074546345
0.07127564 -0.05559341 -0.03512495 0.027683616
-0.053550854 0.15049334 0.12133868 -0.123192996
0.060936898 0.10028817 0.051000252 0.042217493
0.11899473 0.018170148 -0.012588903 -0.08644703
-0.07487704 -0.00864391 0.010264382 -0.0005438924
-0.029918298 0.11171965 0.026011065 0.12816282
0.09761177 0.07504904 -0.13365178 0.03746879
0.03425931 -0.117859185 -0.09837358 -0.13348712
0.20741148 0.03615042 0.006022267 -0.024496775
-0.05922367 0.13175584 -0.03554743 0.0043870932
0.20063812 -0.19894683 0.09697278 -0.01921967
0.10686765 0.11824705 0.18199284 0.0146400845
-0.13828063 -0.10744999 -0.10791331 0.095527865
-0.035020348 -0.093130074 -0.025614917 0.08900631
-0.071722195 -0.05164013 0.040768053 -0.12578888
0.1445411 0.103446595 0.002538336 0.16061597
-0.07481379 -0.060238533 -0.21830416 -0.031168293
-0.06737212 0.02557602 -0.14197782 -0.21172029
-0.13425668 -0.05341131 -0.01216916 -0.10755437
-0.066933036 -0.13150814 0.12441014 -0.057148065
-0.10524965 0.024887482 0.06336377 -0.0128001375
0.16420817 0.14354618 -0.048689943 -0.064678274
-0.07936388 0.11630417 0.07764966 0.09472283
-0.19999841 0.048287336 0.07255031 0.08206628
0.1206752 0.101392575 -0.013886364 -0.18264502
0.15231209 -0.031247655 -0.114692084 -0.13200322
-0.014212894 0.13217086 -0.10335617 -0.06690212
-0.062315237 -0.078705445 0.03638025 0.0014040165
0.15533704 -0.030348489 -0.26644498 -0.053825047
-0.2642665 -0.13190405 0.16236392 0.0059780953
0.08382605 -0.0005512796 0.05175491 0.0919234
0.15845941 -0.030975578 0.1637848 -0.09859316
0.19148952 0.12089028 -0.005205314 -0.008181061
-0.25761747 0.010258445 0.019492064 0.08757342
-0.1489639 -0.11704505 0.0034244733 0.18689278
0.012218202 0.013230305 0.1906063 0.15712781
0.13067922 0.13513799 0.16350448 0.0036104661
-0.14491762 -0.044711567 -0.009997278 -0.15767446
0.048805017 0.041435666 -0.112749204 0.0024843253
0.08854128 -0.006715974 -0.04457739 -0.060519416
-0.066338904 -0.031404067 0.1267282 0.04505414
0.01683554 0.047275566 -0.010016265 0.12541652
-0.14810546 -0.016567979 0.00772654 -0.04921662
0.10848777 -0.17499237 0.06591047 0.10874035
0.1308954 0.07700846 0.033264667 -0.05761253
0.073551334 -0.019323958 0.11038493 0.014904731
-0.011559227 -0.027454017 -0.05679171 -0.078637
-0.09155155 0.15256351 -0.10460387 -0.030575894
-0.080958225 -0.08254292 0.13540089 -0.062068854
-0.07651891 -0.11491617 -0.02499268 -0.25144315
-0.012082845 -0.040126603 0.026035957 -0.088153034
-0.15524912 0.043794177 -0.006934749 0.14114031
-0.020642042 -0.16191907 0.060507108 0.0966524
-0.15362881 0.13654794 0.0064308248 0.10091088
-0.12419906 0.08636177 0.1664184 0.0882549
0.05144831 -0.03089838 0.040339775 0.13040997
-0.12820864 -0.16049087 -0.07912658 -0.14664352
-0.112196036 0.14596269 0.07268322 -0.06819826
-0.064984925 0.09538389 0.20274207 0.050448228
-0.112087235 -0.017079232 -0.023793131 -0.11097961
-0.108505614 -0.018596793 0.12135589 0.019605292
0.16607729 0.0086260205 0.094897225 -0.010246628
0.15387335 -0.024068985 0.20300768 0.09156424
-0.03686559 -0.06507762 0.03480943 -0.17526168
-0.029531445 0.029246118 0.13139981 -0.17078426
0.15266728 -0.09567193 -0.018307501 -0.09301949
0.08090076 0.13845654 -0.055791475 0.006437972
-0.09460695 0.026332505 0.03167455 0.14881521
-0.18154328 -0.08148294 -0.32125637 -0.12544522
0.05122389 -0.084809944 0.12489991 -0.049747307
-0.03573408 -0.05080481 0.10881312 0.06353875
-0.1854358 -0.0333521 0.09615405 -0.119873
-0.020670725 0.023327626 -0.1171966 0.14633274
0.13926432 -0.050260037 0.15972602 -0.06167823
0.1514861 -0.073017284 0.0068995175 0.09247124
0.111297496 -0.10677781 -0.17216304 -0.143036
0.07395008 -0.11491771 0.10144421 0.14758782
0.114042185 -0.06470602 -0.13353625 -0.22015749
-0.14569964 -0.23034 0.0831332 -0.07937821
0.101061285 0.1607351 -0.008248075 -0.16581263
-0.2574786 0.002486826 0.003940154 -0.114617236
0.013889851 -0.051348694 0.12530138 -0.088628076
0.11560438 0.014350282 -0.10638445 0.011639866
-0.07261319 -0.0068796976 -0.007839006 -0.08019041
-0.0018881462 -0.00013989312 -0.09707571 -0.12887931
-0.0009705598 -0.09353682 0.021324722 -0.1057263
-0.05714706 -0.04363762 0.10108563 0.17258473
0.029678723 -0.11641277 -0.14831594 0.09143272
0.044301786 -0.1148104 -0.16680945 -0.06321152
-0.014767284 -0.101644695 -0.005007689 -0.08862562
-0.11062492 -0.026618335 -0.033765543 0.1248277
0.12391315 -0.08336511 0.065474376 -0.06950316
-0.043849975 0.11126863 -0.041788764 -0.038408212
-0.08695421 -0.09368708 0.15757047 0.14958502
0.039302956 -0.1539665 -0.086353205 0.09839512
-0.05747696 0.043679055 0.13248475 -0.044793647
0.056364503 0.08161688 -0.17869036 -0.19424328
-0.06693586 -0.3151084 0.054780275 0.14194623
-0.1328508 -0.11875351 -0.14225562 -0.095208675
0.08829855 -0.11339705 0.018462855 -0.079784416
-0.064111464 -0.09257958 -0.12402965 0.10237613
0.1625153 0.04111762 -0.048932683 -0.064459294
-0.06753232 -0.059444997 -0.13237084 0.15799809
0.021903155 -0.0019389882 0.06434323 0.10162758
-0.2368762 0.03140253 0.02843241 -0.11307863
-0.10078175 -0.095565 0.14194779 0.09367118
0.033777934 -0.046957683 -0.18186349 -0.12619504
0.0999305 -0.12452158 -0.195412 0.033702265
-0.08963929 -0.12992173 0.067795 0.13279171
0.01622224 -0.033609975 0.034848686 0.14285378
0.15081888 -0.11346015 0.06856585 -0.13257632
-0.1424614 -0.23375174 -0.005526232 -0.03266324
-0.11661626 -0.03179999 0.015278816 -0.11153283
0.039900064 -0.1116843 0.065596744 0.14584549
0.15023063 -0.170702 0.12160495 -0.022347528
-0.0029729903 -0.20102534 0.080773935 -0.11268426
-0.10430336 -0.104241475 -0.0037003362 0.051490698
0.1509296 0.07740316 -0.12781557 0.069865994
-0.08134006 0.08427594 0.028424019 -0.16379389
0.0029899534 -0.19160937 -0.02657694 0.07333739
-0.1809613 0.017139506 0.09743745 0.11643563
-0.0041192616 -0.22634456 0.057044756 0.12958367
-0.13671462 0.060879484 -0.06366924 -0.041107375
0.16443042 -0.042066794 0.031454854 0.11135304
-0.108122416 -0.10205731 0.11314425 -0.10194632
-0.10415605 0.116145544 0.087441094 -0.07573819
-0.032738052 -0.067487925 0.032397334 -0.05964087
-0.0138843935 0.14670984 0.17442705 -0.061498124
0.023239892 0.08604458 -0.13621232 -0.018314024
0.009481154 -0.00588377 -0.15152073 0.042494904
-0.12652929 0.09024132 0.06352453 -0.09967879
0.10672614 -0.08385305 -0.03185624 0.09352685
0.12703405 -0.012245069 -0.012435733 -0.16863018
0.10890166 0.039721932 -0.030203603 0.019375563
0.14151758 0.05786142 -0.0033053455 0.17926249
0.068024404 0.003447919 -0.060321588 -0.08125296
-0.044094484 -0.15911797 0.09643517 -0.07990672
0.074629754 0.008314655 0.0880288 -0.15530603
-0.0028600453 -0.14456147 -0.04248833 -0.09869089
0.15599975 -0.12732245 -0.041899208 0.06890193
-0.0245583 -0.14054337 0.11771049 0.062144697
0.14955851 -0.09648409 -0.08807352 -0.017039685
-0.12072697 -0.04699138 -0.04324733 0.019740982
0.102938816 -0.1899853 -0.013279642 0.0630934
-0.102025084 -0.10550544 -0.1295237 -0.0019613006
-0.025357774 -0.0056876405 0.027539063 -0.036301058
0.123395875 0.09554271 -0.034890473 0.101613134
0.17280886 -0.26494855 -0.048570096 -0.046612833
-0.13381389 -0.037307978 0.06803593 -0.055782594
0.14666249 -0.0055685528 0.09173783 -0.11120828
-0.13326369 0.0528117 -0.06382866 -0.22688466
0.15878713 -0.18673666 -0.12475055 0.11644792
-0.13672204 -0.115061276 -0.09820271 -0.014779561
-0.00037306143 -0.036460605 -0.045397583 0.09326543
0.029330911 0.041425105 0.09611919 -0.0008697208
-0.06244434 -0.14215319 -0.09347343 0.03772186
0.07038036 -0.13787422 -0.084993556 0.17354482
-0.07525282 0.15398793 -0.07652675 0.014235435
-0.03410834 -0.1543212 -0.06222761 0.1796866
0.0654964 0.13662513 -0.03619081 -0.17295393
0.010840505 0.18811904 0.1314606 -0.1633489
-0.021868913 -0.10122877 -0.027204052 -0.13798235
-0.07086873 -0.22464776 -0.1640233 -0.1714798
0.1827991 -0.0429171 -0.028636165 -0.14404379
0.005093259 -0.011602485 0.061907995 -0.038018227
0.036482655 0.07438066 -0.08011753 0.18628381
-0.10294344 0.0859652 -0.13711692 -0.25980812
-0.0009234497 -0.14806567 -0.30720305 -0.23993357
0.23077296 -0.12238329 0.17528091 -0.123557836
-0.2225143 -0.0874548 -0.2473947 0.05077461
0.13453686 0.03966363 0.003678276 0.09975886
0.021730533 -0.16335306 0.14418417 -0.005259934
-0.02624732 0.04455916 -0.13165088 -0.026859365
-0.12063964 0.18586046 0.11239361 -0.0996162
-0.04702804 0.10984058 -0.100639366 0.012623577
-0.017930863 0.14981814 -0.28054884 -0.039283276
-0.024567729 0.11300118 -0.20716411 0.07115791
-0.17082669 0.19328184 0.06536448 -0.21291377
-0.18998273 0.06313903 0.19484076 0.0151350135
-0.40236524 -0.14505455 -0.073264316 -0.04438822
0.13152984 0.035956364 -0.0755914 -0.33547768
0.23692678 0.15826483 -0.09200793 -0.020774856
-0.018908808 -0.06640253 -0.1690888 -0.17648494
0.025422143 0.121811494 0.00310016 -0.0758041
0.099604264 0.046680056 0.2390749 0.051906895
0.025419 0.038692333 -0.010462683 0.07014425
-0.23374884 0.09382402 -0.26767787 -0.08974971
-0.1725732 -0.18885207 -0.03626299 0.13991831
0.06473685 -0.18448912 -0.3190783 -0.12862733
-0.1024654 0.16435722 -0.077043205 0.18706317
0.12310164 -0.123482935 -0.30250472 0.13147555
0.07027506 -0.020081634 0.21594225 -0.014960298
0.18878324 -0.09804695 0.07667406 -0.1422598
-0.20385703 -0.022334866 0.24369039 -0.106605746
-0.148082 -0.07068553 0.2289393 -0.0020409361
0.0012194866 0.051861774 0.09380581 -0.12505275
0.0048040836 0.011306484 0.036903266 -0.17082444
-0.3239412 -0.13926141 0.37858045 -0.123525344
0.020137936 -0.1516841 -0.087847345 0.039959416
-0.023563122 0.15341969 0.104340315 -0.084199876
-0.029526955 0.035723247 -0.07367793 -0.04654522
-0.13504547 0.148498 0.04127207 0.071897276
-0.0412159 -0.17170574 0.06829683 0.12933195
0.076638326 0.11258492 -0.106629506 0.100370504
0.014945382 0.08340843 0.10346951 -0.018493319
0.06567184 0.14957134 -0.1478626 -0.087048754
-0.040790927 -0.045427315 0.1357161 -0.04498124
0.114644654 0.09235694 -0.12495097 -0.0071411943
-0.004819201 -0.13596751 -0.039588813 -0.10816152
0.10967188 -0.20250782 0.016722193 0.006437522
-0.097543426 -0.19700019 0.06271179 0.055122532
0.18839496 -0.15374501 0.07471534 0.089987054
-0.009448745 -0.036654815 0.10545691 -0.06875759
-0.087794796 -0.013612942 0.03512504 0.00063033355
0.11286941 0.17131697 -0.042276777 0.0188993
0.09582547 -0.07100361 0.096360125 0.117459655
0.0063651935 -0.06595604 -0.0001222936 0.0533227
0.14749059 0.02893568 -0.15494889 0.087516196
0.12193038 0.049406424 0.12217324 0.024651
0.014921108 -0.12081088 0.033867985 -0.009770339
-0.11661685 0.0702569 -0.005175025 -0.08178088
-0.095924035 0.12722701 0.06616381 -0.110975936
0.062806726 -0.1589016 0.04679043 0.049642306
0.06425514 0.16053168 -0.1323992 0.07614609
0.10857769 -0.001813843 0.062008865 -0.1332626
-0.16318429 -0.029491562 -0.12038475 -0.050364386
-0.031006986 -0.10103582 -0.013520292 -0.2144703
-0.0035608357 -0.13560683 -0.1305736 -0.079551734
-0.0026828712 -0.06436264 -0.049793955 0.05898585
-0.059092727 -0.12756832 -0.016778793 -0.0073276227
-0.2085568 -0.019566536 0.03727526 -0.038139705
0.054619547 -0.16856359 0.04473112 0.033538803
0.14562246 -0.13431625 0.11098467 -0.08524982
-0.08487081 0.040431436 -0.07263757 0.04195543
-0.2075054 0.17375006 0.18325345 -0.071997635
0.121555105 -0.08154071 -0.20747311 -0.12520179
-0.17068474 -0.12035688 0.05983016 -0.085016035
-0.16081038 0.0027706423 -0.07714615 0.10983346
-0.065917864 -0.011368824 0.14799038 -0.08314223
0.028923772 -0.050826106 0.019475602 -0.1617746
-0.08063087 0.021091012 -0.045724165 -0.008607234
-0.07931881 -0.04897188 -0.021219231 -0.15403427
0.061794356 -0.04160613 -0.07975027 0.046816528
-0.062033832 -0.038401414 0.13719389 -0.07342193
-0.14765884 0.0059434953 0.053295415 0.14906555
-0.24757269 0.058018975 -0.04841009 -0.0587483
0.08589524 -0.14219564 0.06356623 -0.16176945
-0.15766463 -0.035981983 0.09247703 -0.12997034
-0.0038453524 0.06276295 -0.0069040647 0.02765938
-0.13008873 0.18125048 0.07156929 0.035903014
0.057515204 -0.016759692 0.0016462689 -0.03239635
0.013627686 -0.057303157 -0.034040153 0.12645623
0.08726634 -0.079677835 -0.054246373 -0.101273745
-0.016582638 0.021933066 0.069284745 -0.09926495
-0.04798694 0.11730342 0.10668802 0.0012897202
0.046232883 -0.0070997803 -0.09424315 0.07664112
-0.085187145 -0.11744262 -0.07695324 -0.081549995
0.13515438 0.037347138 -0.036457025 -0.15609038
-0.09629846 0.155596 -0.12171953 -0.06974946
-0.10356421 0.071133286 0.049899336 0.13289635
-0.025856143 -0.012710591 -0.15619798 0.0738437
0.21223986 -0.03213287 -0.11053616 -0.032252543
-0.07097379 -0.20755823 0.042594317 -0.082061164
-0.16485201 -0.04003058 -0.010731811 -0.023018595
-0.29106167 0.09531816 0.021907365 -0.023465076
0.07291428 0.11842179 -0.13779165 -0.070750944
0.015423754 0.06835111 -0.10645251 0.030767072
-0.06889697 0.05341132 -0.107467495 0.05634653
-0.062206756 -0.08201767 0.02313827 0.17927173
0.20656897 -0.13531877 -0.14385767 -0.07463358
0.08950721 0.10421276 0.009095831 -0.07860996
-0.10273398 -0.12832867 -0.020058857 0.026310762
0.1263956 -0.06751838 -0.071588635 0.08277133
0.111817874 -0.20483011 0.09512851 0.0006332028
0.11959304 0.078652054 0.014931597 0.11069237
0.037310082 -0.0685374 -0.0829096 -0.0122377835
0.007540402 0.027725145 -0.021621497 -0.02074088
-0.106110536 -0.2004567 -0.16350889 0.01793311
-0.047456738 0.12660576 -0.054572865 -0.07437184
0.14657931 -0.1756188 0.007990223 0.05057745
-0.14507078 0.0055504385 0.08186598 -0.011684063
0.06787867 -0.14709875 0.021479359 0.012890645
0.10005579 -0.060863275 0.028976642 0.04624562
0.07798776 -0.14009264 -0.034113392 0.077593625
-0.06553299 0.0074455445 -0.0069623403 0.06987931
-0.15048084 -0.13650869 0.07704748 -0.04610163
-0.1380633 -0.05555416 -0.034857474 -0.07824251
-0.17267723 0.1644796 0.080518425 -0.2341939
-0.147033 0.046968795 -0.15450886 0.11142186
0.124143526 -0.0772126 -0.11563102 -0.15135342
0.0665383 -0.16606832 -0.066111855 -0.031632476
0.14410765 -0.11549124 -0.1868987 -0.15396658
0.13459995 -0.059763893 -0.18588315 -0.24272262
0.017708318 0.06849965 -0.057944447 -0.11206713
-0.04497812 0.21411934 0.015160883 0.07983448
0.15008096 -0.010014994 -0.22804715 0.16715549
-0.0051664407 0.22261904 0.0512438 0.035743095
0.096421525 0.050736304 -0.07102279 0.08599038
-0.026547806 0.08822587 -0.03254508 -0.07915123
0.011525122 -0.120526716 -0.14714369 -0.06679342
0.15762307 -0.06506612 -0.07331529 -0.20344655
-0.18579617 -0.03670922 -0.0153132565 -0.118276596
0.10675976 0.1252865 -0.06923011 0.11610348
-0.14224999 -0.17899315 0.055481352 -0.14598003
0.12767304 0.07876132 -0.096238896 0.05272075
0.048758198 -0.09067368 0.030412976 0.0180896
0.009505785 0.044948764 0.06975652 -0.08070022
-0.16033438 0.0044691833 0.123493284 0.22495157
0.17257215 -0.17220604 -0.031053727 0.17755824
-0.010207749 0.121382914 0.2150723 0.035655174
0.059654314 -0.1307772 -0.10226243 -0.055810675
-0.12632151 -0.02238068 0.086444706 0.09273675
-0.104160696 0.00022354249 0.13849568 0.079429
0.019798428 -0.07724874 0.0006792503 -0.13394867
0.11374865 -0.20247978 0.08085415 -0.09816119
0.12939833 0.15150604 -0.07117693 0.055768795
-0.21711393 0.15361547 0.093775734 0.105921976
0.1016874 -0.14536926 0.11010884 0.034778588
0.06955386 0.0984263 -0.053306006 0.107048474
0.035341654 0.03316299 -0.08552218 -0.02105236
-0.112895206 0.04403616 0.15387885 0.08567491
-0.077701926 -0.09087678 0.072344586 -0.068161555
0.094205216 0.0021964589 0.13150413 0.14680262
-0.026700566 0.08239235 -0.029813377 -0.06266255
0.12003353 0.184922 -0.08844587 -0.10117881
0.061588153 -0.1496358 0.13019417 -0.22135848
0.08934476 -0.13911119 -0.098404154 0.06647369
0.0683981 -0.21859781 -0.12685087 0.09529118
-0.076721095 -0.07244644 -0.09525862 -0.01215251
-0.07419518 0.06795078 0.11735801 -0.0056611025
0.031934317 0.06616088 -0.060102284 -0.11508043
0.095908225 -0.04177381 -0.17271866 0.07365463
0.0017579263 0.075128436 -0.10789219 -0.012344854
0.096728936 -0.043443643 -0.09459102 0.10954575
0.19234784 0.06666352 -0.19389424 -0.13029547
0.07816568 -0.10798597 0.007865655 0.10798069
0.12245989 0.13524859 -0.02510796 0.17419295
-0.083070375 0.007508885 0.11367655 -0.027826214
0.047538094 -0.038422752 -0.0076144915 -0.09268088
-0.117553234 0.15971726 -0.05355394 -0.09804988
0.13954385 0.05988582 -0.015948094 -0.052093677
0.028289348 0.1150047 0.06572082 -0.09935103
0.16798924 -0.16626075 -0.12896924 0.061010875
-0.1807423 -0.019258449 0.012984014 0.14584778
0.14883128 -0.14050181 0.073796086 -0.025606936
-0.09102599 -0.037242856 -0.1411907 -0.06693145
0.0977638 0.10795546 -0.02675783 0.011260381
0.12835692 0.11939116 0.14436646 -0.12561874
0.11665216 -0.03663069 0.111269034 -0.052214645
0.04423339 -0.07229433 -0.025577594 0.02994463
0.22086787 0.04823938 0.008712285 -0.07347786
-0.045041077 -0.09636022 -0.015676193 0.11965699
0.083099544 0.10920305 0.10499679 -0.0628985
0.16163535 -0.10820289 -0.0813717 0.2459298
0.058626797 -0.07341547 0.034457278 -0.08276769
-0.27380976 0.070793174 -0.1059798 0.017004738
-0.03365835 0.0033263927 0.0685152 0.015673421
-0.017745534 -0.12567282 0.06729319 0.0050739553
0.13509464 0.069399625 0.07926068 0.05131908
0.120184116 -0.06606398 -0.090829 0.12581703
0.13015415 0.12623115 0.061305128 0.13496299
0.049450085 -0.08659954 -0.08515866 0.05249151
-0.08828158 -0.10100317 0.023263918 0.125282
-0.041698303 -0.031027969 -0.11616526 -0.10342187
-0.0015746871 0.07470825 -0.006981769 0.021689972
0.18268621 0.0038008818 -0.012504593 0.1954606
0.17104948 -0.17650896 0.15806982 -0.006488469
0.025062464 0.02165846 -0.14523162 0.033408605
-0.012388388 0.09703845 0.088858604 -0.09890826
-0.23905046 -0.05648677 -0.020129139 -0.17564297
-0.037176874 0.11896786 -0.13650097 -0.1460613
-0.052837256 -0.024132371 0.008730965 0.19049077
-0.011255211 -0.14265253 0.21207723 0.00642454
0.094813995 0.0188335 -0.021976516 0.0063299835
-0.10417237 0.11989344 -0.11537599 0.106792
0.054305147 0.020796435 -0.0055663427 0.017621322
0.12143597 -0.058113303 0.0015499864 0.08315046
-0.029170454 -0.088557415 0.14298949 -0.11639388
0.14647694 -0.108270116 0.098797165 -0.094200514
-0.110787794 0.0062222998 -0.043730244 0.033534378
0.08937582 -0.030323008 -0.015970219 -0.022692198
-0.11092815 0.09822814 0.035085257 -0.09380644
-0.02137343 -0.11240968 0.13381872 -0.082953006
-0.020151213 -0.10898409 0.16195929 -0.0724544
0.059949104 -0.09083521 -0.1708003 0.0004690971
0.07361719 -0.12916578 0.071451925 -0.19998735
-0.20329116 -0.1039024 -0.021240937 -0.092998445
-0.14124903 0.11240313 -0.040557913 0.0074037807
-0.111862026 -0.11941523 -0.016715113 0.051496916
-0.14811686 -0.05572949 0.07808483 0.16402479
0.0027395934 0.12928312 0.05531302 -0.13796632
0.10664664 -0.113581456 -0.026137456 0.06620699
0.012047082 0.0997047 0.03862095 0.0646047
0.012153015 -0.12741265 -0.07006192 -0.08636549
-0.09212289 0.14746632 0.13276039 0.08006993
-0.0068696737 0.09649302 0.06630875 0.08065313
0.008729249 0.0361183 0.03341973 -0.12860382
-0.1511064 -0.089148045 -0.13669483 -0.046094842
0.05938141 0.013320252 -0.10419728 0.010835528
-0.11345962 0.07515718 -0.12696284 0.121083215
-0.024964958 -0.0002835393 0.1428944 -0.058715202
-0.042366855 0.07129523 0.024813041 0.11243649
0.0063957125 -0.11528109 -0.106509134 0.01576215
0.006468281 -0.08634103 -0.12232206 -0.12083748
0.06441516 0.1453863 0.024192393 -0.11107123
0.072274715 0.12264334 -0.024696425 -0.14703542
-0.13317938 0.036293074 -0.1398367 0.13880633
0.007504225 0.035155356 -0.08857247 0.023482218
-0.063863195 0.025096878 -0.04712291 -0.0014112443
-0.0652002 0.009840727 0.13768367 0.12102078
0.12392636 -0.07984147 -0.0055405498 0.0705412
-0.13839655 -0.081126206 -0.1269674 0.047264054
0.08208218 0.07198961 -0.036395818 -0.029024594
0.1286429 -0.01380527 0.049831048 -0.040593162
-0.07601781 -0.036938906 -0.050325513 0.08080657
-0.15031125 0.109619185 -0.047299348 -0.13557504
0.10765295 -0.07646414 0.08012132 0.121708855
0.0070106387 -0.03422887 -0.04025378 -0.079557136
-0.14248699 -0.13522694 0.016219541 -0.14803565
0.018495113 0.15013118 0.1490096 0.056015685
-0.14916453 0.14325275 0.0824907 -0.08206729
-0.051038876 0.12021373 -0.015302077 -0.14209588
0.08071077 0.0042733303 -0.004113804 -0.064944625
0.11910658 -0.10795412 0.032222208 -0.047561415
-0.20930333 -0.06256704 -0.016881458 -0.029929206
0.0009340943 0.15112582 0.03383097 -0.00065888197
-0.047966138 -0.12871686 -0.112029046 0.05626632
-0.17923191 -0.02082628 -0.07025513 -0.06481105
-0.09731539 0.04940069 0.08399459 -0.03242314
0.21225628 0.0024686726 0.030280046 0.13278556
-0.07006321 0.017503805 0.0934147 -0.035088897
-0.08550856 0.111942574 0.036391076 -0.025427978
-0.10794161 0.020841798 -0.08448054 0.086603396
-0.082518406 0.053003296 0.06652863 -0.039586406
-0.14162019 0.028195104 -0.012524344 -0.050044533
0.06259335 0.03427183 -0.1492613 -0.102185905
0.0060698655 0.0329811 0.064710476 0.14928584
0.031621553 -0.06984478 -0.043760646 0.12475211
0.023285 -0.05914244 -0.05955516 0.09219815
0.10763651 0.020229615 -0.13317871 0.04738296
-0.00539757 0.09960294 -0.037115354 -0.15701278
0.024632245 0.16662376 0.07267086 0.06255598
0.073978916 0.06373492 -0.06481515 -0.00103785
0.11879686 0.0030506956 0.15337057 -0.004719329
-0.1592968 -0.025385747 -0.031459466 0.15306704
0.12470132 0.01583661 0.14081022 -0.091854356
-0.14095426 0.103644624 0.1699821 -0.15261613
-0.14462869 0.07934761 -0.11223894 -0.1434664
-0.086115025 -0.12111945 -0.14801258 -0.04868879
-0.052368913 0.042180777 -0.18098813 -0.18890812
0.097605824 0.10051073 0.11127943 -0.18166423
-0.009785952 -0.121327944 0.018055905 -0.111004405
0.11304713 -0.005226494 -0.25967836 -0.12298806
-0.10107527 -0.11417121 0.08614154 -0.011469771
-0.19771463 0.052463092 0.018434754 -0.095762126
-0.04377156 0.020532288 0.053213175 0.09861424
-0.17381471 0.1508121 -0.12433688 -0.09480658
-0.11808987 -0.08616427 0.058466595 -0.036434885
0.13984895 0.040453773 0.21120895 0.13964021
0.0029384985 0.08653406 0.02922 -0.005340981
0.035756364 0.051778838 -0.058499187 0.036204536
-0.13170612 -0.06882996 0.014996225 0.066316366
-0.09091384 0.053261027 0.086852744 0.1287837
0.00871972 -0.21165684 -0.071764946 0.16117714
-0.08165596 -0.16103852 0.10025234 -0.008310037
0.10731363 -0.15789057 0.026367728 0.08707981
0.062286243 0.13048144 0.13857354 0.065700896
-0.13023089 -0.14991595 -0.03431473 0.07740103
-0.07027189 0.108028576 -0.08429886 0.09539952
0.0612549 0.03756575 0.14146566 -0.016750941
-0.1751976 -0.025326401 0.0030914547 -0.024546469
-0.02098974 -0.035995204 0.048908632 0.09920573
0.015319754 -0.10591215 0.008989402 0.0014117181
-0.17293423 0.0332448 0.060992505 -0.062396448
-0.08911612 -0.06574034 -0.12103561 0.06054916
0.10055426 -0.16404423 -0.11078538 -0.047022607
-0.06770618 0.1307085 -0.111314036 -0.14661919
0.15355419 -0.010568529 0.0073456657 0.11683243
0.042362034 -0.15190537 0.05077474 -0.17517217
0.049128596 0.12992527 0.061364703 -0.055274326
-0.11641835 0.04809789 -0.115627244 -0.05239812
0.16258231 0.11902091 -0.10179341 -0.113704294
0.11690634 0.013316486 0.16857564 0.20419219
0.051404625 -0.068817735 0.060615048 0.12721892
0.2500171 -0.05451257 0.14945768 -0.018753719
0.12533642 0.03474746 0.1939589 -0.19153887
-0.08349989 -0.107273616 0.06276161 0.04923287
-0.094575524 0.13624284 0.16736966 -0.048137538
-0.113157205 0.00425634 -0.08663485 0.09543481
0.049461506 -0.012566284 -0.15404493 -0.07282138
0.09636601 0.058874045 -0.050421182 0.06973852
0.017693497 0.08223558 0.070422724 -0.061844785
0.006220025 0.0029706124 -0.078871556 0.12752737
-0.08230984 0.10383436 -0.16116586 0.13479333
-0.13371179 -0.0062916335 -0.017218286 -0.08796093
0.13700831 -0.209024 -0.077161364 0.09303396
-0.075059846 -0.0082413405 0.20174439 0.14941418
0.041407235 -0.13823554 -0.070725255 -0.061578967
0.08715283 0.115892805 -0.04015507 0.14119047
0.17150247 -0.17174558 0.17248207 -0.047895182
-0.08758403 -0.15529516 0.04087646 0.012722801
-0.1096712 -0.17784336 0.06650777 0.002793138
-0.114053555 0.19034778 -0.04370996 -0.21037656
0.08227868 0.07138272 0.16506039 0.068942025
-0.08167989 0.06892089 -0.0004270085 0.03472171
0.112336315 0.05935384 0.030746194 0.06871755
-0.00900658 0.13737239 -0.040275697 -0.034911633
-0.089225024 -0.043440007 0.032734487 0.014072228
0.014272581 -0.13854262 0.12523636 0.03519718
0.06404444 0.015227296 -0.013389405 0.054435086
-0.061565787 -0.10400921 0.14569388 0.012864605
0.13897182 0.1899069 -0.08102143 0.06408983
-0.17006664 -0.02196972 0.0064174053 0.0003280058
-0.11051018 -0.1043539 -0.16762342 0.056686603
-0.12739448 0.05078653 0.034786485 0.1472979
0.18747242 0.026242955 0.08394008 -0.0712152
-0.035078418 0.07201866 -0.13043077 0.0103536835
0.07217663 -0.016625911 0.1254054 0.12232324
0.043734353 -0.10313668 -0.07314551 -0.08470998
-0.024514329 -0.1004454 -0.2301825 -0.04154991
-0.15889162 -0.09319233 0.100201234 -0.09325883
0.021385033 -0.07141309 -0.22415482 0.024742046
-0.11833115 0.029431136 -0.143209 -0.22317567
0.13300113 0.03869081 -0.06045394 0.03479913
-0.1315166 -0.033095434 -0.13606165 -0.12415562
-0.11790249 0.13288055 0.11154126 -0.045662377
0.24519181 -0.078565195 0.033527676 0.06746851
-0.028856397 -0.22227263 0.11396342 -0.16758123
0.03968954 0.16474989 -0.24787243 0.12870657
-0.22085227 0.013822515 -0.08002346 -0.00799997
-0.13069478 -0.09173774 -0.013184688 -0.028490387
-0.19013901 0.17568894 0.07338102 -0.026382308
0.1245638 0.091743276 0.023775572 -0.098822944
-0.040394146 0.12740761 -0.13589498 -0.16863216
-0.08034867 -0.13830937 -0.09468387 0.039747488
-0.23147434 0.036381938 0.0085950475 -0.08926497
0.042050753 -0.03201604 0.09082168 -0.012087921
0.13176185 -0.056188047 0.035431176 0.06840686
0.11787657 -0.13219641 -0.1290982 0.028074248
0.19590604 0.1487021 -0.06685926 0.09891532
0.020762494 -0.08033748 -0.05091791 -0.043014657
-0.104996115 -0.08466732 0.0093773585 -0.12661132
0.08378211 0.121983685 0.038421102 0.057159405
0.030686792 -0.035168998 -0.15365762 -0.049867608
-0.00091383466 -0.13995188 0.1591925 0.089531444
0.21432206 -0.08311336 -0.02227414 0.13410024
0.058795534 0.110662274 0.12254333 0.006870321
-0.2870427 0.14027874 -0.11231613 -0.0630864
0.0053189937 0.11912276 0.040625475 0.14355654
-0.13124941 0.1589224 -0.07838324 -0.13580258
0.0056641954 0.03578208 -0.15297656 0.12464879
-0.2129623 -0.055659182 0.09822468 -0.093548894
-0.049164295 -0.15054402 0.091112256 -0.019611025
0.100333236 -0.047925577 -0.015733067 -0.0053401096
0.1165955 0.08868703 -0.17880034 -0.20230329
-0.049421314 -0.013369961 -0.15103987 0.10177461
0.053503487 -0.07547388 -0.086113 0.118162274
0.14774169 -0.08104069 -0.21909155 0.094281845
0.04679871 -0.21308304 0.15115647 0.054250773
0.15850684 -0.14559548 0.099006586 0.03096973
-0.1399028 0.020908562 -0.028419884 -0.03344831
-0.2233146 -0.097281516 0.068825416 0.08460341
0.017420087 0.04203022 0.0167151 0.091409646
0.14432187 -0.1388514 -0.14497516 -0.04629329
0.0668589 0.116744116 -0.10637 -0.16360892
0.071755625 -0.05737483 -0.1338922 0.014562481
0.13813125 -0.08366071 0.03402237 -0.13002607
-0.07208358 -0.16673474 -0.019132221 0.068368845
-0.036101457 0.090821445 -0.053229813 -0.09235328
-0.02281467 -0.28053963 -0.07226216 0.074105635
0.0137487715 0.008078023 -0.016681576 -0.0108710425
0.071589604 0.063646026 -0.08863924 -0.07188323
0.034933448 -0.14934482 -0.07834193 -0.012397684
0.008671054 -0.17892998 -0.122485034 -0.14219856
0.1516659 -0.32694885 0.045551937 -0.12661144
-0.09382409 -0.1070847 0.16409568 -0.055379614
-0.05569674 0.09140996 0.09936832 0.08292697
-0.083123684 -0.19131368 0.071977 0.07031604
0.048655063 -0.13370156 0.019711386 0.026031885
0.098632425 -0.034397494 -0.05537187 0.006468933
-0.12515974 -0.012373671 0.05772304 -0.022697309
0.16605175 0.0913906 -0.04269608 0.079301186
-0.044362407 -0.18174104 -0.11852567 -0.031056851
-0.069262676 -0.14599629 -0.048790187 0.048584234
-0.11934224 -0.025599059 0.005672683 0.09138633
0.12671968 -0.04851633 -0.076785825 0.15327011
-0.024626102 -0.044710286 -0.18585153 -0.13914414
0.053213187 -0.11804009 0.054585733 0.011009781
0.108830206 0.017590541 -0.065215416 -0.03220422
0.17903416 0.013922732 -0.276212 -0.17034097
0.14949432 -0.3278223 -0.024360204 -0.14039195
-0.09404376 -0.18969311 0.0022213995 0.055540036
-0.17765526 0.06590286 -0.04713443 0.11698406
-0.2835411 0.062315628 0.045838777 0.23249188
-0.08826103 0.024667336 -0.03232514 0.08143486
0.20518786 -0.05008678 -0.06530885 0.04825741
0.1422204 0.05620168 0.03643806 -0.048266336
-0.13086419 -0.13467343 -0.013083514 -0.13481562
-0.23269187 0.13510174 -0.13338827 -0.008542843
0.19091153 0.026368212 -0.052370608 -0.031718414
-0.09252036 -0.06594372 -0.03376603 -0.13947569
-0.016092593 -0.16037528 -0.21622103 0.19991912
-0.04753335 0.20208476 -0.1616082 0.035755925
0.07091986 -0.12756556 0.091003366 0.08656558
0.18025126 -0.13923544 -0.06623622 -0.033206586
-0.06798545 -0.14390102 -0.11835197 0.12613076
-0.023259768 -0.2796447 -0.06267885 -0.0414101
-0.0017179073 -0.046212748 -0.03277525 -0.18145762
0.07043198 -0.013273489 -0.07750466 -0.21505652
0.11612368 -0.15834783 0.16847818 0.06929416
-0.029178172 -0.094709665 0.10410749 -0.18804698
0.13989438 0.19105285 -0.21064135 0.10194525
-0.06123963 0.11586264 0.10100062 -0.061596792
-0.12905204 -0.07105097 -0.093203425 0.1797599
0.06733973 0.051753834 -0.29355517 -0.15759225
-0.14682832 -0.027304238 -0.22107606 -0.07701518
0.07982403 0.042106904 -0.049622726 -0.060590494
-0.07615113 0.115937226 -0.14104427 -0.061099526
0.2463184 -0.051856026 0.065465845 -0.004246222
-0.058877278 -0.07439116 0.14726669 -0.11678029
-0.06306986 0.13303277 -0.04218706 -0.04359962
-0.18712905 0.077160485 -0.01728676 0.09707772
-0.22343296 -0.12049141 -0.16210838 -0.057417404
0.109280705 -0.015872551 -0.16168274 0.043222237
0.0868665 0.18907915 -0.026993982 -0.014841806
0.07884031 0.21914703 0.2746605 0.047032923
0.041695863 -0.03850731 0.25388277 0.045905787
-0.13989596 0.06492713 0.044507835 -0.05880431
0.09260371 -0.017573528 0.0754682 0.027664589
0.015918912 -0.11422415 0.10736045 0.08483857
-0.07337704 -0.042568985 0.12595314 -0.19469789
0.033260297 0.013034263 -0.11931194 -0.0135972155
-0.13167654 -0.09302945 -0.022287186 0.039204936
0.078882545 0.018330853 0.03681881 0.11690294
-0.14292431 -0.0007444902 -0.10138346 0.114390105
-0.28411493 -0.1532988 0.084377095 0.04150038
0.1329658 0.106751956 -0.06320084 0.010795757
-0.30536842 -0.1153369 0.07457416 0.04113224
0.19509068 0.16841619 -0.18499193 0.11403376
0.12932502 -0.11485656 0.20632088 0.038481906
0.12986091 -0.15898584 -0.15944728 0.07331577
-0.006649605 0.010488889 0.10880829 -0.09735658
-0.05972718 -0.10253845 0.016023245 0.032920904
-0.011110869 -0.19816437 0.16804059 -0.029352607
0.14079241 -0.039700534 0.13528356 -0.15506117
-0.12981679 0.12776946 0.051573973 0.08993391
-0.008714876 0.06805701 -0.0577615 0.03797651
0.07386714 -0.0074732997 -0.18374787 -0.20370159
-0.06694223 -0.024160447 -0.11309333 -0.16339993
-0.1856261 -0.22838317 0.07583771 -0.23597433
0.13525507 0.13954704 0.10281781 0.06144473
0.1532424 0.09166364 0.030191066 -0.016736185
-0.02750497 0.261867 -0.11266593 -0.008848319
-0.2171285 0.06945923 -0.019377721 -0.13710293
0.04163776 0.18233006 -0.07883094 0.085596755
-0.20292524 -0.11127947 -0.14593199 -0.03406648
0.19498211 0.098206036 0.088741325 0.12436044
0.008338592 0.21585763 0.11410154 -0.04184583
-0.057388335 0.021545947 0.016074918 -0.05828261
-0.010676981 -0.05051031 -0.019519543 0.09610774
-0.075721666 0.034996662 -0.19111387 -0.14736208
0.2064563 -0.16867249 0.095190756 0.16174795
-0.05542629 -0.16038655 -0.1109146 -0.07445756
0.009241062 -0.19097658 -0.16610079 -0.03761307
0.10369235 -0.052674174 0.047591228 -0.042918913
-0.11944474 -0.07551085 -0.13860007 -0.12537788
-0.07296199 0.10185681 0.024291929 0.019140454
-0.06336292 0.20123556 -0.009762868 0.15204164
-0.07677189 0.027522324 -0.07035044 -0.12504952
-0.30210358 0.20784733 -0.02970329 -0.15852582
-0.12789004 -0.09641988 -0.28412777 -0.013986732
0.19525862 -0.07631767 0.1180213 -0.33797377
0.10777415 -0.033344015 -0.20797661 -0.039521676
-0.015886346 0.14980549 0.10666374 0.12912466
0.30724883 0.0143601345 0.0355221 -0.050874982
0.06542183 0.08227399 0.09953761 -0.119438216
0.31172067 0.07266362 0.16105825 0.10822696
-0.047191944 -0.14399828 0.26140043 0.06967216
-0.05603336 -0.09392278 0.17029332 0.031410996
0.20692839 0.08298526 -0.013364147 -0.21774718
-0.18710853 0.16490301 -0.09605307 -0.064178124
0.024100952 -0.047987893 -0.10989567 -0.12082455
-0.19923759 -0.011302438 -0.017120646 -0.14138874
0.016594347 -0.10744101 -0.07439877 0.009367204
-0.05897063 -0.08007356 -0.17447336 0.09544149
0.062590234 0.099189684 0.017581377 0.06770642
0.18272127 0.09230721 -0.017627817 -0.10785091
0.06637728 -0.12528056 0.1301099 -0.08843661
0.05882977 0.1670008 -0.20779835 0.0015113881
-0.0502908 0.14186549 -0.06833659 0.084836565
-0.032870125 -0.0062149824 -0.119573876 0.076074906
-0.12532805 0.1770688 -0.006966492 -0.06599921
0.010210977 0.02680005 -0.030307334 0.04249936
-0.046093524 -0.03029396 0.015018188 -0.11902641
0.16086784 -0.0272605 -0.23328497 -0.0131679885
0.017315064 -0.13364731 0.039244317 -0.038458243
0.10945654 0.06503208 0.11940926 0.082822405
0.014045014 0.12101556 -0.16397887 -0.06409235
-0.13031016 0.051261354 -0.07130018 0.008330238
0.14536636 -0.10386122 -0.0409552 0.037851423
0.03255078 -0.10796368 0.0120089725 -0.14197975
-0.21732175 -0.091192186 0.06874658 -0.13297793
-0.08876265 0.12500675 0.111228384 -0.034878843
-0.0003035136 0.02507195 -0.0318793 -0.18893425
0.025344502 -0.14243096 -0.09738272 0.09190024
0.23881735 -0.054127086 -0.11152224 0.16333678
0.2049011 0.23867458 0.1262402 -0.01639456
-0.34521565 -0.07782096 -0.1525857 0.07717513
0.015890494 0.12946077 -0.08105453 -0.14746651
0.15322411 -0.01961437 0.03748095 -0.07520058
