0.11607502 -0.043816585 -0.0776168 0.09835373 0.026236352 -0.056081332 -0.09657815 0.08265369 0.049463563 0.034595393 -0.047715776 0.014193215 -0.11959596 -0.042505454 0.044447612 -0.04122227 0.05013473 -0.038698852 0.12925056 -0.033664897 -0.029577713 -0.09064532 0.08803985 -0.026196802 0.03462282 0.03998158 0.015936427 -0.009120744 0.07570729 -0.025625492 -0.08121802 0.011223539
-0.020871706 0.109044164 -0.086841986 -0.17598595 -0.07341755 0.07171094 -0.06010526 0.05973925 -0.086828776 -0.042449653 -0.01783955 0.111816116 0.078115314 -0.122509025 -0.053999484 0.000115585666 -0.02673111 -0.045955263 0.021559278 -0.05110359 0.006827411 0.050340947 0.107129514 -0.01785631 0.09512003 0.08753716 0.012925331 0.050740607 -0.0061027524 0.02206676 -0.0526908 -0.10452376
-0.07684461 -0.016115978 0.10248202 0.0060467157 -0.05264361 0.0873673 -0.1510524 0.00639359 -0.07701272 -0.08410972 0.11919969 0.12811895 -0.17509131 0.046701927 -0.08780439 -0.077868074 -0.0057434603 0.11735896 0.13059379 -0.03650381 0.01766186 0.003300691 -0.044308417 0.035883486 -0.08853004 0.03000865 0.07196336 -0.030769465 0.13919978 0.110306665 -0.012023402 -0.005758329
0.09011783 -0.03878991 -0.048654355 -0.04903975 0.15099761 0.12968472 -0.14565806 -0.0786688 0.022138068 -0.0006262266 0.13370569 0.05058397 -0.06821686 0.11511274 0.06841641 -0.016412254 -0.010273135 0.09768239 0.14944161 -0.007499599 0.10362541 0.13938607 0.06581298 -0.063553326 0.008183683 0.14306979 -0.029641211 -0.13016155 -0.046947375 0.0047414303 0.123470075 0.06472003
0.072328694 0.15517616 0.05645037 -0.03564962 0.0022907455 -0.0015503071 -0.082385816 -0.027729917 0.08203763 -0.03903076 -0.07833721 -0.066256344 -0.11662886 0.054923248 0.1544214 0.17105505 -0.0009347843 0.0021092978 -0.08340616 -0.011242621 -0.055711716 0.16817318 -0.07854318 -0.24632807 0.035368383 0.096864976 0.04472728 -0.035656624 -0.17564303 0.0013929491 0.113781005 0.04568568
-0.002681269 0.04506367 -0.08360732 -0.017958548 0.12328776 0.014118722 -0.06478679 0.0019745978 -0.083730176 0.018872349 -0.01895771 0.04740584 -0.12319405 -0.06749232 0.07103089 0.108213216 0.026729383 -0.026266087 -0.064884946 0.03063815 0.07723351 0.03236874 -0.047012974 -0.0515556 0.063153766 -0.016244182 0.09354973 -0.069230385 0.056093287 0.050962992 0.02332738 0.045981657
0.123535335 0.06873909 0.0119249085 0.0868011 0.005129983 -0.06000278 -0.0058637066 -0.09452901 0.11949727 -0.11686344 -0.022591468 -0.025975956 -0.084694855 0.13922621 0.0054954165 0.13447894 0.17703746 -0.051036224 -0.1268763 0.04240836 -0.17277564 0.024504859 -0.08527593 -0.18305649 0.032292366 -0.089055136 -0.027939215 0.02964603 -0.06392933 0.032718785 -0.012071739 0.12512666
0.088415556 0.1430648 -0.07979046 0.048401043 0.055832054 -0.0041451855 0.06387026 -0.0064798747 0.10138338 0.03269874 0.051895633 0.10476499 0.043939203 0.0075059026 -0.0032518632 -0.060903646 0.0060400935 0.058021575 0.055423364 0.115222715 -0.045028713 0.02497367 0.101554856 0.13479741 0.06275776 -0.07508908 0.023535946 0.0058317413 0.004754561 0.07648351 -0.109205246 0.03999929
0.05925871 0.0014698429 -0.05919519 -0.043327432 0.02875038 0.03825934 -0.09078534 -0.15671624 -0.12006365 0.07063695 0.021516528 -0.09406815 -0.12349438 0.003188583 0.02526782 0.15938361 0.09721611 -0.107780956 -0.030332262 0.08537653 0.052014638 0.09549025 0.08532405 -0.05228748 0.06443623 -0.20123723 0.13240679 -0.1350363 -0.11847368 -0.13720225 0.020909073 0.10493526
-0.021031935 0.042495184 0.024633428 -0.031360768 0.04516216 0.15202637 -0.13238552 0.12166345 -0.037895385 0.09821786 0.018370641 0.07827517 -0.07803381 0.028942514 -0.03506536 -0.11124948 0.06961679 0.09981435 0.095994554 0.121285655 -0.011340813 0.08067635 0.026119635 -0.0012815389 0.07815578 0.109079674 -0.061864994 0.059076764 -0.07180164 -0.009606077 0.03678346 0.060419176
-0.2234403 -0.17171937 -0.17265509 0.018119665 -0.26217785 0.17535436 0.18699282 0.058845732 -0.113701 0.0053351293 0.11490585 -0.039528783 0.2068438 -0.06874624 -0.27692118 -0.07253779 -0.3156799 0.078558475 0.06561897 -0.039656878 0.26376396 -0.13985935 0.19005494 0.13217312 -0.1629038 0.028900092 -0.13039303 -0.017777922 0.12235813 0.1710365 -0.14849274 0.0108718695
-0.12623248 -0.19269197 0.06438877 0.04590254 -0.09549878 0.07828652 0.14688367 0.11824062 -0.028112527 -0.016446242 -0.023357641 0.05779686 -0.004133727 -0.024184389 -0.18398508 0.08263244 -0.14456087 0.04415507 0.06980013 -0.06424341 0.08600239 -0.15283932 0.024517164 0.05523948 -0.11176603 0.24344553 -0.19062595 -0.022276865 -0.043434676 0.022074534 -0.10167945 -0.05546163
0.08751343 0.086082526 0.009608971 -0.064775914 0.17566691 -0.031872027 -0.12211056 -0.06400457 0.032365803 -0.11386074 -0.11531506 -0.12552862 -0.16972212 0.066269 0.14227286 0.033144373 -0.06288939 -0.010641361 0.013681153 -0.04947775 -0.09627426 0.12251315 -0.11234185 -0.07255484 0.019608123 -0.09630105 0.14446144 -0.086704545 -0.09002084 -0.07968178 0.0468008 0.0007119186
-0.04219021 0.04208807 -0.041820258 0.115181334 -0.0157843 0.10566985 -0.15850438 0.028083246 0.10103383 0.17012084 0.08127432 0.07302193 0.064664245 0.07384137 0.09152861 -0.07827819 0.06956858 0.110007755 -0.027329715 0.025889426 0.13289048 0.02520767 -0.058545783 0.008776256 0.063919 0.03315963 0.10298012 0.09985998 -0.13426714 0.029079534 -0.094282046 0.059557796
-0.120056234 0.062353164 -0.065005645 0.05566143 -0.008150029 0.0032600693 0.07416093 0.058118906 -0.084023684 0.09866363 0.01977996 -0.014300782 0.0981999 -0.17888309 0.019281015 -0.13995518 -0.112204686 -0.07044188 -0.009660853 0.10851307 0.12736276 -0.11200754 -0.057876207 0.102722965 -0.08397504 0.06032851 0.012027318 -0.05801168 0.14667068 0.083763346 -0.15053171 -0.04121286
0.11595401 0.11227929 0.080810495 0.091617174 -0.011527092 -0.09154719 -0.039345726 -0.081433326 0.04641608 -0.12128276 0.058870565 -0.049230006 0.03243234 0.040684123 0.16830555 0.11251147 -0.071923696 -0.07872291 0.0063712415 -0.08919667 -0.0959068 -0.023975397 0.009588512 -0.010054051 -0.017322212 -0.07346503 0.07294663 -0.113923885 -0.13192856 -0.028035086 0.010232992 -0.038790196
-0.017327527 -0.0086488845 -0.010824801 0.124736786 0.16026792 0.027012715 -0.053652976 -0.07462878 0.0442841 0.0853429 0.028672507 -0.13766527 -0.11545853 0.002193246 0.054696005 0.105205186 0.094918385 -0.020368129 -0.09118758 -0.16135359 -0.021333478 0.08695365 -0.03297984 -0.041286763 0.08866299 0.08840327 0.12403441 -0.16990419 -0.010973618 -0.116571665 -0.009820625 -0.0078116376
0.061736677 0.0064863125 -0.10107269 0.041237347 -0.102205515 -0.03372763 0.09494588 0.046900716 -0.064008005 0.094175056 0.13241886 0.09035722 0.052807137 -0.022436319 0.023505205 -0.13932997 0.068268314 0.07096443 0.042452842 -0.014022736 0.21451454 0.04803881 0.14507346 0.043665923 -0.08169271 0.091141224 -0.0008328195 -0.017725466 0.13599312 0.106177166 -0.036984093 -0.014273609
-0.013196767 0.08810523 0.037096553 -0.052551843 -0.016311906 0.006536941 -0.12062445 -0.0761194 0.06921246 -0.02971248 0.05444137 0.11326877 0.036160316 0.0050642523 0.10337432 0.031149704 -0.0039008162 0.05321021 0.027632479 -0.043241847 0.016103735 -0.01586904 0.08328147 0.06585133 -0.07435725 0.0139826555 -0.006506498 0.077668585 0.03822894 -0.011869206 -0.10280729 -0.050916404
0.08573641 0.019433485 -0.08026107 0.108386 -0.09814297 0.13557146 0.08623827 0.04826532 -0.04219976 0.037206963 0.08597478 0.03429431 -0.08232561 0.03895289 -0.016871782 -0.069849394 0.028753337 0.12900089 0.03332535 -0.00868067 0.09715156 0.11546377 0.07206774 -0.010254371 0.01179999 -0.07613673 0.048588857 0.073328376 0.039004218 -0.00045515207 0.09792342 0.094887786
0.067502685 0.11356311 -0.06752547 0.038207512 -0.12528414 0.058473498 -0.12184284 0.10816579 -0.06288258 0.02178507 -0.01312133 -0.004409381 0.012643611 -0.107549615 -0.04199383 -0.07389191 -0.104655206 0.056387767 0.15510924 0.06383406 0.010001483 -0.008181696 0.11509431 0.10733994 0.07591201 0.023586107 -0.05997388 0.012555408 0.08416167 -0.0007288237 -0.09954657 -0.10667638
-0.060633603 0.10289763 0.027894806 -0.07614427 -0.07066947 0.04619467 0.055092204 0.0038751187 -0.04360982 -0.010572971 -0.0031169418 0.052931875 0.036859553 -0.06578958 -0.10627909 -0.0003763744 -0.06292963 -0.032712918 -0.041710965 0.090176985 0.09310111 0.039609183 0.14077468 -0.056835726 0.06673226 0.05154346 -0.07293541 -0.049286783 -0.0718105 0.07168623 -0.12203177 -0.0053808754
-0.07116866 -0.012788502 0.016665291 0.10089717 0.02835019 0.049925532 -0.06091963 -0.08197588 0.036570888 0.020330442 0.14321628 0.15639754 -0.08448795 -0.00082270306 0.02356718 -0.0012828165 -0.027592868 0.17056984 0.05020548 -0.0063332673 -0.043503456 -0.01481258 0.058915906 -0.034798685 -0.06913332 0.082300276 -0.027070358 0.010749647 0.081083216 -0.0074390327 0.0325189 -0.010647934
-0.06958902 0.051577147 0.107238054 0.10972432 0.0017188978 0.07053214 0.07855873 -0.04374014 -0.0076161106 0.031173445 0.073946 0.052686572 -0.0438168 -0.008269355 -0.053609017 -0.017985584 0.0014489937 0.14569798 0.014308541 0.077962376 0.18152818 0.034764107 -0.05954251 0.07338963 0.11903409 -0.014351531 0.06907909 -0.01891313 0.045673408 -0.072947755 0.08453708 -0.07129866
0.065845154 -0.0117202755 0.011281743 -0.06860439 0.040957797 0.04466417 -0.082075186 -0.02637863 0.04132953 -0.06764108 0.077547595 0.026145326 -0.0661562 0.09300706 0.039093785 0.094560586 0.040859137 -0.08820945 -0.008859502 0.021486325 -0.101571776 0.13395877 0.055917222 -0.021996021 0.053950083 -0.095087804 0.0035506142 -0.012689799 -0.057202227 0.015633704 0.04570872 -0.005646025
0.09491879 -0.05668716 -0.0047102133 -0.039546058 0.0033423125 0.018457323 -0.033670157 -0.062409904 0.06663051 0.0040597776 -0.020528927 -0.07815566 -0.08121527 -0.017275963 0.016442964 0.032136437 0.016536832 -0.042362828 -0.0932965 -0.118608125 -0.047150455 -0.040556718 -0.12129572 0.06803413 0.029637959 0.10862569 0.09092075 -0.08023511 -0.03466033 0.11808352 -0.015626853 -0.033574566
-0.036453493 0.056519933 -0.07308961 -0.038295258 -0.16801958 -0.1813575 0.014326131 -0.07568883 -0.008685026 0.02209701 -0.021573251 -0.056420848 0.1385267 0.0789792 0.083766386 -0.030219559 -0.06367938 -0.023291772 -0.074899636 0.07268815 -0.0473565 -0.100825384 -0.09162379 -0.053982515 -0.04239793 -0.098025784 -0.044086587 -0.089823015 0.043795757 0.22825952 0.0074295616 -0.027223513
-0.01396121 0.05751163 -0.03801126 -0.08399779 0.061133523 0.097660996 -0.029181642 0.02642665 -0.035159115 -0.016259775 -0.019137824 -0.037534248 0.007924232 -0.14633918 0.050930124 0.106038995 -0.016511295 -0.06992113 0.20286179 0.036772598 0.122214094 -0.027074384 0.048526276 -0.10882609 0.067468405 0.03256932 0.05411626 -0.010681884 -0.055020742 -0.043009557 -0.11959794 -0.045262452
-0.05803366 -0.14125925 -0.059415016 0.0525013 -0.1416597 0.15922405 -0.10864163 0.1743273 -0.13579148 0.16447096 0.037630267 -0.10362669 0.1604292 -0.069971606 -0.1965308 -0.0061362293 0.06823385 -0.10597737 0.14735301 0.1700025 0.109004326 -0.064127155 -0.04126501 -0.11652933 -0.034590144 -0.032145005 0.014969107 0.06285153 -0.084970005 0.13089329 -0.017421884 0.010185284
0.0856972 0.039374806 0.031791963 0.07065015 0.004848721 0.056805074 -0.053664383 0.08972351 0.053932875 0.12402564 0.0036077807 0.014757561 0.034176033 0.09286425 -0.013808414 0.042948198 0.116884105 0.07604585 0.019810863 -0.022523884 0.014402604 0.0033740192 0.045606572 -0.07022446 -0.040683866 0.058082405 -0.018254522 0.015638148 -0.0757762 0.13340929 -0.046461176 0.044068564
-0.073482394 0.026116047 -0.017788641 -0.11064447 -0.07036342 -0.0030041817 -0.12676495 0.027649682 -0.078598954 -0.019934088 -0.009604493 -0.1349551 0.08588814 -0.08328404 -0.0383785 0.10159989 0.08306537 -0.10026133 0.11077426 -0.036938034 -0.0890046 0.061727405 -0.004790921 -0.088284455 -0.0043725222 -0.023664132 0.023498317 -0.054176446 -0.07636206 0.069188975 -0.06811527 -0.048275314
0.10778941 0.059267048 0.03882965 -0.012439459 0.06968168 0.037270196 -0.074420966 -0.05226023 0.13593131 -0.10165601 -0.010181327 -0.038798727 0.025850026 0.14881966 0.18219179 0.12452489 -0.011757006 -0.03134697 -0.04669162 0.0069076186 -0.13988973 0.1371474 -0.052818984 -0.21496858 0.14637057 -0.12829193 0.12585017 -0.029052345 -0.15305457 -0.00062746974 0.045137387 -0.042287458
-0.09700485 -0.027120402 0.019413985 0.11723337 -0.10160934 0.018507244 0.12839065 0.07726469 -0.088315986 0.033294983 0.1300814 -0.059979755 0.13261086 0.105161466 -0.041499734 -0.08667436 -0.10901009 0.10716097 0.07363396 0.029561847 0.0801397 0.034787945 0.109539665 0.06315147 -0.012183204 0.017622393 0.030340338 0.1590903 0.1637345 0.09413626 -0.13850506 -0.09587511
0.11029382 0.1588023 0.0019623456 -0.032681484 0.11409293 -0.06535512 -0.033456903 -0.0065484038 0.07393405 -0.1269834 -0.08670442 -0.17071772 -0.17906742 0.0012521602 0.14919107 0.19810934 0.16632655 -0.08156666 -0.10091916 0.01631523 -0.1587126 0.09569197 -0.07223475 -0.15903887 0.07061589 -0.17998978 0.15584788 -0.027373616 -0.08780301 -0.074247256 0.0005247825 0.09886817
-0.08660376 0.09071156 -0.00040963583 0.0280951 -0.013281868 0.18614711 0.113376364 0.08810066 -0.053015854 0.025068928 0.0174959 0.15051311 -0.002652205 -0.052387353 0.020500142 -0.027276555 -0.04442702 0.108741775 0.14324902 0.0049192943 -0.03496224 0.050096646 0.02808462 0.041644983 0.07890524 0.04290459 0.03509992 0.09264979 0.0053414865 0.14085428 -0.064067416 0.049878564
0.104775585 0.009647652 0.0022682655 0.08080483 -0.059398428 -0.0825504 -0.15550534 -0.11359659 0.118502155 0.0029386494 -0.020697998 -0.09700172 -0.22099468 -0.041586317 0.05446453 0.09703887 0.07592175 0.054623082 -0.18004483 0.05039152 -0.13961329 -0.019257873 0.028878644 -0.0034531273 0.110063896 -0.119895235 -0.103920415 -0.005452761 -0.034276515 -0.09563832 -0.016263314 0.032392006
-0.004304402 -0.09104478 -0.057400625 0.021092337 -0.012736771 0.091992795 -0.085874565 -0.019988043 0.06354055 -0.06831255 0.054120522 -0.05038232 0.039723694 -0.008885047 -0.052514527 -0.03953205 0.027010387 0.044157688 0.0704492 -0.1734623 -0.035963774 -0.07244566 -0.059167925 0.012668683 0.10277324 0.068593785 -0.04993046 -0.039139684 0.1310549 0.06266727 0.061116584 0.0956885
0.07375167 0.0085418625 0.09158894 -0.05723259 0.056397825 -0.10484967 -0.10634584 -0.033076044 0.16818146 -0.030346172 -0.022854898 -0.095487855 -0.06873747 0.04763174 0.17392574 -0.0006058973 0.024705196 -0.1314496 -0.17748024 0.0027149278 -0.11731337 0.059006166 -0.108348854 -0.10992781 0.050604254 0.04922018 0.007829925 -0.0054666246 -0.1714815 -0.034384515 -0.10436361 0.1422166
-0.0052959444 -0.06497926 -0.095958285 -0.032833736 0.080758765 0.055991642 0.14534082 0.032122746 -0.065802716 -0.031223759 0.04184756 0.06909441 0.09755424 0.06057343 -0.070181556 -0.09532448 0.04124812 -0.020992056 -0.07066174 0.009013319 0.04931442 0.007945709 0.13479508 0.008664682 -0.08963579 -0.13870381 -0.098579384 -0.009897737 0.051832344 0.07136585 0.06414002 -0.10819358
-0.10620588 -0.024817022 -0.08321766 -0.07291282 -0.02261027 0.024908006 0.04848015 0.06504258 0.006623538 0.16669448 -0.09328755 -0.10099082 -0.02869214 0.112577446 0.017185729 -0.09104939 0.03199733 0.053857524 0.052447107 -0.07623355 0.047131233 -0.10886254 0.024573682 0.008883909 -0.1546886 0.20134471 0.017540043 0.015502677 -0.11369545 -0.018320426 -0.026961565 0.014799238
0.0067603625 -0.039290663 -0.018806914 0.13499616 -0.014978438 -0.023238381 -0.015073081 -0.031729084 -0.09491003 -0.062191688 0.08418659 0.20365034 -0.01426258 0.0018060259 -0.11577782 0.15049733 0.060476825 0.05575916 0.008247264 -0.025645291 0.058429975 0.021526963 0.06765013 0.08515464 0.0070845326 0.026377816 0.029553374 0.11389835 0.15059972 -0.10722837 -0.08104908 -0.01805456
-0.06906156 -0.05966088 0.09649985 -0.16505244 -0.041351303 0.07089592 0.080328636 0.04618482 0.032431044 0.10216723 0.050958347 -0.12331061 0.127853 0.015063801 0.08119641 -0.1586367 -0.08981779 -0.039403852 -0.010901329 -0.017007677 0.06373982 -0.045464784 -0.057734165 -0.13249601 -0.1093673 0.05734 -0.15599847 -0.0017208977 -0.09310284 0.045215134 -0.05299741 0.0042740623
0.040312257 -0.07347048 -0.062356018 -0.12110516 -0.01860949 0.042220347 0.016191998 0.07695237 0.023157645 0.12495421 -0.023888992 -0.07288805 -0.038649153 -0.025772426 -0.07992961 -0.02043609 0.039716106 0.026084784 -0.005864961 -0.0075345905 0.025844675 0.04417424 0.08025835 -0.05295147 -0.043014567 0.03316315 -0.10493294 -0.0081311995 0.08141441 0.02349379 0.06622473 0.0074052326
-0.016923504 -0.08030596 -0.08605345 0.09566134 -0.13185601 -0.17919028 0.05644582 0.0029395327 -0.019038389 -0.057062086 0.1467708 0.035423264 0.010747648 -0.06566646 -0.14036998 0.07094591 -0.035382666 0.039733414 0.05209044 0.09888306 0.0654738 0.054449376 -0.044740837 0.026512837 -0.086288504 -0.05167088 -0.11318059 0.031813182 -0.051783774 0.10391844 -0.20951703 0.05754411
0.121690325 0.06837794 0.121996194 -0.050214536 -0.032126572 0.0570187 0.07009657 0.008950959 0.11334222 0.024198221 -0.0172288 -0.0772146 -0.021408658 -0.003893488 0.16271883 -0.09991753 0.12729 0.05125484 -0.055239405 0.05747652 -0.12300204 -0.029648352 -0.045256864 -0.1158226 0.07600322 0.045554906 0.047495805 -0.095119916 -0.0110367695 -0.09789552 0.048370697 0.046526928
-0.012316969 -0.11582729 0.056071933 -0.16544479 0.0010007368 -0.04229135 0.050969638 -0.05944585 0.012570841 -0.027294308 -0.04228106 -0.08124125 -0.079831466 -0.022586325 -0.11852355 0.035127692 0.00048306442 0.008922766 0.055933103 0.022112025 -0.030076733 -0.08619284 -0.0149866855 -0.0078988895 -0.07129964 0.034343142 0.001758396 -0.003525468 -0.1379269 0.07568575 0.14285548 0.07563646
-0.015684962 -0.02123591 0.010586343 0.0003542633 -0.02846227 0.015337251 0.06577502 0.018466907 0.06463808 0.11938468 0.1049002 0.0935949 -0.10279811 -0.03404485 0.027734002 -0.04867073 -0.027466778 -0.016102606 0.048854403 -0.09626227 -0.03073664 -0.050000895 0.003775431 0.0610178 -0.08576512 0.15437746 -0.0376428 -0.089397535 0.14338715 0.07682502 -0.02787296 -0.12958404
0.07475481 0.010308614 -0.06593675 -0.1038431 -0.02631008 -0.058016736 0.06295628 -0.035881348 -0.108396776 0.00867683 -0.010868293 0.11306701 0.10732629 -0.08162918 0.0036139037 -0.020644818 -0.012198608 0.05569502 -0.050176658 0.042445824 0.08861468 0.047168624 0.041407175 0.020966616 0.011727921 0.1250978 -0.117943354 -0.037489172 -0.06860354 0.09752975 0.05480727 -0.10706935
0.20458144 0.18871377 0.108778015 0.0326276 0.093470424 0.018666327 -0.116833135 0.041666638 0.10564581 0.008697298 0.03833805 0.04245742 -0.09243975 0.26973477 0.21704152 0.06838396 0.1419103 -0.056076575 0.014614096 -0.097679354 -0.085838236 0.17710423 -0.11777961 -0.11509299 0.07949115 0.035458975 0.07143982 -0.042886432 -0.058822993 -0.04787204 0.20187247 0.17543925
0.027110703 -0.105989926 -0.055024214 0.023715919 0.05982431 -0.0407558 0.007179642 0.097379476 -0.057426017 0.0028294006 0.07375307 -0.03840907 0.096286185 -0.034099992 0.013836025 -0.033903856 0.012544691 0.062909536 0.0690811 -0.09469128 -0.009583465 -0.033245638 -0.05234494 0.06318548 0.026181202 0.12781546 0.022401726 0.11634136 -0.003551995 0.0076561924 0.041966688 -0.09127029
0.10509804 0.18707198 0.07987914 -0.110306874 -0.018580489 0.05684162 -0.035941683 0.022924375 0.11369546 0.02069786 0.024037667 0.03671406 0.06980368 -0.033333085 0.005832365 0.023921937 -0.018203009 -0.056776684 -0.023794891 0.020941205 0.008530363 -0.022193898 0.09551062 -0.036087144 -0.044787556 -0.08303369 -0.038715355 -0.050926372 -0.015355716 -0.034309078 -0.070183545 0.035690628
0.008679238 -0.090727724 -0.049014077 0.1188241 -0.13898036 0.119498424 0.0059291283 0.15530516 -0.07693826 0.16249011 0.093096204 0.11209491 0.18147787 -0.038004607 -0.087372944 -0.12440126 -0.0981744 0.0446951 0.19937332 0.10196003 0.020825665 -0.007360232 0.096702285 0.078883976 -0.008251552 0.16758077 -0.04175677 0.11132986 0.09001437 0.169487 -0.09006127 -0.0811998
-0.0724888 -0.027180318 -0.10416527 0.16408753 -0.012190603 -0.0031406677 0.042566758 -0.01402455 -0.15848067 0.0043124 0.017801201 0.10824391 0.033202756 -0.0183599 0.05710489 -0.07458675 -0.12943953 -0.018005615 0.10855444 0.07376567 -0.036897168 -0.08112437 0.10208969 0.15285073 -0.084470436 0.06223027 -0.056263834 -0.06523515 0.25785875 0.11159646 0.032026216 0.084790856
-0.011084171 -0.067708366 -0.030250713 -0.07491054 -0.013197574 -0.0013707617 -0.09282367 -0.04884219 0.03947895 0.0072887926 -0.10089183 0.005883884 -0.05051896 -0.015976133 0.020777294 0.087975286 -0.07417031 -0.07817961 -0.108783536 -0.079752006 0.05514185 -0.042290553 0.02458377 -0.001917475 -0.021367988 -0.083712175 0.06018323 -0.11337932 0.034661688 -0.083730176 0.022634162 -0.010483422
-0.11364266 0.020734943 -0.090351276 0.15430187 -0.04210615 -0.0041161147 0.07966988 0.09893974 -0.069420144 -0.014599877 0.13789131 0.17738573 0.065640174 -0.0871216 0.022334581 0.03794868 0.038063597 -0.011313553 0.06836702 0.1244542 0.14256361 -0.004754213 0.07008653 0.08634956 0.018064894 -0.02000562 -0.00411739 0.04687127 0.09620088 0.066075414 -0.024747806 -0.030827759
0.02539651 -0.19847485 -0.12715036 0.088504694 0.0022378867 -0.030643867 0.09238311 0.029636975 -0.14120731 -0.062171157 0.13010825 0.14505666 -0.03509041 0.023106417 0.060542796 0.049765185 -0.04895391 0.004817195 0.0009542362 0.11140061 0.098721124 -0.049234465 0.010633574 0.017022941 -0.026530987 -0.006751207 0.08886837 0.09395336 0.099485725 0.008176274 -0.01648151 0.0032495537
-0.21372972 -0.16084863 -0.12420336 0.32332775 -0.14724104 0.0778142 0.17691147 0.19560453 -0.053188454 0.1890012 0.27421775 0.008827362 0.19186667 -0.0875146 -0.18614821 -0.1094729 -0.13875805 0.23368211 0.26443753 0.09542833 0.19509605 -0.13359715 0.22174092 0.1838406 -0.17732161 0.019647703 -0.08249878 0.16529407 0.14819771 0.069722295 -0.15285991 -0.05685406
0.13590914 0.010291341 0.13340291 0.06744006 0.026712243 -0.03230829 -0.13486378 -0.11415295 0.22343343 -0.10500392 -0.09355281 -0.1755282 -0.12372959 0.062169917 0.1044256 0.03932642 0.07815864 -0.008523755 -0.15497859 -0.044139117 -0.19245291 -0.024493175 -0.058831953 -0.010074419 0.1153063 -0.056180835 0.075257994 -0.18596181 -0.06863645 -0.122949995 0.0017348788 0.126978
0.028811084 0.1937765 0.03472141 -0.21410611 0.08129776 -0.20011134 -0.0037706834 -0.06982075 0.21856509 -0.08643309 -0.124510616 -0.108947985 -0.17168413 0.12732679 0.025076468 0.038699616 0.06683819 -0.08373173 -0.12562408 -0.00024272304 -0.10733598 0.14372432 -0.22348723 -0.084028356 0.16720426 0.014673032 0.031747777 -0.072926104 -0.05468624 -0.0024934937 -0.030766914 0.019384185
0.1302971 0.10850711 -0.011936336 -0.024941076 0.035184145 0.026771905 0.023571193 -0.04248559 -0.01744211 0.046496995 -0.04074951 -0.008187757 -0.15001456 0.08150626 0.0029042433 0.046809148 -5.6055484e-05 -0.09999871 -0.026722293 0.01928986 0.061859082 -0.08361244 -0.024972927 0.018440623 -0.032335903 -0.018732002 0.030020753 -0.003547114 -0.060924664 0.013035538 0.025349742 0.0338365
0.3557828 0.22970031 0.19694093 -0.15868855 0.2044317 -0.037200566 -0.16371109 -0.1812437 0.23355083 -0.09779359 -0.1651632 -0.16556542 -0.121183574 0.056821425 0.16191645 0.15414621 0.08136437 -0.044180695 -0.26186147 -0.15142848 -0.20249122 0.11485579 -0.12399483 -0.20937917 0.16430704 -0.25158074 0.256729 -0.10279449 -0.24754466 -0.14700148 0.26023483 0.12856813
0.10736108 -0.050472714 0.091260366 -0.22946817 0.11249504 0.06729284 -0.15474719 -0.007227498 0.085328355 0.13903926 -0.088186026 -0.07949954 -0.16420187 0.17886761 0.07414877 0.09159704 -0.013961724 -0.023286285 -0.0027087755 -0.018864224 -0.09418374 0.14441015 -0.14807314 -0.0031268145 0.0059899553 -0.038927067 0.071127124 -0.035268813 -0.06185502 -0.15984982 0.092992835 0.12669152
0.103565276 0.025126727 0.03230713 -0.08119872 0.14511928 -0.051502667 -0.09655803 -0.016300922 0.05759581 0.0634649 0.006535592 -0.10383463 -0.18399735 -0.010062704 0.1617755 0.11134216 0.046093736 -0.036696464 -0.14095399 -0.12911679 -0.1643083 0.042357575 -0.15298122 0.00834548 0.13886793 -0.0032023296 0.07864609 -0.23515297 -0.04285543 -0.1548305 0.117849685 -0.0033300903
0.11774683 0.03815832 0.009844656 0.062212277 0.1168066 -0.06755799 -0.12531048 -0.03324226 -0.028545754 -0.016322488 -0.011138414 0.07373739 -0.02893962 0.06225001 0.04127191 -0.016228057 -0.07582433 -0.11370283 -0.00020603956 -0.08834918 0.03333867 -0.013907326 -0.10505672 -0.094266266 0.15008534 0.0498299 0.04677362 -0.010303787 0.04728247 -0.13756397 0.013308583 0.08749483
-0.024347138 -0.05677811 0.027681883 0.04525289 -0.066419475 -0.047461044 -0.056712817 0.057493836 -0.0023926825 0.043306444 -0.12346519 -0.08047855 0.018969735 -0.00021147846 0.002655267 0.006694079 -0.0015686179 0.09565674 -0.028600661 -0.09315238 -0.014251504 -0.074992076 0.023780854 0.0030709293 0.08216445 0.047537297 -0.071177304 -0.03814443 0.039025113 -0.015883502 0.020392647 -0.006017623
-0.14403014 -0.009613261 -0.11394483 -0.085498475 -0.058776464 0.076615274 0.12536271 0.010609308 -0.043953482 0.017712744 0.06556432 0.22632733 0.14825948 -0.22746062 -0.12150404 0.053829763 0.0032421716 0.10626151 0.10912572 -0.046218265 0.0336933 -0.10368545 0.1075828 0.07338409 -0.059205636 0.028594377 -0.12329226 0.014975299 -0.000506974 0.12925336 -0.12358103 0.0067191506
-0.090536006 -0.069640905 -0.05907766 0.08812499 -0.0900222 0.11003134 0.016632363 0.0703474 -0.053480353 0.083104484 0.047294572 0.030363614 0.21434174 -0.035998154 -0.09547062 -0.16569825 -0.045974303 0.14797796 0.13726489 0.14901163 0.22882941 -0.12554032 -0.025015427 0.08094906 -0.1276382 0.167306 -0.0588151 0.013791425 0.08822005 0.2290928 0.005102064 -0.010436727
0.11351028 -0.07902158 0.048685532 0.00069050223 -0.00094533374 -0.05171745 -0.018641274 0.009961018 0.09535225 -0.05584962 0.046988446 -0.04165837 -0.028131647 0.03512754 -0.010357634 -0.04262527 0.014857152 0.073611304 -0.12467865 0.033027045 -0.065900356 0.033785284 0.041027643 0.08353241 0.07915464 0.05208793 0.13099858 -0.067630306 0.014061317 0.030307734 -0.02001177 -0.10207967
0.08625064 0.05143601 0.071073376 0.044240117 0.23117627 -0.06610859 0.007710418 0.06174731 0.11375416 0.052979603 0.11187769 0.009015052 0.051771704 0.07616851 0.17822094 0.1635208 0.15905686 0.0035767036 0.026918214 -0.0057157264 -0.1428671 0.24874456 0.0068003875 0.005752792 0.042770807 -0.04766971 0.14353468 0.056665782 -0.026151828 -0.09589155 0.14918423 0.22159828
-0.032806635 -0.085081816 -0.05114778 -0.02774782 -0.11914761 -0.1105406 0.0060587474 0.027184824 0.065601066 0.02180112 0.08291362 0.05937626 0.05831037 0.030701395 0.033686377 -0.054007057 0.020206453 -0.07715516 0.077751905 -0.050487 0.06659466 -0.16113634 0.04312806 0.09017489 -0.020416547 0.019980127 -0.09305916 0.045836087 0.047734518 0.04062035 -0.09223957 -0.044117175
0.041377846 0.051267777 0.04148759 0.026617495 -0.13135293 -0.061491765 0.06325332 0.05894546 0.046468582 0.08634987 -0.016572237 0.09287766 0.0054338644 -0.03868708 -0.03585609 -0.075747475 0.00036882647 0.01248584 0.0059816134 0.02207413 0.082673736 -0.01028295 0.06984345 0.027180169 -0.011287743 0.0067719663 -0.029825807 -0.058618672 0.0947504 0.04607304 -0.05573484 -0.04133534
-0.051012635 -0.025685888 0.02567716 0.021924354 0.11609627 -0.04877486 -0.018938836 0.02608388 0.12572218 -0.08882309 -0.06720054 -0.13747515 0.08381805 0.1335175 0.017705593 -0.09291023 0.078930415 0.035196323 -0.07268342 -0.10282788 -0.026990606 0.035049222 -0.007474665 -0.12566708 -0.072422594 -0.070985146 -0.058857374 -0.13344029 0.018635113 -0.03245535 -0.014407279 -0.0044812285
-0.070681356 -0.0020703562 0.12579188 0.22020821 0.055483177 0.078001164 0.13664766 0.12928928 0.044859976 0.12479224 0.21972674 -0.039915986 0.082720704 0.10029747 0.003982039 -0.05230981 -0.00089983805 0.07714638 0.061038654 0.04290979 0.14508751 0.10060598 0.062356967 0.05123223 -0.10123915 -0.043915436 -0.065492764 -0.0017007868 0.14417213 0.096785285 0.012610566 -0.11476737
0.104567006 0.0065019024 -0.088988505 0.07574091 -0.06928811 0.07465782 -0.10953242 0.01085055 0.070129246 -0.1619889 -0.045508426 -0.0438781 -0.10304297 -0.02144328 0.06422896 0.024875969 -0.010754599 -0.11604828 -0.13063796 -0.08395374 -0.06766504 0.08678931 -0.007400285 -0.107537106 -0.024000341 -0.1930517 -0.06628819 0.05562296 -0.0058428375 -0.008580923 0.022165384 0.06009397
-0.06136423 0.015486553 -0.043286186 -0.030799035 -0.038576983 -0.090053685 -0.00651975 0.09856275 0.045070063 -0.034462668 0.054192368 -0.0599977 -0.1589676 -0.0072576976 0.14588623 0.09435216 0.088265754 -0.1088079 0.0073061446 -0.022585735 -0.0741569 0.053122453 -0.0124651 0.030053824 0.052782074 0.1039598 0.05415137 0.06738995 0.012996599 0.02358001 0.13766988 -0.027767114
-0.014625834 -0.0027758437 -0.08455371 0.17355505 0.03774298 0.023877459 -0.053294133 0.08841164 -0.15965159 0.07436611 0.10786583 0.09192929 0.07433818 -0.020904927 0.06795118 -0.06827439 -0.057683956 0.119094945 0.05217312 0.08963563 0.16663034 -0.039568834 0.06555867 -0.066721596 0.09376045 -0.039110154 -0.05742337 0.12772188 0.15348707 0.16155545 -0.024074055 0.08079461
-0.081412286 -0.02465763 -0.07448656 0.19656256 -0.055926684 0.0364874 -0.08589187 0.09903769 -0.005484708 -0.04115056 0.11690274 0.12931053 0.04529526 -0.06694463 -0.06648924 0.006672149 -0.026213719 0.20122026 -0.04578008 0.056804802 -0.009387936 0.03674049 -0.069459066 0.16547954 0.0059869383 0.05168939 0.06940237 0.06668409 0.13677417 0.05105243 0.04215802 -0.0549768
0.21021242 0.07227613 0.15101014 -0.14910808 0.15747863 -0.24058716 -0.11403718 -0.13913287 0.13798994 -0.039305303 -0.2577448 -0.1625124 -0.02192493 0.20436859 0.19231495 0.088270724 0.07410167 -0.18445325 -0.14086396 -0.21452692 -0.057051785 0.124954335 -0.040007565 -0.19164808 0.17797302 -0.011920435 0.20914872 -0.22149324 -0.14994878 -0.090008505 0.18036063 0.15735309
-0.088869706 -0.028092938 -0.059220277 -0.15472607 -0.03680754 0.059389513 0.0026512935 0.03976472 0.09228807 -0.1203721 -0.020926835 -0.00618968 0.076348476 0.016803106 0.004006116 -0.053249814 -0.016114675 0.07868078 -0.07181124 -0.017420342 -0.07605858 0.071375385 -0.026250098 -0.0692404 0.048106827 -0.017449813 -0.044357937 0.09129618 0.033145547 -0.024259746 0.06273454 -0.070956334
-0.11397948 -0.09124823 0.026764732 -0.030361013 0.0917527 0.051832482 0.05890184 -0.006866719 -0.05053949 -0.10520335 -0.040977318 0.057520036 -0.0462925 0.025712835 0.018677743 0.052659947 0.02763764 0.044827677 -0.009055597 -0.03692199 -0.00034350698 -0.046924684 0.0598203 0.012967454 0.07294957 -0.0017965029 0.0087511195 -0.04306282 0.11894002 0.070469335 0.0792467 -0.096926115
-0.08722232 -0.00948533 0.043750662 -0.238832 -0.09897721 -0.12389179 0.08217217 -0.042397182 0.0179304 0.024722282 -0.024561629 -0.015581255 -0.0954446 0.18211123 0.098135486 0.0444493 -0.0070211864 -0.090437725 -0.083556 0.020498462 -0.1138442 -0.020561857 -0.12010723 0.04537092 -0.010900803 0.18669866 0.016845044 0.013560844 -0.036438193 -0.07642564 -0.01875265 -0.040759023
-0.07022061 0.13017991 0.056943532 -0.09335721 0.006258101 -0.023962256 -0.056560967 0.0364058 -0.03889971 -0.06027022 -0.004070398 0.069384605 -0.09081086 0.09893066 0.08193682 -0.0828926 0.03900058 -0.1108365 0.030291844 -0.0026778334 0.032928523 -0.034886163 -0.053107057 0.02993545 0.020526586 -0.107032955 -0.07922497 0.028256765 -0.12828742 -0.07684235 -0.019469775 -0.05270568
0.06322577 0.06921262 -0.05285064 -0.06816923 -0.00694963 0.08749458 -0.049687475 0.06179414 -0.06818131 -0.051540703 -0.00055042247 -0.06331917 -0.0268912 -0.029183447 -0.025662273 -0.12313144 0.0044848905 0.044126496 -0.013838743 -0.10082864 -0.008050185 -0.020442113 0.11979954 -0.050934292 0.050798092 0.06552077 -0.014263059 -0.033016294 -0.048279792 0.023509752 0.03239855 0.009632592
0.08136506 0.08348842 0.074422516 0.06595953 -0.047748886 -0.10404349 0.056969088 -0.03496249 -0.053365372 0.037845306 -0.0064651323 0.007691594 -0.007873323 0.005847356 -0.032542676 0.06308289 0.046602987 -0.04264502 -0.0671144 0.052449927 -0.053273298 -0.0071626916 0.039567035 0.10136446 0.11102355 -0.12253339 0.009525762 -0.0013253347 0.08228052 -0.04233359 -0.043085076 -0.052021947
0.060173906 0.00260288 -0.008977848 -0.1243715 0.08265807 0.11567815 -0.023450721 0.03610464 0.12737766 0.03458531 -0.095099784 0.043248195 0.07362458 -0.07795768 -0.09179211 -0.013867902 -0.07936464 0.035710704 -0.013887591 0.019605085 0.09754982 -0.084712885 -0.068451785 -0.04012578 0.07587648 -0.040646125 0.02469061 -0.048510063 -0.05604193 -0.045399375 0.082633436 0.057333447
0.16062829 0.18905823 0.051623706 -0.04361679 0.08687046 -0.13024984 0.049202908 0.0038740262 0.10581242 -0.10414178 -0.021605534 0.017298397 0.04198947 0.16265644 -0.02425128 0.09483999 0.04893282 0.009806267 -0.08202798 0.031733528 -0.103038736 0.2213911 0.023741975 -0.06954623 0.06771379 -0.09251378 -0.057928134 -0.050745104 -0.049820803 0.05929289 0.03195337 0.03428879
-0.0246636 -0.12344445 -0.06719121 0.1513753 -0.15764636 -0.023660447 0.007889936 0.07282379 -0.16540457 0.11370962 0.019094113 0.042564 0.046492316 -0.13356219 -0.10402025 -0.15083085 -0.12128887 0.082497604 0.09295063 0.11122523 0.23057291 -0.071889944 0.083204836 0.14335062 -0.049830835 0.14373873 -0.028459234 0.1007458 0.061839767 0.044599492 0.042540036 -0.018797988
-0.032057356 -0.027216883 0.13492228 -0.0015813786 0.11143949 -0.085451074 -0.015038979 -0.0003133436 -0.031765293 -0.03349648 0.02817903 0.06500233 0.0682616 0.06967637 -0.039170504 0.173797 -0.019590912 -0.10665066 -0.009299892 -0.100768894 -0.034718763 0.025087552 0.00597448 -0.073712684 0.06811254 -0.022958688 -0.06998147 0.034486566 4.653859e-05 -0.008151923 0.031183388 0.03850069
0.08750071 0.16206867 0.11015613 -0.068996765 0.045660578 -0.061574563 0.047962893 -0.07763815 0.19654693 0.07026469 -0.06595546 -0.11446578 0.01809054 0.087765805 0.087776266 0.013382455 0.15512827 -0.02845706 -0.047123287 0.017943121 0.0035348542 0.12103572 0.0046794442 -0.11138506 0.018201824 -0.111319 0.11051274 -0.0676602 -0.10730136 0.012942044 0.11480374 0.012242036
-0.07528091 -0.04682178 -0.048061147 0.098717116 -0.052268542 0.10964871 0.024324331 0.00024951462 -0.092461415 0.098963514 0.07717759 0.107377045 0.12641022 -0.052907147 -0.025299806 0.038210604 -0.09795004 0.071069404 0.018935634 0.05756858 0.0111130895 -0.06409636 -0.042642675 0.039943326 0.091352195 0.051772412 -0.0041169724 0.07683156 -0.031627502 0.055920355 0.027165903 -0.014588152
0.007221197 -0.0529731 0.020836543 0.24505691 -0.009709932 0.06796838 -0.030128421 0.064293124 0.023235219 -0.013737979 0.03096766 0.05604174 0.031645555 0.081406824 -0.07174695 0.032169715 -0.025370661 0.11659135 0.16153333 0.04341893 0.036010277 0.07410552 0.109192476 0.23903722 0.007644983 0.11138949 0.104117334 0.039845377 0.024566064 0.122735664 0.025018627 -0.01382833
-0.01974391 0.023891898 -0.047913264 0.16421811 0.105081625 0.12584156 -0.029250273 0.038435385 -0.04904786 0.07444224 -0.026443126 -0.031718604 0.12309165 0.02036623 -0.047097407 0.033598952 0.07085862 -0.01196894 -0.10659429 0.07316166 0.13274018 0.17754714 -0.029363355 -0.008509899 -0.07433087 -0.016523663 0.047615707 0.037714276 -0.038115848 0.059126362 0.059293695 -0.016257534
0.022394208 -0.090550475 -0.03891274 0.1798022 -0.13815953 -0.1022696 0.109236374 0.07661318 -0.06837728 0.03596163 0.025206096 -0.08230048 0.014203238 -0.04491424 0.07865197 -0.084232144 0.028205374 0.041452523 0.10638616 0.024016116 0.1295767 -0.04332872 -0.062374882 -0.008139741 0.09890812 -0.0014176833 0.02317014 0.13955817 0.06443912 0.03146803 -0.043131847 -0.07106559
0.07978031 0.0010317221 0.03813387 -0.07159671 -0.020168712 -0.18289761 -0.18257359 -0.10202051 0.142565 -0.03418182 -0.09057029 -0.25089568 -0.0016492489 0.12760426 0.09611309 0.18434833 0.1892024 -0.13172801 -0.10700695 -0.04377598 -0.039917655 0.22736248 -0.07003396 -0.06142511 0.15144312 0.019371867 0.03229002 -0.095643856 -0.052436866 -0.19274075 0.08359196 0.07111619
0.22055438 0.49045435 0.26720694 -0.16740143 0.2924096 -0.12910911 -0.14055972 -0.14163932 0.34361 -0.14005841 -0.16845839 -0.28636202 -0.11262695 0.33249137 0.40388536 0.26457414 0.27755395 -0.18354738 -0.3499199 -0.13931358 -0.15110825 0.1939132 -0.18298733 -0.2468793 0.1873164 -0.22600946 0.22603539 -0.2032333 -0.2978978 -0.10535711 0.28880587 0.27648738
-0.04809297 0.1154734 -0.05989919 0.070224196 0.029898968 0.13776286 0.012066179 0.14650175 -0.05998279 -0.051229216 0.2147778 0.10775798 0.105050415 -0.12778807 -0.08338194 0.01488425 -0.092638105 0.10452473 0.08686618 0.18943436 0.12182273 0.115333825 0.08761626 0.08359 -0.06224637 0.06926911 -0.0037006508 0.13119426 0.20431529 0.11814797 -0.10255206 0.08551774
0.050734337 0.011507377 0.0040606433 -0.011226757 -0.03250165 0.0024692663 0.049802095 -0.031595815 0.016304767 -0.03876793 0.042118665 0.10451853 -0.112909205 -0.029019397 -0.013701121 0.0047581866 -0.013327354 -0.010963332 -0.07217346 -0.004182177 0.058257528 0.0017036616 -0.07838506 0.05796981 0.036874417 0.005637417 0.043783195 -0.03554395 0.046114773 -0.05191583 0.029289864 -0.0005859067
0.0017443043 0.031179735 0.07814445 -0.03401712 0.08905455 -0.11917951 0.0069303266 -0.08014775 0.06976589 0.035156637 0.0007756839 -0.061017755 -0.08958118 -0.023406051 0.0274182 0.07386406 -0.0049445652 0.060378242 -0.05778313 -0.016367529 -0.031624734 0.14305657 -0.0759574 0.044789046 -0.04195113 0.017001234 0.11529869 -0.04481382 -0.045739178 -0.07512478 0.0076415194 0.007920569
0.014945422 -0.18718964 -0.023702834 0.09023235 0.017041752 -0.009718643 0.052550483 -0.022904845 -0.0514218 -0.0025337196 0.027442962 -0.010536629 0.06955915 -0.04837396 -0.04562092 -0.017078782 -0.16703044 0.09949444 0.05329751 0.07315897 0.10330743 -0.006028388 0.003743376 0.16319512 -0.11811163 -0.0358465 -0.06811439 0.10575854 0.10970099 -0.102304734 0.040795848 -0.048288275
-0.116358265 -0.0029446431 0.033062853 -0.039535612 -0.040667724 -0.016971884 0.060031246 0.11373406 -0.05620626 0.03407571 -0.037684064 0.11046961 0.0035191935 -0.12508324 -0.103370644 -0.008338618 -0.12011606 -0.03434929 0.03792756 -0.011004615 0.16029003 -0.08432968 0.057090245 0.12599108 -0.11003922 0.013641663 -0.018082736 -0.024080593 -0.0027720137 0.16688249 0.01173356 -0.021409618
0.064613685 -0.13083698 -0.040996607 0.1437393 -0.0068640383 0.027497154 0.073926754 0.006671792 -0.12988268 0.15326333 0.09826801 0.14386939 0.15391658 0.037668426 -0.00061636535 -0.013613454 -0.06515683 0.14837636 0.02755362 0.13712987 0.021266922 0.02262212 -0.024556167 -0.031403743 0.054503366 0.0837742 -0.0099765025 0.057858415 -0.030396031 0.061872754 0.15088129 0.008822897
0.005512633 0.052417185 0.054737117 -0.14295325 0.020306027 -0.19951184 0.016533906 0.036845986 -0.018907469 -0.06374052 -0.14189033 -0.15130706 -0.02710462 -0.017957538 0.061093833 -0.0017435385 0.011009992 0.000100592704 0.09448545 -0.123578124 0.039696034 0.021619188 -0.11310149 0.08666469 0.025387598 -0.014835191 0.054935064 0.1072431 0.040255144 -0.14375351 -0.035791945 -0.015356617
0.023397433 -0.0037666792 -0.027544616 0.16958456 -0.061618183 -0.033918485 0.061649792 0.05446173 0.0010887533 -0.0073407576 -0.051605172 0.04311978 -0.034102272 0.015801396 -0.0031630537 0.04690905 -0.05448248 0.16030712 0.12077831 0.045275204 0.037435226 -0.033158984 -0.0114595 0.0976383 0.051909633 0.13022676 -0.013003112 -0.038938444 0.13484667 0.07498302 0.0039478713 -0.021626208
-0.01231683 -0.010208982 -0.013695481 -0.22107042 0.01791491 -0.06108758 0.016585961 -0.087366015 -0.0064262524 -0.009723679 -0.068082176 -0.0501803 -0.017461265 0.06375191 0.006422691 -0.03538738 0.049846765 -0.015196144 -0.02547717 -0.013732762 0.001536187 0.076906815 0.054894112 -0.006936604 -0.046801854 -0.0024343242 0.006350827 0.0068428647 -0.08719243 0.013148758 0.025915286 0.0121614635
-0.054952674 -0.06357123 -0.011777469 -0.016557818 -0.09988238 0.13074975 0.071716875 -0.06423388 -0.02052693 -0.032275937 -0.026861636 0.07866708 0.096208215 -0.0784642 -0.13615352 -0.004488082 0.011212701 0.056445103 0.13650315 0.119003616 0.118604206 -0.0153333945 0.046041153 0.16270922 0.027214913 0.011708857 0.042856682 0.11598284 0.06774378 0.061859623 -0.009037953 -0.054340195
-0.0036413423 -0.0725684 -0.03692148 -0.14912017 0.11129459 0.13516013 0.09596287 -0.0631475 -0.031928133 -0.025846032 0.03217799 -0.10655485 0.039681036 -0.027981013 0.061220363 0.12801033 0.07755719 -0.0060022464 -0.107117474 0.032611135 0.052589715 -0.044735584 0.094993174 -0.0017573165 -0.086906 -0.027697941 0.049362827 -0.0013646815 -0.07563172 -0.11131261 0.047958367 -0.020605545
-0.0893415 -0.12425667 -0.1286599 0.0820534 -0.029635862 0.2643581 0.16373312 0.18767445 -0.21067306 0.0774372 0.08127168 0.104339056 0.05434837 -0.11971094 -0.003919882 -0.09559208 -0.07432484 0.210722 0.2341314 0.1437845 0.18984956 -0.17670007 0.12171423 0.07679455 -0.055027176 0.022921469 -0.082297154 0.13219349 0.16440578 0.10389893 -0.07940755 -0.12799406
-0.14658687 -0.2010434 0.16521075 -0.03561292 -0.15543447 -0.0533142 -0.1899138 -0.071473114 -0.018322892 0.08439414 0.056495693 0.07119441 0.032604538 0.0093097305 -0.12127968 -0.047555745 -0.061992742 -0.055030152 -0.13034582 0.023497825 0.0040753754 -0.0043202275 -0.069125324 0.012942475 -0.08856734 0.118753515 -0.1267794 -0.086431384 -0.18200839 -0.0057472936 -0.02326547 0.071899526
-0.011587917 0.02723464 0.03311802 -0.053166483 0.018490072 0.0064273146 -0.012895479 -0.023882492 0.10091149 0.035689265 -0.038706586 -0.020903261 0.023374185 0.046411276 0.09162352 0.15401483 0.10957037 0.035465028 0.03770977 -0.07495521 0.045628995 0.019363226 -0.019063719 0.052979674 0.06335288 0.0034229509 0.044475388 0.061900944 0.044664178 0.037631396 0.063876264 -0.030283812
-0.1075671 -0.009371763 -0.0062785046 -0.031357784 -0.034240402 0.14355946 0.024273314 0.120849475 -0.10275116 0.1982462 0.019128596 0.20727168 0.06431391 -0.088486075 -0.06960579 -0.08463177 -0.0633181 0.11463821 0.18858176 0.1577124 0.076331005 -0.027566005 -0.058702826 0.18537559 0.005369811 0.14948949 0.02507465 0.13784005 0.052864898 0.113839164 -0.022303808 0.051468465
-0.054646432 -0.106235705 -0.026277924 -0.0027875677 -0.061792377 0.099582 0.041542105 0.102937855 -0.086142726 0.05043703 0.028646385 0.09439532 0.18209147 -0.07618886 -0.019474735 -0.062724404 0.014766076 0.0611392 0.026336921 0.025630858 -0.0062990873 0.025795352 0.071454525 -0.04436521 -0.09661741 0.11107738 -0.025650168 0.029559232 0.1281917 0.0658216 0.033320025 -0.021715349
-0.018497085 0.029814916 0.011644709 -0.020764412 0.04648755 0.09934783 0.09708486 -0.041793153 -0.04539915 0.021810943 0.042083528 -0.0006377457 -0.076707885 -0.06010698 -0.007162429 0.0590716 -0.011892601 0.09877701 -0.0530937 -0.09001275 -0.074602485 -0.03258143 -0.017472323 0.093205504 0.014704488 0.061197463 -0.063553885 0.006056521 0.05194095 -0.05562771 -0.045028616 -0.065446526
-0.113205716 -0.07386603 -0.05795553 0.041905083 -0.037039354 0.03120718 -0.031287856 -0.039009023 -0.12735173 -0.055099066 0.042744394 0.036167897 0.119568475 -0.13151202 0.014042536 -0.08088294 0.016547905 0.007050093 -0.04114163 0.11493317 0.042426463 -0.05570031 0.116029486 0.032707375 -0.024205374 -0.015359257 -0.054251894 0.1344485 -0.021960642 0.10777887 -0.007157993 0.01136455
-0.035222825 -0.009405154 0.03435799 -0.10493243 -0.016786559 0.07096897 0.08996452 -0.026951432 0.03761462 0.041151512 -0.07647972 -0.021322552 -0.022094958 0.0033821838 0.062050313 0.018359803 -0.0037905623 0.07688696 -0.019970741 -0.09207442 0.021184424 -0.04031848 -0.0066605066 -0.010072725 0.025643557 0.08705299 -0.020094065 0.022684645 0.12193106 0.050289102 -0.03429548 -0.003902497
-0.018147822 0.015875021 -0.037482675 -0.12550399 0.037304852 -0.042973686 0.030803064 -0.020354148 0.14577535 -0.12676926 -0.14976926 -0.017363273 0.019435178 0.1015296 0.01798042 -0.022193689 0.009593857 -0.064570315 0.034299977 -0.006231053 -0.069852024 0.01808063 -0.13892348 -0.1315897 0.07730289 -0.057564028 0.020336147 0.06624441 -0.0064167124 -0.019890733 0.09681715 0.1271577
-0.010671842 -0.061540455 -0.05610136 -0.105252996 0.013529714 -0.05165903 0.049597885 0.09010317 -0.07639612 -0.040539596 -0.018216776 0.13274749 0.00057732244 -0.0376909 -0.0129949255 -0.07754601 0.031227075 0.047753785 0.02185449 -0.07610214 -0.027828189 0.059794955 -0.020837365 0.012500243 0.033135932 0.100906186 0.009900793 0.02852089 -0.018760933 -0.051223878 0.08655353 -0.061493475
0.09855827 0.061433136 0.07238635 -0.08022555 -0.020421537 -0.088719435 0.05572559 0.027708635 -0.031430643 -0.030168599 -0.03736023 -0.003943355 0.074633054 -0.008823546 -0.0013674427 -0.11032215 0.019496236 -0.060528915 -0.08759433 -0.08512798 0.0063261446 0.024882738 -0.025588676 0.052865755 0.039234314 0.08375176 -0.044503994 0.08578739 0.00984615 -0.008028506 0.015051315 0.009806866
-0.064542204 -0.087715715 -0.027278433 -0.14931145 0.011554142 -0.034846164 0.035546433 -0.044045646 -0.1188353 -0.040394876 0.07546572 0.0562466 -0.08297582 -0.017403165 -0.101937726 0.085435875 -0.021582922 0.04989582 0.046884134 -0.11997009 0.12674539 0.03261763 -0.019314377 0.03247769 -0.07382772 0.08060275 0.0054762335 0.070089616 0.031987935 0.0057579014 0.015477951 -0.050624333
0.082960345 0.04384289 -0.046653036 -0.116516516 -0.015801018 -0.123846576 0.021051621 -0.012287751 0.06626189 -0.11503838 -0.05058822 0.013025483 0.018745061 -0.03983118 -0.0016954009 0.12348964 0.031431995 -0.07450194 -0.03073358 -0.115712345 0.045603868 0.038969696 0.0067098457 -0.027522478 -0.042981658 -0.00015762195 0.12604755 -0.101457104 0.012045443 -0.03814964 0.072453715 -0.0039220247
-0.061601043 -0.1089867 -0.12338686 0.017655497 -0.103010364 -0.027009659 -0.068154946 -0.01585392 -0.16631924 0.042099793 0.0046949144 0.08232843 -0.01979718 -0.0037725621 -0.2226988 -0.09478562 -0.04667658 0.06696396 -0.00037576404 0.0073189037 0.094390355 -0.13131179 0.07839521 0.16413723 -0.021200899 0.05683575 0.021726737 -0.032442376 0.03453926 0.010859216 -0.038882148 -0.021528436
0.094904326 0.06290114 0.016415382 -0.070190616 -0.036302373 -0.037517134 0.011913021 0.047313415 -0.09332514 -0.046616882 0.010299562 0.0033120369 0.025325801 -0.02764449 0.029514011 0.09262118 -0.06623884 0.0021172292 0.050739713 0.015771898 -0.034456965 -0.060689464 -0.011557637 -0.103734724 -0.027922662 -0.06532094 0.051477753 0.063660234 0.0364895 0.090455666 -0.017261865 0.036054026
-0.17468838 -0.23759261 -0.100542165 0.017316649 -0.11097139 0.093476325 0.04602343 -0.07556423 -0.012514726 -0.0077566006 0.025602447 -0.018297328 0.015525327 0.032106817 -0.1076063 -0.09569436 -0.12514521 0.030344963 0.12964068 0.040858183 -0.011299829 -0.062046982 0.092399605 -0.0015519541 -0.089105904 -0.057771455 -0.18333507 0.023115197 0.099600345 0.029982638 0.037024472 -0.06669143
-0.05808345 -0.06641092 -0.007467151 0.02655489 -0.11166456 0.17462493 -0.08881339 0.08571685 -0.1739742 0.09410314 0.20306121 0.052130498 0.12866296 -0.02328696 -0.062014543 -0.1163073 -0.08155162 0.17405334 0.09352727 0.0485285 0.11963356 -0.073202744 0.012904405 0.13934441 -0.076901756 0.14361513 0.012443505 0.22214858 -0.018707138 0.026237704 -0.1775573 -0.05931081
-0.020320833 0.029047174 0.008421735 0.070305526 0.009947729 0.039050493 -0.043177318 0.01086091 -0.10371574 0.016542807 -0.03772064 -0.06629402 0.003969868 0.09299173 0.0073291026 0.019787217 -0.053025603 0.08832702 -0.07147398 0.0032512702 0.018422855 -0.04655244 0.032306302 -0.05782825 0.047791902 -0.09540245 -0.0706895 0.02973637 0.011529265 0.054300305 0.10194528 0.05038426
0.056861147 -0.120427415 0.027085992 0.09244046 -0.061600845 -0.045379978 -0.05166641 0.06226638 0.124730274 0.10348667 -0.0091530355 0.09621032 0.015051044 -0.005966504 0.055236883 0.07510503 0.08823156 -0.04432465 0.037897646 -0.08259257 0.10726583 -0.011183411 0.032146204 0.004146436 -0.089710295 0.10141296 -0.0100077605 -0.03398409 -0.053458154 0.04184193 -0.09192663 -0.03925155
0.02337632 -0.10373522 -0.023163216 -0.15786867 0.032281615 -0.08281449 0.06073458 -0.06250402 -0.10508159 0.026684593 -0.10399443 -0.030508759 0.0115447985 -0.17475827 0.1577185 0.005415281 -0.080451466 0.123260334 -0.10760356 -0.014510311 -0.091254026 -0.13605915 -0.09214939 0.008980757 0.19082259 0.093479306 -0.009618585 -0.07070934 -0.08143905 0.045953453 0.0069123856 0.07322652
0.0003714755 -0.17360282 -0.15376332 0.23078269 0.05086853 0.10728392 0.09788199 0.13543761 -0.23871583 0.12479357 -0.0016666676 0.09850306 -0.013711124 -0.22581632 -0.10296675 0.101528 -0.05682476 -0.014309781 0.11089904 -0.026578283 0.01962625 -0.023581142 0.011117366 0.10741923 0.07999246 0.071442895 0.014345603 -0.01749826 0.06312703 0.08236303 0.015572734 0.07358528
0.017161988 0.0681185 -0.08690181 0.08554028 0.12124616 0.023079451 -0.06650004 0.10044903 0.03880797 -0.0039806613 -0.055012874 0.04235056 -0.079095736 -0.07621641 0.04407944 0.054196183 0.07623176 0.049175665 0.10187659 0.09074694 0.024767298 0.057244867 0.011845319 -0.03837283 0.0284125 0.059007667 -0.066441186 0.08265174 -0.05273638 -0.0238387 -0.0019198662 0.11406335
0.100211784 0.057416648 -0.043398444 0.05157091 -0.057340957 0.19196254 0.020477558 0.06941796 -0.066137 0.0073285047 0.1287076 0.110177465 0.09626815 -0.0043177153 -0.110045075 -0.019292189 0.018903334 0.03921568 0.061151203 0.08333624 0.006256416 -0.07686711 0.05251 0.06954044 0.016121844 0.036758658 -0.06596164 0.13755095 0.061082963 0.074040815 -0.064092465 -0.032914523
-0.004365141 0.10283095 0.00755583 -0.100032255 0.1145456 -0.08544101 -0.09219079 -0.10361461 0.045705833 -0.057350427 -0.017836304 0.046541307 -0.108586214 -0.047591306 -0.08154189 0.036660258 -0.058579985 -0.0714267 0.03365684 0.0016056292 -0.15495117 -0.029227352 -0.10461467 -0.14315674 0.041098844 -0.019624835 0.020049304 -0.057233885 0.0722412 -0.06266113 0.12471371 0.069778234
0.1455161 0.047062542 0.0733354 0.16823798 0.038393397 -0.10580789 -0.12865439 0.013510909 0.07006825 0.077101715 -0.03263705 -0.15852538 -0.0975332 0.10469568 0.11629706 0.16700444 0.0755584 -0.058950957 -0.030062314 0.05357353 -0.12176268 -0.024657508 0.039985117 -0.009121568 0.0790262 -0.05928366 0.11667802 -0.122032836 0.09459577 -0.12822306 0.13409571 -0.028046932
0.088438235 -0.09321609 -0.1050375 0.003908828 0.02579662 -0.07208753 0.049451455 -0.037833225 -0.029261988 -0.039650023 -0.031329855 0.0073898057 -0.019132216 0.07989659 0.037860967 -0.0051146485 0.04601259 -0.11526922 -0.14372823 -0.038292702 -0.14047755 0.06032331 0.04014348 -0.090330504 -0.059266433 -0.058210563 0.08460776 -0.008302133 -0.059283648 -0.11052481 0.06107905 -0.0922607
0.18473618 0.22499026 0.17658794 -0.089579694 0.24523671 -0.14062162 -0.0829011 0.019782161 0.29518253 -0.003732768 -0.10260142 -0.18281157 0.034903903 0.12948777 0.18083853 0.08982924 0.17691006 -0.058462653 -0.1971769 -0.19990066 -0.07670432 0.036839474 0.026218148 -0.19389379 0.19630538 -0.100256614 0.22829778 -0.114141576 -0.11486496 -0.1362618 0.055270713 0.12432461
0.06530262 0.02898444 0.09294013 0.024752961 0.12451617 0.07190463 -0.0064663263 -0.0066989963 0.08795285 -0.054481536 -0.0070774024 -0.075190395 -0.05948914 0.0062382407 0.11767323 0.01568277 0.078044936 -0.018968333 -0.13112238 0.00019315633 -0.121123336 0.1240151 0.06564598 -0.1271387 0.17493676 -0.055536516 0.13137767 -0.12617931 -0.19129989 -0.04071454 0.0070515005 0.10458647
0.09838714 -0.028363042 0.080498375 -0.070376985 0.0073775463 -0.010068029 0.012739782 0.014901374 -0.03952001 0.026077276 -0.014004227 0.03733939 -0.0043616593 0.10052 0.032728333 -0.019117884 0.037275087 0.0257028 -0.09072873 -0.07485775 -0.055173084 0.04342194 -0.10634636 -0.15012911 0.0018938263 0.073918246 0.06640112 -0.08588837 -0.05701431 -0.05815978 -0.009951075 -0.07307231
0.30673033 0.29163876 0.20491874 -0.07989177 0.19132109 -0.07327497 -0.008004197 -0.103190735 0.22550896 -0.11336082 -0.04057314 -0.07142933 0.012708907 0.14976728 0.19597588 0.11510856 0.061688967 -0.17357634 -0.110754795 -0.14042053 -0.09544605 0.11076707 -0.007568917 -0.21479805 0.3151392 -0.22911957 0.07643322 -0.056230247 -0.082980864 -0.18415739 0.05132533 0.19974177
0.11412916 0.1904413 0.06837601 -0.1226099 0.17108129 -0.013915372 0.047239013 -0.0016099488 0.036694076 -0.09809001 -0.08842287 -0.031353623 0.046047475 0.097610116 0.04335806 0.0062815454 0.09092629 -0.0019519603 -0.15913682 -0.017387245 -0.055387873 0.015013915 -0.0841852 -0.09854063 -0.049970843 -0.12846652 -0.058816034 -0.17890406 -0.26999605 0.05151164 -0.022230832 0.017054638
0.05214912 0.08111691 -0.0447141 0.036269918 0.111889645 0.040767185 -0.11031683 -0.013701618 -0.0072486075 -0.08484281 -0.043990694 -0.019317243 -0.106337905 -0.0006095924 -0.010105432 0.051519003 -0.017370269 0.115997344 0.004799903 -0.06017521 0.037031826 0.07940572 0.08006502 0.09049922 0.06333247 -0.042768296 0.074544914 -0.09642942 0.08851163 0.033046726 -0.035044346 0.046270177
-0.16081837 -0.33339638 -0.06806436 -0.061932426 -0.05905027 0.036194045 0.07758541 -0.02836654 -0.12515464 -0.0807368 0.14478147 0.105921514 0.031735104 -0.2782893 -0.28373462 -0.03638362 -0.1639167 0.037911244 0.0074704364 0.11162487 0.11931264 -0.18649107 -0.020174183 0.103280246 -0.15870179 -0.029272132 -0.12937793 0.08618686 0.11028961 0.09888362 -0.13647527 -0.059135705
-0.040506028 -0.09076583 0.022084622 -0.076441 0.07701956 0.06759713 -0.041265845 -0.08864015 0.08065416 -0.116239265 0.04326731 -0.14354417 -0.13194868 -0.08199312 -0.005309299 0.18966344 -0.0612573 -0.09084059 -0.019936983 -0.05952998 0.102916166 -0.08867186 -0.041215353 0.04137469 -0.103975 -0.07373192 -0.031551726 -0.095486455 -0.07046271 -0.0028147702 -0.035586957 0.05099334
0.18310466 0.07155312 0.0635657 -0.030153004 -0.0002465384 0.017713748 0.0813834 -0.045885414 0.11107108 -0.12431313 0.00046985823 -0.023686519 0.04476236 0.120222874 0.1501871 0.0853911 0.06943844 -0.08620784 -0.03244453 0.043902904 0.08303265 0.046443306 0.016887233 -0.12353192 0.047996387 0.0033630757 -0.031237653 -0.06930172 -0.15089789 0.04915802 -0.0037339802 -0.030538246
0.15393439 0.05533876 -0.030902471 0.0025725274 0.024306655 -0.0083401585 -0.08648753 -0.018564144 0.16115062 0.09365251 0.005310085 -0.08941432 0.047448922 0.15949708 0.063860156 0.10148992 0.09117004 -0.01874198 0.024883185 0.04490664 -0.02119483 0.010240857 0.012110459 -0.09509228 0.11378151 -0.031936936 0.121007025 0.013897963 -0.18971434 0.028669402 0.05749336 0.0068454384
-0.025171373 0.08362699 0.009607157 0.17846438 -0.08360254 0.071559444 -0.02714542 0.11653488 -0.08137256 0.06665814 0.12892506 0.22707476 -0.063746445 0.0057536964 0.11916863 -0.023671765 0.039749734 0.15565567 0.21449417 0.06482406 0.0957479 -0.042236034 0.0129795885 0.020223042 -0.093754835 0.1221106 0.039418343 0.14568613 0.20115522 0.010179854 0.014009599 -0.006896357
0.0055026356 -0.020862635 0.061049353 -0.056128703 0.0982733 -0.086280406 -0.069972284 0.009646626 -0.05671773 0.044945024 0.033097755 0.0795194 -0.016585806 0.049563322 -0.07550644 0.078632094 -0.042162295 -0.031340346 0.037791952 0.042548817 0.043090012 -0.017303133 0.019538587 -0.06212075 -0.08933946 -0.07959225 0.0824644 -0.013389705 -0.20644312 -0.035995048 0.03478955 0.06356052
-0.016807325 0.24308018 0.15118118 -0.15818098 0.040699657 -0.15638039 -0.00037384446 0.062307224 0.19300795 -0.026024858 -0.058998443 -0.09903955 -0.022332761 0.035794433 0.050625257 0.16515425 0.015776364 -0.11520078 -0.16058621 -0.06925754 -0.15503334 0.13060367 -0.11674631 0.054058656 0.11630992 0.049214225 0.041327063 -0.050072465 -0.28666878 0.012109964 0.06607338 0.051845048
0.005485711 -0.025239293 0.026979918 0.02676464 0.053301733 0.11552053 -0.11891545 0.049268715 0.048911646 -0.03970291 0.016987147 0.06921429 -0.017634805 -0.025831612 0.09078036 0.061598748 0.07749634 -0.061697114 -0.08729742 0.11824214 0.051029794 0.058287285 -0.06630313 -0.0058542704 -0.019221973 0.019031527 -0.08338113 0.070910856 -0.07920371 0.06032223 -0.045702286 0.012059832
-0.041274168 0.03436838 -0.0016517343 0.12383476 -0.11004099 0.06281277 0.019875703 0.06722812 -0.035410687 0.060159378 0.12276031 0.16369882 -0.047078155 -0.04090059 -0.06106605 -0.027118934 0.023815867 0.0673237 0.08611542 0.02849018 0.04819396 -0.004190918 0.16372134 0.20098585 -0.051500093 -0.009266107 -0.034398366 0.12960097 0.09984124 0.09400811 0.051768158 0.030828595
-0.047722954 -0.048076235 0.07315766 0.051090483 -0.022478309 -0.0052822838 0.107419305 0.124240994 -0.068900526 0.14088856 0.072567515 0.084247276 0.17189188 0.011937038 -0.096563786 -0.0035537719 -0.0170407 0.08610199 -0.06912528 -0.07118038 0.17725024 -0.06376702 -0.060894985 -0.010704578 -0.05228681 -0.016771762 -0.03225043 -0.03108293 -0.033435922 0.08140521 -0.021847226 0.009056936
-0.0430173 0.08886617 0.0911142 0.10176667 0.082521245 0.07968846 -0.04157913 -0.12603688 -0.07841269 -0.033447005 -0.022327919 -0.011149081 -0.073955074 -0.030079292 -0.10367822 0.033784017 -0.04378935 -0.025477165 0.04243344 -0.0020980681 -0.08452397 0.11790173 -0.06907716 0.045073014 0.07100435 0.04011036 0.024726067 -0.04637048 0.007783123 -0.05640109 0.02910576 0.0244568
0.08102551 0.10780215 0.09591799 0.024297487 0.08800126 0.05749754 -0.07502659 -0.11568545 0.03027135 -0.15611337 -0.10106691 -0.0042524603 0.03129273 0.09589982 0.07011879 -0.007596952 0.10430096 0.064159185 0.030487373 -0.022346117 -0.034781072 0.033823445 -0.060969666 -0.047631398 0.054348033 -0.16344571 0.12341205 -0.12716615 -0.07476701 0.06527812 0.08213625 0.0915355
-0.010103643 -0.014123732 0.020688808 0.250281 8.132733e-05 -0.03727909 0.073751 -0.038799323 -0.058730014 0.06274716 0.054731287 0.046276223 0.09690992 -0.07331934 0.04492626 0.05536901 -0.049768083 0.12142791 0.00064744113 0.09951717 -0.03784816 -0.053462815 -0.06905501 0.07238879 -0.121621 0.09491248 0.04290721 0.1315062 -0.009130635 0.08253923 -0.09696294 -0.07817502
0.0038263868 -0.02532391 -0.066803426 -0.029105233 0.08747325 0.057563733 -0.059849236 0.002727973 0.08872617 -0.090371095 -0.025670113 0.04652862 0.02648826 0.0871842 -0.049944256 0.0673301 0.00437211 -0.0005467289 -0.048164114 -0.044320013 0.01573315 0.06441961 0.03877355 -0.12079283 -0.048659656 0.018167593 -0.010681614 0.06972618 -0.097258255 -0.052075494 -0.0052291537 -0.07682519
-0.1128791 -0.102123104 -0.05882487 0.20591104 -0.18471941 0.12571542 0.14683895 0.08264035 -0.032467864 0.086317584 0.27419925 0.13248034 0.30677065 -0.06645406 -0.15712114 -0.19006652 -0.11712626 0.21908174 0.12660573 0.18241648 0.14791918 -0.15281093 0.25395474 0.17685242 -0.17065997 0.30236548 -0.08132948 0.1533085 0.11603678 0.27949747 -0.043447327 -0.21827781
-0.12757485 -0.10236285 -0.051357307 0.20165275 -0.12282335 0.039134413 -0.10246057 -0.044140648 -0.10411404 0.096223526 0.06762716 -0.031228606 0.0011766341 -0.027695589 -0.14560571 -0.14467314 -0.03321679 -0.017240353 0.06657644 0.09997561 0.089461446 -0.06617588 0.112784296 0.034512185 -0.1519258 0.04864711 -0.16066997 -0.023674453 0.11597913 -0.022990558 -0.055871863 -0.040251017
-0.004889412 0.15362297 -0.122738406 0.11118033 0.035749253 0.09399452 0.09198707 0.0224471 -0.09903728 0.039804872 0.07652768 0.058765892 0.18752074 -0.110975906 0.0007568209 -0.07539038 -0.014293224 0.12846637 0.07581747 0.1894065 0.13602649 0.029161597 0.20349447 0.22293487 -0.03192104 0.06507619 0.06360239 0.12811556 0.14168845 0.13752042 -0.14283174 -0.117066056
0.23884624 0.14136818 0.22030579 -0.03640004 0.12280886 -0.046904404 -0.24556917 -0.0040094983 0.19243833 -0.08136744 -0.198411 -0.24609391 -0.12589218 0.17123702 0.2945671 0.22279464 0.096311286 -0.22884752 -0.1148726 -0.18761818 -0.15538217 0.13058083 -0.11529072 -0.13528164 0.11892956 -0.1858286 0.058054615 -0.16257493 -0.17241515 -0.08297993 0.086041756 0.0696476
-0.09865293 -0.18321203 -0.10472786 0.16033708 -0.14760803 0.31925178 0.1170203 0.062598035 -0.15712604 0.15352277 0.16906929 0.14218013 0.2892679 -0.06209266 -0.17770445 -0.033442523 -0.09555987 0.092901245 0.18305767 0.22538579 0.22398022 -0.07253985 0.165465 0.17079896 -0.13663062 0.096608825 -0.054928206 0.20503911 0.20736805 0.23898558 -0.04885499 -0.14077835
0.24211256 -0.059415855 0.20242392 -0.20028931 0.043609068 0.015735634 -0.20087883 -0.06378209 0.1544128 -0.023313975 0.04380015 0.039270744 0.13435912 0.14197846 0.24316423 0.070579104 0.09693821 -0.005165626 -0.023054652 -0.009974475 -0.1693526 0.06789403 -0.05956943 -0.099608 0.06879825 -0.07738754 -0.004612048 -0.03240175 -0.10886178 -0.034520436 0.12650149 0.1426697
-0.010344455 0.018200733 0.09616975 -0.12854952 0.07019643 0.0746793 -0.28227448 0.009745587 0.076472126 -0.1066317 -0.08622592 -0.022396125 -0.12714589 0.04248706 0.101334155 -0.05500558 0.06567615 -0.09023708 0.017928539 0.088423744 -0.007703833 -0.054911863 0.065529324 0.028330782 0.14104463 -0.084512 0.032296095 -0.06390223 -0.060229063 0.03895039 -0.075293705 0.06523908
-0.04094326 -0.1328709 -0.05821227 -0.13710913 0.12588105 0.010492175 -0.021962382 -0.08205166 0.1103057 -0.080029845 0.02045126 0.012873773 0.010495234 0.043017287 -0.060838085 0.011623507 0.0019467613 0.047048293 0.03736962 -0.032818895 0.067442834 0.020339936 -0.01638077 -0.12560189 0.07879095 -0.106268294 0.07913846 0.06804127 0.02478732 0.10767976 0.12517719 0.12026622
0.0723872 -0.032204453 0.07399055 -0.053676873 0.008147474 -0.026050493 -0.10862431 -0.04289949 0.09395393 -0.15414703 -0.07138528 0.069489665 -0.047374893 0.057591133 0.038080823 0.1442619 0.09380062 0.0010153952 -0.043463897 -0.037041157 -0.117220506 0.012567455 -0.14240362 0.013290437 0.1291521 0.093435846 0.08362061 -0.07997683 0.027908335 -0.042250488 0.16634135 0.05950773
0.021813732 -0.0019216762 0.16171813 0.050986163 0.13950962 -0.06370819 -0.123762265 -0.12838033 0.13606308 -0.040950026 -0.054044105 -0.17779034 -0.10066881 -0.019599685 0.14788271 0.051738285 0.06839527 -0.021034785 0.016992366 -0.022109196 -0.082851365 -0.0769488 0.02809596 -0.110072315 -0.043357342 -0.048579656 -0.03201636 -0.11824068 -0.011754124 -0.10369527 -0.10088796 0.005106983
-0.007486829 -0.10639818 -0.014394451 0.029083146 0.10843705 0.018425053 -0.08188064 0.026581533 0.10490234 -0.046588797 -0.013548599 0.05383395 -0.072672464 0.107411146 -0.004152244 0.008224151 0.020812623 -0.06949871 0.036253214 -0.114973396 -0.07026049 0.15043083 -0.08564857 -0.08228044 0.036783572 -0.0947128 0.015988143 -0.045786206 -0.050148133 -0.010293944 0.029549532 0.10551152
-0.08255068 0.062430833 0.10148891 0.05795687 0.11355823 0.049167633 -0.10325958 0.039423306 -0.00065887504 0.09535009 0.08426679 -0.033824112 -0.05793947 0.0072544767 0.12476735 -0.100711584 0.041062262 0.06928139 -0.031894375 0.014369238 -0.06402312 0.12133002 0.06372209 0.07291443 -0.033006463 -0.06158886 0.123069644 -0.02394108 0.053606745 -0.079638235 -0.039125122 -0.13039066
0.2950257 0.08966686 0.10627327 -0.05732585 0.24851824 -0.18911915 -0.103666104 -0.13483045 0.30732095 -0.031995486 -0.03749155 -0.19989191 -0.11480931 0.11096272 0.21055305 0.08143391 0.21154734 -0.1835558 -0.12161082 -0.18589094 -0.069746196 -0.012018753 -0.11218032 -0.1440614 0.1052188 -0.22689445 0.16106631 -0.0889662 -0.16382565 -0.12496624 0.22851853 0.11875888
0.034025747 -0.053074062 -0.14706376 0.05312547 -0.138531 -0.054489348 0.031072106 -0.094900146 -0.082764 0.06603782 0.09491543 -0.03712245 -0.06686077 -0.015232766 -0.17853653 0.016141072 -0.011175461 0.047215685 0.12757078 0.02033311 0.16883416 -0.0034768316 0.016737325 0.05187558 -0.13002147 0.1245048 -0.051786244 -0.018026479 0.18569759 -0.039449435 -0.09897464 -0.093688235
-0.021709306 0.011219483 0.11835431 0.0070107356 0.0032648582 -0.038881008 -0.21815279 -0.016044978 0.076368354 -0.009500591 0.014327937 0.07518806 -0.17722231 -0.025869124 0.019113181 -0.006969255 0.00068970345 -0.04091741 -0.050865214 0.082256414 -0.11591296 -0.023940688 -0.15847908 0.006491538 0.005801017 -0.071053065 0.02094097 0.01338861 -0.11266054 -0.11098275 -0.021976719 -0.0066466453
-0.07195375 0.101443306 0.022449803 0.20464072 -0.17822209 0.12596281 -0.09205493 0.056180526 -0.03666915 -0.029107206 0.10897031 -0.013526798 0.08860427 -0.08231158 -0.093076736 -0.12678158 -0.022814011 -0.041797925 0.07652239 0.091299854 0.01940856 -0.086907245 0.117425054 0.04575528 -0.15529639 0.046417795 -0.012319542 -0.047463335 0.10773549 0.15095493 -0.09289751 0.016767396
-0.018389862 0.14614493 0.17671075 -0.010648223 0.09357274 -0.081351876 -0.064871825 0.091564305 0.025814623 0.027611919 0.011972365 -0.02369809 -0.057403166 0.107179366 -0.040094245 0.037013657 0.053267945 -0.13442028 -0.036771663 -0.050423827 -0.12602589 0.13400899 -0.025740128 -0.02692234 -0.031087158 0.026446365 -0.010851819 0.0712131 -0.11992283 0.11162954 0.02428977 -0.091376655
-0.1644443 -0.04907593 -0.07265726 0.14901996 -0.0085219 0.12692642 -0.05004334 0.050016724 -0.071228005 0.1310451 0.06677917 0.044218175 0.032883283 -0.11677894 0.05576854 -0.09381561 0.03742877 0.10130445 0.04289065 0.18425494 0.0729542 0.064291574 -0.06500866 0.18374026 -0.00015790373 0.12681647 -0.09225072 0.018401442 0.118108414 -0.07550425 0.11463703 0.02194812
-0.08128655 0.08101652 0.014493989 0.086982556 0.009229664 0.1167567 0.012588769 0.041495025 -0.07852279 -0.051259074 -0.022429284 -0.015865007 -0.04286653 -0.053390104 -0.029260654 -0.08724501 -0.035641737 0.085567705 0.10781269 0.018016128 -0.07620392 -0.09872102 0.076328486 0.008880417 -0.11284475 -0.007176104 0.009692111 0.015251848 -0.12828252 -0.03951157 0.04591723 -0.06222597
-0.08402525 -0.06587012 -0.005817761 0.015694415 -0.020092733 -0.08761414 0.100705564 0.05091897 -0.011777271 0.037917614 -0.015078557 -0.12920907 0.052029014 0.049897738 -0.054240372 0.099199295 -0.036906783 -0.14209257 -0.12583764 -0.10038466 -0.08144546 -0.08036391 0.080701336 -0.091520354 -0.08418146 -0.02819296 0.058077704 -0.038614105 0.0120712565 0.024518866 -0.07095365 -0.09279364
-0.027062494 0.07592632 0.08854395 0.013101099 0.042242855 0.10018321 -0.020437265 0.08093969 0.014012842 0.024472281 0.03949104 0.14577681 -0.02017882 0.011975328 -0.11941045 0.07243902 -0.022812558 0.051737353 -0.048762176 0.052091025 0.06536665 0.047205795 -0.011669465 0.13623856 -0.048163816 -0.035943747 -0.035992008 0.10057081 0.1232659 0.088983886 0.036138244 0.014845981
0.074712425 0.07637892 0.024987472 0.043866042 0.048951346 -0.008974672 -0.1385277 -0.14396878 0.090861484 0.05294058 -0.04638469 -0.14427234 -0.110173635 0.042561952 -0.039508957 0.03582103 0.11576353 -0.03444378 -0.06047031 -0.028471457 -0.0012620428 0.10524359 -0.081075415 0.037682846 0.0023581916 -0.019466609 0.1250033 0.059053022 0.039771985 -0.013086792 0.0950725 0.10242002
0.09624496 0.14285098 0.08687795 0.079463 0.08962329 -0.09652635 0.04087501 -0.14747666 0.052557617 -0.071419805 -0.038432375 0.022056792 -0.06402939 0.13598476 0.057138804 -0.092941836 0.05227682 -0.06364661 -0.106639884 0.06300491 -0.13380916 0.09789909 -0.11129583 -0.07081612 -0.058353476 -0.1473424 -0.04401948 -0.05222213 0.051752474 -0.10730121 0.026271187 -0.04283631
-0.055922177 0.22740613 -0.038043946 -0.122161396 0.09698518 0.006600111 0.037109945 0.03325989 0.072020575 -0.095730685 -0.03643491 -0.12925126 -0.10700957 0.14798833 0.0111864945 0.0859258 0.080936186 -0.11858749 -0.11368599 -0.054989677 -0.1322896 -0.0040488904 -0.02400468 -0.14014271 0.061471798 -0.025148397 0.031680945 -0.037049025 -0.101936 -0.00881039 0.12714906 0.0424887
0.07599076 0.047832783 0.20090088 -0.06288534 0.05489316 0.03461081 -0.1431152 -0.107517876 0.03966443 0.010072114 -0.067201294 -0.028761327 -0.0012063407 0.06330199 0.12349803 0.0987326 0.06558604 -0.14592783 0.05883587 -0.00597419 -0.07512465 0.10185133 -0.06022995 -0.05535971 0.1405602 -0.08257549 0.17906544 -0.06549576 -0.17332353 -0.0060730693 0.027150033 0.07977543
0.04082221 0.00069640356 -0.0818625 0.13092323 0.088161945 -0.025902513 -0.0755305 -0.12730803 0.08277442 0.03725055 0.09708164 0.034065522 -0.14019321 -0.027234776 0.062381107 0.0613781 -0.04483268 -0.0394059 0.04550311 0.07204223 -0.056798857 0.05748654 -0.1175931 0.015397455 -0.02096669 0.12401786 -0.089409105 -0.009967661 -0.027313588 -0.17124681 0.13450262 0.02050617
-0.05018505 -0.021525338 -0.09504968 0.08470288 0.055929467 0.070447594 -0.010195017 -0.052243385 -0.102541886 -0.022747127 -0.0030993393 -0.018953493 0.08554985 -0.08348403 -0.035664853 -0.04361418 0.022491483 0.12360228 0.03990052 0.03706038 0.08245058 -0.038835768 0.11443727 -0.06714106 0.082115635 -0.03857622 0.048174687 -0.048286635 -0.022646328 0.036816396 -0.09210522 -0.000654553
0.05032771 0.061629888 -0.04078485 -0.02733909 0.1342431 -0.1197365 -0.09111065 -0.0683224 -0.050571542 -0.11126828 -0.06402799 -0.08502408 0.06717751 0.05057551 0.06787952 0.04174068 -0.027824683 -0.051763024 -0.061746173 0.023853801 -0.053103548 0.01924825 -0.07309124 -0.09902032 0.07725769 -0.06567462 -0.050746463 -0.039907433 -0.09847406 0.036790144 -0.0044771917 -0.005880494
-0.080048546 0.017060064 0.019392826 0.14427866 -0.0785848 -0.00084394764 0.016573736 0.016384816 0.005946631 0.035225306 0.18591796 0.07681996 0.013671202 -0.048372358 -0.06553043 -0.13099529 -0.11508026 0.0068577137 0.13770184 0.042294983 0.0052854805 -0.139574 0.13841638 0.07960939 -0.0291047 0.025833044 -0.002786613 0.0882037 0.21414758 0.05360341 -0.17332777 -0.035188064
-0.066445686 0.0038362753 -0.13547562 0.19965231 0.0071459915 -0.064198695 -0.010970391 0.08753911 -0.088892736 0.062327616 0.02578606 0.051416103 0.01002989 -0.1554156 0.019522822 -0.030161628 -0.06642099 -0.018097162 -0.040449113 0.116972856 0.17699103 -0.024085538 0.013248774 0.24493451 -0.05944226 0.10972417 -0.11543425 0.095496245 0.05964831 0.07671639 -0.14813885 0.017437568
0.21052435 0.20184812 0.09030059 -0.17439298 0.05635804 -0.16359977 -0.13651574 -0.09656088 0.2413455 0.0003417585 -0.15781675 -0.13948911 -0.17841943 0.11044561 0.23609836 0.10062317 0.11644286 -0.016352372 -0.04023911 -0.12744614 -0.15006465 0.12530044 -0.048814043 -0.18276845 0.15677312 -0.060930476 0.07335353 -0.13405527 -0.05656781 -0.13567832 0.100443736 0.20475063
0.11015293 -0.051301315 -0.039117668 0.097181894 -0.04462437 0.013454364 0.11864489 0.03509402 0.0048761014 -0.019210177 0.14337215 0.04488864 0.11066865 -0.09281781 0.05368979 -0.053496983 0.037462573 0.087430455 -0.15309164 -0.045415897 -0.0005732015 0.03917925 0.0675292 0.08087371 -0.028164582 0.096457526 -0.0015527682 -0.026895694 -0.1259138 0.065952994 -0.08378034 -0.0034584547
0.15503374 0.11858858 0.06488117 -0.064157255 0.08872516 -0.08321789 -0.06639731 -0.03501418 0.05227591 -0.1130647 -0.21277843 -0.20269243 -0.12418252 0.12178199 0.06294365 0.19271162 0.116450526 -0.14661756 -0.08049071 -0.06535271 -0.07210256 0.02272445 -0.06794375 0.041985642 0.21780595 -0.21357961 0.04877384 -0.057453044 0.06156661 0.0036165935 -0.02109829 0.13888693
0.090708055 -0.011449691 -0.048790865 -0.09915507 0.037694406 -0.030252805 0.035805315 0.010464531 -0.021413544 -0.0012964332 0.008479625 0.020082626 0.092357405 -0.08657118 -0.026822094 0.1121811 0.0620754 -0.051672 -0.055064313 0.039998602 0.06728052 -0.09068967 0.037341353 -0.19594638 0.095977 0.036213826 -0.00881156 0.059032083 -0.0014519936 0.018091783 -0.13664556 0.0067887846
-0.025712166 -0.023420885 0.040537953 0.1063051 -0.027546922 0.019267466 -0.11368509 -0.03403726 -0.12968926 0.042701893 0.12078519 0.07348993 0.1393265 -0.082869604 -0.08002588 -0.07234368 -0.12821645 -0.038362566 -0.05886897 0.12462347 0.056011938 -0.05932866 0.11182604 0.14309034 -0.0033105316 -0.04259873 -0.028644694 -0.06205748 0.024453202 0.09309978 -0.0019515812 -0.1102191
0.015705938 -0.085431404 0.06474234 -0.037792556 0.07201877 -0.05600967 -0.0777807 0.060813397 0.097906195 0.10506579 -0.011270214 -0.19391038 -0.0051802043 0.0045321686 0.12526935 0.005082686 0.008991476 -0.0027856317 0.0061139036 -0.01220316 -0.08276652 -0.16832109 -0.0837951 -0.038248308 -0.030895013 -0.06901383 0.041394964 0.035877794 -0.1144069 -0.07036675 -0.099576965 0.06606666
0.15518038 0.10220684 0.054029945 -0.06517771 0.13340433 -0.025677523 -0.06432089 0.0049598184 0.11574227 -0.01837583 0.0070804446 -0.14983599 0.0029861317 0.13596873 0.16782457 -0.02446972 -0.11031623 -0.16130863 -0.13759156 -0.022209218 -0.098227024 0.0074769026 -0.07696478 -0.15152907 0.120088354 -0.08534141 0.15470193 0.055904597 -0.05231279 0.052962672 -0.03546755 -0.036169156
0.061526757 0.062287096 0.008510689 -0.0852734 0.112414606 -0.19877532 -0.10910499 -0.21694076 0.07029359 0.005928719 -0.053785898 -0.05700213 -0.21558744 0.022115845 0.07297357 0.06779528 0.102030516 -0.20605673 -0.037806086 -0.11583466 -0.097594656 0.020257164 -0.07981168 -0.003934355 0.07828007 -0.16651359 0.12011387 -0.14804974 -0.053649865 -0.20051359 0.026876032 0.10087739
0.08311136 0.03482225 0.20836227 -0.05230221 0.12264384 -0.10104383 -0.12761131 0.001712835 0.13899748 0.08575291 -0.013087708 -0.11063694 -0.011128046 0.03230121 0.16817456 0.09270879 0.0012788448 -0.09710899 -0.17052509 -0.06284914 -0.12685794 -0.087567665 0.06815939 -0.12326836 0.1494225 -0.14203908 0.16516282 -0.14481597 0.028252793 -0.18291034 0.043704808 0.12666039
-0.09483083 -0.12515812 -0.10495627 0.25822985 -0.1400758 -0.007959352 0.043329496 -0.11292885 -0.1314605 0.17721789 0.051845405 0.058441807 -0.08829698 -0.22500266 -0.10911422 0.03583047 -0.06905478 -0.0054705245 0.01734361 0.18129762 0.15144674 -0.06919568 0.10118387 0.21292107 0.013716283 -0.038963806 -0.045457978 0.11636328 0.1885342 -0.031422187 -0.15644565 -0.11404628
-0.054859784 0.01434892 -0.08817399 0.054185033 -0.118737936 0.0766544 -0.10850445 -0.040423993 -0.0603606 -0.0024250709 0.14753008 -0.04286173 0.00016187638 -0.002797885 -0.027250076 -0.008524934 0.012366512 0.048392843 0.063283086 0.15673105 -0.027332963 -0.14383103 0.049329273 0.030591417 -0.18120126 -0.101936676 -0.09908687 -0.06417312 -0.0075423047 0.1361953 -0.05841495 -0.14124352
0.054460846 0.15277633 -0.050474446 -0.12498921 0.09121521 -0.022383947 -0.057089552 0.047133 0.11343666 -0.10862956 -0.08801906 -0.03240073 -0.049071793 0.025386095 -0.06448535 0.024300644 0.007957502 -0.046206914 -0.15856685 -0.015631104 0.052662335 0.12624629 -0.05016772 -0.026143309 0.07406503 0.042787492 -0.013766009 -0.051425353 -0.066073485 -0.0034576296 0.09988881 -0.009607361
-0.045296058 -0.046500266 0.03238403 0.01352236 -0.026480563 0.078297086 0.04274552 0.08893439 -0.11532285 0.04518839 0.04482951 0.02218464 -0.076984115 -0.11052618 -0.113295786 -0.02961219 0.020636592 0.08923488 0.087466545 0.06284678 0.10676031 -0.11279276 -0.05747766 -0.0032015722 0.027153565 0.0812218 0.03577722 0.051246364 -0.04092357 0.026886886 -0.0072666365 -0.00019577482
0.011406585 0.15113464 0.14866042 -0.063092425 -0.030004809 -0.013345081 0.021760752 0.06351214 0.054884717 -0.069901094 -0.07554986 -0.0003716401 -0.05448854 0.0076747066 0.0858944 0.17451511 0.0737954 -0.028754743 0.0027657459 -0.06806444 -0.0828741 0.072324134 -0.06903968 -0.0645266 0.02765335 -0.031450022 0.014437677 -0.049027644 -0.13021964 0.05252263 -0.0054336223 0.051035263
0.101187445 0.13270599 0.01905309 0.008463362 -0.014197053 -0.10753654 -0.09928855 -0.009038042 0.09197475 0.120729335 -0.08419049 -0.18489993 0.0195134 0.09759107 0.109317526 0.0413099 -0.013707325 0.061345637 0.017091233 -0.019255038 0.054896396 0.08201819 -0.05041304 0.07787871 0.052669227 -0.017813291 0.017831642 0.07751982 0.068294756 0.08543246 -0.10366661 -0.038373668
0.1241891 -0.022946497 -0.04596524 0.037991483 0.14051534 0.034833103 -0.1664202 -0.09577128 -0.050883353 -0.10430486 0.07504916 -0.034341924 0.04847845 -0.044158183 0.16450244 0.18307506 -0.018881723 -0.032833464 -0.092125244 0.041585036 0.019019142 0.018978182 0.052766588 -0.11763298 0.1454073 -0.062201224 0.15091653 -0.025097638 -0.12954947 0.05504878 0.010035653 -0.022899643
0.14547744 0.18349244 0.13619514 -0.067992635 0.17731425 -0.123603165 -0.084245145 -0.06315645 0.24142042 0.014174857 -0.004913269 -0.1484228 -0.16057372 0.14267172 0.2597513 0.04833165 0.12939116 -0.13898008 -0.16387418 -0.103027284 -0.1642177 0.2026611 -0.013646496 -0.14096858 0.23333947 -0.18358287 0.08209901 -0.010607309 -0.25516933 -0.14966622 0.12395753 0.04073709
-0.12628587 -0.051497307 -0.0060443175 0.10819064 -0.07236508 0.14797617 0.13646902 0.18005443 -0.07046444 -0.009139409 0.042633254 0.17580195 0.1715966 -0.07924231 -0.21208766 -0.02379721 -0.08374717 0.0024741497 0.22590874 0.14257728 0.028938103 -0.12694477 0.19881883 0.2034378 -0.09613732 0.12081333 -0.16047531 0.14831996 0.18022898 0.10892873 -0.15601073 -0.031353652
-0.12034884 -0.054074444 0.004510833 0.06695155 -0.11667852 0.1338896 -0.05233432 0.0900856 -0.022913573 0.031534605 0.057118025 0.15949534 -0.09416324 0.0139791155 -0.1148442 -0.008379874 -0.031035734 0.046684112 -0.0036208788 0.019813588 0.033488568 -0.12836999 -0.029179167 0.12656201 0.025758062 0.12519155 -0.04367846 0.17775102 -0.103441305 0.07596383 0.045532472 -0.10908414
-0.01697926 0.109143436 -0.023233011 -0.11661815 0.07110358 -0.011881209 -0.08453666 0.021453636 -0.043892406 -0.034178346 -0.0036870062 0.0035464552 0.039698202 -0.10067752 0.06396059 0.06083506 0.06376667 -0.06677153 -0.0009913311 -0.03819623 -0.052746933 -0.049342725 -0.049555525 -0.008747965 0.06802637 0.026059838 -0.06316709 -0.056009702 0.0229281 -0.02353458 -0.06478497 -0.017317763
-0.076848455 -0.14492771 0.081073634 -0.039395217 -0.12370029 -0.09565451 -0.10016363 -0.06004272 -0.068846986 -0.080868736 -0.041988917 -0.113458775 -0.06206015 0.00972759 0.02184889 -0.059265576 -0.16280875 -0.03498491 0.11450112 0.04777243 0.11309943 -0.10682322 0.050507087 0.19698748 -0.10592884 0.1458344 -0.12274119 -0.022569185 0.15788692 0.105865076 -0.11667452 0.014076132
-0.070146896 -0.05027648 -0.06070454 0.17151164 -0.094733976 0.12181962 0.005373584 -0.031192813 -0.19583032 0.057624023 0.015208934 0.21185774 0.043514486 -0.084654644 0.025007255 -0.09085865 0.054302894 0.060632132 0.11308905 0.120443635 0.21477662 -0.010143049 0.07813463 -0.039106168 -0.040965144 -0.0007972205 0.03380772 0.059372965 0.14272963 0.07454954 -0.054973423 -0.045954928
0.13675372 0.111825295 0.111969374 -0.0629704 0.018590854 -0.01282037 -0.065304525 -0.04121233 0.08736822 0.039628435 0.07383973 -0.062633194 0.014288378 -0.055407625 -0.006692228 0.027420707 0.07135117 0.0057955165 -0.06584777 -0.004382459 -0.0047939685 0.021839347 0.09042528 -0.03322155 0.10806324 -0.026918914 0.12311869 0.013468366 -0.008828688 0.050361272 -0.062447906 -0.04428932
0.01158251 0.18808572 0.03710186 -0.015934309 -0.033638448 0.033423148 -0.009502325 -0.08831069 -0.042075973 -0.107174285 0.08413421 -0.01550736 0.14436644 0.0024754847 -0.10371813 -0.023378922 -0.08569747 0.03365224 -0.030528868 0.0077966196 -0.008653548 -0.00933696 0.067333415 -0.057570998 0.03437476 -0.14929393 0.027309593 -0.09208879 0.10610056 0.0758463 0.046545956 -0.08988918
-0.024074452 -0.029133243 -0.0070104674 0.115155205 -0.13222688 -0.083947524 -0.02487194 0.08504995 0.021657294 0.05240258 0.091280095 0.06729789 0.0019971924 0.018715562 -0.14671752 -0.0924572 0.015658697 0.09214929 0.05208217 0.009327254 0.14023714 -0.13261788 0.10209945 0.05027274 -0.09241822 -0.0133615015 -0.022231074 0.012340184 0.05893628 -0.05159152 -0.06223407 -0.13367727
0.017671471 -0.079979345 -0.11842319 -0.008789552 -0.07117062 -0.013934864 0.05480002 -0.012085858 0.020400068 -0.010734045 0.21171853 0.07115598 0.093860075 -0.023408154 -0.06292907 -0.13768381 -0.114698775 0.04420718 0.044300795 0.18357371 0.08514341 -0.015108008 0.20241337 0.18098173 -0.21113347 0.14423238 -0.06841166 0.16376844 0.027542677 0.17414531 0.026056284 -0.045947284
0.026713472 0.12229838 0.025460592 0.032547325 -0.030310206 -0.100750156 -0.017686477 -0.15597734 -0.06827077 -0.15351118 0.05512641 -0.08512444 -0.14141065 -0.014676223 -0.02777467 0.15395595 0.10423031 -0.12478239 -0.06369339 -0.030250987 -0.08689953 -0.033777297 0.05848513 -0.09443695 0.115629256 -0.28357598 0.11390277 0.04816143 -0.092664935 -0.11330998 -0.00050205784 0.011717868
0.0054639997 -0.043065675 0.05490143 0.03485643 -0.075624086 -0.025939338 -0.06506638 0.05929882 -0.03769733 -0.0061774882 -0.005722022 -0.04019872 -0.06211048 -0.05763335 -0.11140308 0.008825473 -0.086599655 0.07928071 -0.05040727 0.043543965 0.04971018 0.051101405 -0.023827773 -0.116997354 -0.010179342 0.01084245 0.019327542 -0.034199476 -0.013203379 0.07375833 0.05261164 -0.10068787
-0.115750514 -0.04393918 -0.049080454 0.09503882 -0.075244665 -0.025004337 -0.09745958 0.047433313 0.052350294 0.05458238 0.08801467 0.019140152 -0.064234845 -0.10742943 -0.032045387 -0.14157775 0.026231905 0.08450534 0.056317136 0.1056166 0.13099593 -0.019834856 0.121382974 0.040267 -0.13297407 0.1310449 -0.044236753 0.09245191 0.058777925 0.08800993 0.00935503 0.017739885
0.16119911 0.17556486 0.05423887 0.046270672 0.07519262 0.08537897 -0.07324676 0.02705386 0.15877433 0.053051043 -0.07289939 -0.09503973 -0.048023563 0.14039229 0.14635465 0.11390477 -0.0056728018 0.03721444 -0.01609791 0.02361421 -0.05088578 -0.00941616 -0.03361026 -0.044088908 0.12084956 -0.16768724 -0.026681045 -0.10439892 -0.084308006 0.019494368 0.07245602 0.1274517
-0.05236934 0.16414377 -0.07630749 -0.025545994 0.06685018 0.030818576 0.12027939 -0.052834183 -0.07513494 -0.12392627 -0.0047052233 0.045406714 -0.09221302 -0.04045945 0.0051339613 0.045247976 0.03770528 -0.0044518807 -0.037509963 0.045630384 0.06626545 -0.08100522 -0.051626302 -0.03000263 0.01777972 -0.030756025 -0.038387276 -0.0013357011 0.015965933 0.04295026 0.018015051 0.1359554
-0.05385176 -0.033914264 -0.08051425 0.04609557 -0.011066656 0.020767428 -0.06293429 0.017773421 0.013235588 -0.05232167 -0.04434993 -0.11412546 -0.025352648 0.07433736 -0.045648225 0.113503255 0.08652327 0.005563773 0.10545089 0.09179737 -0.09026876 0.10038727 -0.050939053 0.12319074 0.086659215 -0.014805583 -0.032048758 0.006288579 0.060221888 0.017499616 0.065995015 0.034037728
0.03287139 -0.0034872955 0.12702663 0.026619451 -0.051563498 0.065414295 0.027037282 -0.05830918 0.09668498 0.13518561 0.1140711 0.023827627 0.03546537 0.035048507 0.007718695 -0.009433739 -0.027369125 0.0085120965 0.020019658 -0.029847652 -0.10087762 0.108083226 0.03732935 0.09032256 0.09785675 -0.03281128 0.0729974 -0.07099581 0.04917249 0.004702785 0.122198485 -0.045970563
0.15743569 0.23857552 0.04241122 -0.046115216 0.08122771 -0.15570256 -0.049919117 0.035867978 0.04246154 -0.05033023 -0.074672244 -0.17750444 -0.13825513 0.2168691 0.107104644 0.15902384 0.13993832 -0.126162 -0.20009199 -0.110463895 -0.06735286 0.11535388 -0.040823556 -0.19871879 0.12888321 -0.15349442 0.0104811555 -0.17408094 -0.10353553 -0.083416924 0.19293208 0.11288371
-0.038971283 0.03955726 -0.053809 0.14109819 0.049852308 -0.18979955 -0.10968905 -0.028265819 0.038315356 0.05568431 -0.13986224 -0.09442179 -0.1604072 0.05993148 -0.00090296246 -0.02590724 0.039704707 -0.095157266 -0.09205656 0.07527233 0.0035347554 0.0840516 -0.14187269 -0.16832088 0.015114871 -0.14079925 0.07552842 0.07410319 -0.09236086 -0.13378218 -0.0906225 0.01077124
-0.083464436 -0.17376834 0.021706756 0.16450974 -0.02472829 0.016047213 0.13174184 0.07338769 -0.028839307 0.13680835 0.007184706 0.131691 0.07471678 0.0250932 -0.07551929 -0.038279597 -0.15530162 0.08538595 0.062107775 0.15465754 0.15499948 -0.14734758 0.10225284 0.18776497 -0.014678548 0.14900763 0.005027179 0.09674187 0.09023418 0.088668495 0.05625365 0.00665468
-0.12470065 0.0077194525 -0.0035122423 -0.004154051 0.09670337 0.051358573 0.06705084 0.03582734 0.0013904648 0.082162134 -0.014272963 -0.08574254 0.0037269595 0.03658308 -0.053042065 -0.017572585 0.024443384 -0.0024809386 -0.056410026 0.06863325 0.03744283 -0.06746154 -0.022506734 0.10894529 0.002318818 -0.05866895 -0.03797041 -0.07227465 0.062120274 -0.018775987 -0.04935601 0.020823605
-0.07449884 -0.043117095 0.054423843 0.118389845 0.014560837 0.07828275 -0.11182274 0.038048036 -0.065772675 0.112959094 0.100789264 0.0054071276 0.08189482 0.01330444 -0.06593337 0.03395846 -0.046158202 0.0953781 -0.03149328 0.08259166 0.09102824 -0.020407714 0.05976124 0.06668784 -0.09020295 -0.0014086745 -0.046532076 0.056973148 -0.114707984 -0.00902754 -0.09743887 -0.048863344
-0.13081811 -0.19259006 -0.15338676 0.114964336 -0.11180903 0.10662797 -0.00882251 0.034842096 -0.18198147 0.2156622 0.07257131 0.12697718 0.28606787 -0.15630431 -0.22395441 -0.08570214 -0.106582634 0.087228715 0.07147212 0.29793707 0.22067577 -0.17136689 0.16361083 0.19841762 -0.22067992 0.24369828 -0.055356007 0.1903803 0.15544026 0.14149241 -0.2319018 -0.15087873
-0.025692508 0.048158113 -0.025568375 0.03878194 0.0067619523 -0.0673679 -0.075655274 -0.047249112 0.02491293 -0.007356962 0.02625186 -0.10052564 0.12486091 0.012687212 0.06633861 0.060270652 -0.0007808591 -0.04165503 -0.091126755 -0.023495145 0.07884472 0.06837354 0.10274215 0.0050563314 -0.020643909 -0.08769974 0.022103507 -0.005881061 0.14339526 -0.016307011 0.012166172 0.032091234
0.016229382 -0.049740963 -0.1667569 0.24804842 -0.17491688 0.24635714 -0.05802656 0.19311209 -0.041595675 0.09247255 0.24174255 0.030594932 0.19689968 -0.032826595 -0.09595199 -0.19332929 -0.028226318 0.22523507 0.21693753 0.19018444 0.14653385 -0.07576449 0.22743376 0.18147069 -0.1295345 0.16388224 -0.124757275 0.28054106 0.09621939 0.07815974 -0.07879338 -0.023066597
0.1628089 0.15519416 0.018572906 0.19346789 0.049540687 0.015012711 -0.071005784 0.11200868 0.11130972 0.17619963 0.0005322566 0.043087006 0.1359014 0.048552256 0.07697395 0.113895714 0.09442467 -0.048174918 0.09304229 0.18159169 -0.016312156 0.0797956 0.056456517 -0.006501745 0.11892522 -0.10541517 0.23093615 0.028258173 -0.09444163 0.12519582 -0.019641478 -0.059340704
0.019014383 -0.116770074 -0.0033602784 0.07971624 -0.05235327 0.10269008 -0.0013140384 0.058110982 -0.10041885 0.07364363 0.119797625 0.019328183 -0.04027384 -0.022493104 -0.00042110693 -0.06497118 -0.10170292 -0.012918185 0.09792042 -0.019380113 0.03174383 -0.003341425 -0.07193207 0.015229252 -0.08196987 0.08377156 -0.09713168 -0.0387249 0.09076282 0.03335177 -0.088421695 -0.048520114
0.05853231 0.13828297 -0.032252505 0.053035982 0.1509877 -0.12407692 0.07925537 -0.13875161 0.11509583 -0.0048003476 -0.101707354 0.010713759 0.011701316 0.04904299 0.05856232 0.033165228 0.11248789 -0.051083412 0.03228992 -0.11856241 -0.061671868 0.14247264 0.06054756 0.072213024 0.006773015 0.051416587 0.083877295 -0.07544917 0.04351277 0.014040998 -0.025125023 0.01786299
0.06083843 -0.039887864 -0.04143231 -0.12703729 0.08466242 0.012427251 0.013936932 0.037588254 -0.097748205 0.034094535 -0.063583516 0.02821674 -0.06557747 0.033695582 0.02502282 -0.012921393 -0.07452404 0.0109537635 0.022203393 -0.08884522 -0.021415118 -0.0017030755 -0.031335853 -0.022696443 -0.061720997 0.058886237 0.025797525 0.0021837472 0.013091227 -0.025500825 -0.06868329 -0.060432427
-0.091037445 0.012227968 0.06452152 -0.008957196 0.021738209 0.12500528 -0.055316173 0.0099149095 -0.007238761 -0.047024146 0.006819894 -0.036567725 -0.0019096984 -0.07116071 -0.008674913 -0.03243435 -0.055041336 0.06637527 0.06002874 0.11368093 0.111326195 0.033077292 0.009430839 -0.015429052 -0.0663111 -0.052369304 -0.069755875 0.106361054 0.004944827 0.10275896 0.029730815 0.055235628
-0.1859983 -0.19729398 0.12876625 0.05441591 -0.061217263 -0.071916215 -0.010738206 0.030480415 0.11918176 -0.059359267 0.029900959 -0.04270973 -0.023268212 0.05069669 0.042375136 0.056450017 -0.13053839 -0.07186088 -0.00505357 0.0400373 0.10202447 -0.17950298 -0.042545747 0.064741835 -0.18552081 -0.0068222065 0.021990368 -0.005817196 -0.090186425 -0.0005456471 -0.15754147 -0.046913657
-0.035995033 -0.18178523 -0.051479816 -0.112554 -0.018868588 0.0068840086 0.070523605 0.035662465 0.07070608 0.055775136 0.008534291 0.088187344 8.6336513e-07 0.100941375 -0.110850886 -0.01586106 -0.042426046 0.030709546 0.048790045 -0.015574099 -0.075003505 -0.06555654 -0.009507777 -0.04007943 -0.06049543 0.13340513 0.037285425 0.056945626 0.086377054 -0.07706371 0.04070123 0.066130176
-0.01857301 -0.1107843 -0.020621942 0.11538944 -0.031279255 -0.07999449 0.11408132 0.020741364 -0.03454596 -0.048401155 0.051601782 -0.03020787 0.08242202 -0.08117513 -0.060268473 -0.022444837 0.00046623143 -0.027744664 -0.030015174 0.025432996 0.10513032 0.061112247 0.06912918 0.064964965 -0.090711094 0.049807142 -0.03672044 -0.047857404 0.11653861 0.06543347 0.012103394 -0.091610365
0.021497821 -0.0766379 0.032399617 0.103522524 -0.11293623 0.056732766 0.04260422 -0.03174175 -0.105714045 -0.044235434 0.076182716 0.030814487 -0.033389863 -0.060832538 -0.13215594 0.029723218 -0.115209594 0.075775504 0.10774124 -0.016764777 0.071386315 -0.1455301 -0.019169457 0.036971405 -0.11871766 0.031606387 -0.08972817 0.046622153 0.022883747 -0.019404238 -0.056824606 -0.010258246
0.12905878 0.1137764 0.16085218 -0.01235627 0.066520475 -0.09967774 0.06856452 -0.08305839 0.12261904 -0.08120211 0.008455353 -0.007394286 -0.08515376 0.08115008 0.043384433 0.098261215 0.0036875475 -0.06975421 -0.09049539 -0.11215972 0.08426989 0.019736541 -0.067895845 -0.08840793 0.09805956 0.07769121 0.14117625 0.021930348 0.07380982 -0.14872847 0.037262138 0.11665132
0.035091296 -0.082248695 0.018478421 0.032166753 -0.030293506 -0.033983145 0.068105295 0.0072571132 -0.056087967 -0.043331563 0.006080857 0.103498966 -0.052110508 -0.013285507 0.008494724 -0.094938 0.017850474 0.07213476 0.12352807 -0.015106044 0.08244655 -0.0033806104 -0.04788964 0.088854305 -0.0062215175 0.09135086 -0.11898206 0.09013764 0.005617004 -0.027267326 0.0108059365 -0.067019485
0.10290988 0.08537034 0.012381766 -0.062282935 -0.023169497 -0.010773699 0.030235412 0.048021022 -0.025693329 -0.01750444 0.03093861 0.042699456 -0.065038286 0.020390358 0.010013337 -0.031505495 0.022019774 -0.028429063 0.07394683 -0.030791989 -0.016080363 0.056873627 -0.04671563 0.059937112 -0.021264343 0.044465177 -0.0038114523 0.02023906 -0.04391489 -0.0836816 0.039871585 -0.06777599
-0.15346542 -0.19799395 -0.20047031 0.111819714 -0.19595128 0.13280943 -0.062333193 0.050941665 -0.3147425 0.13973932 0.098058745 0.16512379 0.14039642 -0.16625775 -0.26730183 -0.09891735 -0.26916626 0.07795104 0.17284645 0.14780436 0.122679114 -0.13053651 0.12046681 0.23086372 -0.12431577 0.23219691 -0.1642041 0.16005073 0.17213178 0.23536152 -0.2287325 -0.080881074
-0.025150547 -0.0957591 -0.071109876 -0.06534032 -0.12742168 0.082593955 0.0791415 -0.036906056 0.012683658 0.04765479 -0.09082412 0.085713625 0.079147495 -0.042568184 -0.0005784955 0.046422143 -0.0869437 -0.07726116 0.034310494 0.07257813 0.02483763 -0.07967096 0.036938284 0.08053082 0.00112994 -0.0473013 -0.045905665 0.06495306 -0.03279501 -0.016712766 0.04750398 0.021400824
-0.064655036 -0.29487264 -0.1941357 0.21214941 -0.10172609 0.26766017 0.15412126 0.08894281 -0.12893398 0.03872839 0.2399891 0.1510837 0.12113251 -0.2299145 -0.150045 -0.15624416 -0.09901994 0.22740099 0.119623974 0.17612846 0.27790663 -0.18697949 0.20872809 0.18871967 -0.053517897 0.11066332 -0.06878764 0.13159023 0.21453287 0.1581228 -0.14600222 -0.000472503
-0.0031453338 -0.04629332 -0.053105496 -0.094794676 0.035641916 -0.09847213 -0.07211315 -0.09156937 -0.10396259 -0.074146666 -0.079447106 0.01951832 -0.051384985 0.002477326 0.015879268 -0.093602374 -0.0585234 0.052687638 -0.06568332 0.06867212 0.02793355 -0.030915657 -0.067606226 0.08111098 -0.0008190336 -0.07000639 0.030360406 -0.067008644 -0.035359 -0.06779773 0.012992973 0.03779688
-0.042877477 -0.05287878 0.0016662397 -0.060798865 -0.030414382 -0.20845532 0.080793396 -0.029151846 0.035831764 -0.0023043312 -0.12774664 0.046709005 -0.09303222 0.065719254 -0.03802223 0.0020410593 0.006104792 0.10510275 0.026070707 -0.1824526 0.05547982 -0.05273494 0.0398441 0.067456044 -0.06197004 -0.06682774 0.060514156 0.0037128883 0.04789553 -0.119141474 0.05347826 -0.013140008
-0.038995486 0.017410615 0.08476626 -0.15435521 0.121712185 -0.05902128 -0.10882325 -0.07084108 0.123793714 -0.060223762 -0.016132392 -0.06806381 -0.105576925 0.049032625 0.10988735 0.0576295 0.008463523 -0.10869599 -0.09229937 -0.13026364 -0.0062455856 0.084226124 -0.03848224 0.0010890765 -0.010510314 -0.09351271 -0.003362275 -0.10422979 -0.1807957 -0.082545646 0.074225344 0.086966544
-0.11705972 -0.25447738 -0.079445265 0.1733954 -0.07442819 -0.040152818 0.0695514 0.07244423 -0.103838004 0.09430885 0.017678525 0.083335005 0.07629743 -0.10974045 -0.09784464 -0.067323394 -0.099487305 0.06454773 0.02210224 -0.049316455 0.12240242 -0.026142262 0.08334598 0.016618656 -0.09019764 -0.099872865 -0.05246263 -0.02525845 0.032268696 0.037292097 -0.04049667 -0.0039950334
-0.08749495 -0.1025065 0.039543353 -0.041083414 0.050335634 -0.0791555 -0.045449123 -0.02894645 -0.022188444 0.074627526 0.027487453 0.035623536 -0.03597625 0.070695125 -0.09787501 0.0034076504 0.025956554 -0.0331718 -0.04376199 -0.003446025 0.009068741 0.10189509 0.13008705 0.055904586 -0.06506709 -0.031813446 -0.052429844 0.042182233 -0.024986958 0.06250409 -0.08159328 0.0704306
-0.12469477 -0.04441666 -0.11152023 -0.070189536 0.026264686 0.061234258 -0.052925352 0.028926075 -0.08068617 -0.07395904 -0.076868266 0.047857635 0.0019652043 -0.058251463 -0.058547642 -0.08561853 -0.10145736 -0.049549635 -0.010188306 0.036597516 -0.0705876 0.03730068 0.13684447 -0.020719927 -0.07655266 -0.13831353 -0.045126755 0.06259785 -0.022721926 0.01754219 -0.011614143 -0.024441771
-0.047481902 -0.113163866 -0.0133801075 -0.075987 -0.047028966 0.10055339 0.1631904 -0.05773527 0.002326371 0.09860194 -0.053584393 0.037230585 -0.00875389 -0.08410127 -0.08951938 -0.012630471 -0.031155873 -0.06115496 0.04112374 -0.06687998 -0.03249675 -0.11181819 -0.0043245265 -0.059481915 -0.06034317 -0.021449067 -0.0070755417 0.044781905 -0.051143423 0.0044295467 0.014585243 0.050210234
0.12909986 -0.1213936 -0.010119271 0.059173174 0.06409818 0.07116519 0.08593792 0.06632212 0.010825843 0.09885319 0.027898002 -0.04153534 0.045667768 0.13757388 0.10965558 0.031713076 0.13901289 0.06238181 -0.004121223 0.012624954 0.0268083 0.027276618 0.032351546 0.09207763 0.089429855 0.04808798 0.12218612 -0.01816514 -0.017917143 -0.042217597 -0.013088746 0.09687493
-0.097815715 -0.1546036 -0.025763761 0.20085306 -0.07974518 0.008758785 0.008231241 -0.09494402 -0.12397221 -0.019935025 0.031397562 0.09113728 0.033985037 -0.04370846 -0.025999667 -0.08211422 -0.026054772 -0.065297425 0.07527633 0.085205555 -0.096898034 -0.09795606 0.038948037 -0.005358789 -0.102755286 -0.02797854 0.02206168 -0.050411362 0.011955522 -0.09822385 0.08213883 0.0028635652
0.15021332 -0.0036225028 -0.081698775 0.01877359 0.09758547 0.12786442 0.07840417 0.009881357 0.05569363 0.083103925 0.053033963 0.020898836 0.16787067 0.058288522 0.071133055 0.04457288 -0.072017565 -0.061387364 0.06615143 0.015798 0.09649217 0.10327766 -0.026652908 0.0751339 -0.074535936 0.1212086 0.08180279 -0.071562834 0.032541472 -0.12185487 -0.016435048 0.018225892
-0.041723456 -0.09210601 -0.16191272 -0.0040569417 -0.03063985 0.036119375 -0.06708494 0.059186846 -0.037499897 -0.048413772 -0.067756645 0.060255114 0.14710021 -0.046192486 -0.042212073 -0.09899051 -0.06721209 0.14880197 0.11503742 0.12729938 0.072173744 -0.12392741 -0.039717983 0.18792725 -0.11321439 -0.0876639 -0.08068682 -0.008870729 -0.0036830471 0.09553424 -0.0095244665 -0.09813207
0.06886868 0.070062 0.08557336 -0.041963972 0.102496 -0.05301549 -0.0695724 0.08222603 0.12571633 0.0074594575 -0.025804967 -0.03327933 -0.013634677 0.048895862 0.014175387 0.012279999 -0.029702457 -0.042959947 0.05433227 -0.030354073 -0.077990845 0.023797566 0.04048964 0.055992 -0.014641743 -0.02348388 0.029020945 -0.031556208 0.14922749 0.04759196 -0.03142392 0.07816024
0.053977754 0.1550491 0.04211451 -0.014572609 0.050852314 -0.17645547 -0.13371019 -0.02973915 -0.029990103 -0.0027758067 -0.18980105 0.034802563 -0.027615594 0.07029637 -0.0065337643 0.08576936 0.12984535 -0.11357813 -0.09474011 -0.05570489 -0.028734257 -0.018403199 -0.019444501 0.022592619 0.050188906 -0.103666306 0.16901347 -0.05677069 0.021699203 0.04614979 0.012360625 0.04476537
0.09119509 0.13570613 -0.0236393 -0.0059313294 0.08562542 -0.04301634 0.07528529 0.024412453 0.010298293 0.07678893 0.061038025 -0.01637497 0.092350565 0.030630767 0.025040897 0.12415954 0.010325014 0.027521368 -0.05357659 0.037740994 -0.036654204 0.08453805 -0.0403445 0.05089763 0.050117403 0.06481944 0.09969939 0.0039466205 -0.09394404 -0.028092083 0.06213548 0.05342329
-0.051739927 0.01791377 0.03866426 -0.04854627 0.08296689 -0.025623491 -0.049141597 0.04296216 -0.028155128 -0.10538655 -0.093780644 0.06379274 0.13470814 0.062140685 0.086362876 -0.04670584 -0.00061270094 0.13504626 0.16032548 0.036884397 0.11666068 0.03927671 0.038798742 -0.010536141 0.056092687 0.05193229 -0.053927675 -0.028500674 -0.18423815 0.043466598 -0.08235504 -0.031982597
-0.187855 -0.10165018 -0.070510626 0.08690102 0.06110248 0.076673776 0.10287846 0.10850573 -0.036946543 0.016325193 0.079323076 0.114654645 0.060478326 -0.016001068 -0.10903918 -0.09530918 -0.10970308 0.13413666 0.06802391 0.10024453 0.0382474 -0.14710554 0.06218815 0.11371272 -0.04973872 0.08208828 0.030188248 -0.07755834 0.121669486 0.17733036 -0.021462608 -0.043512926
0.021559808 0.08569437 0.011646419 0.0188141 0.12933525 0.017425109 -0.018750355 -0.013284954 0.12726875 -0.03005962 0.004262691 0.037876494 0.021759417 0.030101709 0.114416875 0.08267936 0.10118587 0.0420361 -0.1237359 0.026130972 0.04365564 0.10007323 0.025904188 0.0139083 0.08457473 -0.0151543645 0.0017190052 -0.04508743 -0.060991894 -0.0030014247 0.03680443 0.10171231
0.03402718 -0.095631436 0.08071164 0.11690186 0.034699544 0.10032647 -0.0056533376 0.06841068 0.03227427 0.085512646 0.055679254 0.19095318 0.082910806 0.068917155 -0.061780307 0.11046773 0.06570592 0.1595688 0.1467787 0.021026572 0.04488281 -0.08633273 0.0016956818 0.017557634 -0.03046213 0.13081445 0.028407462 0.05929653 0.005981155 0.043360535 0.12159367 -0.008315169
-0.05599709 0.11078255 0.008080913 0.095962495 -0.009013644 0.05165971 -0.13666816 -0.045319393 0.08198339 0.048009668 -0.09348047 0.092985965 -0.070256986 -0.024424596 -0.020550901 0.09150422 0.044504914 -0.041775256 -0.042389818 -0.046294466 -0.03997175 0.09327034 0.020405415 0.088742256 0.047032036 -0.08601516 0.07188867 -0.04765467 0.028533373 -0.12693442 0.1295544 -0.023132564
-0.0012800554 -0.08329047 -0.18076894 0.08367131 -0.050246526 0.22814424 0.1541823 -0.016875956 -0.123838894 0.1205956 0.06757834 0.118393406 0.11081711 -0.17420928 -0.14256395 0.026149645 -0.1106418 0.10048807 0.18151224 0.20204963 0.18667431 -0.13336079 0.08489933 0.13370536 0.011896705 0.2760544 -0.13664965 0.19247435 0.1650139 0.1697129 -0.024893135 -0.07162972
0.0022247536 0.15041192 0.13156608 0.085509226 -0.09031874 -0.12205777 0.00069709565 0.03509296 0.041674227 -0.06463563 -0.003268507 0.08941388 0.136033 -0.0074760364 0.047353003 0.032211665 -0.020321535 0.012632815 -0.106928706 -0.007364799 -0.03821275 0.0952658 -0.04390893 -0.080690816 0.023884727 -0.09159523 0.07180561 0.06471663 0.015991129 -0.15737118 -0.083203115 0.021193044
0.03889128 0.02477364 -0.14353138 0.020859767 0.011550171 -0.064290956 -0.014421861 0.05115388 -0.08429215 -0.08261275 -0.045355167 -0.035554107 -0.11797475 0.14194292 0.06467461 0.066782095 0.0060417643 0.07949423 0.026416754 -0.05193622 0.0014556798 0.08085311 -0.015957912 0.022340676 0.20967527 0.0019654664 0.07509509 -0.029116672 0.014353189 -0.096035 0.030516459 0.15603822
