-0.043638755 0.049214292 0.13764615 0.014759384
0.13562076 0.022646409 -0.2064677 0.043492865
0.12568007 -0.093626186 0.050541352 0.11354166
0.09569369 -0.043678213 -0.06934907 0.08091375
-0.13160723 0.017210905 0.059472777 -0.020910874
0.044175066 0.07439428 -0.075315446 0.1785969
0.11659259 -0.19777068 -0.027320623 0.022167074
-0.09963344 -0.17456655 0.11905499 0.009761389
-0.10526833 -0.18622155 -0.08857472 0.10977782
0.18212883 0.004364922 -0.13975622 -0.1785627
0.04858816 -0.20461936 0.0052698953 -0.022565879
-0.20010714 0.04354604 0.051589847 -0.17395435
-0.052054066 -0.11189804 -0.15212962 0.13639355
-0.1204919 -0.22116493 -0.03375718 -0.017248156
0.022790693 -0.022734998 0.0943481 0.031341936
-0.064662546 0.045210097 0.030274305 0.06771812
0.0018842316 -0.10051127 -0.04204232 0.0606956
0.1299509 -0.123357095 -0.05291097 -0.17522341
-0.08466116 -0.2529867 -0.06709669 0.036668617
0.064281635 -0.044388223 -0.13117309 -0.12106754
-0.06370162 -0.037246104 0.050811607 -0.24918248
0.0070318496 -0.103777505 -0.064165995 0.13588884
-0.11628356 -0.054821447 -0.16924109 -0.058999818
0.17925273 0.11582864 0.08444301 0.08358767
0.17281397 0.09034954 0.06145175 -0.10671312
0.0963174 0.18202335 -0.14498055 -0.11583028
0.12814519 -0.05961516 -0.08940181 -0.10466661
0.1059863 0.047279928 0.010641043 -0.14700496
-0.0277024 0.052265767 -0.08698186 -0.09814312
-0.10578064 0.05860873 -0.18221508 0.05407555
0.037815623 -0.11661946 0.16340528 -0.038914975
0.040799685 -0.10225449 0.21887775 -0.24273138
-0.11738437 -0.034465816 -0.0397065 -0.024106745
0.071567744 -0.047447644 0.11395103 -0.08421164
0.23285776 0.04204777 -0.031337216 0.017144412
-0.12808856 -0.07927186 0.03761389 0.17476758
-0.057594635 -0.02869115 -0.21904568 0.026550703
-0.063917644 -0.01521481 -0.042008344 0.05725131
-0.07581659 0.1564663 -0.03642363 -0.06706505
-0.040275373 0.112499855 -0.048582673 -0.19805482
-0.09021237 -0.018209431 0.023239417 -0.14006403
0.007843399 0.07541593 -0.07654555 -0.16411632
-0.056273147 -0.059551626 -0.10382407 -0.04873492
-0.23833318 -0.15282242 0.04328575 -0.11141868
0.04867363 -0.12326595 -0.045196228 -0.070214696
-0.15332521 -0.16730393 -0.06483433 0.056819364
0.08385887 -0.0074981293 -0.0009311725 0.04766003
0.07817156 0.08422492 0.031258993 -0.15144798
0.23568286 -0.12953547 0.11556524 0.123818524
-0.03392393 -0.13658963 0.061835673 -0.04100997
-0.008119132 0.14658272 0.10603786 -0.08802357
0.01692527 0.003149099 0.14355403 0.015050012
-0.16662747 0.024720266 0.018137092 0.043706764
0.05590229 -0.09398689 0.10748593 -0.10336585
0.01644097 -0.1503751 0.058443736 0.12261078
0.06341434 0.119791016 -0.200481 0.16027287
-0.12441231 0.1863786 0.04710627 0.07694875
-0.1540719 0.08720266 0.050755616 -0.043801542
-0.14265944 0.0024212797 -0.011193913 -0.11003284
0.08134155 0.11213521 -0.14149056 0.03910523
-0.03991671 0.24394636 0.16356751 0.07900454
-0.10464719 0.019687716 0.06092853 0.088918634
0.027531274 0.11764656 -0.13847291 -0.11864242
0.06680081 0.23271228 0.18201844 0.14202105
-0.043445837 0.058306213 -0.03177751 -0.1478922
0.047379754 -0.08517018 -0.1049903 -0.17027086
0.15075839 0.086476594 -0.122165315 -0.07353416
-0.04711231 -0.02298168 0.13215856 -0.006789178
0.046869773 -0.1115658 0.040901102 -0.013867812
0.09038882 -0.0560537 -0.08163472 -0.052398924
-0.10613948 0.14400843 -0.02583688 -0.008924939
0.07662139 -0.080629535 -0.0010096682 -0.19526716
0.16342768 0.10605719 -0.0109067 -0.052759413
-0.038646936 -0.13649544 0.023720343 0.08799419
-0.08234804 -0.09658812 0.14553522 -0.04020875
-0.13630816 -0.07386334 0.10518417 0.026420228
0.01146547 0.10503437 -0.07506436 0.119999066
-0.14217436 -0.07359933 -0.017145475 -0.0054224245
0.04002347 0.09636327 0.11701851 0.10426629
0.074314676 -0.15174101 -0.16090772 0.12570783
-0.07325998 0.11736789 -0.18568131 0.1030078
-0.09610761 -0.09779216 0.13432637 -0.06684588
0.060929984 -0.050435655 -0.096877165 -0.21112399
-0.14701119 0.083660714 -0.12074247 -0.03459024
-0.1713744 0.033529818 0.19600198 -0.08737362
-0.09265474 -0.0854025 -0.07554347 -0.1688367
-0.1834022 0.116985455 0.074067004 0.012352341
0.072123736 0.0128013445 -0.078468196 -0.19055822
0.10527123 -0.11821898 -0.13083465 0.037060168
0.001267285 -0.17652546 0.117222264 0.044123676
0.13988622 -0.010061914 0.10354421 -0.13461706
-0.1501904 0.13617033 0.07968975 0.060737733
-0.12958519 0.11312775 -0.12574336 0.10116481
0.015059728 0.11042409 -0.07953536 -0.018394735
-0.013390166 -0.004651506 -0.08580725 -0.16306795
-0.09800672 -0.10350672 -0.053365298 0.097272314
-0.034164548 0.072160564 0.021566482 0.10995625
-0.05403405 -0.005405896 -0.06314894 -0.13146941
-0.0866427 0.14244387 0.09589636 0.023294272
-0.15472423 -0.022767186 -0.011695549 0.116312236
0.10481631 -0.055612024 -0.0035217567 -0.09635232
-0.045230098 0.0548835 0.056170974 -0.120662645
0.0108661065 0.05876905 -0.13385981 0.06471173
0.031364854 -0.11054716 0.15723285 -0.07242098
0.1569569 0.09496755 0.022124302 -0.084296726
0.028995337 -0.06627067 -0.026083762 0.1757768
-0.08281835 0.02780737 0.026817745 -0.0995224
0.05986816 -0.048783336 0.0839958 -0.21785443
-0.124768026 0.067877345 0.056889754 0.030158827
-0.110537566 0.07147854 -0.14161763 -0.14548483
-0.07551978 0.022214953 -0.13978724 -0.061430857
-0.030463627 0.098417364 -0.080056176 -0.10315834
0.10471347 0.1410391 -0.014832979 0.11023155
-0.015030368 0.03705371 -0.033762008 0.1423877
0.0845088 -0.067859046 -0.093059294 0.037723374
-0.18633132 -0.15462275 0.1847275 -0.038670093
0.070585325 -0.013815898 -0.13442656 -0.06892711
0.10874501 0.19906168 0.11599475 -0.12015207
-0.1340876 -0.17823657 0.15473947 -0.053742986
0.027980678 0.09124075 -0.111778535 -0.015090941
-0.07350965 -0.04236859 -0.008935863 -0.14471762
-0.03981422 -0.017914094 0.052784253 -0.073847406
0.17734416 -0.046757456 -0.021303985 -0.07575023
0.13254447 -0.058466773 -0.0010176226 0.1038973
0.022206767 -0.11016195 0.015697528 0.122784026
0.06771961 -0.07303025 0.07512018 -0.08424805
-0.09969018 0.03212872 -0.042529378 0.07136474
0.10052743 -0.07252997 -0.041549116 0.06827343
-0.015974527 -0.18606599 0.06114328 -0.15094122
-0.08941249 -0.05591853 -0.23121925 -0.042832848
-0.05446022 -0.020119647 0.006505379 -0.03337312
0.07418182 0.06889814 0.12724023 -0.00045799438
-0.025026644 0.016056482 -0.1367789 0.07490625
-0.06879316 0.028044732 0.07696293 -0.08401594
-0.114490226 -0.20526029 -0.14991274 0.07900368
0.07088696 -0.06002869 -0.1393023 -0.10549166
-0.09172335 -0.1962128 -0.0951144 -0.061618663
0.24945927 -0.079398714 0.07965075 -0.05429273
0.12534441 -0.003920435 -0.065918535 -0.11457613
0.090255685 -0.067324266 -0.14402714 -0.2428357
-0.14536121 -0.16303542 -0.1015641 -0.19050166
-0.0021086333 0.13237794 -0.030621758 0.03135583
-0.024276763 -0.17757161 0.19120638 0.09093716
0.075642996 0.09735208 -0.015832787 -0.059230987
-0.020419944 -0.0940779 0.030884022 0.2255358
-0.067762084 -0.10625664 -0.11563641 -0.048371833
0.22891273 -0.08740967 -0.17352347 0.17587599
0.16392155 0.048333105 -0.17013338 -0.03746966
-0.011017935 -0.24455702 0.02940517 0.08569004
0.08162723 0.07846907 -0.015346346 -0.015925782
0.0063669733 0.06794172 0.11954193 0.03355945
-0.05824054 0.04189139 0.042963646 0.10354132
-0.067489535 -0.0022835098 -0.06831614 -0.056541614
0.039134495 -0.041202314 -0.16930722 -0.13224784
0.08159656 0.016039124 -0.18622738 0.05845255
0.0494925 -0.13442916 0.07882166 0.074047506
-0.08001306 0.03546941 0.02291798 -0.06943392
0.15299329 -0.032424316 -0.16378073 -0.017028395
0.006745986 -0.0705235 -0.10241135 0.05812921
-0.01230518 -0.111502066 0.0869958 -0.131428
-0.052426066 -0.15725446 0.04900975 -0.10608812
0.02398181 -0.15022485 0.18609743 0.10978073
-0.13482691 0.17216927 -0.009969229 -0.048744634
-0.23149945 -0.22876322 0.057717286 0.16514495
0.0050731953 -0.13136931 -0.22284023 0.04564377
0.007802896 -0.12508681 -0.14775965 -0.25621605
0.019345935 0.1087777 -0.120689444 -0.058574896
-0.08312805 -0.1251829 0.065412305 0.08683252
-0.13909239 -0.08909135 0.06914539 -0.24246405
0.0342158 -0.16433717 -0.16409747 0.15664256
-0.12025893 0.027389955 0.03377054 -0.009302961
-0.10686099 0.08197334 0.110156074 -0.06576562
0.04603063 0.123224966 0.10653801 0.12692706
0.111733414 0.15063916 0.09717963 -0.2262292
-0.058455747 0.12401982 -0.035167962 0.077332474
0.08910255 0.1319175 -0.09459737 -0.094115436
0.15925294 -0.08992659 0.10079714 0.052730296
0.13590212 -0.014317279 0.0798183 0.013743699
-0.07809996 0.01260489 0.04409125 0.039046593
-0.043328684 0.007979235 0.029713288 0.14374945
0.0741335 0.06275605 0.02639462 0.010431017
0.03392182 -0.059031803 -0.06320613 0.025675518
-0.19377986 0.022466049 0.12434767 0.05362304
0.116931796 -0.0055074603 0.06801114 -0.11477503
0.07584844 0.0092595 0.031644274 -0.036510553
-0.15470815 -0.04344295 -0.14468586 -0.14779583
0.1627372 0.012112788 0.071579725 -0.15006962
0.09060004 0.074851654 -0.008284895 -0.10157719
0.017909033 -0.03879862 0.024518194 0.030755972
-0.08880439 -0.14349733 -0.0033264202 0.0387236
-0.17689385 0.026346564 -0.1111373 0.058918145
-0.08753275 -0.018406592 0.15774645 -0.07862939
0.006554272 -0.07293343 -0.074101344 0.028791025
0.10501357 -0.019672163 -0.015178336 0.07803334
-0.042071242 -0.1840539 0.1410478 0.13407938
-0.042018257 0.133162 0.112576164 -0.1132737
-0.13136259 0.011017522 -0.013415224 0.005516196
0.097434245 0.16197555 -0.007874932 0.0008456992
-0.14987876 -0.09379851 -0.120531954 -0.014499338
-0.06368125 -0.09674628 -0.15521592 -0.11779075
-0.004791425 0.08479516 0.06616223 0.16178328
0.1430383 0.005039249 0.08347672 -0.052460834
-0.0020148582 0.07360047 0.14628752 0.0625211
0.11749623 0.06996718 0.13580203 -0.042490657
-0.12650603 -0.06834373 -0.13155615 0.04058115
-0.119787894 -0.23839848 -0.15217805 0.013076179
-0.07096764 0.03326542 0.17480579 -0.104153186
0.049183443 -0.086898014 0.026342187 0.12012775
0.06253506 -0.1573662 0.028413147 0.012233162
-0.13457118 0.06589 0.14487036 -0.15877251
0.022415416 -0.23762615 -0.14559731 0.009002495
0.008810967 -0.040269107 -0.14419873 0.11456043
0.047771566 0.0654531 0.11178834 0.0149509115
0.084796995 0.026317652 0.14909308 -0.041954022
0.11797787 0.086441524 -0.0014531548 0.0014922835
0.111609824 -0.06597811 -0.09907089 0.0076200687
-0.054239355 0.053773105 0.043750953 0.14285636
0.117098466 0.082851626 0.12132674 -0.06446486
-0.045824602 -0.11575603 -0.0067356946 0.042741165
-0.0140827065 0.009563146 -0.03733521 -0.031014485
0.00018441878 0.12804472 -0.17013304 -0.20618331
0.060755763 -0.06884777 -0.16654602 -0.08400366
0.010568916 -0.13580854 0.012733875 -0.0020656935
0.013235406 0.06197147 0.103955746 -0.1715435
-0.08702341 0.09337361 0.08618691 -0.1303027
0.14399303 0.07445646 -0.075952955 -0.17423894
0.006234019 0.103871554 -0.03191319 0.13275562
-0.08157238 -0.03496721 -0.17186299 0.15616672
0.18051589 0.04737861 -0.00024206197 0.12692916
0.040410943 -0.051864434 -0.11995572 -0.03184579
0.13871013 0.18111713 -0.007982882 0.086999744
-0.08674304 0.04027004 0.017581875 0.01841736
0.20467082 -0.05353176 -0.13862565 -0.21570228
0.1468051 0.047543317 -0.0036087884 -0.12495803
-0.22596934 0.041152164 0.029997244 -0.116541445
-0.038457006 0.04782058 -0.11131735 0.05622829
-0.02125024 0.0048583783 -0.018736161 0.07533946
0.018772276 -0.019423064 -0.13097113 0.07259266
0.03289843 -0.059787165 -0.091967195 -0.08662168
0.07857647 0.038466938 -0.06850573 0.052411783
0.25093913 -0.13069609 0.14001855 -0.021385126
-0.13961475 -0.0920839 0.06333436 -0.08933055
0.11605844 0.0013602206 -0.105671465 0.0066434504
0.02088701 0.0483922 -0.07814731 -0.07143227
-0.2522572 -0.071395814 -0.179151 0.06535197
0.15448199 -0.05815647 0.054698907 -0.13517474
-0.14542018 -0.09041008 0.12747428 0.051835045
-0.046854787 0.012663763 -0.1114527 0.16995291
-0.09710455 -0.0030367202 -0.052962475 0.07421791
0.011618227 -0.16293146 -0.058996517 0.055448577
-0.15567979 0.06688603 -0.048836455 0.16844785
-0.15619889 0.008919803 0.05382793 0.07789843
0.08730135 0.16588557 -0.010263494 -0.08957609
-0.12410757 0.12814243 0.035729136 0.0707838
-0.15442908 0.05883617 -0.025771286 0.049551334
-0.03005002 0.26040247 0.017561993 -0.088980295
-0.099700965 -0.01351031 -0.094215006 0.068578325
-0.09861198 0.024411978 0.06439811 0.12616028
-0.12734616 0.04231475 0.12106964 0.033214156
0.049384996 0.13103233 -0.06536961 0.08463826
-0.14210992 -0.12085485 0.008625507 -0.08219583
-0.1780497 -0.14563906 -0.22836162 -0.02631414
0.034307346 0.15716702 -0.17796439 0.07435047
-0.0904564 0.024173757 0.040587958 0.048754968
0.03232469 0.06211885 -0.0736413 -0.081783615
-0.116237804 -0.02045062 -0.12610045 0.13717553
0.07104733 -0.21200772 -0.11928448 0.07368039
0.15749437 -0.043762244 -0.01898071 0.0943295
-0.16655134 -0.108118154 -0.098021835 0.08068106
-0.12773538 0.03352195 -0.015191131 -0.037635695
-0.010977253 -0.16030471 0.11310519 -0.03902159
-0.12092153 0.05268761 -0.14637424 -0.018656485
-0.03748708 -0.1103473 -0.13720933 -0.032138467
-0.14635912 -0.040837552 0.10518 -0.03778056
0.016641703 -0.18728477 0.10567127 -0.0035706917
0.07083422 -0.11926653 -0.09322584 -0.06427491
0.045560863 -0.08438056 -0.008776395 0.016891755
0.07342934 0.08475558 -0.101492085 -0.12815341
-0.046554986 -0.16560645 -0.06733016 0.12781164
-0.075181544 -0.1695663 -0.002786654 -0.11993635
0.009026544 0.0782022 0.09885739 -0.15590644
0.019834856 -0.16412732 -0.018507322 0.11365601
-0.02310132 -0.11183576 -0.019866012 0.02819495
-0.14593157 0.0498551 -0.027772665 0.026333239
0.039884433 -0.0014842902 -0.12983881 -0.025954256
0.001673669 -0.10550516 -0.009335911 0.060208384
0.009384869 0.0804764 0.10125895 0.1398647
-0.079264194 -0.0427875 -0.24102075 0.03180521
0.012243264 -0.13645005 0.1310325 -0.093115665
0.13254984 -0.0047374107 -0.11321549 0.12925975
0.07696677 -0.21635708 -0.03135305 0.07018069
0.0074181226 0.062810235 0.10173005 0.03926453
-0.095092826 0.07437836 -0.001444739 -0.058686886
0.09303635 0.1410927 0.06399364 -0.17681573
-0.002388929 -0.21042673 0.10070112 -0.12952466
-0.10950024 -0.18811406 -0.006370181 0.038127933
-0.09331828 0.026679354 0.161264 -0.076923095
-0.26335165 0.115180016 -0.004072549 0.023514912
0.11159763 0.10472321 -0.075869836 -0.0035607333
0.07758676 0.07755262 -0.028204702 0.110109754
-0.03837474 -0.05581329 0.001215122 -0.008394576
-0.12724768 -0.14692873 0.048219763 -0.050873484
0.023286639 -0.15331534 -0.09337795 -0.036396876
-0.09925882 -0.14082372 0.019611197 0.09184347
0.09346564 0.09362134 -0.1751228 0.08479785
0.12530935 -0.0122734085 0.09036319 -0.042452827
-0.115143165 -0.13196851 0.12462311 -0.06763407
-0.0700328 -0.18013798 -0.16111305 0.16974379
-0.09699705 -0.11003235 0.0029783144 -0.11736289
-0.18136875 -0.12393642 -0.03221689 0.12536946
0.013179407 -0.030730087 -0.110688224 -0.02086727
-0.023390438 0.09678874 -0.15620553 -0.11522093
-0.19347593 -0.10850927 0.0091307415 0.119306885
0.091571994 0.00583304 -0.063571095 -0.04344911
-0.0773733 0.13351998 0.043286774 0.09508317
-0.045893386 -0.0048009804 -0.06300301 0.045867153
0.1291911 -0.010524385 -0.07314937 -0.04186482
0.19656323 0.09186351 -0.039591216 0.09884908
0.16672343 -0.070624806 -0.12516238 0.08860786
-0.072629996 -0.12986235 -0.038079534 0.04267796
-0.100637555 -0.0019500819 -0.020637918 -0.037222795
0.05466504 -0.07043784 -0.16889754 -0.16635704
-0.011684215 0.11650459 0.066666424 -0.058847826
-0.09484549 0.14455947 0.1257391 -0.052896284
-0.083917856 0.084652826 -0.004213426 -0.098100595
0.1322099 -0.026143104 0.18999334 0.06743769
0.112930216 -0.038483858 -0.045418866 0.043629717
0.13191989 -0.11294765 0.11477117 -0.054834034
0.09071282 -0.013327174 -0.085774705 -0.06507784
-0.15902203 -0.11887364 0.056842074 -0.09219451
0.12133168 -0.059357367 -0.12958127 -0.004362703
-0.06580465 0.112431556 0.0067998595 0.03242276
-0.069866635 -0.00040450197 0.04465564 0.055205762
-0.048682306 0.053266816 0.0407007 0.088117436
-0.047555204 0.100846395 0.14040759 0.1050577
-0.07126294 0.0908697 -0.1258474 -0.0046295817
-0.02829362 -0.18784326 -0.16889189 -0.057508178
-0.03304209 -0.17067872 0.013576288 -0.08856508
-0.22373235 0.014977827 0.013903473 0.10853076
0.12839016 -0.02214113 0.08151457 -0.07746953
-0.0037777615 0.11633356 0.13395151 0.081803404
-0.011055156 0.007662946 0.1394097 -0.1247646
-0.16582565 -0.04809276 -0.06606331 -0.17444958
0.08290123 -0.026830282 -0.14653254 -0.046608914
0.0334619 -0.13769533 0.020847466 0.0712089
-0.02234964 -0.038659245 0.12595491 0.13576649
-0.09768534 0.12972687 0.1843864 0.026709478
0.049024265 0.14003918 0.011827583 0.062467746
0.0605111 -0.04431006 -0.03961171 -0.102538675
0.13616742 0.099120416 -0.19738716 0.024427172
-0.001970051 -0.1946187 0.034345552 -0.014843826
-0.017752388 0.042921152 -0.1610354 0.0048674396
-0.109273784 -0.11966569 -0.14406137 -0.13458876
0.048680313 0.011736323 0.02628121 0.00017251809
-0.016712945 -0.039903853 0.07274649 -0.06649818
0.15467049 0.120429985 0.17757435 0.061927855
-0.06964703 0.19066684 -0.1493054 0.13806462
-0.0626644 -0.113764115 0.104503304 0.13413392
-0.047233485 -0.13630371 -0.2004248 -0.10238348
-0.037323315 0.05324791 0.001687 0.0032434626
-0.11102327 -0.17840545 0.060755644 -0.012902036
0.118482925 0.07138939 0.12688065 -0.11303411
0.037405465 -0.08226029 0.10545884 0.08758778
-0.20904043 -0.0859291 -0.0996781 -0.08081995
-0.056791026 -0.07074258 0.047945283 0.12518162
-0.049658347 0.070664406 0.17790747 -0.07589301
0.01948873 0.06114392 -0.012866631 0.066900246
-0.105392165 -0.07882596 -0.103070125 0.01200108
-0.1490537 -0.06346512 0.12156752 0.16416869
0.014872732 -0.15916121 -0.0032140147 -0.16341123
-0.13081652 -0.26764852 -0.20045611 -0.010027746
0.14088425 -0.16852844 -0.116991915 -0.1690746
-0.037347067 -0.07405191 -0.085149735 -0.17681529
0.1646276 -0.027548071 -0.13570085 -0.00989123
-0.057937533 0.09483268 -0.023266505 -0.16640016
-0.007690803 0.10006206 0.22211109 0.009008801
0.18148777 -0.02579456 0.06736566 0.1178492
0.11883333 0.04758462 -0.16162695 -0.15041064
0.1582082 -0.24128704 -0.035283983 0.041178517
0.20583987 -0.094830714 -0.01751927 -0.062880404
-0.16493972 -0.02680594 -0.06736087 -0.17699677
-0.13064578 0.12632808 -0.08557746 -0.09893763
-0.047101427 -0.19935688 0.080063626 -0.14716056
-0.17866229 0.009001943 0.06814396 -0.24694206
-0.11607408 -0.17496115 -0.11275107 -0.07560416
0.14316535 0.078320585 0.09872393 0.035718802
-0.1576602 0.12658872 -0.0007186785 -0.15147647
0.019122778 0.13777533 0.10567849 -0.095939524
0.117872186 0.04202738 -0.03430888 -0.14526388
-0.05390285 -0.12352793 -0.08937128 -0.08795613
-0.14895327 -0.117599174 0.04697935 -0.16957134
-0.08690815 -0.16797698 -0.1334481 -0.18186499
-0.11881078 0.014197583 -0.103424594 -0.11943248
0.24197523 -0.0054103136 -0.0681226 -0.22971937
0.04191994 -0.00013098441 0.18504809 -0.043118697
-0.21514176 0.08868516 -0.06317447 -0.11414037
-0.10288548 0.09087267 -0.17832291 0.035834845
-0.23347051 -0.13320811 -0.0053174123 -0.05471205
0.04245432 0.03354838 0.029199447 -0.20884095
0.14834036 0.046813708 -0.17956887 -0.17826651
0.10598504 -0.016553018 0.06538245 -0.20554513
-0.059749983 -0.026660403 -0.030348368 -0.050940856
0.11199993 -0.11414062 0.058501843 0.09438336
0.17220142 0.018949497 0.13504751 0.049464867
-0.1384843 0.057523675 -0.053438257 0.01246874
-0.046583287 -0.16910154 0.19434528 -0.13447568
0.059689533 -0.04880947 -0.089536175 0.14025588
0.12445953 -0.0562912 0.14070411 0.010473901
0.16047183 0.011095359 0.1241264 0.023162032
-0.15352811 0.14884251 -0.16303524 0.095629394
-0.008278266 -0.16719458 -0.08449931 -0.13058119
0.07163134 0.00088077446 0.0020884683 -0.0013222222
-0.03811263 0.053107478 0.1573466 -0.09324624
0.09611605 -0.03629744 -0.21336052 0.080217816
0.03986632 0.028157465 0.053961672 0.009776214
-0.124095686 -0.060557626 0.16471729 -0.1811877
-0.09766851 0.07466262 -0.046783336 -0.053885505
-0.1034327 -0.12212215 0.08900702 -0.03919194
0.054680433 -0.18110448 -0.113300346 -0.032948993
0.10458763 -0.0037150264 -0.13695768 -0.043637726
0.016222984 -0.17389567 0.014014361 -0.01757992
0.017592233 -0.015870253 -0.16897433 -0.040246207
-0.07743041 -0.019874029 -0.10136681 0.11751717
0.10671646 0.12556998 -0.076438025 0.045843184
-0.066887 -0.029258242 -0.08697782 0.06586721
-0.11041619 0.066419475 -0.16183296 -0.12575738
-0.107267424 0.038241167 0.028130785 0.10720672
0.10414715 -0.014924199 -0.15185162 -0.049031034
0.08331242 0.061735734 0.11806583 0.082399115
0.085018456 0.01622221 -0.008430584 -0.20955153
-0.1695539 0.08361986 0.09986744 0.07827238
0.06993702 -0.12107101 -0.10319076 0.010752493
0.04249824 -0.05195769 -0.025657175 -0.06392867
-0.0023747669 -0.12168462 -0.105239145 0.05952792
0.08817598 -0.17972149 0.020538278 -0.1200635
-0.06406047 -0.016392877 0.12223769 0.01793536
0.039288342 -0.10171081 0.1187104 0.04424412
-0.1734638 0.027920527 0.1370164 -0.0020299503
0.051012564 0.121117435 -0.0065836213 -0.04054372
-0.12991586 0.073582254 0.025969928 -0.08093041
0.03244389 0.073574625 -0.05974342 0.10552017
-0.0561206 0.1083834 0.02986604 -0.12357843
-0.14403908 -0.019950777 -0.053804647 -0.1539222
-0.08804093 0.09728506 0.08698318 -0.18354093
0.0851809 -0.14563696 0.0037798646 0.12926248
0.012097418 -0.10319653 -0.07136702 -0.12166532
-0.104662426 -0.15645653 -0.035762608 0.07803005
0.19324589 -0.035153322 -0.13828425 0.0067544268
-0.15708132 -0.028392421 0.1186966 -0.023753518
-0.14184953 -0.2135522 0.094144076 -0.08779948
0.10990311 0.031836286 0.10504753 -0.06576044
-0.17052239 -0.12638411 -0.001299317 -0.09638376
-0.12475424 0.17097236 -0.16773625 -0.06625153
-0.015666261 -0.097005725 -0.12750578 0.07392822
-0.06101814 0.008430425 -0.07030973 0.15640917
-0.023217635 -0.06220621 -0.071546234 -0.06468765
0.01912423 -0.20650387 -0.14727521 0.013938204
-0.14776807 0.064498305 -0.05145143 -0.20467328
0.12836646 0.018121382 -0.2576545 0.086877055
-0.13443959 0.11265099 -0.11541038 -0.07805584
-0.0043959306 0.056269217 -0.15265271 0.08372191
-0.10541415 0.120422445 -0.13078895 -0.010472877
-0.026464982 -0.03611219 0.033367723 -0.06837264
-0.16721646 0.10286117 0.0308705 0.11999377
-0.053625878 -0.032021873 -0.044710554 0.10405746
-0.08947579 -0.1354767 -0.07557955 0.03511633
0.0035876555 -0.021426205 -0.012860251 -0.033581737
-0.015910666 -0.119419895 0.06523036 0.11340753
-0.02664954 0.031293858 -0.13798375 -0.0006885757
0.043915797 -0.08891181 -0.16182587 0.059594
-0.15663901 -0.14852914 -0.06267675 -0.04650212
-0.036918472 -0.146882 0.11596128 0.055846427
0.16098489 -0.030402744 -0.111354105 -0.086552314
0.027144296 -0.052164506 -0.11876939 0.02875785
-0.036428455 -0.07102984 0.10008156 -0.20196041
-0.1546695 0.0031458926 0.0623768 -0.20434181
0.0014028767 -0.07053833 0.12409009 0.1482259
0.08095914 -0.005745337 -0.083843075 0.15537083
-0.08371512 -0.056396917 -0.035012662 -0.0068861065
0.0064488533 -0.10904035 0.15874605 0.09970517
-0.01641419 0.122925736 -0.16422468 0.006146008
-0.06635152 -0.03181544 0.05417533 -0.10855703
-0.02841806 0.026873432 -0.06321541 0.09872937
-0.07210172 0.06977536 0.014561491 -0.010660852
0.06389827 -0.10310405 -0.04854058 0.04593599
0.10212408 -0.040057182 -0.08877324 -0.068217605
-0.06366546 -0.16345924 -0.17445725 0.12641284
0.13189155 0.12950632 0.053831387 0.014231672
-0.11880585 -0.030821579 -0.14097793 -0.09261439
0.07682367 -0.21691786 -0.13745771 -0.039084874
-0.0147218155 0.16263044 0.031586736 -0.017164547
0.005391676 -0.042411134 0.054651223 0.037516855
0.1225208 -0.05972143 -0.07308831 0.05753387
0.09936958 -0.22000548 0.118013375 0.10869184
0.0001757901 0.068036206 0.10290177 -0.06389972
-0.106181525 -0.08603169 -0.14649941 0.13251929
-0.113978975 0.017715124 -0.031426556 -0.03082871
-0.12505034 -0.119039774 0.10387837 0.08052862
0.0052654366 -0.11249805 0.08952434 -0.1695816
-0.04026578 0.058046304 0.009087091 0.123548344
0.006472927 0.08285057 0.2138823 -0.17398569
-0.08007824 -0.0018316982 0.04469346 0.13972832
-0.006412601 -0.036575314 -0.02048354 -0.0643118
0.033375565 -0.16451435 -0.01110943 -0.17842363
0.1231726 0.11048297 -0.019596457 -0.029067064
-0.17527169 -0.2040209 -0.05219447 0.14608416
-0.09179387 0.123877846 -0.008771792 0.0750039
0.06472126 -0.024886312 -0.19736734 -0.016646175
-0.0038793483 -0.13260777 0.04930326 0.10570037
-0.047420867 -0.1484902 0.027728885 -8.7286404e-05
0.1175149 0.009695812 -0.14640848 -0.13377912
0.019267486 -0.16165963 -0.045734707 0.11346128
-0.13532479 0.0095131295 -0.06382711 0.09242573
0.0777927 -0.08450054 -0.04087716 -0.09631074
0.082271636 0.06732607 0.071653485 -0.019161154
-0.08346964 -0.14716502 -0.023743497 0.12734196
0.20116675 -0.11670969 -0.021011146 -0.010498686
0.118816525 0.07499634 -0.1183667 0.09922471
0.064033546 0.13793346 -0.18871646 -0.14224833
-0.054173682 -0.048405357 0.16303721 -0.013675122
-0.12364386 -0.10435536 -0.07708184 -0.05342769
0.0819848 -0.14198318 -0.00965505 0.061159827
-0.12835394 0.03733931 -0.038228046 0.021324895
-0.103617296 -0.057783738 -0.11304202 -0.13559903
0.03811942 0.08216153 0.05653306 0.010585351
-0.04583548 -0.23201364 -0.18210392 -0.08823002
-0.02774416 -0.0139993895 -0.20895754 -0.04626477
-0.025619969 -0.052359987 -0.049260907 -0.13986623
-0.1186292 0.14780344 -0.06318205 -0.1809309
-0.06972654 0.0464122 0.03380222 0.032767568
-0.16738927 0.15572712 0.08826674 -0.22742167
-0.0643538 -0.0098207025 0.1636686 -0.068046056
-0.079584494 -0.046783447 -0.039651748 0.0013954063
-0.053316873 0.037467573 -0.15311886 -0.034104228
-0.017493173 -0.026796792 0.17270818 0.056593783
-0.12870051 0.028897133 0.0025572253 -0.16639058
0.09229233 -0.050343476 -0.01631406 -0.07047163
0.0773705 -0.07053962 0.080432594 0.033762034
-0.15344727 -0.0140454415 0.101050064 -0.119590186
-0.12811787 0.015980696 -0.14827813 0.09532315
0.021794906 0.0296777 -0.070391424 0.122187965
0.07044069 -0.04665997 0.084493406 -0.09906932
0.041179616 0.054950885 0.07232772 -0.06681157
0.16439328 -0.09490798 0.027602633 0.025640419
0.04860607 -0.015669467 -0.0238497 0.13109626
-0.076537386 0.004730655 0.1343079 -0.06584897
-0.06670834 -0.013700595 0.008907232 0.072002076
-0.08807323 0.07042464 0.088603355 0.11259256
0.20678039 -0.026659584 -0.12475571 -0.14968872
-0.09329172 -0.061885543 -0.101793274 0.10101824
-0.14564775 -0.17214736 -0.08778196 0.02669222
-0.11721496 0.093327776 -0.07566263 -0.18494141
-0.12502712 -0.0005946815 0.13512968 0.11552278
-0.13360555 0.02803053 0.14459865 -0.011136484
-0.12762138 -0.031605877 -0.18089783 0.15403421
-0.0119475415 0.13973203 -0.054279722 -0.013169788
-0.15151392 -0.10261522 0.07814213 -0.05849779
0.044307873 -0.14053768 -0.09578351 -0.017136555
0.103440456 -0.13929611 -0.095457695 0.09999647
0.053499863 -0.08434645 0.05247003 -0.09409913
0.015491873 -0.035560705 -0.121192776 -0.09085719
0.08756266 -0.15681362 -0.1038264 -0.013041757
-0.13565284 -0.056321926 0.10854587 0.15123734
-0.11365879 -0.11734503 0.08799549 -0.12553294
-0.008611367 -0.01875931 0.093294404 0.0012442872
-0.1740956 0.041518655 -0.09652155 -0.06695792
0.0028339068 0.08222225 0.058820058 -0.099180445
0.029445002 0.17314169 0.12693109 -0.054918636
-0.029682498 -0.08342816 -0.14482738 0.13480344
-0.1490494 0.069455564 0.059039075 0.0010409177
-0.04082165 -0.040449232 0.1242544 0.005462902
-0.17774469 -0.12114304 -0.026117118 0.13154697
0.13875203 0.026913844 0.04438612 0.099233024
0.19325465 -0.014952922 0.045309573 -0.14248495
0.13740358 0.016659003 -0.17540833 0.047982376
-0.03401616 -0.09944765 -0.19419383 0.049920443
0.040714204 -0.049121328 -0.033905126 -0.10174666
-0.117668636 -0.08491536 -0.13259056 -0.005423354
-0.16273011 -0.03392441 0.08287996 0.0988138
-0.20208518 -0.1833089 -0.15870702 -0.13737158
0.10807413 0.096718036 0.09871812 0.10304663
-0.074238166 -0.0071873 -0.028853036 0.1302341
0.020188356 0.038436305 -0.02084049 0.036874656
0.057079617 0.069943085 0.060341537 0.086700864
-0.17490071 -0.019329188 -0.053990588 -0.064357564
-0.0018284747 -0.11529311 0.12031012 -0.17784345
-0.048607185 0.102384314 -0.03065955 -0.070530556
-0.042296875 -0.030730473 0.0047667497 0.07651331
0.12732355 -0.01750993 -0.012957724 -0.051932696
0.13992302 -0.18191612 -0.11789079 0.01929377
0.09079191 -0.12854809 0.050115094 -0.0631071
0.04189994 0.13793719 -0.10058612 -0.11538114
0.035736933 -0.15796018 -0.1383032 0.032226764
0.010646019 -0.051103976 0.013798903 -0.14733016
0.036140792 0.061889447 0.117149234 -0.05442574
0.116541825 -0.104283646 0.02267338 -0.09767861
-0.11012969 -0.09818631 -0.026916813 0.032634817
0.04428357 0.09731662 -0.034050517 0.09028677
-0.16425326 -0.014393481 0.19300589 0.07763325
-0.07712336 0.18234335 -0.06735965 -0.044259716
-0.19122279 0.068351716 -0.18812777 -0.074000195
-0.00085597864 0.10250906 -0.0029724468 -0.11769588
0.030653786 0.0015268679 0.1534012 -0.10009134
0.16066387 -0.13916376 0.08836638 -0.11827623
-0.14744167 -0.037836805 0.087967485 -0.059758723
0.07143876 -0.1480862 -0.008182292 -0.15925607
-0.024052821 0.065945774 0.055370744 -0.018989477
0.1987366 0.04767879 -0.15056644 -0.05920197
-0.12913808 -0.026792621 -0.11316222 -0.06816947
-0.10494674 -0.15609668 0.078732066 0.10049383
0.0484655 0.03711213 0.0031887724 -0.048691712
0.08458468 -0.13022056 0.082591735 -0.0014913937
0.06667553 0.0142210545 0.059537742 -0.094871596
0.07359855 -0.17662854 0.05338677 0.11081242
-0.0761936 -0.2294156 -0.1970891 -0.12946074
0.11156341 -0.04336193 0.06493968 0.07133214
0.045487657 0.090260975 0.09304053 -0.07837118
-0.11743358 0.00788605 0.011504848 -0.0200965
0.08651476 0.1316899 -0.13107233 -0.099245094
0.12179017 -0.057765443 0.033648033 0.08618841
-0.10037489 0.023354687 -0.04094622 -0.1257785
-0.054832872 -0.12335386 -0.0066212444 0.020122595
0.037118707 0.121013455 -0.09077983 -0.0010395731
-0.06151768 -0.087815635 0.09516554 0.13242757
0.023930311 0.03389214 -0.08061366 -0.11876498
-0.14195827 -0.09007416 -0.08379332 0.11376306
0.016226629 -0.26866272 0.12146707 -0.1344376
0.1423532 -0.033509407 -0.10826298 -0.17667563
0.07720174 -0.14166772 -0.1355774 -0.12310873
0.09791992 0.10269868 -0.073224075 0.016346972
0.0017393031 0.06749749 -0.0017065877 -0.11928315
-0.12303316 0.024384841 0.00927957 -0.15729456
-0.08428603 0.09948246 0.007118538 -0.076945186
0.048802745 0.074415654 0.03244346 0.048884485
-0.14714761 -0.21773589 0.094373025 -0.07258409
-0.22791469 0.12527274 0.024505904 -0.04086961
-0.09854099 -0.13472871 -0.1382739 -0.06810395
0.17803043 0.073112756 -0.2967185 -0.17061824
0.20909506 -0.13561933 -0.12250412 -0.019269418
-0.023526542 0.07661948 -0.048423357 -0.03132597
0.104596876 -0.011694564 0.010207197 0.009755395
-0.09939682 -0.12574734 -0.15492067 0.037392877
-0.17464662 -0.07865045 -0.04420942 -0.14063431
-0.1370562 -0.10243215 -0.047814492 -0.15653968
0.04852104 -0.098413184 -0.07840515 -0.13056755
-0.095104255 0.058407187 0.10330671 0.09286248
0.086513095 0.09057305 -0.07542592 0.08918482
0.03408582 0.109030835 0.12368543 -0.15854947
-0.1641326 0.005050574 -0.09290064 0.12878524
0.07091407 0.062323794 -0.08759656 0.09296131
-0.13590987 -0.03776512 0.14892076 -0.015382171
0.02058352 0.06917731 0.0039067846 -0.04974943
-0.034052916 -0.036066413 0.028327795 -0.065136716
0.09156824 -0.20222929 -0.028559254 -0.02031013
-0.111444734 0.10443429 -0.07949887 0.035373565
0.009486403 -0.11865187 -0.18352327 0.008546778
-0.15675533 -0.037777834 -0.07934615 0.02126554
-0.121463805 0.056547917 -0.12689042 -0.053067118
0.053714756 0.094805986 0.1747995 0.0014091098
0.039359532 0.040103555 -0.030982593 -0.0021692754
0.12889461 0.032533515 0.15215048 0.14770372
-0.05042159 -0.034808375 -0.008476319 -0.14373685
-0.0873145 0.0121145025 0.048646815 0.019830903
0.14049661 -0.057991546 -0.09456033 0.077388056
-0.078434564 -0.097910136 -0.18892068 0.08993168
0.0023342886 0.09068588 -0.13896301 -0.08898274
-0.07290655 0.14176507 0.06758902 0.040788382
-0.120427676 0.105603054 -0.15009232 0.15501758
-0.090808935 -0.11424443 -0.10929061 -0.08292948
0.021433238 0.06474849 -0.0026031672 -4.3457316e-05
-0.008044099 0.09435843 0.07679872 0.06581936
-0.091844425 -0.13954006 0.029911391 0.05193308
0.092977986 0.045189224 0.016969582 0.13268524
0.0028289708 -0.047748737 -0.008324754 0.13151126
0.16640209 -0.024766073 -0.24872732 0.019030374
0.064523794 0.08764308 0.1626873 -0.0187901
-0.06470791 -0.097711995 -0.23361832 -0.14387295
-0.09903685 0.1048152 -0.0632853 0.06655691
0.057887297 -0.18898281 0.122099206 -0.025707478
-0.11805534 -0.16351579 -0.01298334 -0.18126997
0.05226096 -0.19328116 -0.04656671 -0.044361256
-0.18134642 0.05059877 0.01312286 0.14425328
0.029361194 -0.012416076 -0.01751499 -0.17253835
-0.089902 0.12452841 -0.06044296 0.022316046
-0.032356996 -0.1297853 0.05166354 0.07330031
-0.15186907 -0.10267536 -0.055815335 -0.048580326
0.062436823 -0.020218417 -0.030535609 0.14703235
-0.09460637 -0.027324744 0.03747341 0.022124864
-0.036280375 0.09241525 -0.051268842 -0.12337933
0.056306545 0.104865715 -0.067038104 0.080010936
0.103005886 -0.22047698 0.1336585 -0.022507317
0.18065448 0.030848064 -0.30263028 0.04013155
0.077637754 -0.11313812 -0.013603417 0.040700745
-0.157306 -0.0117444955 0.003372856 -0.0022593797
0.10596035 -0.08124896 0.065267526 0.075387016
0.07442136 -0.027573423 -0.007228584 0.03921617
-0.1233717 -0.10395586 -0.08360464 0.121299304
-0.17240122 0.08949687 -0.1628364 -0.20059878
-0.20563914 0.005108585 0.08807696 0.16049863
-0.06810892 -0.106337205 0.07405397 0.11867839
0.12109309 0.07588357 0.063086994 0.05174575
0.09991333 -0.16449544 0.044019464 -0.0946835
0.112099685 -0.021235444 -0.18068568 -0.1153461
0.06666899 0.07736261 -0.05300328 0.03445948
-0.07943088 -0.14557734 0.08465761 -0.1602736
0.033667207 0.03949063 0.101808034 -0.044922862
-0.1200843 -0.15869462 0.05727584 -0.013825236
-0.058278944 -0.1504332 -0.04860031 -0.023676906
0.12306826 -0.06432187 -0.20335355 0.10249207
-0.13083623 -0.02171107 0.09267928 0.027380526
-0.09369365 0.042247895 0.07092726 -0.023654126
0.0706372 0.07247538 -0.016043486 0.047908846
-0.034140415 0.15264425 0.035883363 0.07622504
-0.067542 0.080071226 -0.16765524 0.15614498
0.053436715 -0.055075075 0.014682963 -0.092132226
0.03903505 -0.073210664 0.096910715 0.054154284
0.030101398 0.062538646 -0.09488059 -0.040172536
0.07496442 0.13001044 0.00018214632 -0.19026554
0.02505932 0.018845465 -0.12398027 -0.14252964
-0.1511344 0.10770087 0.11508493 -0.010249522
-0.16236185 -0.023786716 0.0040288544 -0.09255249
-0.12571904 -0.07656495 -0.083167695 -0.070682794
-0.17826255 0.020462988 0.099219024 0.0562582
0.029509682 0.032326348 0.0011667737 -0.11362604
0.100226276 -0.13262813 0.08459403 0.07283141
-0.01682933 0.000779125 -0.05050936 -0.028507698
0.021775765 0.02517986 -0.096623376 0.052400373
-0.20023532 0.06566412 0.12111584 -0.1216801
-0.039159425 -0.09761461 0.049501855 -0.15999241
-0.018450888 -0.03487627 -0.04146566 0.03171962
0.10318598 0.069014415 -0.16524987 -0.030074961
0.072099105 -0.1412465 0.057358976 0.0331366
-0.012219218 -0.17617337 -0.059784915 -0.13364981
0.049880404 0.14242075 -0.05482529 -0.13002552
-0.1565935 0.046675608 -0.12692045 0.10682323
-0.026638877 -0.1409439 -0.03735601 0.1360329
-0.015155671 -0.17772983 0.08539139 0.06370393
-0.0015175882 -0.042637613 0.1644172 0.11373612
0.14297733 0.069511645 -0.27672154 -0.08375747
-0.078624524 -0.22608037 0.17970341 0.06373854
0.19779554 0.076812066 -0.0853466 0.1550604
0.10399756 0.10229519 -0.060830195 0.09385203
-0.10407797 0.04396494 -0.18836422 0.10441522
-0.014502472 -0.031130131 -0.13400492 -0.08602822
-0.08600876 -0.07831139 0.071786255 0.01896953
0.1616273 -0.13014896 -0.04554772 -0.15481639
0.029352939 0.07901901 0.0046588993 -0.15983284
-0.11019406 0.19315307 -0.15801424 -0.012636774
0.105382964 0.02432128 -0.15900075 -0.0056407107
-0.005777796 -0.12794457 -0.07567803 -0.0823659
0.004015642 0.083446674 0.04871366 -0.05483383
0.06641462 -0.08725288 -0.032352004 -0.13084376
-0.19927813 0.13978401 -0.09055836 -0.056779645
-0.046343606 0.051587112 0.009040401 -0.06515322
-0.20732395 -0.024571503 0.033460557 -0.10651721
0.07823781 -0.106673315 0.19997576 0.09321256
-0.20074287 -0.09941374 0.03343214 0.08757847
0.04215775 0.055215523 -0.085509256 -0.11506629
-0.05703466 0.03948069 0.12926067 0.059129495
0.1476888 -0.03125834 -0.10720969 0.005429293
-0.0039658383 0.14610817 0.01330059 -0.03656055
-0.21893005 -0.090137176 0.103298075 -0.061352335
0.02781009 -0.041311793 0.15294531 -0.0901496
0.12510648 -0.18437256 -0.051833834 -0.028763648
-0.026265204 -0.15099895 0.10628057 0.0622625
-0.015622019 -0.14023013 0.13679361 -0.01108688
0.15024891 -0.14507915 -0.07933101 -0.11156
0.1340144 -0.14473751 0.1641311 0.14029261
0.020810066 0.057541225 -0.067988515 -0.015544094
0.038746364 -0.09751711 0.14516781 0.113115266
-0.037983507 0.10945226 0.23683286 0.04920419
-0.18029918 -0.17032014 -0.2437974 -0.061607573
0.08936164 0.17455195 -0.21179609 0.105032764
-0.14520633 -0.032470234 0.071222275 -0.0025551452
0.004763021 0.17567278 -0.012452908 0.05617428
-0.059441615 -0.052352406 -0.034237813 -0.21570548
0.073368415 -0.16659729 -0.064704314 -0.08424233
0.2545811 0.040650178 0.18065684 -0.09797451
-0.28822243 -0.019599227 -0.052486427 -0.11322895
-0.027170107 0.10603714 -0.06368476 -0.19707425
0.07575858 0.040151607 -0.1784505 0.08624634
-0.16354348 0.035496783 0.036558107 -0.05978625
-0.13407256 0.007756097 -0.04183659 -0.07499337
0.1963154 0.12029776 -0.11185877 0.05626855
0.025842713 0.033263057 0.14282092 0.022609146
0.103076026 0.056264766 0.065030746 0.09399392
0.19686607 0.13358228 -0.042080987 0.03700783
0.064511076 -0.12390714 0.0962482 0.11761458
-0.06548977 0.089155726 0.039874006 -0.14181711
0.1223078 -0.15811037 0.19909689 0.06374424
-0.114930965 -0.1618298 0.18126033 -0.025032535
-0.04047108 0.087055735 -0.20535438 0.07829632
0.13698715 -0.15359564 -0.030350134 0.112149864
-0.03200789 -0.101627976 0.064571 0.0063575315
-0.024318174 0.04494655 0.067808196 -0.03900865
0.019475218 -0.08910887 -0.019656943 -0.030553315
-0.053132128 -0.091383986 0.014124964 0.08100748
0.08982214 0.14696012 0.11794569 -0.0015152656
0.06352217 0.026620317 -0.021299904 -0.077371955
0.10859234 0.20308663 0.21361957 -0.084955454
0.07968 0.046000015 0.118786074 0.055064775
-0.10397045 -0.029437566 0.015476571 -0.1655919
0.27064756 -0.14828625 0.02352644 0.014637321
-0.14575364 -0.19409393 0.19872907 0.13228841
0.15076727 -0.03861003 0.066738866 0.10777635
0.0045765056 0.07688358 0.038538314 -0.048632544
0.087638944 0.13013802 -0.12984954 -0.019644832
-0.09298302 0.13219331 -0.09338673 0.05821389
-0.0006798462 -0.0029903392 0.10665063 -0.047252923
0.03137413 0.016365292 -0.10093341 -0.23278816
0.12222063 0.029080885 0.04348746 0.065758824
-0.027368663 -0.045304812 -0.22826026 0.03433324
0.046164483 -0.103937864 -0.077079564 -0.08108637
-0.024322903 0.14527217 -0.050294653 0.016616268
-0.03158253 -0.13833977 -0.18427768 0.13105612
-0.0036506657 -0.043450493 -0.18702108 -0.15487784
-0.1811181 0.22284472 0.13426678 -0.041573998
0.083732225 0.011787792 -0.1259929 -0.015013542
-0.0707544 0.046966918 0.0178909 -0.17994079
0.0008112702 -0.014557166 0.08773537 0.08484798
0.028689424 0.0964997 -0.20747964 0.10953029
-0.0020263495 -0.053173237 0.014135998 -0.0282643
-0.040324513 0.03644988 0.009758518 0.048510704
-0.029767219 -0.0141111985 -0.066276886 -0.029068418
0.17436266 0.0024129031 0.060144767 -0.15075998
0.03678275 -0.040482115 0.091794945 0.0651652
-0.120482266 -0.079542674 -0.0024449953 -0.12972602
0.13232662 -0.12060776 -0.09948214 -0.23727337
0.17031506 0.08593835 0.15629125 0.059800114
0.10205434 -0.09422671 -0.0026872952 0.018895984
-0.12246034 0.104682475 0.05947357 -0.07561889
0.074291475 0.007156793 0.0874854 0.015465101
-0.13628589 -0.088267185 -0.14138551 -0.004527449
-0.11004345 0.02318553 0.060148966 -0.042587303
0.004702023 -0.02995795 -0.0053867274 -0.08773669
0.04576418 0.03529147 0.11195629 -0.11994341
0.006705674 0.07262546 -0.08034087 -0.098092854
0.038524497 0.110386446 -0.10553742 -0.19765013
-0.0329906 -0.077231616 0.07918405 -0.11485464
0.09946583 -0.16134544 -0.019223955 0.068942696
0.047076624 0.108251005 0.012306248 -0.15748593
-0.078371696 -0.17102695 -0.05812059 0.055129137
0.12002643 -0.024481008 0.017761935 -0.07900357
-0.07630608 0.11088716 0.06358696 0.085762374
0.036397208 0.07376783 -0.03621905 0.05986951
0.03344133 0.11021863 -0.009002594 -0.25048035
0.0139486 -0.026841221 -0.0561713 -0.09719145
0.0015875904 0.07176585 0.102238856 -0.08494146
0.006804757 -0.028761659 -0.10255169 0.0046850466
-0.03702063 -0.08312876 0.04143977 -0.07381703
-0.11997376 0.11532649 -0.033267323 0.08052953
-0.01425505 -0.1342998 0.07494569 -0.073133186
0.10342079 0.10702571 -0.107879676 -0.07334415
-0.1521523 -0.048202578 0.09734589 -0.13059364
-0.06468447 -0.037068985 0.087460116 0.08300438
-0.17540702 -0.105390415 -0.032352153 -0.029575076
0.05801194 0.12211234 0.08918343 -0.16785194
-0.053211074 0.024203833 0.119907536 0.1064653
0.14931804 0.08787891 -0.03814097 0.02363246
0.04701749 -0.016863585 -0.0063611534 -0.14992516
-0.013252832 -0.03876192 -0.052820068 0.12334971
-0.13231194 0.023837633 -0.1097107 0.009960116
0.048800502 -0.04340021 0.07945357 0.0037602745
-0.079902686 -0.109540135 -0.15346374 0.111350365
0.07254588 0.049646426 -0.07911335 -0.10930403
0.1057957 -0.029461963 -0.023593651 0.008356322
-0.08281745 -0.07884196 -0.08880512 0.12648758
-0.10475955 -0.101249546 -0.09362917 -0.19329256
0.14902726 -0.1809179 -0.15851003 -0.0602335
0.043867685 -0.118668914 -0.023092393 0.07568421
0.05498314 -0.08286028 -0.19506799 -0.08073179
-0.035743523 -0.17280656 0.10253124 -0.066081874
-0.15138419 0.07209542 0.06420091 0.14542475
-0.045632713 0.1494381 0.11914415 -0.12624961
0.12841633 0.103320755 -0.108236894 0.1267829
0.053000618 0.14886087 0.14700113 0.12099571
-0.08832503 -0.08003346 0.005039915 -0.048547328
0.11064048 -0.1715681 -0.13924539 0.0058614356
-0.10955582 -0.08068108 -0.01036618 0.00990499
0.08377894 0.026408024 -0.03753322 0.09645357
-0.017992897 0.020438945 0.10373518 0.074381076
0.032582868 0.054401126 0.10080036 -0.057573922
-0.001343194 -0.14481835 0.055717222 -0.02865698
0.12631254 -0.12069595 -0.19951165 -0.01279876
0.022799805 -0.018757593 0.12232321 0.055317033
0.07471644 0.08210149 -0.00029613543 0.11455169
0.023407912 0.09869423 0.074348666 0.10092345
0.12371107 0.14115472 -0.02616921 0.013125439
-0.052609306 0.110691965 0.03770413 0.08631641
-0.07061439 0.13144884 -0.10400804 -0.0038392502
-0.06999267 -0.20683101 0.016416369 0.19937952
0.03823526 -0.06996066 -0.040482175 -0.031060858
0.13741483 -0.106062055 -0.09328028 -0.18456458
0.0705258 -0.00798079 -0.27836877 0.05889091
-0.010059279 -0.020768568 0.0016272232 0.0821472
0.019207086 0.13166313 -0.030240145 -0.17850256
0.089205705 0.056002434 -0.018228676 0.016680023
-0.09250541 0.059715524 0.10547691 -0.14372498
-0.016648619 -0.031086033 0.07975608 -0.026450343
-0.1183785 -0.087771066 -0.041462496 0.07441707
-0.1302886 -0.010003383 -0.2893011 -0.17304699
0.010590063 0.03890098 -0.025036614 -0.13458163
0.10692221 0.16729283 0.13934164 -0.09148789
-0.002495081 -0.047424283 0.070685394 -0.19199313
0.13241854 -0.20900498 0.12676805 0.09031902
0.10572168 -0.085607804 -0.093502715 0.00795455
-0.16596414 -0.11490711 0.080058835 -0.09459745
-0.0693263 -0.107306704 0.107075125 -0.16048081
0.122186996 0.025409644 -0.25529292 -0.050770346
-0.2598295 0.15013659 -0.12800026 0.14527859
0.07052709 0.12324521 0.083358705 -0.20224056
0.15487017 -0.0062664594 -0.040531307 3.473391e-05
0.0051739453 0.14714222 -0.07565891 -0.09096442
0.012321149 0.055130735 -0.13110004 -0.116353534
0.20908985 -0.030295229 0.034793086 -0.031353384
0.1563077 0.11627112 -0.09481353 -0.11301654
-0.21249205 -0.10348119 0.08403996 -0.2584966
0.1525232 0.06464992 0.21220124 -0.034349415
0.03486301 -0.08152614 -0.1388063 -0.07753417
0.009628612 -0.22279081 -0.0706214 -0.0595792
0.04736247 -0.10526667 0.16597274 -0.026262324
-0.16101108 0.060769185 -0.08152556 0.13320468
0.08943408 0.011714512 0.1482414 0.0051556607
0.12985532 -0.16293524 0.03258283 -0.17293201
-0.095790535 0.051003274 0.12792124 -0.06269928
0.083882384 0.10076618 -0.21993044 -0.018403681
0.009761999 0.06765867 0.092855655 -0.076640524
0.09384064 -0.013740474 0.049102344 0.07573037
-0.14956565 -0.07178108 -0.116659 0.10149595
-0.08547071 0.012202847 0.046021294 0.00021827323
-0.064388596 0.058807995 0.048877794 -0.049170658
-0.083216034 -0.026683614 -0.033003855 -0.056642115
0.05792841 0.035064727 -0.1391779 -0.17819224
0.014218328 -0.07108976 -0.149711 -0.114974074
0.061471663 -0.08630596 0.023520064 0.06269262
-0.047144573 0.037164006 0.03855768 0.12175029
0.105422705 0.07848513 0.066345505 0.008663949
-0.10377545 0.03700209 -0.21896361 0.13052177
0.12869714 -0.017056745 -0.039720584 -0.017794052
0.04372988 -0.16860208 0.10758097 0.13761216
-0.0589239 -0.04786125 0.13461077 0.09054443
0.056740347 0.012149364 -0.06555495 0.13395272
0.024125218 0.111763716 0.024779314 0.027775204
-0.032754164 -0.120541774 -0.035295676 0.012668496
0.06626561 -0.017568255 -0.11977625 0.0055285576
0.13456787 -0.11653789 -0.032800667 0.013213739
-0.090095915 -0.08013455 -0.088904895 -0.12578624
-0.026592547 0.030502303 -0.12576918 -0.08703465
-0.091555096 0.038591295 0.008990458 -0.08815952
0.0685047 0.011892857 -0.18897057 0.14881216
-0.14594778 0.11664686 -0.019026553 -0.12989496
-0.08606704 -0.07875978 -0.07774567 -0.14336732
-0.039262194 -0.07903177 -0.06353537 0.12505372
-0.029792989 -0.10888938 -0.112259716 -0.04644845
0.084186636 -0.008184586 0.10091432 0.09007821
-0.030881334 0.11758754 0.11881273 0.1289649
0.08463437 0.14724915 -0.09714848 0.12219986
0.11824111 0.023197675 0.07702828 -0.15406114
0.11677174 -0.14823423 -0.09163684 0.1351052
-0.0024657752 0.12219542 0.0027072167 -0.028250229
-0.078949906 -0.043564457 -0.14340776 -0.048068866
0.07268504 0.07005746 0.16909868 0.017494978
0.1769072 -0.13843113 -0.12119219 -0.099037044
0.044817723 -0.041192465 0.05502609 0.007246185
0.011461539 -0.052510306 -0.16061953 -0.07153525
-0.059836525 0.08709016 -0.015551433 -0.17583634
0.08551556 0.053514905 0.026083829 -0.13131906
0.16398619 -0.020861983 0.016914148 -0.018614432
-0.059206896 0.07010967 -0.08639277 -0.056689523
-0.08687622 0.048432637 0.13948496 -0.15735742
-0.15985167 -0.027577953 0.11775994 0.04969632
-0.105553836 0.055967104 0.09932289 -0.12987809
-0.013727179 -0.034865282 -0.10829501 -0.0225218
-0.20966789 -0.0479394 0.041760564 0.03783386
-0.10806382 -0.057894226 0.07488292 0.087717436
0.036534887 -0.044014957 -0.019019516 0.13378549
0.17852348 -0.11940267 0.058380034 -0.003553265
-0.027208908 0.096281745 -0.121588066 -0.15462759
0.24180314 0.08773215 0.032088116 -0.09126871
-0.17240989 -0.08419181 -0.06348117 -0.05794889
0.12810875 0.054233007 0.10751939 -0.10386422
0.0016812929 0.060746796 0.0063438136 -0.15780938
-0.19109504 -0.08852663 0.1697199 -0.1796062
-0.043448042 0.013366568 -0.10279727 0.05009404
0.020323457 0.028137213 0.022306565 0.04567566
0.08961064 -0.07753735 -0.11778781 0.047109213
0.13319038 -0.059509862 0.07702571 0.0040957527
0.028521897 0.09503978 -0.20081618 0.11253844
-0.03886022 0.18126984 -0.12338035 -0.09810294
0.028031684 -0.037793823 -0.13107023 -0.16300903
-0.075451076 0.14197448 0.04325714 -0.08735951
-0.1931748 0.07488347 0.04948749 0.04760424
-0.05882608 -0.13826062 0.07616268 0.033275068
0.042329688 -0.11150666 0.071789935 0.07566098
-0.07923899 0.028986027 -0.08953352 0.107002154
-0.13804871 0.002905346 -0.12060905 -0.097250596
-0.097645134 0.098456904 -0.09760864 -0.19454081
-0.19515312 -0.09851983 0.10375824 0.049032032
0.036480702 0.1393398 0.09265848 0.031934142
0.09587464 0.043909665 0.13432373 -0.08588972
0.044573933 -0.09769487 -0.09657879 -0.11082638
0.085974105 0.1690516 0.087525584 -0.13203695
0.05842458 -0.057796635 -0.15820357 -0.015632194
0.1319248 -0.13450256 -0.011833004 0.061896827
-0.022328733 0.029451083 0.13844886 0.13911575
-0.15976253 0.007297023 0.07130501 -0.092122
0.039254263 -0.11525272 0.13966791 -0.009612196
0.13355975 0.11616117 0.08916189 0.0014090254
0.09534284 0.024685 -0.0034092027 -0.20957753
-0.02178245 0.033880435 -0.01592571 -0.12248744
0.00938853 -0.058374647 -0.0158097 0.11234264
0.13612312 -0.04217627 0.13466948 0.11151927
-0.08610943 -0.03868776 -0.12075066 0.11566681
-0.06268766 0.03638509 0.09244199 -0.09677985
-0.14274302 -0.08722321 0.026543723 -0.010416154
-0.14777337 0.09912364 -0.029246815 0.05208303
0.036702827 -0.031223882 0.07148224 0.046456542
0.0050534206 0.068056785 0.12396388 -0.04601189
0.056250636 0.06943712 -0.05970686 0.0545401
0.0010992312 0.046817325 0.123871446 -0.14741829
0.11896648 0.14022358 -0.1345456 -0.017369252
-0.12221288 -0.10407527 -0.095860235 -0.1754082
0.09989471 -0.09713271 0.066437446 0.06506215
0.07246184 0.13693628 -0.007950958 0.14897974
