-0.26570597 -0.055053227 0.17884977 -0.30569154 0.113158725 -0.10780817 -0.058811605 -0.22545911 -0.011283935 0.23478921 0.14129686 0.19874811 -0.24574137 0.24926695 0.077575766 -0.11839813 0.15008307 -0.19510537 -0.010881924 -0.02580586 0.035789914 0.0017423948 -0.15122578 -0.22954567 -0.26625127 0.16042934 0.038448475 0.16524309 0.18023415 0.24987286 -0.21538949 -0.14517483
0.18184885 -0.0830133 -0.14746864 -0.22060081 0.013322855 -0.22860911 0.03662771 0.25215924 -0.26519835 -0.27482843 -0.16818283 0.07907189 0.28393152 0.111341834 0.30425262 -0.06311595 -0.14860164 -0.14898886 -0.12116616 0.16425334 0.09254381 0.0014666033 0.29216313 0.0016163082 0.20812775 0.2533728 -0.17604302 0.095374934 0.18955137 -0.07778533 0.3266517 -0.2783627
-0.30556703 0.19969496 0.14896445 0.06521657 0.25556192 -0.31556192 0.12999998 0.09654283 -0.17043471 0.2860941 -0.09388074 0.22561482 0.14528048 0.023405291 -0.28883517 -0.015610366 0.33243245 0.12656362 0.11814752 -0.24698812 0.25242567 0.27990502 -0.068166286 -0.00060435425 -0.154704 0.12732723 -0.27658108 0.117356494 -0.30847612 -0.25176057 0.00021148691 -0.06461585
-0.013722899 -0.21362625 0.035314888 0.20979767 0.17620383 -0.1300109 0.08426882 -0.0904019 -0.12885132 -0.23393646 -0.25218517 -0.19634123 -0.027325446 0.18505818 -0.21973616 0.26040584 0.08919782 0.2166177 0.032193393 0.059456162 -0.2882897 -0.09958024 0.16437949 0.019873224 -0.13363205 0.16178493 0.27023795 -0.3095571 -0.037269305 0.014713087 -0.13321546 0.26280624
-0.18516304 0.21382965 -0.14590095 0.08229572 0.12142597 0.03492952 0.05115857 0.033453353 -0.24821612 0.33811867 -0.012427514 -0.2763756 0.005967802 -0.19990739 -0.26596293 0.267976 0.17353746 0.07615615 0.25133693 -0.052402537 -0.33182874 0.24717659 -0.20205905 -0.32773957 0.053158324 -0.22146308 -0.317116 -0.3346008 -0.25215626 -0.084018044 0.14927498 -0.2282316
-0.25979638 0.18446557 -0.08752374 -0.1376939 -0.12092281 0.09417595 0.22886936 -0.24504575 0.20185141 0.26281366 0.17865 0.13515745 0.23872414 -0.18573853 -0.13500588 -0.10180189 0.0976816 -0.21908335 0.0852652 -0.096749924 -0.055060294 -0.16196953 -0.13146943 0.109616175 0.10752097 -0.2711663 -0.11648501 -0.19873029 0.18636079 -0.24466406 0.0076788156 0.0066122008
0.0072693788 0.19888821 0.11378959 0.27855664 -0.034464207 0.16587403 -0.14746699 -0.25908118 0.09940065 -0.057535116 -0.2721025 -0.14370695 -0.050471865 0.30683538 -0.037290405 -0.040596317 -0.113709934 0.0955551 0.20033062 -0.2879207 -0.06396647 -0.22266658 -0.06785238 0.083693646 -0.27885613 -0.21803564 0.1979529 -0.14271443 -0.08526509 0.05841011 0.07887054 0.28411514
0.12903051 0.32596478 0.33412653 -0.11958258 -0.09312035 0.18905802 0.095303334 -0.14286989 0.023980716 -0.06737654 -0.23699595 -0.19634497 -0.21444128 0.15090269 -0.23122925 -0.09795528 -0.065879874 -0.06256455 0.18563183 -0.1762965 0.16322827 -0.10005733 -0.043219656 -0.021066811 0.008295305 -0.049187943 -0.07133143 0.07811707 -0.050313555 -0.29247501 0.019377343 -0.12033645
-0.017150313 -0.075252764 0.26245087 -0.058239803 0.103647254 -0.036763087 -0.21348767 -0.2163345 0.2256676 -0.14305694 -0.29082054 -0.23494077 0.23219603 0.053587254 -0.01132064 0.0096007185 0.18023387 -0.30964476 -0.19458431 -0.099302866 -0.024443503 0.24470596 -0.27752063 0.14118649 -0.07110965 0.095784895 -0.028452108 0.14845021 -0.06591715 -0.3126517 0.0476062 0.07131728
-0.26310402 0.18125825 0.05196481 -0.297612 -0.25421086 0.04492983 0.19805221 0.058975965 -0.02124641 0.14391248 0.08400092 -0.19275916 -0.22240022 -0.11324469 0.16670004 0.042212907 0.12345061 0.26981464 0.1941644 -0.18301874 0.07415067 -0.048676006 0.0033044862 -0.0879247 -0.21501318 0.2112512 0.17700891 -0.25790593 -0.21195212 0.04023341 0.1878852 -0.2177797
0.1809456 0.17605075 0.0070424597 -0.27950653 -0.09422192 0.12036981 -0.10753688 0.124322355 0.286916 0.06345345 -0.28847563 -0.27815092 0.008751016 0.0957905 -0.018299269 -0.181336 -0.03499325 0.2303802 0.14285171 -0.0505118 0.099766225 -0.12087562 -0.22074756 0.039312374 0.18911219 -0.03459518 -0.076374695 -0.20337991 -0.19735245 -0.14863141 -0.033510033 -0.0697404
-0.062145125 0.039106574 0.10878317 0.19702838 -0.2342562 0.027739074 -0.0543145 0.15912093 0.00915136 -0.09659915 0.037051536 -0.13559599 0.08406514 0.033728886 0.04326837 0.2818907 -0.09465064 0.11442275 -0.068047576 -0.2949314 0.24309419 -0.1616884 0.09100906 0.20758085 -0.012199413 -0.20647581 -0.16702172 -0.013785278 0.008212462 0.018194595 -0.17568101 0.10448689
-0.19062963 0.14130291 0.09053047 0.05951841 0.23932537 0.005760561 0.04564227 -0.021699876 -0.12048825 -0.20808212 -0.05388972 -0.065226614 0.16465591 -0.033471532 -0.12911525 0.21863435 -0.19838709 -0.1425004 0.27617702 0.12740688 0.20506729 0.23201346 0.14287972 -0.23819955 0.016750565 -0.22748877 0.04212652 0.06681169 0.12766464 0.14803758 0.1477404 -0.20358144
0.10796576 -0.10738786 -0.024004865 0.1545332 -0.18712437 0.13454178 -0.005228079 -0.105987266 0.1037079 -0.31448323 -0.038039714 -0.16214953 0.30147922 0.07379974 -0.09507626 -0.23435423 -0.05461622 -0.18853147 -0.253096 0.107050195 -0.19852334 -0.078021154 0.13654354 0.05446826 0.3338456 0.23163727 -0.06900575 0.14850163 0.2625176 0.32010704 0.125209 -0.21187219
-0.15614893 0.15999016 -0.30427143 -0.18813507 0.20818108 -0.09839766 -0.20621538 -0.15077783 0.24333742 -0.15977943 0.17802235 -0.15689304 0.019119188 -0.032851033 0.24047996 -0.21950628 0.106564365 0.056622896 -0.026280617 -0.10236417 -0.18549488 0.1804737 0.18992649 0.2699905 0.28145486 0.2268633 0.15175954 0.22568102 0.16061942 -0.15346658 -0.08406336 0.15547037
0.23309037 -0.18050992 -0.024735019 -0.2887482 -0.06447862 -0.042809356 0.33855885 0.35354966 0.30917716 0.02395921 0.25171417 0.006332164 0.00447197 -0.06520209 0.01720186 -0.3333242 0.017546419 -0.19763978 -0.3422893 0.30775017 -0.10368737 0.002709612 0.3245611 -0.17620635 0.032510273 0.28324795 0.14173986 -0.061708104 0.13277896 0.24620222 -0.15493281 0.08053326
-0.1206459 0.18910064 -0.14287183 0.045636754 0.10767051 0.1499387 -0.14978576 -0.049469914 -0.17888647 0.056991592 -0.065625116 0.088820085 -0.2634353 0.12006367 0.009303561 0.3829568 0.32730564 -0.2954153 0.29981977 -0.08327972 0.06589425 -0.12264024 -0.1885414 -0.25136563 0.08980584 -0.29193377 0.0874706 0.15785088 0.018163342 -0.26014942 -0.09989676 0.3363268
0.11628908 0.054466926 0.036668837 0.28403676 0.2628787 0.27881682 0.07642833 -0.020270275 -0.09834518 0.024658944 0.11757046 -0.090654925 -0.033350617 -0.013739397 -0.16154854 0.13947706 0.13737139 -0.060543902 0.3527862 -0.20059684 -0.22124682 -0.15674065 -0.25632083 -0.20944309 -0.30592746 -0.27056825 -0.18757495 -0.3355047 -0.16293558 -0.07229927 -0.31634146 0.28974018
0.17515627 0.13144378 0.07659719 -0.13895032 0.041306827 -0.20481269 0.21404743 0.22701873 -0.15483199 -0.06742396 -0.025629103 0.0028828273 0.10272163 -0.050426442 0.099247575 0.3316577 0.1239164 -0.03848651 0.24709852 0.17545271 -0.12996182 0.09765811 0.06821316 -0.14656752 0.24053586 -0.25369024 0.05622949 -0.26026994 -0.08647344 0.14189714 -0.014674847 0.18504009
0.15239245 0.045198496 -0.04321928 0.071159765 0.10635581 -0.23114008 -0.01562183 -0.3567185 -0.31061593 -0.0508811 -0.28123537 0.074926496 0.06415622 -0.17577884 0.15909244 -0.16817574 0.2378595 -0.06367115 0.0180735 -0.2234668 -0.11227145 0.12431461 -0.18170337 -0.19000277 0.059261225 -0.14004 0.02948884 0.15431808 -0.33614218 -0.24523042 0.03223371 -0.16474967
0.07345618 -0.23902924 -0.011324551 0.0014975881 0.098216385 -0.21491633 0.019404687 0.2198456 0.0930181 0.02830858 0.23124698 -0.046238717 -0.1475192 0.01891304 -0.15633756 -0.18222538 -0.024251863 0.33270475 -0.027316999 0.24879806 -0.048185997 0.021039682 0.20254582 0.405136 0.24553543 0.031162864 -0.14626947 0.25610042 0.22864966 0.2636601 0.11101184 -0.045316942
0.15976219 -0.03749035 -0.23568614 0.09458757 -0.24776123 -0.12610725 -0.259613 0.22559239 -0.1333466 -0.0034804451 -0.08833996 0.06793451 -0.22437756 -0.12313622 0.25318938 -0.13256198 -0.23631303 -0.031801254 -0.12013924 -0.04088057 -0.26451236 -0.142328 0.17391177 0.032373603 0.08290199 0.044390522 -0.051668663 0.11964908 -0.028645853 -0.22711763 -0.19152242 0.09495342
-0.1963849 -0.060082417 -0.23658411 -0.038880527 0.015438385 0.07796985 0.19470528 0.10477586 0.07988588 -0.18763492 -0.05759539 -0.03574888 0.061163813 -0.27223724 0.22694954 0.023341753 -0.20328131 -0.07722167 0.0496478 0.17869341 0.32178867 -0.01594241 0.23169014 0.13848928 0.15639855 0.13469571 0.15518926 0.2567254 0.045279738 0.1323871 0.20134957 -0.070289515
0.31532133 -0.047983482 0.16083461 0.121631265 0.09551827 0.016819594 0.06997751 -0.1881524 -0.24880606 0.0036346547 -0.16011043 -0.13263166 0.22971624 -0.109789394 0.25374418 -0.38021255 0.015441135 0.24356526 -0.26537347 0.031346165 -0.15343875 -0.28328013 0.09394638 0.09363077 0.06925193 0.3480766 0.24083698 -0.16877818 0.13071579 0.29834235 0.05798915 -0.18386404
-0.020567467 0.2881001 0.29356948 0.09063496 0.2176593 0.052318882 -0.2950472 -0.21188973 -0.22901729 0.03905065 0.008628805 -0.013338818 -0.19950923 0.42270505 -0.2771544 0.3182863 0.30869147 -0.09726247 0.314284 -0.22996657 -0.14854209 -0.1678795 -0.11388857 -0.29969293 -0.29242694 -0.26038516 -0.055373807 -0.040688418 -0.077737756 0.025231093 -0.28553945 -0.024898551
0.08506154 -0.10302633 -0.1017201 -0.093072295 0.15786839 -0.07757764 -0.04721276 -0.16502811 0.31973922 -0.1868999 0.30419374 0.1288423 0.27397382 -0.24331735 -0.12539071 -0.047111273 -0.2879012 -0.06488919 -0.15017565 -0.104278184 -0.06388775 0.060053866 0.16746327 0.3326836 0.1825141 0.1857472 0.27970105 0.15669557 0.093338594 0.13265719 0.16287848 0.18178035
0.15034105 -0.21102713 0.22637385 -0.06939154 -0.06913986 0.28485647 -0.25091797 -0.108450815 0.26757464 -0.2646341 0.016211223 0.23053373 0.2813801 0.22524665 0.07380923 -0.19989291 -0.017381849 -0.103944466 0.080345035 0.114033304 0.23356985 0.009320882 0.14029816 -0.23272014 0.1599641 -0.10800413 0.10549138 -0.19542721 -0.28767112 0.053407952 0.0117810285 0.22426723
-0.12698251 -0.3214548 -0.2535634 0.10664491 0.116696656 0.04199242 -0.19684179 0.24210557 0.014556348 -0.21284664 0.18807174 -0.014732019 0.0405878 -0.2961711 -0.120066985 -0.18255803 -0.024140293 -0.17696327 -0.26273933 0.008470842 -0.23994623 -0.23426338 0.16524665 0.329577 -0.067498855 0.20267142 -0.2499279 0.039427776 0.032611396 -0.00031710416 0.13802327 -0.07552705
-0.21968822 -0.21647547 0.03417277 -0.057365634 -0.291216 -0.19222014 0.19105327 0.2954551 -0.04055344 -0.27604085 0.27957508 -0.20039198 0.20241582 0.029400047 0.27507472 0.09725315 -0.0040822066 0.014259497 0.043647017 0.26809105 0.019035755 -0.1336011 0.26665005 0.26543736 0.32419923 0.26064086 -0.12467303 0.050288096 0.36146003 0.2405107 0.23597488 -0.08514646
-0.25044006 0.12594762 -0.18984693 -0.050928634 0.033367272 -0.02878434 -0.323121 0.047821824 0.07881978 0.017231159 -0.19028372 -0.060858388 0.042995606 -0.10611546 -0.085382596 0.21426079 0.02025307 0.032894257 0.11824905 0.0952955 0.06649218 0.018877042 0.09327664 -0.19968176 -0.11728798 -0.265557 -0.2799032 -0.2967184 0.0055466834 -0.31581905 -0.23851238 -0.141264
-0.14714187 -0.012251186 -0.069175735 -0.08143697 -0.16010581 -0.2826102 0.2702905 0.23506193 -0.026334714 0.02546098 0.22519186 -0.3105938 0.109770656 -0.2291589 0.007121653 -0.022387216 0.054522477 -0.033763368 -0.037581895 0.13395067 -0.28715768 -0.07970683 0.17618805 -0.12290172 -0.1282328 -0.04994471 0.043215167 0.15802123 -0.11584931 0.029073227 0.119978726 -0.18637851
-0.26155216 0.1157359 0.18015604 0.321798 -0.11536025 -0.25412193 -0.28638455 -0.26446316 -0.28459433 0.1463236 -0.24882028 -0.078390755 -0.14924045 -0.13566926 0.03834977 -0.0850965 0.22365005 -0.24554841 0.20551986 -0.049116664 -0.05820007 0.19470522 0.031774357 -0.08689898 -0.18285722 -0.221819 -0.19089523 -0.24510404 -0.0041025346 -0.28338748 -0.11653639 -0.07202017
