-0.028221479 0.043141287 0.05744819 -0.025882725 -0.02036349 0.029046236 -0.022664597 0.080214515 -0.037848953 -0.093987405 0.0007354549 -0.02826584 -0.043108094 -0.06334892 0.0603183 -0.08163729 0.03370471 -0.10520654 0.05074991 -0.10956488 -0.060591355 -0.0656212 0.08912111 0.09217037 0.010309895 0.07093077 0.09845742 0.05544002 0.099961 -0.100732096 -0.09834931 0.0455413
-0.11979894 0.023555545 -0.062251437 -0.0788958 0.091914184 -0.059011266 0.06635829 0.100555696 0.041992363 0.041823942 -0.055872504 -0.09998932 0.06169436 0.04516081 0.03899222 -0.02702115 0.090830944 0.10329961 0.020363035 -0.08059132 0.02711419 0.043575957 0.007320517 0.010820477 0.1024559 -0.011633054 0.08027636 -0.13182466 -0.01723233 -0.08763915 -0.009396904 -0.055231195
-0.06503788 0.13799116 0.0064011794 -0.07933435 -0.14428596 -0.029070148 -0.13882934 -0.02163621 -0.047920622 -0.101324074 -0.06500645 -0.09330434 -0.102273434 0.06109293 -0.02791984 0.12176733 -0.13426667 -0.15112713 0.07696757 -0.009851874 -0.100035466 -0.05649819 0.08903702 0.0553839 -0.08432946 0.08310632 -0.043426245 0.10061712 0.08275912 -0.03625407 0.0040136497 -0.1490684
-0.049452227 0.14620763 0.035663757 0.10685151 -0.059177164 -0.04719086 -0.17501462 0.020486273 0.026641518 0.035086952 -0.035638902 -0.05653511 -0.10119895 -0.054963175 0.0065186867 0.042976238 -0.038001172 -0.015030146 -0.07743519 -0.1476581 0.028729899 0.024891632 0.018933557 0.0093454905 0.03276164 -0.038700547 -0.01402446 -0.10494442 -0.012849451 -0.011231098 -0.014487525 -0.03341691
-0.07571408 0.027463116 -0.1526978 0.026520507 0.06624437 -0.04119212 0.040522825 0.07579136 -0.10490643 -0.059057627 0.08301285 -0.060792323 -0.08731559 0.03374998 -0.11616419 -0.09838441 0.020917678 0.05901503 -0.13539578 -0.10832395 0.043585125 -0.113270946 -0.0219996 -0.11363961 -0.017193865 0.039871782 0.12285078 0.0002045952 -0.0142659815 0.08238819 0.015312924 0.087811686
-0.031019388 -0.040677372 0.08074061 0.092524715 0.119555466 -0.10165424 -0.034949686 -0.020935563 0.022112899 0.083572686 0.0070106294 -0.02376331 0.039573252 0.067593805 0.07958433 -0.0390658 -0.06199231 -0.074865215 -0.025171138 -0.048339546 0.07130694 0.027383534 0.073017485 0.10312833 -0.07214354 -0.026690584 -0.018285519 -0.05362477 0.021582842 0.053029716 -0.05422565 -0.04610221
-0.026655827 0.0143089555 -0.0051819067 0.044968445 0.026523415 0.03702285 0.047171123 0.05545123 -0.05908037 0.008888589 -0.044813346 0.05353682 0.007441131 -0.02913703 0.0043076384 0.021127112 -0.14366196 0.013115299 0.04186836 -0.09535388 -0.03365959 0.06688323 0.0079724435 0.037506476 0.061629504 -0.008284029 0.11056585 -0.07214637 -0.011073601 0.07860143 0.08905566 0.056084197
-0.000706641 0.049419038 -0.0060611228 0.06610456 -0.0775681 -0.0075864135 0.036102768 -0.06888973 -0.0681532 0.02379436 -0.075830266 0.06283941 0.011084299 -0.04684999 0.04444461 0.009481487 0.020658124 -0.011254877 -0.07962015 -0.0008409132 -0.081687875 -0.04635633 0.021023236 0.04295992 -0.0324363 -0.014052079 -0.047391724 0.12235482 -0.054666154 -0.008480141 -0.1193488 -0.07501981
-0.11021955 0.08398277 -0.120351665 0.05267574 -0.11527107 -0.08023284 -0.071021155 0.0028445139 -0.095876336 -0.053683247 0.022610614 -0.01082664 0.06670143 0.03979452 -0.07512591 0.08778759 -0.13881752 -0.013576292 0.061625972 -0.017779643 -0.05271841 -0.006327956 0.025856778 -0.05615396 -0.10836476 0.0022456383 -0.01302986 0.11737801 0.049475204 -0.073445186 -0.01633598 -0.07141169
-0.01877548 -0.26673523 0.13769433 -0.049543716 0.07779064 -0.13674305 -0.007499214 -0.014428192 0.040870234 -0.03849144 0.005397771 0.14495264 0.042010527 -0.25313365 -0.06148117 -0.20003366 0.020029623 0.07665205 -0.021984275 -0.028849885 -0.06369781 -0.114414334 -0.1265257 -0.13994007 0.14385487 -0.12483854 -0.0032144915 -0.054410376 -0.11663066 -0.06955892 0.0074174656 0.16025439
-0.08806336 0.006621041 -0.017989872 0.009364373 -0.1382218 -0.0096995765 -0.09175915 -0.047358263 -0.044140324 0.07467593 -0.08600534 -0.09247546 0.039710153 0.08839694 0.046199888 0.10573548 -0.07450068 0.060046695 0.06902852 -0.1264789 0.047409788 -0.0735695 0.08421811 0.048727706 -0.017782297 -0.015056109 0.042945586 0.10836113 0.053729888 -0.02443965 0.0037323732 -0.10136233
-0.004953598 0.11902374 0.029522598 -0.107928514 -0.044079505 -0.0493301 -0.08383565 -0.10850304 -0.011635116 0.096003406 0.08379911 -0.116468675 -0.10993684 0.03754354 -0.0016801136 0.006696946 -0.1782731 0.0749914 0.0039771344 -0.055817258 -0.022261208 -0.057340838 0.10367947 -0.11516973 -0.067541204 0.053209525 0.052586418 0.14181173 0.0483715 -0.12916085 0.042360295 -0.08114039
-0.029122287 -0.044055723 -0.00011942613 -0.031274565 -0.15364806 0.04275317 0.0031729052 -0.064554036 -0.10580171 -0.01864047 -0.116509296 0.09173333 -0.1009725 0.023995016 0.041332852 -0.09140807 -0.054465506 -0.14049178 0.11819291 -0.044133287 -0.07033504 0.045075264 0.045771945 0.062024202 0.04288862 0.08049058 -0.0011761873 0.015794627 -0.01747837 -0.03619112 0.065386884 -0.121157795
0.050108626 0.029732278 0.060642548 0.048825152 -0.051806755 -0.109943576 -0.0654271 0.00047758757 0.027018568 0.020747907 0.0253234 -0.017337287 0.023070976 0.068669796 0.08062547 0.13444774 -0.15524003 -0.12974311 0.0145045705 0.02165765 0.10577648 0.013804776 0.0601272 -0.006290392 -0.086414196 0.12177408 0.068420984 0.030766454 0.042336605 0.02252473 -0.036649317 -0.0248731
-0.077792436 0.03895581 -0.04781272 -0.0038387156 0.085140646 -0.044557985 -0.046991933 0.057546988 -0.08498679 -0.051362105 0.033868857 -0.08647527 0.038180012 0.051509455 0.08661516 -0.14840305 0.10298524 0.06417325 0.018561987 0.11104968 -0.065909624 -0.046660785 0.02289495 -0.0526848 0.034988053 -0.04842784 -0.105681635 -0.04821518 -0.067900285 -0.107018076 -0.050664134 0.062781475
-0.029672716 0.108864844 -0.05723487 0.005438454 0.07556177 -0.11852267 0.08172543 -0.037803654 0.05489169 -0.11597387 0.0032557368 -0.082579695 0.08636381 -0.019431986 -0.07492825 0.01392616 0.046860166 0.0036030102 -0.012891856 -0.041778248 0.022933317 -0.039987642 0.08722909 0.02771659 -0.029056447 0.014593151 0.04817341 -0.052302945 0.067224994 -0.06854062 0.109832175 -0.10939861
-0.042690936 -0.056493968 -0.05862008 -0.047800034 0.06298434 -0.051331934 0.046726845 0.07910898 0.08844539 -0.026479319 -0.04533305 0.011828527 0.14130983 0.11377756 -0.10036829 0.07941446 0.03923427 0.017591575 -0.07683227 -0.06752427 0.039635763 0.06220709 0.031015094 -0.109617844 0.010749614 0.036235288 0.0910132 0.098696485 0.06600302 -0.09601252 -0.049501136 -0.00047250747
-0.049192365 -0.030878544 -0.049418744 -0.005481407 0.05468514 0.0061349943 -0.0025559515 -0.060828798 0.06274543 0.07778745 0.08835248 -0.035427973 -0.04574841 0.029847197 -0.045157664 -0.069830954 -0.09485311 -0.06622058 0.03026674 -0.101265565 0.033797465 -0.028061636 -0.021301694 -0.09980992 0.027814232 0.094257005 0.04415255 0.0121912435 -0.04796796 -0.020994842 0.016101055 0.024462111
-0.08873773 0.15170614 -0.03324642 -0.09537419 0.0076881666 -0.02081711 -0.013739333 -0.003377242 -0.0902303 -0.011628839 -0.06989095 0.052714538 0.019250525 0.027976764 0.04406697 -0.0084319115 0.003953711 0.09430294 0.004193065 0.03422195 0.1179829 -0.033767004 0.20938915 -0.018616237 -0.04303077 0.026813641 -0.033154655 0.21406196 0.21649835 -0.04467032 0.123439096 -0.04913783
-0.04874012 -0.13734952 0.11264549 0.07180191 0.101426475 -0.026970115 0.16618797 -0.008137993 -0.08036369 -0.05643806 -0.045643307 0.030542748 -0.09355145 -0.09661483 -0.10250829 -0.04307755 0.15039867 0.077228665 0.091741174 -0.01689054 -0.15845445 -0.11078237 -0.10185644 -0.06356389 0.064483225 0.07364225 -0.09750201 -0.04906487 -0.03282498 -0.103933 0.003744705 0.0063107656
-0.02880489 0.07512581 -0.024511835 0.00033047044 0.07573808 0.023766238 -0.05236142 0.018046169 -0.13947703 -0.057062674 0.105184264 0.016943092 0.031320628 0.0065099276 0.0063691563 -0.0071742805 0.01440178 0.0031252487 -0.06416337 -0.04482134 0.06738218 -0.003817927 0.03075301 -0.052755762 0.07903203 -0.14074413 0.051031265 -0.04232352 -0.030089067 -0.16887364 -0.010536246 0.12269416
-0.0216905 0.11223376 0.021569699 0.03629197 -0.086333126 -0.085993476 -0.07930752 -0.0244333 0.013060118 -0.08944942 -0.09148198 -0.043101087 -0.025934586 0.07418199 -0.105126284 -0.007546832 -0.06559631 0.03737215 -0.07062199 -0.065429606 -0.07916305 0.009485026 0.08801831 0.02059774 -0.0645845 0.13930216 0.111813225 0.028891975 -0.044910643 -0.12532225 0.086580254 -0.07819174
-0.068694286 -0.10490506 0.085462846 0.012356043 0.14286926 0.0548184 -0.120359756 0.10587431 -0.06308485 -0.0821547 -0.05118092 -0.10139149 0.026159303 -0.10474218 -0.08543577 -0.0903584 0.10231048 0.09150665 -0.046237737 -0.1322621 -0.12363987 -0.023409829 -0.02271719 -0.09212224 0.0010473616 -0.017067011 -0.033963982 -0.04478139 -0.05497147 -0.13685463 0.04068562 0.09432473
-0.052705836 0.10798116 -0.068303555 -0.07788982 -0.14791957 -0.027213452 0.051187966 -0.006014194 -0.04930272 -0.017226549 -0.051776852 0.028924108 -0.069692016 0.03255425 -0.022634549 0.045056887 0.0063760076 -0.07620569 0.067253776 0.056213386 0.065961935 0.067798 0.0923225 0.048632495 -0.15681316 0.1166517 -0.09838855 0.18065996 0.14820409 -0.03602991 0.08568287 -0.057089973
-0.004344948 0.076283626 -0.061397556 0.019742046 0.07708132 -0.039142203 0.09035941 0.075285606 -0.009650881 0.09059927 -0.09876057 -0.010573315 -0.04338966 -0.06518871 -0.050102174 -0.108411565 0.024776038 -0.036572587 0.042301085 0.011682125 -0.05942257 -0.0867493 -0.07333404 0.03355803 -0.023752172 0.07109785 0.089876525 -0.09866581 0.014590131 0.01735897 -0.03678594 0.066505015
-0.04648423 -0.09192004 -0.07044374 -0.010748105 0.068516016 0.08457372 -0.071238786 -0.071679726 -0.00660642 -0.099289365 -0.05970839 -0.009421813 -0.035094164 -0.07850225 0.086915426 -0.03373603 0.024328629 -0.105069526 -0.027562017 -0.12198634 -0.07052455 -0.018940723 -0.022228682 6.614573e-08 -0.0092566945 -0.015056313 -0.063149296 -0.06792421 -0.026979916 -0.0264792 -0.049701024 0.027025934
-0.08797874 0.09487253 -0.09581531 -0.066065155 0.0026368613 0.036179215 -0.041924767 0.10855492 0.00813802 -0.06519686 -0.04781583 0.052532483 0.14547747 0.0030819 0.07779939 -0.06279703 -0.021594971 -0.13629588 0.044622622 -0.03712708 -0.04316695 0.07445415 -0.04106334 0.068534344 -0.110637024 -0.030487645 -0.04152448 -0.010531177 -0.051665984 -0.09794985 -0.06498132 -0.0020348446
0.029958975 -0.028604321 0.05019066 -0.13268542 0.05259458 0.083387874 0.08272073 -0.065919995 0.008043944 -0.038869705 -0.038306925 0.018140545 -0.09914198 -0.022780694 -0.05611913 -0.048964106 0.06746326 0.07791625 0.085991986 -0.06780831 -0.108084574 0.0624003 -0.065283716 -0.102437004 0.10150597 -0.022277322 -0.05567208 -0.023430549 -0.038516678 -0.013202504 0.087361 0.085921966
-0.048622403 0.040514678 0.03429781 -0.11858769 0.04357618 -0.04529822 -0.07479403 0.03015183 0.10065838 -0.046271145 -0.04603787 0.0653973 -0.043891452 -0.031239303 -0.0809453 0.06799653 -0.04655083 0.08194428 -0.091855176 -0.07145159 0.08510329 -0.031068536 -0.015226476 0.1111109 -0.13194297 -0.0038197632 0.0029879455 -0.06941898 0.106962636 -0.14913054 -0.019532647 -0.022618052
-0.0058017652 -0.14681561 -0.16030131 -0.04011181 0.08770623 0.02590365 -0.07104532 -0.018783178 -0.03826588 -0.079943255 -0.054748148 0.062861994 0.047669105 -0.02412736 -0.059208617 -0.105722666 0.011797159 -0.007611537 0.045198366 -0.09231278 -0.025731945 -0.12916721 -0.078396484 -0.0031883135 -0.035208587 0.0052297027 -0.012584148 -0.08155567 -0.00602089 0.009745476 -0.09146668 0.052354246
0.048834607 0.024087962 0.10885704 0.057207186 -0.03979503 0.0064222342 -0.058654103 -0.055995338 0.0022366904 -0.108573124 -0.035701904 -0.027172657 0.05281114 0.083040185 -0.040640127 0.004117623 -0.083257735 -0.0066640265 -0.09652752 -0.030777324 0.009495877 -0.07580708 0.11277007 -0.060108434 0.030128019 -0.07697601 -0.07988142 -0.05473074 0.15542112 0.061441705 0.028376756 -0.098085515
0.04535126 -0.08273224 -0.02834115 0.030560007 -0.027897956 -0.03472752 0.12357911 -0.054696053 0.007227013 0.013043805 0.01529883 -0.051971257 -0.07992024 0.02265131 -0.05743671 -0.01784889 -0.04857489 -0.030855332 -0.08605207 0.009163577 -0.12299609 0.006980664 0.0388262 0.012748218 0.10052725 -0.03269283 -0.065469936 0.04978587 -0.03125716 0.04268365 0.04442858 -0.019881692
0.00037632234 0.09438683 0.013470546 -0.017305914 -0.030816654 0.019039389 0.06785158 -0.016803162 0.06809979 -0.054080196 0.01611764 0.04547426 0.029520575 0.10302205 0.092599005 0.0057656076 0.07318503 0.1029408 0.038190693 -0.008324742 -0.016129192 -0.031142736 -0.06428658 -0.020668132 -0.05469945 0.08232764 -0.0719515 -0.016758537 -0.0070439205 -0.062990315 0.076266594 -0.016608099
0.042321008 0.082033515 0.09536473 0.042203035 0.024616199 0.06209517 0.07238985 1.2631164e-05 0.054269675 -0.06281555 0.03822161 -0.018404245 0.029785547 -0.066149555 -0.08688405 0.08334872 -0.093943335 -0.00294939 -0.031306062 -0.04350589 0.11190922 0.033522878 0.08588755 0.093612455 -0.043937556 0.07833245 0.020073453 0.12049847 0.039228614 -0.10183399 0.10935954 0.086933404
0.02429392 -0.044199895 0.0058578295 -0.013108579 0.1513923 -0.060292434 -0.043197975 -0.026999075 0.05632989 -0.09542202 0.0022348126 -0.06482963 0.083674595 -0.026100347 0.014407347 -0.107092924 0.18526237 -0.03106307 -0.045911063 0.0969042 0.123637535 0.052495476 -0.019148737 -0.07948518 0.09259907 -0.037663136 -0.06054013 -0.07205311 -0.1101271 -0.12704284 0.054405168 0.032124646
-0.028327107 0.036117706 -0.048410594 0.004468509 0.11733201 0.03451262 0.056128055 -0.0346308 0.009170849 -0.034382883 0.04959605 0.0203395 0.10160834 0.08075726 -0.043728765 -0.015222586 0.12776724 0.07176897 -0.060852293 0.054779384 -0.116344355 -0.051994525 0.08992233 0.055697598 0.11390661 -0.07066971 -0.02951258 -0.0031570732 0.062066887 0.07001612 0.06706299 0.04888689
-0.0095812455 0.13085048 -0.06660425 -0.03456115 0.013841505 -0.09900226 0.024722151 -0.024848254 -0.01158207 -0.072916865 0.08921229 0.028898014 -0.026523238 0.04676018 -0.107978195 0.120377705 -0.13659391 -0.0015823047 0.06986654 -0.025311897 0.07845761 -0.0867522 0.12078974 -0.04832173 -0.053270113 0.17693491 0.0020406786 0.09718249 0.1015042 -0.0801304 0.114060126 -0.08497241
0.02588462 0.009511879 0.06557084 -0.042996373 0.0910453 -0.15047838 -0.040154193 -0.01102481 0.09256174 0.054999705 -0.015202078 0.08864331 -0.049046103 -0.005178676 0.06719212 -0.07215112 0.021992097 -0.1023843 0.026160307 -0.117475756 0.11193646 0.007941006 -0.068246886 0.00048136403 0.03895778 -0.054834764 0.037247922 -0.0977551 -0.021978978 -0.104234725 0.030283747 0.14492036
0.03227197 -0.027334755 -0.05097994 0.069896385 0.049555805 0.043474387 -0.11113244 0.07516851 -0.054280397 0.057697807 0.09059046 0.037977744 0.11404796 0.08701187 -0.024609769 0.07653607 0.03647996 -0.08014064 0.062636144 -0.002670966 0.054903876 0.051622257 0.016816782 -0.051673293 -0.009943368 0.0018047137 0.07215658 0.0060647316 0.15575688 0.06007412 0.072816685 0.0068350183
-0.065366276 -0.05647828 0.14608948 0.07564422 0.0838734 0.022304207 0.055732228 0.073559985 -0.0077346405 -0.0011073322 -0.06695772 0.09777129 0.06385676 -0.062264472 -0.07646767 -0.101929046 0.027727794 0.12654234 0.019909022 -0.03576481 0.07493425 0.037476566 0.0061594374 -0.14575036 0.058309983 -0.0063010575 -0.017517796 0.03794861 -0.098554686 -0.009409857 -0.022037786 0.11836883
-0.09345579 -0.08749958 0.007961141 0.012576383 -0.0023983477 0.014116968 -0.056614988 -0.098448485 -0.076840006 -0.008137762 -0.053359926 0.031740136 0.026010022 0.027584836 0.05371483 -0.075890996 -0.032526705 -0.12761219 0.03941377 -0.10444494 0.057704996 -0.02837541 -0.11779492 0.013739739 0.12981963 0.010059084 -0.088721104 -0.05674484 0.046555825 -0.040253334 0.062875934 0.09550327
-0.021092925 0.04789689 -0.05103565 -0.06480342 -0.022171414 0.0005264411 0.019544564 0.002897245 -0.042433225 -0.039314114 -0.11006472 0.018438825 -0.05146246 0.085605435 0.044475336 0.109735936 -0.11892438 -0.023295255 -0.06198917 -0.13030407 0.11999884 -0.03289279 0.07072247 -0.031680483 -0.09315263 0.08999993 -0.052526455 0.13064775 0.0642799 -0.046451855 0.121243626 -0.0914868
-0.11379657 -0.16592975 0.0542746 -0.072078645 0.06784443 -0.051123954 -0.07878748 0.03911526 -0.07709832 -0.12468373 -0.01623718 -0.088010214 0.02633384 -0.21186474 -0.100061335 -0.07952695 0.09719092 0.0253987 -0.111545935 0.046010923 -0.05999009 -0.029635709 -0.05697991 -0.004432958 0.05401212 0.0051853606 0.007927861 -0.08367923 -0.12509078 0.07701539 0.01867547 0.1475531
0.03675455 -0.076225966 -0.036774117 -0.011590443 0.036572922 -0.02652785 -0.013053453 -0.013321087 -0.0759856 0.03777632 0.07140134 0.044697225 -0.12630862 -0.09759053 -0.08152298 -0.09595994 -0.019003628 0.021271762 -0.026545754 0.04150929 -0.094908156 -0.055451676 0.022077113 0.035015967 0.01842411 -0.094096 -0.013277335 -0.11817327 -0.1426475 -0.10678111 -0.022866355 0.11427482
0.040940173 0.07249653 -0.0796688 -0.00615708 -0.084100604 0.06858868 -0.0052272417 -0.07737952 0.03692441 -0.07348379 -0.10252785 0.06418755 -0.07498427 0.013227115 -0.015396598 -0.044315554 -0.004444974 -0.030116644 -0.095166795 -0.011968914 0.13619702 0.11856355 0.101763524 0.10952348 0.042750984 -0.048288453 -0.0035828326 -0.023468858 0.07979463 -0.032267824 -0.0017275698 -0.07637552
0.08278449 0.06754352 0.08120101 0.15278144 -0.07841649 -0.062764 0.048912883 -0.0026682394 0.051398635 0.085777625 -0.09467313 0.041516636 0.050363217 0.028573046 -0.008585373 0.012452662 -0.04237647 -0.008684647 0.014868976 0.086308 0.09752108 -0.06853564 0.01021433 -0.055249106 -0.020811215 -0.21448706 -0.050796572 -0.033952694 -0.08616745 -0.06302522 -0.0065170936 0.05598077
-0.09176089 0.048088934 -0.037013967 -0.090817004 -0.123865835 0.021052176 -0.03463777 0.01621049 -0.037998904 0.05013184 0.057249397 -0.06409789 -0.0793161 0.079973586 0.038477518 0.073483974 0.032314178 0.010193919 -0.10888261 -0.015611196 -0.071636274 0.07635325 -0.02311017 0.03256708 -0.05243594 0.1251626 0.036701262 0.1235739 0.09365437 -0.036061328 -0.08977957 -0.03803402
-0.06238807 0.17130183 0.061925486 0.017167669 -0.04959089 0.029281309 -0.017843645 -0.06286297 -0.07519198 -0.084889986 -0.099138945 -0.06846484 -0.007368897 0.014922726 0.11193722 0.03731855 0.020180484 -0.0052741063 -0.05780632 0.055469338 -0.11329757 -0.07579866 0.002526213 0.0031320686 0.0033718045 -0.014053453 0.07120663 -0.015732087 0.11743417 -0.0931091 -0.014339462 -0.03375921
-0.046187103 0.15190803 -0.06364552 -0.087209255 -0.06935779 0.089294255 -0.048320178 -0.13773958 0.066882476 0.06725746 0.031131653 -0.038144067 0.065340154 0.04131266 -0.029468622 0.16515762 -0.059272654 -0.10667842 -0.01074399 -0.062860675 -0.05022164 -0.012338333 0.026322313 0.022391317 -0.0787862 0.021223094 0.0748049 -0.06844313 0.10177547 -0.03755427 -0.033154584 -0.09855505
0.08605578 0.026451536 -0.09775638 0.05617734 -0.100040935 0.0016353428 -0.037400365 -0.09922995 0.028221078 0.0998395 0.014020391 0.09133942 0.090164594 0.035829328 -0.009303503 0.0033528954 -0.020552255 0.03676849 -0.054786094 -0.09742226 0.03258545 -0.00036980212 0.103219606 0.055284314 -0.025091715 -0.0020884722 0.039592482 0.06318384 -0.021799415 0.080081575 0.079663984 0.054416575
-0.095221885 -0.060407884 0.15870588 -0.037113074 0.12875904 -0.087518126 0.07545608 -0.050587073 -0.13192374 0.08233061 -0.06930387 0.058014665 0.037678875 -0.09433312 -0.062003806 -0.04442416 0.12216105 0.16958721 0.00011638826 -0.043077495 -0.1535154 -0.06349622 -0.08456601 0.0076831873 0.058099166 -0.013203353 0.04424783 0.047119506 -0.04701141 0.07059378 -0.05676932 0.09916748
-0.06908397 -0.037632328 0.041790523 -0.107246496 0.114677005 -0.0936138 -0.0015752136 0.12920034 -0.017573636 -0.053103875 -0.0063075675 0.0783022 0.08421165 -0.15518361 -0.039793197 -0.023644617 0.13773456 0.050647847 0.05603884 0.019611862 0.019875044 0.003504357 -0.1336059 -0.053735193 0.052110642 -0.20112588 -0.060888585 0.107778475 0.057563104 -0.054452565 0.08233513 0.13179855
0.022423731 -0.14389619 0.0041518006 -0.086107954 -0.031990815 -0.006612282 -0.10039191 0.123192176 -0.04041927 -0.10256966 -0.033234227 -0.00047441636 0.08363609 0.011395633 0.024696648 -0.014816821 0.078456074 0.026737746 -0.0800526 0.04409875 0.04317532 -0.012046648 0.016827175 0.015570226 -0.041553553 0.04308835 0.13228743 -0.047532935 -0.03381211 0.02950191 0.079957 -0.013345191
-0.0106840925 -0.011263255 -0.06449351 -0.102255374 -0.024692787 -0.020817133 0.03279844 -0.035152923 0.05124394 -0.07925301 -0.031479187 -0.040929712 -0.04001125 -0.06743691 0.050697833 0.02556306 0.04161808 -0.104979835 -0.091872916 -0.06122089 -0.09281663 0.06725475 -0.09185925 -0.026274215 -0.06350653 -0.1157504 -0.07773322 0.05519414 0.053052932 -0.05126105 0.07351151 0.005404446
-0.15093791 -0.14450751 0.07550051 -0.051940877 0.1188464 -0.14097992 0.0026324543 0.0378063 0.024755662 -0.118575156 0.042541716 0.04700523 0.005441931 -0.06271558 -0.018209968 -0.07517835 0.123853505 0.064670645 -0.072896175 -0.03688756 0.087752596 0.097770266 -0.08494516 0.033366207 0.1836926 -0.16394076 -0.09092714 -0.0964551 -0.030167826 0.058091864 -0.010885411 0.13442212
-0.07621168 -0.03828068 -0.10987386 -0.018159252 0.11360109 -0.008379007 -0.13664065 0.02754481 -0.09218243 0.024231346 0.0471214 0.084405705 -0.058835395 0.054145765 0.0063726655 0.032954704 0.11254765 -0.043824434 0.06373431 0.043427315 0.022162845 -0.023471644 0.107693374 -0.06604664 0.05158623 -0.01602168 -0.0024062998 -0.0023473029 -0.065372154 -0.07543818 -0.016399078 0.07086575
0.06272232 0.02938095 -0.09765882 -0.041994907 -0.018810555 0.010750002 -0.053873938 0.01997519 0.061580695 -0.09737833 0.07321682 0.0047492553 -0.10882042 0.036535703 -0.033612233 -0.047185875 -0.1159 -0.08261135 -0.00035085797 0.0075602666 0.10316076 0.04682847 0.026290983 0.008447916 0.03346661 0.004681117 -0.09812593 0.060726076 0.023512296 -0.046354413 0.0350001 -0.11609985
0.049183354 -0.13193701 -0.017775632 -0.030800102 0.09151103 -0.12254005 -0.06631456 -0.020906167 -0.075371385 -0.072191775 -0.08964156 -0.06410494 0.018462433 -0.047367293 -0.146878 -0.080976374 -0.07046829 0.06695894 0.029478822 0.09272131 -0.013222158 0.089478284 0.018250147 -0.039736457 0.04521814 -0.04457095 -0.0896258 -0.08191436 -0.073154554 0.055558875 -0.120318815 0.10867317
-0.029741935 0.015702484 -0.034938693 0.054613613 -0.08104592 0.055898145 0.026574917 -0.09633212 -0.13138881 -0.026742287 -0.085832864 0.012147943 -0.012853814 0.022759568 0.09713688 0.038212728 -0.07613139 0.017372904 0.043861933 -0.11160948 0.12180038 0.01992103 0.010450964 0.072547905 -0.021452865 -0.11083226 -0.096914455 0.003188099 0.080570854 0.1348645 0.030317882 0.0040964712
0.055412523 0.158256 -0.14889409 -0.09999534 -0.045663256 -0.039996453 -0.15218891 -0.017802607 -0.14555074 -0.08585514 -0.053105697 0.04246213 0.013029947 0.27930033 0.069199026 0.21900652 -0.20392098 -0.12643804 0.050882787 0.038562212 0.120068684 0.045043644 0.18879251 0.04053959 -0.15321997 0.2772065 0.0062899916 0.13283029 0.20197187 -0.1432077 0.018365325 -0.09167168
-0.013520647 0.08015055 -0.06865332 -0.007832842 -0.12595901 -0.09186034 -0.07678867 -0.039550614 0.00974101 0.072559655 0.03917917 -0.113823704 -0.087307446 0.03089058 -0.10428025 0.12031825 -0.061916288 -0.021324202 -0.0693684 -0.07092969 0.016093088 -0.086535916 0.011346817 -0.040795468 0.0051975856 -0.043594003 -0.09033384 0.012344923 0.08200675 0.036972865 -0.086531386 0.0052846824
-0.021953205 0.043733787 -0.065433376 0.062823124 -0.1003196 -0.08644153 -0.103512056 -0.0044522234 -0.075107284 0.0027117804 -0.0071848035 -0.10429776 0.05371836 0.05320337 -0.0066040223 0.17618899 -0.11665951 -0.14048378 0.00650054 -0.06664419 -0.05225007 0.08191146 0.13500273 0.04103901 -0.09812295 -0.036699086 -0.044046994 0.023008103 0.17866604 -0.073954314 0.031792216 -0.12432916
-0.051584993 -0.07381879 -0.13748468 -0.01725972 0.005781668 -0.122348055 0.06949102 0.04833784 -0.10696012 0.053641934 0.0064624622 -0.11244974 -0.033296514 -0.034440927 -0.03157591 -0.006838976 -0.02877381 -0.0451059 -0.019364782 -0.008601438 0.052009627 -0.09064815 0.04907813 -0.014342178 -0.012660486 0.06127687 -0.027508399 0.10738397 -0.014330113 -0.03433943 0.03853969 0.033101197
-0.06855728 0.09953039 0.0042512324 -0.058562767 -0.07858244 0.06577504 -0.019203225 0.02070206 0.022054354 0.049606882 0.0062975334 0.054122716 -0.07022503 0.16260824 0.007228874 0.16514978 0.008987919 -0.0057700155 -0.034897354 0.026070468 0.10297435 0.018701285 0.15412767 0.022248574 -0.06768162 0.0929641 -0.10105273 0.14781336 0.15192562 0.014304673 0.14356792 -0.051134348
-0.052064 0.0047207796 0.105344854 -0.115057066 0.0052896948 -0.092339166 -0.09993805 0.023187568 -0.040272526 0.023694435 -0.024938537 -0.09385016 -0.045889433 -0.098398805 0.050291907 0.044764142 0.044746857 0.01931252 -0.0051500928 0.08932788 0.08363481 0.015070375 -0.039595086 -0.02351583 0.08420721 -0.022490932 -0.09745926 -0.06945002 -0.068684414 0.089113966 -0.048205946 0.012072565
-0.056335818 -0.032394953 0.024476405 -0.0035809004 -0.018605394 -0.06617944 0.0027854908 0.12763965 0.005395285 0.033141464 -0.08412364 -0.010148821 0.061140843 0.04964009 0.03334142 -0.07961388 -0.022143355 0.10491046 0.03731677 -0.09461085 0.059980325 -0.06384586 -0.03985366 -0.06953966 -0.0021142778 -0.039203506 -0.10219654 -0.00806371 0.026293486 0.0630659 0.09404145 0.11085653
0.08892188 0.020093165 -0.15829922 0.040042836 0.080951735 0.10553362 -0.082977 -0.042728715 -0.06458395 0.028407885 -0.11733338 -0.080051646 -0.054284412 0.0038753645 -0.106361784 -0.06931101 0.053479787 -0.016389294 0.06782288 -0.017956465 -0.05889375 -0.07542911 -0.10118425 -0.0061926935 0.04636391 0.058802642 0.075968765 -0.0487526 -0.033920802 -0.029765124 -0.01897647 -0.002552127
-0.09237447 -0.040996425 -0.084131844 0.0719179 -0.066010684 -0.11457845 -0.014737938 0.019270752 0.07156458 0.0039420836 0.014805187 0.0015448314 -0.12483344 -0.020737385 0.12471698 0.10722436 0.021723356 -0.01873092 -0.04085923 -0.06913486 -0.07193006 0.083428636 0.105051614 0.013926991 -0.007577381 -0.023110818 0.04866519 0.014212382 -0.007810461 0.067366734 -0.018159973 -0.07327113
0.1132028 0.12843099 0.075739354 0.095974214 0.0752044 -0.08927096 0.07460426 -0.12587413 0.0021911424 0.014150119 -0.053935487 -0.068279356 -0.08340177 0.07108032 -0.06149051 0.0068674614 -0.008017395 -0.090579346 0.06458094 0.058727197 0.057582725 -0.011990809 0.12699999 -0.109927595 -0.040470812 -0.061198622 -0.09614107 -0.107823014 0.0067834617 0.062616765 0.017326552 -0.04355865
-0.035296615 -0.024744209 -0.109618105 -0.033305548 0.12640598 0.033931356 0.027673537 0.029894173 0.025157917 -0.063055545 0.021392033 -0.08686038 0.008533803 0.033135563 0.05224683 -0.0038123303 0.13747598 -0.06302636 -0.00288451 -0.08173612 -0.062891215 0.045302156 -0.04261668 -0.08425767 -0.08735955 -0.052224483 -0.063742444 -0.019965615 0.01626607 0.07830251 -0.16920665 -0.028382462
0.01253019 0.012217825 -0.12485698 -0.099870205 0.0025887869 -0.11731952 -0.021068651 -0.062300198 0.083021745 0.06153083 0.083368205 0.021503579 -0.102451816 0.07436261 0.030091872 0.055608846 0.098242864 -0.12258392 -0.020809012 -0.06912632 -0.037841525 0.02888051 -0.023654524 0.071713455 0.052459706 0.035834163 0.10151725 -0.07732 -0.0133613935 0.06439019 -0.03343693 0.059739087
-0.0098059205 -0.011161521 0.037284743 -0.10862269 0.03337464 -0.10989834 0.014666429 -0.084134206 0.021418504 -0.082930215 0.070330426 0.077655174 -0.105049916 -0.033547968 0.023986958 0.021864805 -0.06269 -0.1361452 0.007636399 -0.01716465 0.05118005 0.03533466 0.09944082 0.004586802 -0.032102775 0.07784195 -0.09001406 0.07901411 0.071932286 -0.15652373 0.05734663 0.015858974
-0.02429497 -0.13873608 -0.024255915 -0.10725039 0.09814545 -0.09070518 0.072649606 0.06734026 0.015293497 0.008035919 -0.039858896 0.059048343 0.04693654 -0.095479175 -0.049262755 -0.109615505 0.11790583 0.10993854 -0.008926238 -0.093680106 -0.08572024 -0.032182157 -0.014269101 -0.0030871916 0.11626762 -0.003680473 0.039674524 -0.030563097 -0.0050955205 0.039468613 -0.015668862 -0.027626157
-0.006814397 -0.071371935 -0.06840186 0.034302928 -0.09200732 -0.05074032 -0.1535597 -0.07390397 -0.0109871 -0.046428792 -0.043453407 -0.078358665 0.07001354 -0.08814489 -0.12265378 -0.040657427 -0.017264586 -0.0030037211 -0.058591034 0.057386197 -0.002978312 -0.045684475 0.088968866 -0.045561444 0.011456619 0.08221367 0.09262305 0.07598063 -0.033639994 -0.04316732 -0.0102093695 -0.0035480747
-0.02050734 0.045819953 -0.13645273 -0.0051870435 -0.046787255 0.027166072 0.049163066 0.028470336 -0.049353603 0.008736572 0.0626775 0.05305397 -0.06880132 0.015597238 0.0016558996 0.001330286 0.0039886176 0.042355917 0.029523829 0.021767871 0.05922047 -0.13194491 -0.04851665 -0.012500439 -0.034535218 0.016713038 0.07149052 -0.021066267 -0.11380783 0.025566936 0.037679516 0.029084425
-0.09169846 0.022150898 -0.0765423 -0.023912547 -0.020578397 0.07974797 -0.056623567 -0.09482244 -0.06902517 -0.014882766 0.021362819 0.050060317 0.057202224 0.11431887 -0.023478577 0.016022945 -0.089619845 0.044720866 -0.109676614 0.040035076 0.03553944 -0.006170528 0.09683124 0.03970378 -0.12345814 -0.016445208 0.09282843 -0.07881252 0.04525782 0.023009622 -0.061871164 -0.1100026
0.03149267 -0.10184925 -0.0016091618 -0.040728856 0.005200268 0.05185686 0.066058874 -0.0673752 -0.11702356 0.022548828 0.03773268 0.03533157 -0.05638782 -0.12640058 -0.0629935 0.0016750379 0.07107337 -0.017260106 0.048238836 0.03805831 -0.053548016 -0.035208058 -0.0807095 0.016217684 -0.09160656 -0.008156613 -0.091824405 -0.02119959 0.019880265 -0.03125136 0.040631287 -0.06860805
-0.05543096 -0.10928878 0.06820648 0.031754624 0.127335 -0.016831763 -0.021922288 0.090353414 0.004188171 -0.050797187 0.049384195 -0.06359318 0.057792645 -0.23180375 -0.12250989 -0.1543812 0.13103315 -0.10197388 0.05889622 0.017959228 -0.1581927 -0.11132744 -0.30566 -0.05852989 0.21122137 -0.29770327 -0.069064826 -0.0728037 -0.08066194 0.0022221983 -0.040905226 -0.07552925
-0.081886895 -0.047334217 -0.05950481 0.04753498 0.09482115 0.08944955 -0.12902649 -0.015103306 -0.04894086 0.032409187 0.04172064 -0.05235046 -0.014834698 0.028483436 0.02785234 -0.004554309 0.07179692 -0.0016535005 0.016914533 0.04203595 0.045979034 -0.11939026 0.009020519 0.0037255702 0.008367255 0.0015305337 -0.061072204 -0.11172692 -0.17033951 -0.025033502 0.015714586 -0.006942567
-0.013226914 -0.0863044 0.009793351 0.013677304 0.004576793 -0.08747214 -0.039059967 -0.064038076 -0.07429181 0.031309202 0.02319494 0.020016475 -0.06949178 0.001616098 0.01510064 -0.048975714 0.10072636 -0.09234924 -0.035667602 -0.114476174 -0.03876061 0.07118276 -0.094001524 0.019940136 0.10665805 -0.038094405 0.019185748 -0.08859502 0.042812854 -0.048569355 0.032959994 0.0031021659
-0.07541525 0.19897127 -0.039101515 0.07178974 -0.017556958 -0.105719686 -0.080344915 0.000147296 -0.008245873 0.062880434 -0.035394285 -0.0017641651 0.021392554 0.23344767 0.13846739 0.27241305 -0.047465954 -0.012605889 -0.08365118 -0.109409235 0.032544833 0.10747858 0.10541679 -0.04964659 -0.09519704 0.0837118 -0.05825991 0.03877191 0.21865918 -0.047347713 0.0803886 -0.0052213673
-0.094687104 0.06603462 0.03417758 -0.070161745 0.09830656 -0.02442751 0.09060695 -0.0933954 -0.07948425 -0.09644351 -0.08591656 -0.07216844 0.020713978 0.08738149 -0.03359522 -0.05176199 -0.03522273 0.091576435 0.040791847 -0.025672972 0.05435776 0.033077188 0.05194863 -0.00031916797 0.026527546 0.051516302 -0.012136906 0.051969238 -0.07868713 0.025599606 0.068998255 0.01473958
-0.09102593 0.040490106 -0.0724975 -0.06589952 -0.08462407 0.042317003 -0.074816994 0.018615937 -0.0033359616 -0.0128542045 0.053412974 -0.026829135 0.05328684 0.25690234 0.03639326 0.066330306 0.0038379165 0.08328801 -0.07335605 -0.047475226 0.10139104 0.07910208 0.14273502 0.13059095 -0.08784697 0.08446179 0.019749086 -0.1335869 0.06338931 -0.17931587 -0.012564016 -0.13421118
-0.032267403 -0.097582854 -0.0629998 -0.097922824 0.045464717 -0.032814227 0.088235795 0.1050507 0.07224748 -0.09406607 0.07888081 0.038662378 0.084765054 0.019283852 -0.0021445365 -0.12492842 0.018398685 0.11362435 0.037633363 0.037864465 0.0030535096 0.028386148 0.022054056 -0.010533485 0.05297331 0.02067756 -0.017588763 0.03503435 -0.02254207 0.040746693 -0.020184271 -0.0020366854
-0.00972853 0.14234108 0.037265956 0.040997032 0.040912904 0.07114892 -0.023991311 -0.02185373 0.022959849 -0.09224772 0.048022497 -0.120587304 -0.045865137 -0.03302731 -0.083553255 0.04809246 -0.030619951 0.004423399 -0.10303311 0.10059565 0.06434658 0.07557934 0.050243646 0.08648729 0.029719396 -0.046307724 0.050307393 -0.11778935 0.0612266 -0.00067519554 -0.10852778 0.011849656
0.015004206 -0.09525356 -0.014020921 -0.060384415 -0.027577654 -0.04024141 -0.018194199 0.013138556 -0.070777915 -0.05503978 0.070034765 -0.04130896 0.022470148 -0.0154020805 -0.098776035 -0.023240974 -0.056191742 -0.02724228 -0.06434208 0.027180018 -0.11064904 0.038490508 -0.0066034882 0.07317101 -0.0068981065 -0.04246821 -0.13351476 0.078980945 -0.002748875 0.057010554 0.05931889 0.015201236
-0.04713544 0.05550305 -0.089880794 -0.09766588 0.060968578 0.04016413 0.029048244 -0.0120364055 -0.053123426 -0.049206812 0.06255622 -0.000273233 0.060071565 -0.023113355 -0.042541087 0.078155674 -0.046243124 0.0154750645 0.10862348 -0.015403959 0.039886013 -0.018218165 0.095882155 -0.0761631 -0.04485209 0.004787142 -0.049596258 0.0729929 0.09284873 -0.0780244 -0.008529686 0.014422608
0.053316705 -0.010203842 -0.0477329 -0.0076016863 -0.06295239 0.0628734 0.09779114 -0.030714098 0.10333111 0.007167514 -0.0033881087 -0.10865111 0.0454671 -0.06870964 0.040256966 -0.020219166 0.07360712 -0.1010731 -0.055393644 0.12469442 -0.14628826 -0.03263862 0.026679743 0.035444103 -0.06633068 -0.0077113947 -0.111659564 -0.0909879 -0.06218673 -0.02880223 -0.008132905 -0.0219924
-0.036858756 -0.15596902 0.01979825 0.033745706 0.12528892 -0.099650875 -0.040552255 0.08961499 0.019313777 0.0769705 -0.07200469 -0.022512017 -0.09384097 -0.063579716 0.026606852 -0.090591684 0.020817522 0.045734163 -0.034829624 0.037055306 -0.1041719 -0.013384808 -0.14108059 -0.044142023 0.089828365 -0.16661867 -0.070759654 -0.028645705 -0.10333478 -0.025340611 0.019954316 0.012398849
-0.10994645 0.061626773 -0.010048389 0.04133519 0.026298257 -0.10848252 -0.09008156 -0.036027037 0.008096175 -0.028822867 -0.052950133 0.020464845 -0.00364015 0.10042678 0.046994515 0.007277208 0.048921082 0.06787573 -0.105507016 -0.013549949 0.0045100315 0.072726294 0.06497414 0.05700704 0.02360568 -0.07364475 0.07551385 -0.042427022 0.0010674519 0.052845642 0.029029503 -0.103038445
-0.022857359 0.11620924 -0.09403491 0.09941273 0.038354635 0.05735912 0.04195852 -0.016956192 -0.0778233 -0.09461676 0.025409281 -0.041334026 -0.09659805 0.038690634 -0.038397834 0.17454745 0.05795923 -0.021940194 -0.033184335 0.048877943 0.13468364 -0.11571075 -0.007917818 -0.04122608 -0.12056851 0.084029086 -0.10893203 0.069007255 0.11207412 -0.09548515 0.03459123 -0.1105578
-0.014997034 0.040119603 -0.04822745 -0.045278836 0.07515355 -0.09623384 -0.112404235 -0.009770815 -0.07985968 0.020062773 -0.09151146 -0.03945751 0.0463345 -0.087597944 0.048675254 -0.024667155 -0.018965397 0.051661525 -0.08580938 -0.019611437 0.013565819 0.012650554 -0.03891073 -0.07659333 -0.015709309 -0.072484516 0.07807255 -0.015521081 -0.040442497 0.099315055 -0.09441692 0.068544544
0.016576927 0.039206874 0.00942555 -0.03696203 0.08313166 -0.038239967 -0.07354435 0.0453986 -0.058843177 -0.037000693 0.048005413 -0.0087096235 0.08378973 0.08409879 0.032269187 0.049432933 0.13888633 0.024078012 -0.014280223 -0.018034765 0.098052904 -0.0646959 0.07772756 -0.024008965 -0.044852436 0.103170596 -0.030709743 0.020638777 0.013453101 -0.09069839 -0.027988402 0.085464664
-0.109692134 -0.018160187 -0.08706488 -0.09899335 0.037191354 -0.0486492 -0.07971779 -0.046932496 0.056229938 -0.11019974 -0.075289875 0.030073471 0.035354286 -0.02394906 -0.037171915 0.0019860356 -0.0058602565 -0.06974399 0.086185634 -0.055706628 0.027312707 0.029982626 0.0655302 0.048902128 -0.07338741 -0.038650043 0.06752176 0.104708195 0.009865048 0.031717192 -0.043408554 0.0026606005
-0.07965689 0.008542001 0.012253144 0.03737905 0.026147896 -0.024156274 0.028408468 -0.0010065022 -0.026194705 0.067841895 -0.05518565 -0.0013934774 -0.037598707 -0.128706 -0.010603451 -0.122016855 -0.009666397 -0.039862115 -0.023098603 -0.018137386 -0.14224666 0.07070995 -0.045740604 -0.007584321 0.03635948 -0.016801916 -0.03902644 0.017715206 -0.04453299 -0.041771192 0.009749641 0.14905435
-0.07264105 -0.0875131 0.14848468 0.030974714 -0.009705411 -0.1217334 0.0042888084 0.12507428 0.015741535 0.009248108 -0.11252071 -0.04107251 -0.027192162 0.03200256 -0.07156924 -0.08431825 0.047037378 0.028000712 -0.04982152 -0.14066559 0.06946309 0.01338805 -0.08219158 -0.0906344 0.07730564 -0.044317797 0.013843355 -0.0209547 -0.04101955 -0.032925773 -0.08699504 0.09048411
-0.01776271 -0.046297535 0.0073871207 -0.08242667 0.026939867 -0.022202674 0.06596728 -0.002598707 0.04762911 0.021187393 0.000922102 -0.10843924 0.06548952 0.022661293 -0.07852442 0.033148948 -0.048311755 0.0060476153 -0.102771185 -0.0798231 -0.027245626 0.02544984 -0.037762187 -0.058457218 0.047029242 0.03582586 -0.08735972 -0.044508968 0.086496696 0.07134697 0.08795349 0.085585296
0.047500774 -0.02398157 0.046984322 -0.0004980549 -0.100713074 -0.08233773 -0.059118778 0.09799768 0.06803316 0.037507333 0.029377006 0.050969105 0.0077120936 0.089623146 -0.05155534 -0.05867332 -0.029972639 0.0051003336 -0.039495267 0.073392175 0.065919995 -0.090422936 -0.016717477 -0.108691104 0.033402245 -0.09504898 0.06938438 -0.048557654 -0.055966035 0.046195935 -0.05517689 -0.047556292
-0.076729305 0.06470796 0.07873052 0.008882278 0.07098927 0.056241993 0.03208253 0.032545254 0.009302687 -0.07272832 0.03715463 0.027332336 0.026071852 0.05854761 0.08711663 -0.030762771 -0.0834439 0.04262625 -0.01739133 -0.061824307 0.012482364 0.06622886 0.024386061 -0.13650417 0.02287227 0.010464011 -0.0071822526 0.087115854 -0.048616886 -0.06717523 -0.097581156 0.026811596
-0.07074173 -0.018313108 0.019204654 -0.10684574 -0.016883126 -0.046476915 0.07022068 0.016028274 0.0727569 0.05735743 -0.014463085 -0.09598922 -0.043327782 -0.05705769 -0.047217667 -0.0032154839 -0.02001898 -0.116749026 0.011504585 0.011472336 -0.015614881 -0.073206395 -0.010805189 0.02044169 0.035835676 0.026938505 0.03046136 -0.058138587 -0.025273817 0.11402051 0.02072235 0.07975231
-0.009874495 0.013560502 0.046458703 0.07602499 0.16696258 -0.031877063 0.054577705 0.010562887 0.075735375 0.07700176 -0.08812393 0.03210715 -0.066170916 -0.048927225 0.017352378 0.032814283 0.06778256 -0.03967853 0.018184407 -0.006287807 -0.06913136 -0.07030201 0.039027102 -0.015962843 0.022490295 -0.016288612 -0.051897638 -0.043794043 -0.055889167 -0.04801828 -0.024571981 0.14244878
0.090122215 0.01332371 -0.082797915 0.08818393 0.00364038 -0.004110934 0.07592326 0.100234576 0.042365763 0.066883996 0.05729117 0.03332955 0.061459422 0.0016288098 -0.08390853 0.071568444 0.07206652 0.011188906 0.09937585 -0.07777993 -0.028262343 -0.01673878 0.015532517 -0.07924856 0.025078567 0.074065425 0.048129454 -0.005194964 0.014713382 -0.028490353 0.031829946 -0.040869545
-0.0929213 0.080774285 0.005107089 0.08026957 -0.051800817 0.05547151 -0.13760805 -0.0011587486 -0.09073203 -0.044136334 0.03426402 0.01689306 -0.09631016 -0.005579136 -0.010804592 0.014488358 0.09018719 0.0044874353 0.00234211 -0.08311834 -0.046078615 0.069391385 0.07384087 0.00014193304 0.04264894 -0.029386789 0.0068760025 0.023659892 0.08926129 -0.084431045 0.07687415 -0.039830286
-0.038328394 -0.0026819704 -0.07579227 0.0060520656 0.07050368 0.081108056 0.07869267 0.0105026895 0.010082573 -0.09683813 -0.012264712 0.03868269 0.0027232147 0.042335283 0.043915495 -0.08163085 -0.038845327 0.08813708 -0.01789151 0.021897139 0.05609219 -0.094471276 0.05754068 -0.1119889 0.15263268 0.09438507 0.059106246 -0.0034808454 0.036212258 -0.051692184 -0.09693206 0.05618317
-0.0878411 -0.013284587 -0.02993009 0.05846888 -0.038065635 -0.043026544 -0.07579195 0.1125624 -0.10896292 0.097487755 0.030793548 -0.02878073 0.020634174 0.020494804 0.058482964 0.0112824105 -0.076591074 -0.038332563 -0.003684311 0.041147128 -0.06604786 -0.029284677 0.002145603 0.021283846 0.10949336 -0.09805711 0.06444127 -0.076378606 -0.048344105 0.13039143 0.050135598 0.09822107
-0.0954784 0.06510226 -0.021854639 -0.074263416 -0.05283539 -0.05748173 0.044741828 0.06045636 -0.044051886 -0.10966538 -0.023464318 0.024545116 0.055335835 0.015960835 0.12571919 0.12920822 -0.046638597 0.108102016 0.04840698 -0.15769085 0.037862517 -0.016886665 -0.04067713 -0.12888911 -0.047061343 0.08038741 0.014936059 -0.012832161 -0.03659757 0.04877007 -0.08650114 0.024435842
-0.044997994 0.021229144 -0.0021945848 -0.080698684 -0.026583003 0.029764183 0.060747396 -0.021370012 -0.054997254 -0.06852981 -0.06211568 0.015030687 0.00601994 0.018690366 0.00016988814 0.005068568 0.06886525 0.09062154 0.03311996 -0.1391473 0.0631745 -0.02614854 -0.067444764 0.003691788 0.031649344 -0.0056070555 -0.11100811 0.13456653 0.13244727 0.007972288 -0.005899341 0.0014241901
-0.008760761 -0.042959593 -0.06688596 -0.07541959 0.11487924 0.033158757 -0.11039651 -0.02638526 -0.12357827 0.04918197 -0.09364351 -0.03987582 -0.014192191 -0.08111582 -0.08007733 -0.054799948 0.14955081 0.014122543 -0.00590157 0.043098602 -0.028890675 -0.061031714 -0.088499546 -0.12586936 0.0123122735 0.023340423 0.031521432 0.05157941 -0.024998281 0.08378901 -0.11204983 0.05840696
-0.01550929 -0.02488251 0.14633134 -0.003255379 -0.10045748 -0.0660403 -0.14293465 -0.005093336 -0.05554972 0.07835174 -0.05555966 0.022823494 0.09725244 0.042432725 -0.022991696 0.04358603 -0.09618279 -0.0040275324 -0.147153 -0.10386136 -0.029111044 -0.08382745 0.03042166 -0.08777117 0.029439893 0.01088427 -0.05166426 0.03428404 -0.002625938 -0.12239143 -0.06306074 -0.04936566
-0.026163751 -0.12450572 -0.012724465 0.086850815 0.036012083 0.0658025 0.102805726 -0.07614718 -0.10304857 0.07817978 0.013887226 -0.06707723 -0.05878078 -0.22314158 -0.16195484 -0.22201233 0.040034086 0.1252602 0.13984114 0.015388817 -0.04910416 0.08759271 -0.026854403 0.07602209 -0.01919259 -0.09247739 -0.047918215 -0.004856606 -0.16618559 -0.040754493 0.09408192 -0.118347876
0.031627357 -0.0024577256 -0.065561205 0.02551344 0.035890654 0.064026445 -0.06475114 -0.016438615 -0.14470722 -0.07163073 -0.018244782 0.052184008 -0.09528504 0.023088938 -0.03420125 -0.048101034 -0.03177693 0.12786452 -0.0021467851 0.0075454055 0.0026046669 -0.11257641 -0.011676284 -0.0086009 0.046255045 -0.041489728 -0.043537535 -0.04394245 0.06132569 -0.019684866 -0.03782469 0.088056095
0.028509248 -0.03142934 -0.025158336 0.029297465 -0.07124353 -0.050947245 0.008831111 -0.07131238 -0.045410894 -0.077131055 -0.055858556 -0.10477805 -0.04069002 -0.076669276 0.06974289 0.025666306 -0.01772654 -0.08676131 -0.02812688 0.006828355 -0.07638276 -0.12471873 -0.0031414938 0.050878957 -0.059729807 -0.043614477 -0.0541585 0.039595943 -0.05782381 -0.069452606 0.007498035 0.05887527
0.098227434 0.03805015 0.05676999 0.05084537 0.08702525 0.04879494 0.038897213 0.10782865 0.08210508 -0.034908835 -0.07849616 0.040799312 0.086331494 0.052025095 -0.031661484 -0.05831955 0.12336563 0.059621163 0.051919203 -0.04445383 -0.04632274 -0.09473722 -0.0015280084 -0.105042644 0.060175683 0.016012235 -0.07159866 -0.15686487 0.08357238 0.021140864 -0.027432423 0.06394843
0.054141484 -0.012930454 0.09433825 -0.00828141 0.06255795 0.07660147 0.023696521 -0.04716103 0.022755302 -0.046585068 -0.0016645547 0.07045229 -0.041086912 -0.06151851 -0.054385364 -0.07587095 -0.08460356 -0.07459784 0.06813716 0.095978014 -0.050975725 0.04674045 0.034695216 0.010768808 -0.049979664 0.06229572 0.08292125 0.0333386 0.09047907 -0.10421431 -0.0792761 0.026438138
0.038906027 -0.11353263 -0.095267 -0.05318959 0.013474858 0.013210151 0.09471773 0.096123554 0.02892417 0.06604502 -0.064939976 0.03557166 0.031453658 -0.06252259 -0.12975058 -0.081449695 0.0075014476 -0.047514 0.07181675 -0.07170978 -0.011501621 -0.121132486 -0.035199672 -0.04041417 0.09966006 0.017009502 -0.060853757 -0.078895524 -0.07599824 -0.06692348 0.00693975 0.097690344
-0.020086732 0.023494495 -0.007323611 -0.053137116 -0.024771629 -0.028835248 0.046937015 -0.06596182 0.07409296 -0.10311359 -0.047932535 0.040376604 0.024582028 -0.0037485748 0.12576172 0.067640245 -0.07593968 0.0070805675 -0.0055977236 -0.0028506552 0.13605294 -0.0071833557 0.08146095 0.005923233 -0.05296857 -0.016069228 -0.0026791284 0.054439366 0.10890819 -0.056294683 0.018774532 0.02077879
-0.09826785 -0.0987948 0.029236702 -0.11805247 -0.023292309 0.04622107 0.023904951 0.0066102776 -0.04521974 -0.014695682 -0.0013598256 -0.022254862 0.025471136 -0.061882753 -0.11518869 -0.011768568 0.04105744 0.10917674 0.07234838 -0.025578212 -0.05481634 -0.11274245 -0.11685514 -0.09909645 0.10386124 -0.123524725 0.0034610096 -0.0032851973 0.028982252 0.09273347 -0.03436536 -0.007742449
-0.10884922 -0.026114402 0.023144986 0.013383416 -0.0014429458 -0.020908168 -0.05499732 -0.06478782 -0.02113337 -0.07896827 -0.031462416 -0.017042551 -0.063109726 -0.083940685 -0.0382728 0.065284304 -0.12324081 0.02514682 -0.11923405 -0.024212819 -0.064384066 0.07582831 -0.115446895 -0.10420363 0.096076466 -0.18986 0.01613997 -0.0729842 0.0015663684 -0.06226967 0.009125029 -0.018724175
-0.12832338 0.09960465 -0.110608794 0.0704212 -0.019504802 -0.09188902 -0.07582322 -0.11525607 -0.023376757 -0.010963737 -0.109115735 -0.0696905 -0.0019742486 0.062008258 0.041944858 0.011074475 -0.119441584 -0.04921215 -0.053349935 0.10216234 0.11741633 -0.023450678 0.100632876 0.008551799 -0.06327264 0.05895736 0.06388132 0.054769874 -0.021472594 -0.014977415 -0.051285245 0.004842831
-0.060641464 -0.24463989 0.11597691 0.12930596 0.18071505 0.022275839 0.15896718 0.1099739 -0.04496721 -0.026134528 -0.10199104 0.06510675 -0.10292805 -0.12523156 -0.0036050174 -0.10823185 0.121139556 0.17275488 -0.07538438 -0.019661779 -0.22162922 0.013552312 -0.20682156 -0.15214814 0.35207903 -0.2980782 -0.044881318 -0.21554936 -0.20466906 0.10098526 -0.12450186 0.20637353
-0.0118494425 -0.037901543 0.075794384 -0.10098382 -0.09478955 0.020828735 -0.12393369 -0.019282201 0.050180513 -0.08480377 0.06393097 -0.0063715945 0.025490373 -0.00030863698 -0.06543484 -0.006737257 -0.04988279 -0.085485674 -0.06053644 0.041831616 -0.044137757 -0.0021879568 -0.040641986 -0.006945176 0.02585482 0.05268798 0.018167848 0.015039277 0.02653438 0.071608685 -0.049769502 0.0061335457
-0.12382147 -0.054048635 -0.05078755 -0.037900943 -0.022175295 -0.107957266 -0.08499576 -0.1033096 -0.07537604 0.070673324 -0.0323634 0.09620662 -0.012254099 0.058724586 -0.0399179 0.08889753 -0.019178616 0.057569213 -0.09575181 0.018652605 -0.03568349 -0.09583223 -0.0466973 -0.028880706 0.026252145 -0.06878711 -0.04350606 0.03451194 -0.11296034 0.03485376 0.08323756 0.056489076
0.0062086205 -0.13876753 0.04526033 -0.11531478 0.09346616 -0.11921162 -0.06682339 0.06663926 0.034588646 -0.043309003 -0.080249704 0.029082619 -0.06265961 -0.05607556 0.033986032 -0.04495506 0.069957465 0.017075738 0.1018822 -0.0945933 -0.005495948 -0.14798945 0.031218655 -0.03470632 0.07510958 -0.032697868 0.010709562 -0.055078484 -0.07823584 -0.012043847 -0.037623968 0.0763115
0.03281363 0.012097163 0.037092786 0.0585279 -0.05482486 -0.10520488 0.09036812 0.015980553 0.10096261 -0.045431774 -0.120623656 -0.07473805 0.05048033 -0.008484764 -0.08317289 -0.042894326 0.0033216504 -0.006106975 0.049429726 0.07401712 -0.08932433 -0.09140403 -0.055790562 0.037778147 -0.0044303522 0.012135729 -4.447571e-06 0.04054961 -0.057134837 0.087140016 -0.06589105 0.03322355
-0.019846061 0.0033604193 -0.038688965 -0.10919825 0.019023873 -0.01765397 0.034927513 0.05487055 -0.1323261 -0.07298536 0.04871638 0.034387466 -0.10477224 0.0001474416 0.1133607 0.038191836 -0.11670799 0.0651813 -0.03222648 -0.09561701 0.0069066114 -0.010237309 0.06521981 0.07609493 -0.016552687 0.14177296 0.07193915 0.09661776 -0.018882813 -0.014163334 -0.037855696 -0.01854227
-0.110500626 -0.066355996 0.011162993 -0.06473538 0.056998212 -0.007819296 -0.012675062 -0.060450956 0.011777294 -0.078018844 -0.0890522 -0.07016488 -0.089989915 0.03281453 0.013051882 0.086113736 0.00013534792 0.06100961 0.11138998 -0.037376843 0.02522034 -0.07017627 0.14044945 0.06438207 -0.07450289 0.06226311 0.04280234 0.08272994 0.105070926 -0.073438525 0.060186785 0.02819536
0.09134599 0.033772957 0.08753743 -0.065658435 -0.088987835 -0.008193593 -0.0087715555 0.008753215 0.025951771 -0.030733457 -0.07186756 -0.08795285 0.068568684 0.053348713 0.016390666 0.007918178 -0.075885445 0.08957911 -0.10883044 -0.0175711 0.0745936 -0.018882023 0.0036805528 0.09398127 -0.0044708536 0.08884603 0.02837047 0.0051159128 0.002211672 0.028495777 -0.00265142 0.0759887
0.05947087 0.12432886 -0.090985306 -0.09123042 -0.10545353 -0.033274293 0.020920299 0.006050299 -0.025530484 -0.104000084 -0.041436862 -0.054632995 0.017476695 0.22459958 0.084770806 0.1894349 -0.06829624 -0.06590516 0.10027155 -0.09443981 0.24556231 -0.062196154 0.17613561 0.13691102 -0.12909026 0.07342504 0.080068745 0.021071374 0.01679683 -0.060178515 0.04828981 -0.10939143
-0.059016984 0.045461386 -0.10182569 -0.023399856 0.043125853 0.05248352 -0.07381108 -0.05428962 -0.015702253 0.0034675978 -0.0069157244 0.023276938 0.0013323497 0.11950575 -0.07113673 -0.093683794 -0.06742942 -0.018752685 0.021637296 0.018117242 0.005924854 -0.049758285 0.041466314 0.0351959 0.0031373166 -0.091762945 -0.063374095 0.0052487445 -0.07706762 0.09314519 0.079844065 -0.06240727
-0.061828095 0.068300776 -0.048059173 -0.029646797 0.086146064 -0.09363751 -0.12769872 -0.0698016 -0.06731914 0.057282437 -0.048396856 0.04312767 -0.018594759 0.026963452 -0.005186624 -0.053183783 0.030338947 -0.067704 0.03870833 -0.11293596 0.09533039 0.04407887 0.028764777 0.009395436 0.028996723 0.014920026 -0.04686667 0.1133531 -0.031362645 0.07620766 -0.0034794381 0.066187106
-0.10363173 0.07054369 -0.047500588 -0.09569944 -0.07053946 -0.07614452 0.015487693 -0.040456228 0.03410275 -0.078898475 0.03209432 -0.08940429 -0.0042130114 0.07731002 0.07014018 0.04665073 -0.089782126 0.07799484 -0.11392853 -0.05482801 -0.06415873 -0.11373712 -0.06331732 -0.10501272 0.029432554 -0.042241115 -0.04500658 0.09787085 0.056742664 0.03865572 -0.09060528 0.072824985
-0.01684006 -0.020417497 -0.0013296516 -0.047347 0.05031996 -0.029082865 -0.060572367 -0.081749275 -0.09778312 0.10649107 -0.122277945 -0.004930914 -0.0653474 0.027596269 0.052447055 0.0635748 0.056618758 0.09262071 0.0032801447 -0.002048627 -0.027787557 0.03499425 -0.08479714 0.035386715 0.04788992 -0.07263022 0.023953468 0.07244374 0.033716507 0.08403138 0.03901026 -0.035332203
0.07087738 -0.044933025 -0.101221085 0.099108376 -0.051950075 -0.008269768 -0.076922655 -0.0175844 -0.13839778 -0.0055567925 0.048766777 -0.050085172 -0.024435606 0.042210348 -0.14042833 -0.04215159 -0.00040492657 -0.07720202 0.0037485294 0.024116002 0.082294255 -0.095054775 0.12290889 0.07748569 -0.07385203 0.058912147 0.11522754 -0.039625768 0.078223325 0.06874343 -0.016295085 -0.17813836
-0.026105305 0.032383658 0.03424772 0.029101508 0.05523057 -0.035582684 -0.04243423 0.11576689 -0.14338835 -0.16560623 -0.010300731 -0.12177467 0.03797997 0.023995252 0.049195502 0.1409043 -0.020220123 -0.08922255 0.006209438 -0.07848699 0.10482167 0.123224735 0.04644205 0.0862609 -0.035503183 0.0019381264 0.100744285 0.08217373 0.09671518 0.009616782 0.05593927 -0.027973898
0.0069584353 0.07386465 0.032484837 0.07051223 0.050617743 -0.02654907 -0.06090467 0.011559267 -0.10110595 0.0030633046 -0.050810818 0.008989841 -0.15864725 0.14948112 0.009134628 0.053751323 0.011686118 -0.07544821 -0.03424599 0.054813795 -0.072508454 -0.097139545 0.16846319 0.08179947 -0.124507315 0.10531103 0.018510489 0.06483245 0.14104466 -0.0934747 0.11373183 0.020288866
-0.014559902 -0.08293681 0.091544494 -0.04678405 0.07544247 0.02538564 0.027994186 -0.06292854 -0.088165626 0.04210129 0.05310949 0.08233498 -0.011173277 0.08084764 -0.117669955 -0.022778826 -0.008910313 -0.018704658 0.100092724 -0.057905126 -0.0030989521 0.04996358 -0.11926016 -0.0067526014 0.056992125 -0.07205652 -0.029029774 0.06771092 0.036088668 0.11640627 -0.040035456 -0.07595457
0.028078716 -0.007996583 0.0034730104 -0.05077178 -0.12307283 -0.040664766 -0.10109385 0.105465844 -0.004080913 0.08648263 0.04607943 0.06391394 0.0055408473 -0.10433865 0.04886557 -0.032847993 0.023563521 0.012214185 0.017030975 -0.09243743 -0.017600365 0.045834925 0.06794241 -0.09713376 0.05975523 -0.01964574 0.043340284 -0.0019223146 0.044518836 0.09600923 -0.07141688 0.11373666
-0.07292401 0.11729584 -0.03757074 -0.06934327 -0.091330044 0.049441975 -2.5993439e-05 -0.07331707 -0.023758827 -0.04142813 -0.065089166 0.0056117726 0.111372106 0.03841787 0.10203269 0.11088182 -0.07753323 0.0018528871 0.09195343 -0.016237693 0.027442576 0.023942908 0.09265557 0.11879148 -0.11138944 -0.02626103 0.06512953 0.17549388 0.07264499 0.01146131 -0.058901634 0.0012302347
-0.0446955 0.030483903 -0.06527987 -0.082837656 0.028825507 -0.0688047 -0.017389823 0.05789335 -0.080761604 0.041579854 -0.058485072 0.05462343 0.053217087 -0.03679012 -0.03792129 0.0602854 0.088636726 -0.02193423 0.052260246 -0.043389354 -0.004292285 -0.02653926 0.017715855 0.065627754 0.10185906 0.027759135 0.034915537 0.023090543 0.013169858 -0.028628383 0.020727362 -3.1318217e-05
0.027954197 0.03551232 -0.11594978 0.058835134 -0.033119954 -0.012756235 0.123581365 0.005204936 0.048805494 -0.08154068 -0.1027242 0.044007074 0.061214272 -0.032347884 -0.046929374 -0.0542238 -0.00018380875 -0.06631149 0.08193526 0.072096005 0.082918264 0.09381259 0.052391294 -0.057181038 -0.022913225 -0.033606097 0.03069855 -0.024436045 -0.054699227 -0.07383543 0.04007372 0.018375
0.028879367 -0.07592959 0.08841432 -0.08740468 -0.017775908 0.036129303 0.022255901 0.04470052 0.03486743 -0.06896575 -0.07340022 -0.092266016 -0.106259376 -0.038084228 0.035440687 0.019594885 -0.14327632 0.024440547 0.075360656 0.017284475 0.06592966 0.03950368 0.060433615 -0.012498931 -0.06713143 0.0062001594 -0.0055784904 -0.08963986 -0.011887126 -0.051110234 0.12687789 0.034332544
-0.07031667 -0.0048795943 -0.04094759 0.11420589 -0.05094104 -0.05594112 0.13518417 -0.032806832 -0.11324355 0.05503191 -0.061892293 -0.09354848 -0.08524826 -0.0022089079 0.03680349 -0.15492156 0.048077263 0.092633076 -0.08514396 -0.00043495317 -0.09512996 -0.024192829 0.06888052 -0.018519316 0.06244311 0.036005504 0.100695044 0.10354353 -0.073548764 0.05185594 0.028021056 -0.107471935
0.04090718 0.034667503 -0.06088152 -0.097844996 -0.03659119 0.012117702 -0.024519086 0.093318634 -0.13555208 -0.11128068 -0.056178235 0.03247087 -0.04501032 0.0098680705 0.09831931 0.064177595 0.02548042 0.035137806 -0.041303474 -0.10810682 0.09659188 0.034164444 0.06549295 -0.07131974 0.048648167 0.106336735 0.040764336 -0.031011114 0.0957613 0.060029678 0.08275624 0.053738702
0.066731334 -0.0028275915 -0.0038955146 -0.11865679 0.008937285 -0.052699223 -0.026759867 0.013715824 0.011880276 0.06681848 0.027549142 0.06167397 -0.03034704 0.1119246 -0.03450203 0.03913026 -0.022840498 -0.12762472 -0.107810006 0.019066727 -0.0423871 -0.10077696 0.039994244 0.097818755 -0.10025147 0.030865993 -0.039076664 -0.024364796 0.017845869 -0.10443694 0.04094907 -0.07317787
0.061355174 0.22832693 -0.091936894 -0.11623939 -0.019204173 0.101882435 -0.027800132 -0.14181297 -0.017864734 -0.049392328 -0.043768153 -0.010433622 -0.077831335 0.07694182 -0.014468767 0.07836452 0.043027043 0.10860951 0.023253443 -0.082889825 0.17368732 -0.10375759 0.14324665 -0.044262283 -0.08980199 0.12326559 -0.011082128 0.030301435 0.007329929 0.020585641 0.062534004 -0.10289137
0.022901632 0.0816175 -0.0007256791 0.042287774 0.010333754 -0.071475185 -0.009958044 -0.023664847 -0.087825656 0.05874645 -0.084959865 0.040793277 0.09523039 0.023266308 -0.027678087 0.025193445 0.044274814 0.009794667 0.002783604 -0.09816862 0.083781116 -0.07529235 0.024630003 0.05814565 0.094757445 0.03901463 0.07166471 -0.021102011 0.091799505 0.06454293 0.035264872 0.0699765
-0.06723335 0.15383834 -0.040383786 0.046960603 -0.11335757 0.097875915 -0.0962194 -0.068081565 0.020350538 0.040969934 -0.11305509 0.025052361 0.18126763 0.18267852 0.1314763 0.2586726 -0.07217627 0.06857969 -0.01673542 -0.043979187 0.12693906 0.030005569 0.083278865 0.085616484 -0.17876092 0.16915686 0.061234314 0.09046742 0.20182621 0.012800715 -0.04317719 -0.22695012
0.04622208 0.14064014 -0.09945883 0.032377187 -0.057443622 0.039082725 -0.12117998 0.077145174 0.007725953 -0.011705246 0.022331212 0.10565548 -0.0031864797 0.22757126 -0.026442273 0.12714997 -0.09855237 -0.11684514 0.10660216 -0.046636276 -0.011456902 0.07838687 0.077520475 -0.017604144 -0.066702776 0.18515585 0.08715153 0.12854257 0.19884998 -0.13084538 0.13179119 -0.15747675
0.017806353 0.04685042 -0.0056012855 0.07864823 0.067249276 0.07309656 -0.0037084972 -0.13527332 0.034112044 -0.083839275 0.09396405 -0.12409859 -0.1100037 0.17060128 0.07494856 0.11804292 0.038715307 -0.034264274 -0.03972748 0.021194113 0.080670014 -0.056718558 -0.06468974 0.09636586 -0.073572904 -0.0018554567 -0.08359643 -0.024742559 -0.02415344 -0.03473873 0.12654936 -0.06774987
-0.07029181 -0.13552538 -0.035649575 -0.08169182 0.036705356 -0.09115329 -0.078676 0.07443111 -0.13523667 -0.046991266 0.013712478 -0.07121 0.075093865 -0.076815 -0.0380828 0.02680242 0.054372866 -0.013070342 -0.022897225 -0.076059476 -0.07403943 -0.080591954 -0.08265508 -0.006907929 0.09421264 -0.031702854 -0.07125258 -0.048402403 0.09211573 0.09699883 -0.11686995 0.104406856
-0.11513961 0.028056711 0.007837914 0.028230004 -0.010026287 -0.055866353 -0.068240315 -0.062617265 0.046221424 0.020579442 0.0358565 0.038710102 0.015107137 0.063369654 0.026161993 0.14645252 -0.073460475 -0.10414582 0.012939755 -0.15887183 0.12177898 0.09096831 0.14313528 0.1694989 -0.07629112 0.1689463 0.06912756 -0.03623658 0.17353381 0.023614509 -0.069347344 -0.07280248
0.0030683256 -0.17665736 0.06662776 0.08108781 0.22456037 -0.11477069 0.14114948 -0.043911017 0.007747068 -0.0012582616 -0.023138145 -0.0341967 0.016802343 -0.07836723 0.008564292 -0.02093352 0.2758758 0.1797572 -0.005330001 -0.089189775 -0.015335523 0.013423383 -0.17145829 -0.13343832 0.072338626 -0.023201447 0.0044868374 -0.103485234 -0.09782895 -0.010154748 0.048942327 0.11053486
-0.11022719 0.0068372292 0.06869427 -0.10362646 -0.0049168626 0.03863861 0.010333567 0.051475845 -0.012969718 0.020718407 -0.08313759 0.009704857 0.06408965 0.05065114 0.016137276 0.07955628 -0.034336768 -0.028204786 -0.07098195 0.061040394 -0.06561581 -0.015921416 0.07890043 0.06894617 0.04990457 0.038875666 0.09241046 0.051551927 -0.04695773 -0.0044216327 0.0013516669 0.0058302344
0.06107052 -0.011453466 -0.09063137 -0.0028579903 -0.09039212 0.013248333 -0.08945617 0.052673206 -0.0397583 0.011505424 0.04960727 -0.052335437 -0.027796146 0.06701335 0.009436884 0.08102083 -0.05977001 -0.06108883 -0.01909658 -0.06583039 0.025744278 0.119699396 -0.052416183 -0.03370826 0.059509758 -0.09640394 -0.040648654 -0.028039966 0.09535798 0.107592575 -0.057211738 -0.009735541
-0.03416775 0.07830096 0.059004556 -0.049470447 -0.041045412 -0.04342811 -0.054705437 -0.082335345 -0.011913564 0.012322167 0.040924646 -0.006104965 -0.039652962 0.12046255 0.022789601 0.13398483 0.0013656759 -0.008620992 0.0026080264 -0.1374794 0.04928958 -0.082749546 -0.008380056 -0.010914586 0.0069268304 0.080851115 -0.052617628 0.03007563 0.15249245 -0.026776548 0.059006907 -0.03616025
-0.08707257 0.05277614 0.0017529174 0.0005856129 -0.09854166 -0.007411514 0.036883667 -0.16018897 -0.018322883 -0.12343018 -0.010511055 -0.02526586 0.07733592 0.02410164 0.04547201 0.039016616 -0.031601883 -0.11190569 -0.093716 0.03198165 0.0045441343 -0.08953311 0.014802633 -0.0742761 -0.052587405 0.02663005 -0.015032712 0.0041246545 0.08195735 0.028409742 -0.06984594 0.0029590498
-0.11982076 0.15145005 -0.10759802 -0.04398317 -0.10129453 0.057351355 -0.09947755 0.021458995 0.009619277 -0.11436132 -0.102291815 -0.12516044 -0.018074548 0.105874285 -0.0393879 0.058670342 -0.06427049 0.01587941 -0.029780878 -0.09170417 0.057151645 -0.046274427 0.060597003 0.18202132 -0.10831173 0.17527425 0.10667978 0.06978267 0.12959133 -0.14312224 0.06971854 -0.11555447
-0.089478634 0.14682312 -0.120858245 -0.045301493 -0.06483248 0.084452316 -0.09505095 0.018865732 0.0037444772 0.056030426 -0.021034138 0.024585659 0.016528582 0.17240821 -0.005062863 0.25330368 0.04653147 -0.049734596 -0.09780247 -0.13064076 0.08980676 0.046545938 0.07949407 -0.039760824 -0.15007162 0.14223419 0.07620854 0.07167048 0.11070526 -0.08999663 0.12478571 -0.0783679
-0.10487907 0.041690454 0.05262542 -0.023791412 0.10150476 -0.108078934 0.046310127 -0.068767756 -0.06851803 0.0025310665 -0.044746634 -0.099095166 -0.0691449 -0.06011751 -0.017903274 0.026334554 -0.0020051985 0.06337281 0.008838764 0.038770612 -0.05763273 0.023925768 -0.10640864 0.07002146 0.056715492 -0.11107606 0.027297083 0.07677023 -0.06443629 -0.10343523 -0.07658248 -0.02450263
0.0981829 0.11169196 -0.006034967 0.023209747 0.02306572 -0.10049567 0.062698804 -0.021740768 -0.010770295 -0.0015209976 0.07547494 -0.04103104 -0.077755585 0.11396079 -0.041358523 0.026415773 -0.068694435 -0.02943516 -0.060661104 -0.026602756 -0.008595064 -0.054556478 0.12435029 0.19366995 0.03312349 0.07968087 0.07051728 -0.03237629 0.018478105 0.009693327 0.13837333 -0.06946285
0.07850266 0.09949671 -0.09981142 0.07398424 0.10235824 -0.029937832 -0.09082423 -0.01694774 0.064124756 0.055008568 -0.09560191 -0.08838753 -0.099363744 0.05970017 -0.022692252 -0.106626995 0.076277874 0.028238831 -0.064006805 -0.017013578 0.049221992 -0.0010707943 -0.093209505 0.09142741 0.00698305 0.048142705 -0.06968091 0.034981307 -0.07634712 0.003057118 0.08654857 0.018632706
0.06923155 0.026743887 -0.022244433 0.064365886 -0.001297646 -0.008603937 -0.13114285 0.086812 -0.0753105 0.08107738 -0.08054599 -0.05387566 -0.042142812 -0.018735094 0.016058272 0.12541217 0.047319688 0.09319118 -0.09419405 0.043745343 0.033474363 -0.03503678 0.089988954 0.072661854 -0.11327967 0.082998574 -0.114813544 -0.045690935 0.0512008 -0.05477062 0.00828759 -0.008095288
0.08447421 0.054046623 -0.049095415 -0.0775429 -0.0231251 -0.108477175 0.041751202 -0.035379328 -0.019574491 0.06406034 -0.10891669 -0.06328964 0.059742052 -0.0009975246 -0.003640543 0.08711017 0.03749472 0.036876827 -0.08648367 -0.012746251 -0.07992598 -0.04805473 0.06537225 -0.052251644 -0.08483779 0.08412843 -0.036949717 0.01079157 0.0485545 0.06233804 0.048195843 -0.0074425275
0.020860547 -0.016954448 -0.08824668 -0.07857834 0.09629841 -0.1291787 -0.055221505 0.096057676 0.07091598 -0.06311411 -0.10572743 0.030366385 0.018700214 -0.053718813 0.07303975 -0.13089995 0.06868418 0.033623464 0.01767163 -0.015660554 0.020464867 -0.1405227 -0.0609458 -0.010783416 -0.05269734 0.019537212 0.0230602 -0.10681408 0.03011864 0.0863168 0.019390283 0.057702456
-0.054784536 -0.034136962 0.13975519 -0.01954923 0.12448193 -0.13266107 0.040914122 0.08797552 0.07433438 -0.047005832 0.05804706 -0.11477549 -0.03912894 -0.043854676 -0.03065518 -0.12042049 0.111991085 0.05260901 -0.07044313 0.05959097 0.04996514 -0.052451145 0.028692828 0.08065649 -0.04024761 -0.011741659 0.04992518 -0.05558942 0.015286365 0.07979684 -0.049269866 0.058487803
-0.010074191 0.19913948 -0.12553003 -0.040455442 -0.02676221 0.024210284 -0.11863936 -0.029798275 0.026575254 -0.13366349 -0.028019164 0.0113976095 0.06621147 0.119903155 -0.029864287 0.094517596 -0.03877824 0.035898242 -0.07133718 -0.08156911 0.06009216 -0.018670771 0.12926458 0.15276729 -0.16584118 0.116119124 -0.10859555 0.06809902 0.22766249 -0.08025128 0.1308907 -0.22369772
0.020269996 0.04997795 -0.00470564 0.04123625 -0.10705527 0.05299204 0.0061172936 0.062027793 -0.07932011 0.047478143 -0.048190188 0.055488296 0.058638997 0.14603299 -0.031964935 0.011945272 -0.020335216 0.08064069 -0.093006104 0.10699014 0.0807305 -0.051276695 0.079707414 0.04353407 -0.105586305 0.16162966 0.0060988776 0.09695513 0.08151498 -0.056313522 -0.10665473 -0.03534602
0.0036454294 -0.048395798 -0.06733115 -0.07996243 0.021028817 -0.01014453 0.008600677 -0.056366954 -0.016236972 0.055132385 0.004950014 -0.0061352206 -0.09581394 -0.034289055 0.052012827 0.042724334 0.07376877 -0.023043014 -0.037106395 0.06566217 0.04386888 -0.028300295 0.034293734 -0.06469102 0.061075807 0.113493755 0.0940155 -0.07685147 -0.030092949 -0.083479665 0.13787848 -0.009934018
-0.007899459 0.1247795 0.017708499 -0.092710264 -0.009731768 -0.06533242 -0.00297564 0.011311624 -0.05800143 -0.04631758 0.010196679 0.054170225 0.028565742 -0.023674358 0.11288602 -0.0018125314 0.0032837654 -0.11180561 -0.15988423 0.07099789 0.012914281 -0.079073496 0.12503767 0.0430273 -0.068299346 0.012175442 -0.08060227 -0.056939017 0.0034422746 -0.009562806 0.009202112 -0.04689084
0.021774642 -0.058925107 -0.006430246 -0.036620334 -0.098884724 -0.08074303 -0.04930902 -0.07984507 -0.0047358396 -0.11804923 0.013304668 0.006372708 0.019041082 -0.005410453 0.028880028 0.10673946 -0.032855395 -0.031179175 -0.054088145 -0.06612066 0.11086502 -0.0013111104 0.017431054 0.17703384 -0.08557175 0.13920312 0.12762465 0.120588765 0.004009058 -0.10017393 0.039497253 0.028151173
-0.05062384 0.11116174 -0.08633009 -0.011280724 -0.103421375 -0.09108337 -0.14367329 0.037094492 -0.011533562 0.043858565 0.043190453 0.02565684 -0.0801896 0.15229347 -0.0068445653 0.022268282 0.021340512 -0.11266476 -0.039313223 -0.11613476 0.08072158 -0.09836284 0.16837347 0.12761603 -0.10557845 0.10790254 -0.106675565 -0.013977093 0.042427402 -0.03170461 -0.09205635 -0.0057898364
-0.0033671833 0.09875812 0.09538317 -0.09753549 -0.06622766 -0.03882144 0.10928117 -0.058794662 0.09740671 -0.07028713 0.050974615 0.051554564 0.07946474 -0.08371765 0.057844467 0.026999308 -0.0076119197 0.0057244105 -0.058457267 -0.12588772 0.043489568 0.01435113 -0.05563117 0.021033697 0.059502944 0.054604374 -0.0015161127 -0.034487866 -0.018106729 -0.108439006 -0.059702974 0.112101965
-0.098558106 -0.0408971 -0.026065536 -0.02090935 0.075088635 0.016040115 0.054325197 -0.11146513 0.042350635 -0.049024217 0.016682139 -0.012058899 -0.09119316 0.06486862 -0.022831831 -0.0034228012 -0.018949771 -0.122040525 -0.090664506 0.03470042 0.17625235 0.070002176 -0.024620228 0.059151147 -0.052149404 -0.08246943 0.039769035 0.12071586 -0.08190621 -0.0065447153 -0.0878314 0.041053575
-0.0752303 0.030090265 0.041202523 0.056953933 -0.060673967 0.07453507 0.12617545 0.10038709 0.051171068 0.10874793 0.012987056 0.109999165 -0.025795579 -0.018004958 0.029754806 -0.058140267 -0.014283035 0.018679736 -0.07675484 0.14896938 -0.08006275 0.047815625 -0.1039769 -0.10839445 0.08683312 -0.013851599 -0.050325483 0.01169091 -0.06486417 0.14128262 -0.01436062 -0.048407976
-0.08965615 -0.03819247 -0.034177978 0.06521986 0.01264234 0.017967343 0.05804987 0.116334714 -0.016580312 0.032049518 -0.09245112 -0.029593235 -0.033376206 0.0041108336 -0.081251524 0.02182809 -0.07947195 0.07908651 -0.011727264 -0.102595866 -0.013217239 -0.08027211 -0.052478854 -0.031188939 0.05990922 -0.058019124 -0.046827834 0.05363857 -0.020666398 -0.11404846 -0.067192435 0.037447345
0.021967893 0.06221927 -0.031872414 -0.047128104 0.011061709 -0.074595734 -0.15634347 -0.106863916 -0.011706604 0.015926845 -0.11983094 0.06378712 -0.07229121 0.0462542 0.111827254 0.025241619 0.049146835 -0.04696401 -0.02440256 -0.13202183 0.16698724 -0.08380263 0.08149376 0.09894602 0.042838164 0.06969176 -0.03933442 0.09060119 0.03214222 -0.028831387 0.0625305 -0.1174177
-0.11308844 0.22597918 0.07742474 0.011832609 -0.07883483 -0.0894981 -0.17758138 -0.11508499 0.005141571 -0.1468537 0.04916702 -0.05908566 -0.06701642 0.036841348 -0.03940631 0.19860421 -0.03854648 -0.0222125 -0.03905639 0.028680906 -0.08856384 0.07709372 0.21936728 -0.05369965 -0.14443618 0.12079098 0.09608244 0.08067276 0.2197694 -0.032321185 0.103446074 -0.1076996
0.06776459 0.078879856 0.04690013 -0.063003756 -0.06860617 0.05935272 -0.009445421 0.029959522 -0.04606465 0.10395437 -0.09993169 -0.094482735 -0.095080264 0.040544085 0.044793166 0.073925294 0.07670302 0.042356975 -0.050175846 -0.048103172 0.0007118583 0.03463193 -0.028312929 0.086269684 -0.08428229 0.042975195 0.019039653 -0.027365781 -0.014295891 0.06675679 -0.043556996 -0.06656274
0.064789295 0.11046365 -0.088531405 -0.111797504 -0.027420973 -0.071040764 -0.027635101 -0.046924762 0.120860025 -0.026809284 -0.029108535 -0.02691536 0.10058275 0.19787271 0.090715066 0.06594991 -0.028214686 -0.17692019 -0.0789233 -0.003383195 0.12010077 0.14637391 0.119769625 0.182065 -0.17788705 0.1570584 0.019467542 0.13121496 0.15811932 -0.007901244 -0.007353433 -0.10503387
0.04497547 0.016946398 0.017474275 -0.09942774 -0.07052685 -0.079607785 -0.08111243 0.008199595 0.028451715 -0.011695735 -0.07280316 0.04100476 -0.01001223 0.004656178 0.080406874 0.003412065 -0.033662215 -0.10934053 0.027653106 0.086036265 0.14504844 0.061999403 0.003130016 0.12877035 -0.08969486 0.13237642 -0.04065488 0.016789025 0.16595666 -0.085011825 -0.06123498 -0.042611394
-0.025371978 0.009056875 0.05805427 0.07629934 0.06469436 -0.12848392 0.008101451 0.0038265313 -0.005141599 0.05009753 -0.07941564 -0.1103473 -0.071534805 -0.017654752 -0.016098011 0.038206745 -0.047178056 0.02795783 0.0006462178 -0.014008848 0.03800808 -0.021505997 -0.012562271 0.02936167 0.05526625 0.09419967 -0.003239221 0.028927004 -0.049864486 -0.045209996 0.012817324 -0.011001097
-0.011747975 0.028630719 -0.12637235 0.0802916 -0.079991035 -0.056223262 -0.08418826 -0.017391142 -0.03986773 0.06140006 0.0055893348 -0.08819367 -0.041242167 0.027859908 -0.11367705 0.17564653 -0.039424542 -0.077178024 -0.053395245 -0.059188012 0.07562814 0.049191825 0.20074755 0.03779529 0.007860341 0.1554558 0.06732876 0.058240637 0.10828836 -0.007928203 -0.07096222 -0.13015763
-0.03667918 -0.059246622 -0.04261706 0.031114578 -0.056787487 -0.0940173 -0.064159475 -0.02280693 -0.06448918 0.082288094 -0.05606043 -0.044302687 0.043684248 0.061301142 0.081055306 0.0033246165 0.048766766 -0.026627498 -0.052100718 0.0074794623 0.030706683 -0.018209793 -0.1488924 -0.14669524 0.046247493 0.069381766 -0.13503312 -0.09517022 0.062782094 -0.13535915 0.08923709 0.09394757
-0.07349073 -0.052125584 -0.08423618 -0.07860457 0.011686542 -0.09802826 -0.12948254 0.0115398215 -0.059311297 -0.060573913 0.02327591 0.047707908 -0.072018616 0.024770005 -0.0692394 -0.057659067 -0.076193124 -0.06280194 0.09952401 -0.02800458 0.10463648 -0.0448196 0.0597997 -0.08560896 0.07070022 0.14135148 -0.049701087 -0.11800916 0.09321516 0.094419725 -0.002680703 0.015037762
-0.029977825 -0.01035973 -0.01641686 0.05809804 -0.0055210656 -0.057242017 -0.05304335 0.049417604 0.054294635 0.03177418 -0.090780556 0.0686771 -0.01915491 -0.0030877388 -0.06751706 0.087476835 0.078846395 -0.025040144 -0.13473733 0.034837894 0.10414049 0.018659959 0.026585003 -0.0333156 -0.05764024 -0.059593022 -0.1072251 0.11272223 0.04244602 0.021310579 0.097725615 0.012108434
0.03961142 0.060264654 -0.0016127963 0.048372384 0.050739605 -0.05907421 0.018364707 0.025299955 -0.06839058 0.03549787 0.0019504349 -0.003517949 0.0593901 -0.03857289 0.03601836 -0.062433023 0.051587146 -0.051038563 0.05922998 -0.050537832 -0.04725357 -0.037220024 0.07020336 0.0033547624 0.08358744 0.12175507 -0.10332196 -0.062296484 -0.014343939 0.04516797 -0.080852285 -0.07987675
-0.009910211 -2.6326e-05 0.04736546 0.09014174 -0.04464814 0.03283767 0.0049392725 -0.0040932414 -0.005122185 -0.10192161 -0.080001846 -0.059003003 -0.13446529 0.11854119 -0.022237062 0.07203923 0.022809511 0.027482836 0.03304108 0.044316296 0.06502898 -0.085056745 0.18355215 0.108099364 -0.0368443 0.15811293 0.044217907 0.03113065 0.0504179 -0.120131634 0.055489115 -0.13946122
0.07805623 -0.067442596 -0.05729575 0.10864212 0.023599189 -0.13731615 0.017130539 -0.024482552 -0.084396824 0.0032529787 -0.081049845 0.0068292045 -0.05250617 -0.007365719 -0.00045117218 0.0983134 -0.015175308 -0.02078603 0.047346275 0.054099005 -0.023742449 -0.13850068 0.05272497 -0.05220795 0.0010680795 -0.10238312 -0.06717237 0.06836843 0.028648589 0.08526777 -0.0017757155 0.033326115
-0.09126706 0.06321235 0.08209491 0.005758713 0.02100775 0.070105955 0.022570604 -0.060224563 -0.12554024 0.05986494 -0.0024523297 0.07412064 0.043076485 -0.007408516 0.0012923168 -0.10095967 0.011914405 0.025006317 -0.015624076 0.10552922 -0.053667158 0.03196609 -0.04463929 0.03245681 0.04610142 0.01683888 0.034570273 0.026699388 0.04978261 -0.0034424448 -0.1043012 0.07346365
0.05031437 -0.09298859 0.08562471 -0.090329915 0.022941826 -0.10718217 0.031222265 0.16478784 -0.07274308 -0.030122872 0.049333643 -0.0045959917 -0.0360539 -0.14484057 -0.07007037 0.019570768 -0.035211515 0.06239822 0.0773908 0.074118055 0.08751773 -0.008263546 -0.073441975 0.08372583 -0.07966579 0.01744299 0.090869084 -0.074403204 0.052969683 -0.012229156 0.063694775 -0.04921518
-0.08855935 0.07789912 -0.037172478 -0.03143841 -0.117025115 0.019522328 -0.09186596 -0.07237533 -0.07300902 -0.111839846 0.007023978 -0.05725672 -0.05648933 -0.0023750053 0.0014130095 0.07319048 -0.025216863 -0.01844244 0.05078197 0.07081706 -0.05501192 0.0036585848 0.127722 0.121018514 0.028676828 0.05238726 -0.03028764 -0.013734462 -0.0008960924 0.047915988 -0.01602555 -0.015677154
-0.019802134 -0.023609003 0.0046248036 0.04330907 -0.0062413015 0.014593583 0.020345666 0.09013177 -0.055008437 -0.11906801 0.072303966 -0.08012897 0.039962772 -0.087692544 -0.09442755 -0.066763856 0.077149294 0.10912133 0.03255091 -0.0011024066 -0.05808515 -0.10220174 -0.043460537 0.1339365 0.030943312 0.121319555 -0.065169744 0.020050345 -0.032340005 0.046491142 0.002493004 0.042225856
-0.040636856 0.072050855 -0.06775284 0.024139946 -0.010383077 0.03452235 -0.012945344 -0.07792513 -0.022121534 0.0016653729 0.07269173 -0.08069315 0.045454856 -0.10182955 0.014704576 -0.031322937 -0.105242625 -0.0025174518 0.0043374803 -0.05219322 0.008763014 -0.030583944 0.009724189 -0.07710297 -0.029457131 -0.082749456 -0.066331975 0.074509755 0.06898389 0.053823773 0.021703111 0.061320707
-0.09722961 0.080080055 -0.04032157 -0.025672168 -0.030164642 0.06263292 0.027540442 0.07464019 -0.05310534 0.09316585 -0.0632573 -0.06908594 -0.038219232 0.028691668 -0.08920759 0.09135628 -0.071372055 0.05545747 -0.027105255 -0.11233602 -0.032241162 -0.037877195 -0.06035112 0.10475836 -0.005169219 0.09900674 0.056230374 -0.033855967 0.096924685 -0.10636829 -0.06043952 0.003956126
-0.06684728 0.22266975 -0.033550918 -0.005904662 -0.0009477753 -0.051048264 0.017684262 -0.06348567 -0.017009707 -0.059205323 -0.121452235 0.021965642 0.06730251 0.18145098 0.10830613 0.16870856 -0.110366456 -0.0959278 0.034599304 -0.007853367 0.038265653 0.029644122 0.12296664 0.13919353 -0.18828812 0.040729843 -0.021968232 0.032436356 0.17916758 -0.08207254 0.016035423 -0.013007595
-0.06633034 -0.11862484 -0.050890755 0.07361163 0.0277706 -0.007002542 0.14004701 0.0070524337 -0.026052784 0.026770951 -0.08204366 0.01703916 -0.08461503 -0.09223253 0.039152425 0.10477355 0.06860076 -0.048111834 0.04997098 0.052325662 -0.043727 0.045387037 0.060147043 -0.0370598 -0.014972015 -0.029178957 0.02991188 0.12032899 0.055413824 0.05548275 0.15889403 -0.04777543
0.032493543 -0.0065018563 0.052575063 0.011722282 -0.0432872 0.057757173 0.045641452 -0.08520542 0.09599742 -0.040621456 0.015289841 -0.05023127 -0.0708339 0.114259824 0.06873335 0.14519708 0.028847422 0.093375355 0.098556146 0.017730579 -0.05991727 -0.052826293 0.03275091 0.07453529 0.028419085 0.018901482 -0.08895025 -0.07382991 0.09053069 0.10365041 0.0552631 -0.11487381
0.15685259 -0.07543861 0.13515452 -0.008856489 -0.03490865 -0.11692809 -0.0034880983 0.08735072 0.09874395 -0.14190826 0.046209496 -0.013576556 0.048454244 -0.067719795 -0.00090051023 -0.051439725 0.12353468 0.0709469 0.048109494 0.083010815 -0.025958855 0.09696814 -0.004343139 -0.11795865 -0.058349557 -0.060851324 -0.015360754 -0.14379597 -0.012007795 0.050504 -0.070573 0.116807796
0.07377381 0.11474655 -0.015963685 0.05170062 -0.04464785 -0.010337684 -0.062454876 0.026610443 -0.03293719 -0.0036547263 0.037123263 -0.049814086 0.01872664 0.10767522 0.0886112 0.19812328 -0.0027125194 0.012495222 0.11171136 0.045956433 0.045676216 -0.04489291 0.12194318 -0.07201567 0.0041095847 0.18141407 0.007509604 0.06296645 0.1886771 -0.012406597 0.000818106 -0.044041675
0.05334655 0.12032541 -0.08504997 0.016030252 -0.040613372 -0.08018438 -0.039113853 -0.00012703647 -0.040443163 -0.0677144 0.059883215 -0.041335996 -0.039764006 0.055056583 -0.003769772 0.1605214 -0.11121034 0.055267736 0.0471584 0.018261267 0.12463274 0.046012405 0.17630251 0.15209378 -0.05665303 0.1066807 0.03866493 -0.01543307 0.20105714 -0.0906279 0.019984888 -0.10077745
-0.07128558 0.02245456 -0.04579656 -0.06462467 0.10057758 -0.0635416 -0.013178437 -0.028118473 -0.05960891 -0.022221422 0.007860575 0.047557507 0.018646356 0.03411529 -0.06666471 0.023037963 -0.07273822 -0.0714024 -0.12073784 -0.004216549 -0.1259788 -0.079548806 -0.08004619 -0.051242493 0.1633202 0.035415113 0.07079587 -0.056982815 -0.05894417 -0.0019131241 -0.07213585 0.054423224
-0.12365098 -0.051632807 0.027627878 -0.011601762 0.10699339 -0.014990843 0.059322704 0.03325435 0.038072575 -0.1324377 0.0064387387 0.020033222 -0.078590915 -0.16437906 0.03199733 -0.19563292 0.002858535 0.04805746 -0.026557725 0.0031976243 -0.02443778 -0.031914633 -0.04949716 -0.14549439 0.06619754 -0.08286931 0.02952651 0.058703773 -0.014301009 0.11573884 0.0031912266 0.06871803
-0.041465692 -0.07795402 0.032893445 -0.003924381 0.0835161 -0.10225532 0.08327076 0.050776593 0.06470381 -0.04727396 -0.039253432 -0.007207639 0.016699811 -0.08646922 -0.0110823205 -0.037630536 0.03652778 -0.06865102 -0.018075274 0.016231203 0.027152268 -0.08333505 -0.098362036 -0.1022472 0.15247707 -0.08286672 -0.016211635 0.0036819256 -0.16472104 -0.0276479 -0.031357195 0.027436154
0.09290307 0.020365868 -0.11087085 -0.102155685 -0.012608574 -0.01971276 -0.00833959 0.09072645 0.035298914 -0.074013345 -0.06374371 0.05162151 -0.09865523 -0.018331429 -0.013566752 0.019450443 0.13108262 0.005181854 0.0015140793 0.027895886 0.10103161 0.039132614 0.010423548 -0.051987223 0.012289299 0.035524055 0.036812887 -0.03728836 0.065377325 0.058804527 -0.10053576 0.04996974
0.027072638 0.083024114 -0.116088465 -0.056883726 0.028807841 0.037334334 0.057568952 -0.10000509 -0.101633444 -0.08573933 0.055286307 -0.10418999 -0.008118345 -0.07053663 -0.11732159 0.07727978 -0.027227286 0.06283362 0.07280328 0.058674593 0.107695796 -0.05090354 0.0018120535 0.12435307 0.076171905 0.059864502 -0.07386238 0.10112443 0.09256778 -0.02521682 0.086875655 -0.11268037
0.024563108 -0.19186053 0.01338111 -0.0940095 0.043076575 0.03312234 0.0029720757 -0.026831912 -0.12612607 0.10575615 0.06735653 0.005491475 -0.0190596 -0.04132934 -0.07258162 -0.0038382693 0.056914933 0.059356254 -0.07829141 -0.018595215 -0.044475984 0.04624967 -0.12295965 0.056961685 0.13782336 0.06128869 0.019870656 -0.1228376 -0.043414485 -0.00068970566 -0.023869269 -0.059164017
0.038583994 -0.0046001864 0.04587518 -0.030062808 -0.031130923 0.02412701 0.016372655 0.005876071 0.015320985 -0.0647809 -0.0039936784 0.058125712 0.08018638 -0.04882256 -0.09492413 0.07163365 -0.048042156 -0.017178409 0.064519845 -0.019193243 0.058703702 -0.067498825 0.09009058 0.044442847 -0.041943725 0.0046381326 0.0006511656 0.008669958 0.04819331 0.03481221 0.011204114 -0.11585179
-0.08004494 -0.033095956 0.09406688 0.08195765 -0.05430146 0.0891947 -0.10681364 -0.023531256 -0.008285924 -0.025897121 0.01436804 0.074483216 0.030007724 0.0022721246 -0.014525489 0.03206517 -0.035852764 -0.028126838 -0.10059797 0.03140233 -0.02548219 -0.05010924 0.030660938 -0.018348744 -0.007121992 -0.017044583 -0.04329685 -0.0010753821 -0.12262239 -0.017384524 -0.020441562 -0.10030493
-0.056880187 -0.039986826 -0.012300774 0.076520115 0.07851901 0.036067814 -0.1262097 0.043572754 -0.009755986 0.03706561 -0.10392262 -0.05004411 0.02154001 -0.041704223 -0.07439346 -0.027190585 -0.017604189 0.1612169 0.06435876 0.061075676 -0.14873931 0.01626132 0.03679018 0.005438792 -0.021766303 0.12396012 0.09442368 -0.13364519 0.08335548 -0.09202985 -0.042564157 -0.0110025
-0.025771223 -0.061810073 0.017480161 0.047483258 0.04745268 -0.06598479 -0.015189322 0.037151262 -0.06201385 0.0021614134 -0.042103764 0.047147565 0.067617215 -0.01463132 0.0706347 -0.08862618 0.008193001 0.0013141707 0.026281662 -0.09893255 -0.048816733 0.09331875 0.0844365 -0.06704277 -0.08253813 -0.0596729 -0.036916263 0.09968213 -0.07806121 0.00038380933 -0.057602976 0.080376156
-0.07231657 0.011656605 -0.025416143 -0.020847067 -0.038540486 -0.12424645 -0.050626934 0.023501623 0.054492988 -0.026785174 -0.024467703 -0.02443145 0.025645344 -0.046970755 0.06895731 0.09266239 0.02863586 -0.013646061 -0.04887548 -0.058652457 -0.08457408 0.0019138479 0.1408526 0.11738482 -0.1498663 -0.025709292 0.0020144419 -0.055787954 -0.049919233 -0.121175736 0.1533448 -0.041458346
0.016207637 -0.015279401 -0.034902632 -0.043839663 -0.011602584 -0.022516048 -0.045802485 -0.03911518 -0.03516397 0.05854322 -0.02280422 -0.055110972 -0.030083872 0.10610552 -0.050104912 -0.09897093 -0.028124804 0.11522739 0.024990287 -0.018853385 -0.10150101 -0.016198557 -0.12707683 -0.08017417 0.049289674 -0.12511826 0.02860112 -0.030540826 0.053466436 0.04613429 0.027893126 0.0716081
-0.06820804 0.08380735 -0.10469552 0.009757618 -0.04931989 0.032568067 -0.07991536 0.017670892 -0.055325486 0.06817727 -0.061162222 0.07857121 -0.070528165 0.032853704 0.08347704 0.020742893 -0.10987943 -0.098517075 -0.038812757 -0.08608182 0.08654454 -0.10789898 -0.035868943 -0.04362008 -0.061504424 0.06971911 0.02747764 0.06936139 0.04936178 -0.049945153 -0.014569437 -0.11450674
-0.05147678 -0.04216541 0.0046046562 0.0031533837 0.060397558 0.033008795 0.11902223 0.09683954 0.029649846 -0.012680604 -0.10313477 0.014808275 0.051923297 -0.0030191885 -0.0063217734 -0.010059507 0.07194314 0.13542403 0.08477782 -0.07997594 0.026074821 0.02756633 0.028469658 -0.044306014 0.063999824 -0.0018187813 -0.08811021 0.01563061 -0.14252824 0.00011752598 0.071330674 0.09001273
-0.06676481 -0.10459573 -0.0261803 -0.04314471 0.0020099538 -0.04842718 0.053367574 -0.054162223 -0.064244546 -0.023662027 0.0783932 0.045873873 0.06022018 -0.034072462 -0.02015441 -0.09729722 0.14383398 0.12441264 -0.026889235 0.03684381 -0.07032808 0.00558308 0.009262074 -0.050577663 -0.0074229464 -0.08852711 0.08066129 0.07084778 -0.07577956 0.002547883 -0.048937008 -0.03959768
0.027748201 0.002836728 -0.07483991 -0.14613627 0.10263 0.0016167428 0.07131695 0.0124546895 -0.032230668 -0.06902256 -0.046127655 -0.0046283593 -0.02040422 0.01962205 -0.040385082 -0.054791227 0.023973357 0.22209822 -0.08470387 -0.12547222 -0.08795406 -0.06882122 -0.095673345 0.0004406962 0.11497373 -0.008529922 -0.028236583 -0.046370875 -0.025098404 0.12578015 -0.073381096 0.042569146
0.055841498 -0.06780479 0.034331977 0.04515169 -0.047028992 -0.046421662 -0.10602398 0.06505375 0.08178055 -0.046442445 0.051609043 -0.004183038 0.018528244 -0.084701695 -0.123204276 -0.07174373 -0.06885415 -0.010202657 -0.07628117 0.07590965 -0.09173959 0.12461062 0.0067615407 -0.044687495 -0.08158173 -0.07915264 0.02074607 -0.08993448 -0.1537186 -0.08048871 0.079182975 -0.08575619
-0.022733012 -0.12530397 -0.012045287 -0.007752611 0.046680506 -0.0607856 0.056373566 -0.08757175 0.0021427586 -0.101098865 -0.0807216 -0.11829888 -0.11697009 -0.07304643 -0.060074188 -0.060632467 0.0050114123 0.08430376 -0.012693278 -0.07060519 -0.10683369 0.01787176 -0.19193108 -0.025542283 -0.10858387 0.048939563 -0.099916294 -0.013397905 -0.103197485 -0.0781178 -0.034089297 0.0031352781
-0.05211023 -0.026263662 0.048823662 0.06471619 -0.13889542 -0.08043124 -0.031948265 0.026105942 0.06156432 -0.106473766 -0.011123319 -0.019854167 -0.004287181 -0.083531104 -0.04454285 0.04759147 -0.018222818 -0.034547582 -0.019695004 0.042046286 0.016001254 0.050018035 -0.027792888 0.063151896 0.095726214 -0.08350964 0.08216097 -0.0469823 0.10297215 -0.013587106 -0.094677135 -0.07268289
-0.07168307 -0.042362638 -0.12814517 -0.07047601 0.03185124 -0.0074346713 0.027662413 -0.041315883 -0.06570551 -0.047626022 -0.08902278 -0.10677605 0.00228731 0.06819265 0.02084985 0.034675915 -0.0886625 0.06887918 0.051533855 0.025012618 0.017051337 -0.07680749 -0.049038038 0.039167043 -0.038431756 -0.023121366 -0.029815365 0.026334666 -0.01887064 0.06611543 0.027196975 -0.04404986
-0.082307875 -0.114901006 0.029823532 -0.06572755 0.048797507 -0.04304763 0.08914351 0.0773816 -0.059270464 -0.0032350298 -0.061188802 -0.06827799 -0.119614415 -0.19194444 0.045434482 -0.12762743 0.05818329 0.11266256 0.019145763 0.08771884 0.016185142 -0.047545135 -0.13704488 -0.04561146 -0.011388482 -0.11707093 -0.12966011 0.03964129 -0.013503814 0.07514433 -0.07055473 -0.02576079
-0.057645697 0.045776382 0.04799646 0.06183196 -0.02935785 -0.105975956 -0.00083496363 -0.03604472 -0.005094017 -0.07014768 -0.005559598 -0.12877406 -0.067783974 -0.05909675 0.034215715 -0.023892593 -0.041185815 0.031133922 -0.058181472 -0.03220829 0.051392194 -0.04087143 -0.06083918 0.071473554 0.061659444 0.038283233 -0.006388091 0.021034738 0.10478008 -0.01424212 0.07439208 0.050105214
-0.043788005 0.1446788 0.05492228 -0.057857085 0.044096824 -0.0014654169 0.028933838 -0.06299139 0.053230897 -0.049275775 -0.024896095 -0.0057315673 -0.06557473 0.14780025 0.093701795 0.024372324 -0.04269213 -0.027467823 -0.067082286 0.049372993 -0.0064022816 -0.065688625 0.15470703 0.08937321 -0.061069597 0.12975809 -0.07017364 0.15538166 0.10858557 -0.07220818 0.06544821 -0.06763214
-0.023211172 -0.0798526 -0.015411886 0.03071532 0.02809062 -0.124955215 0.11183611 0.047115393 -0.094916664 0.06384648 -0.01570723 0.042923026 -0.11242466 -0.10555568 0.08577855 0.030575534 0.07203099 0.024616474 -0.06646978 0.024996664 0.10035449 -0.024652047 -0.047814757 0.011731837 0.05689862 0.008797427 -0.10124707 -0.062640876 -0.106051415 -0.039806854 -0.09661694 -0.01676625
0.041759465 0.08588244 -0.06436428 0.009372489 0.03304616 0.07456406 -0.056154374 0.06412454 0.09737664 -0.07346855 0.09960012 -0.08737022 -0.0055709616 0.034674253 -0.10522132 0.0655706 0.07028499 0.045283798 0.06955884 -0.07014337 0.05438571 -0.06674708 -0.01686353 -0.051064312 -0.007488056 0.051454347 -0.026807725 0.093986474 0.027911287 0.04341397 -0.09602963 0.07537167
-0.005309031 -0.091099106 -0.060256585 0.0765892 0.032109722 -0.06410154 0.06841156 -0.10266371 0.121186204 -0.07613568 0.046336852 -0.077108786 0.08756029 -0.019042175 -0.12416208 0.017056758 0.063645355 0.051728457 -0.06289674 0.045083735 0.0037052424 0.0030203916 -0.051074777 -0.019214608 0.105292775 -0.033892717 -0.04493545 -0.09626284 -0.13187884 -0.07626159 -0.0913151 0.0010085608
-0.048086032 0.0672165 -0.048270892 0.09260911 -0.0590819 -0.017865386 -0.071192585 -0.032404408 -0.029591257 -0.07026064 -0.08202146 -0.09277888 0.048023205 0.038628057 0.06335055 0.039014757 -0.081212014 -0.008168445 0.03127679 0.019385245 0.09806393 -0.07697441 0.030056555 0.062602066 0.015510932 -0.02730721 -0.03413974 -0.018345704 0.043658197 -0.12510283 0.057376303 0.00020396558
-0.004802464 0.021489106 -0.016052695 0.0011118946 0.10757289 0.00626581 0.06692485 -0.057593804 -0.018826893 0.058132965 0.05570534 -0.057397865 0.02664327 -0.060194857 0.024434065 -0.12924093 0.047067292 0.031566806 -0.06989525 0.115871385 -0.010667725 -0.03844124 -0.07704047 -0.016024193 -0.041406374 0.08587598 0.009261075 -0.15442142 -0.052800182 -0.025929524 -0.11659334 -0.027371733
-0.006994328 0.01588046 -0.08545789 -0.10903018 0.04525215 0.026264621 0.0027341805 0.041348573 0.0014021503 0.02306743 -0.05825834 -0.048865955 -0.044289548 0.08893418 0.08951568 0.07417981 0.09850424 0.09799158 0.012747849 -0.059106898 -0.080480434 0.051962286 0.0151692545 -0.046968866 0.06952626 -0.030858586 -0.10353263 -0.025165597 0.08036527 0.16471857 0.13958688 0.0076631214
-0.123948336 -0.027324606 0.03028962 -0.09075533 -0.018586902 0.09518986 -0.08154473 0.0039258497 0.012805095 0.034151416 -0.086708575 -0.024756713 -0.14570257 0.001138583 -0.0645962 0.12804711 0.09070695 -0.072462276 -0.050469752 -0.03689404 0.13016053 0.123521805 0.043111674 -0.018220605 0.11207646 0.041081466 0.0016515293 -0.041110814 -0.06183484 0.046516925 0.04858392 0.08019855
-0.11554834 0.15261361 0.091384806 -0.029457217 0.015080934 -0.12301781 0.008489245 -0.059698686 0.097252354 0.00053432136 -0.030387199 0.024566848 0.07884134 0.12909122 0.005972672 0.11565034 0.015929366 -0.06869666 -0.0013822499 -0.046093345 0.050916564 0.07244301 0.016555091 0.040487766 -0.0748319 0.085554354 0.04870293 0.023834877 -0.054041307 0.03742926 0.079805754 -0.0067406595
-0.06119278 -0.09331023 -0.009594609 0.1009353 0.08613659 0.025527863 -0.035587348 -0.03410785 -0.09254553 -0.04059794 -0.06479888 -0.044779323 0.019120103 -0.054827735 0.10305368 -0.036188666 -0.09306442 0.061714865 0.022625728 0.115107305 -0.052258357 -0.045397613 0.10010435 0.030453771 0.09166386 0.03309279 0.016562643 0.0038040795 -0.05197875 0.100840434 -0.077627994 0.10197334
-0.057391983 0.06251399 -0.13884367 -0.11599493 0.03044136 0.07795118 -0.09995862 -0.1263266 0.0075267125 -0.10328655 0.060145877 -0.051358607 0.024840036 0.02299288 0.08693815 0.0015566911 -0.046155293 -0.12781753 -0.06940459 -0.04022349 -0.07666626 -0.034224827 -0.09178237 0.07562057 0.013545396 -0.002915146 -0.021532252 0.006831378 0.038521215 0.017078066 -0.014546265 -0.020533983
0.03788263 0.10824313 -0.021941993 -0.078514464 -0.122377336 0.06380432 -0.0049171443 0.019267408 -0.09767186 -0.043811537 -0.01961441 -0.024273798 -0.06934109 0.11817141 -0.054159872 0.13345978 -0.009360157 -0.03455458 -0.023018666 -0.06440932 0.3005994 -0.039648928 0.12980394 0.103886165 -0.17052133 0.20122032 -0.10372562 0.13793004 0.20269047 0.11277348 -0.09062585 -0.09584843
-0.0702689 -0.0018701252 -0.06611021 -0.021998627 0.02876543 0.06402713 0.050727982 -0.049245015 -0.07416022 0.024457578 -0.061684158 -0.10333356 -0.036510285 -0.09978196 -0.12730849 -0.048938412 -0.0021597457 0.055479493 -0.029807657 -0.054342348 -0.18106623 0.021347608 -0.10550703 -0.057670403 0.024993844 -0.07087171 -0.019732289 -0.060317446 -0.08278838 0.0226149 0.026613763 -0.036049955
0.010962062 -0.07218395 -0.011816963 -0.038789023 0.030850576 -0.119337805 -0.014243297 -0.08974819 -0.035165578 0.082670294 0.020666387 0.010402085 -0.021376714 -0.05583833 -0.08293745 -0.044173922 0.012889352 -0.02233157 0.06394528 -0.06025436 -0.018854134 0.03971809 -0.00728924 -0.13328682 0.053990155 -0.0025317275 0.030886525 -0.1199741 -0.032888565 0.057636485 -0.05649411 0.11864978
0.08404691 -0.014131961 0.040449783 -0.1050951 -0.101777166 -0.05995647 -0.12070859 0.031985752 0.04790252 0.0643954 -0.030665558 -0.054469652 0.06529888 0.05931248 0.046026066 0.016788136 -0.09517195 -0.11682655 0.053554296 -0.0170051 0.066221066 0.0053783297 0.02057007 0.065540284 -0.05981089 0.11073809 -0.059576172 -0.035487294 0.101350516 0.020832382 0.06541993 0.052947838
-0.07729382 0.010680336 0.034653116 -0.023400526 0.1149853 0.059082877 -0.033468876 0.08099828 0.04219292 0.03839219 -0.040040918 0.051119603 0.032268014 -0.15253955 -0.055010136 -0.11365496 0.031402092 -0.031198947 0.103927426 -0.09002616 -0.09251275 -0.07508068 -0.095867306 0.02328549 -0.15315995 -0.060522303 0.0070793116 0.029773073 0.04497242 0.18381514 0.11863265 0.0010281674
0.028942661 -0.018217323 0.040089488 0.019796195 -0.09435549 -0.053543963 -0.11110869 -0.04783317 0.07620301 -0.005243803 0.0016182553 -0.12267713 0.09262234 0.06983666 0.054333862 -0.026152771 -0.077852055 -0.012782927 0.047997966 -0.04093775 0.007953461 -0.0047736666 -0.03097602 -0.049057864 -0.0057507763 0.053499382 -0.023757303 0.035879225 -0.032943446 0.1303 0.042474024 -0.073933974
0.018256254 0.11509474 -0.057781395 -0.028662318 -0.1192367 -0.09099144 -0.01331336 0.029926244 0.034742158 -0.059817176 0.08031286 0.012563881 -0.000339143 0.062150255 0.03239454 0.0678956 -0.044097774 0.001580183 -0.10304246 0.002649992 -0.08912764 0.062752895 -0.007547733 -0.021833634 -0.0027702644 -0.087475285 -0.027654935 0.08591264 -0.029476859 0.032200787 0.05974225 0.019662373
0.08796535 0.031886205 -0.08097446 0.04138458 0.039747205 -0.048338607 -0.034624033 0.07769977 0.040594537 0.0361434 0.06910734 -0.0835668 -0.07232809 -0.023209756 -0.011929899 -0.10789769 -0.036652792 0.032703396 0.050807063 -0.04349799 -0.1254024 -0.09550153 -0.026016979 0.038023267 0.053744957 0.04779384 0.03665229 -0.079360306 -0.042055566 0.1290514 -0.004223662 -0.054285374
-0.05812847 0.045260854 -0.002485767 0.049599893 -0.045800664 -0.08994372 0.0574375 0.065840475 -0.007841222 0.026046745 -0.059156593 0.10256841 0.07773662 0.084108464 -0.03201291 0.055493675 -0.03620433 -0.008182831 0.03141568 0.0381731 -0.05271432 -0.02194935 -0.036878027 -0.09520558 -0.058398765 0.019515939 0.0038323104 0.040303715 -0.036818087 0.07756113 -0.09892585 -0.07088038
-0.013364169 -0.17659524 -0.031703964 0.07188546 0.1844541 0.058405332 0.1731034 0.13108477 -0.05798645 0.055950396 -0.019268936 -0.026306018 -0.035391267 -0.22762252 -0.061092257 -0.081163935 0.15316968 0.09104932 0.012473007 0.03158405 -0.049215328 -0.034378123 -0.042615388 0.019327862 0.12905903 -0.023626948 -0.0027914913 -0.069726944 -0.07933567 0.072390534 -0.10146411 0.023732519
0.07033987 -0.10449814 -0.10176965 0.08545011 0.10934281 0.07050988 0.08149495 0.10808687 0.026456725 -0.027959507 -0.079392634 -0.08767281 -0.06624543 -0.11688176 -0.078587346 -0.052644532 0.09267753 -0.049764078 -0.109200075 0.08030199 -0.008150166 0.0671931 0.0010995833 -0.15837415 0.0116932625 -0.047894496 -0.11396525 -0.070520096 -0.103705145 0.052706487 -0.08473836 0.14138153
-0.017057639 -0.024917426 -0.09101259 0.119055286 0.10275248 -0.010612378 0.0018891448 -0.08079489 0.0777945 0.014863199 -0.0452985 0.0053901854 -0.05025763 -0.073448606 -0.07945711 -0.1478075 0.13471471 0.058039974 -0.122183785 0.14148131 -0.18284678 0.040325377 -0.05041511 -0.12547702 0.16681227 -0.013471643 0.04557681 -0.10315024 0.006670282 -0.017396284 0.03536809 0.12927498
-0.07293171 -0.033992857 -0.06719359 -0.089130044 -0.10911929 -0.065462105 -0.03083719 -0.06261618 0.04851432 -0.078871965 -0.058886066 -0.002262532 -0.053552717 -0.02320688 0.047011867 -0.04190785 -0.07334336 -0.06013133 0.060197603 -0.059524927 0.037695307 -0.08716224 -0.017829604 -0.006294303 0.03261396 -0.0042716223 0.0219255 -0.056813743 0.009768152 -0.024391955 -0.072518796 -0.07433507
0.0345212 0.05168771 -0.14237252 0.01076234 -0.008361299 0.031041848 -0.044208813 0.05383829 -0.014323147 0.008154269 0.095985614 -0.040643785 0.081635214 -0.03617293 -0.07524385 -0.099616125 0.13103805 0.07274537 -0.12800863 0.037318524 -0.07517875 0.007379387 -0.024000065 -0.015475756 0.033221472 -0.023288175 -0.15975547 -0.015915705 -0.1091521 -0.008883751 -0.120970726 0.016243115
0.00876806 -0.066312805 0.04243064 0.03546503 -0.011289757 0.043175407 0.009517134 -0.10464765 0.005882446 0.0516175 0.07427514 -0.08370252 0.027275065 0.02024087 -0.1117725 -0.052553196 -0.11012189 0.020622265 -0.07743608 -0.016458593 -0.059567496 0.027142454 0.038186904 -0.06930134 0.013493654 -0.022997452 -0.067874156 -0.07880083 -0.00016962743 0.02798058 0.07980357 -0.049433343
-0.038375553 0.022989903 0.033835355 -0.057380676 -0.027090449 -0.08189534 -0.036636744 -0.122890614 -0.05287412 -0.011693718 -0.07391432 -0.024684861 -0.03589782 0.041281577 -0.09204691 0.052622642 -0.13572937 -0.041129306 -0.040470835 0.004914994 -0.048022423 -0.07958849 0.09435234 -0.06000413 -0.10038218 -0.06736147 0.049844008 0.0020005573 0.011201961 -0.015751163 0.051170055 0.015505594
0.017220153 0.06856704 -0.027034253 -0.040665973 0.0391596 0.0064016916 -0.100782074 0.01511709 0.040563416 0.08280042 -0.024155784 -0.042571295 -0.1027129 -0.03818144 0.025762757 -0.024156025 0.043093547 0.09024666 0.01816408 0.020575374 -0.012630632 -0.12751766 -0.023955664 -0.050308708 0.022205496 -0.027783835 0.033508085 0.031194376 0.07007047 -0.060337313 -0.09895211 0.046552014
-0.0711398 -0.14557438 0.10379081 -0.022819245 0.10334198 -0.058237046 0.20399493 0.027779456 0.017081045 -0.08163223 -0.05944972 -0.035199493 0.03234348 -0.011200358 -0.011497732 -0.16582602 0.031289972 0.11621823 -0.02172524 0.1333013 -0.047736775 0.053731743 0.014394154 -0.19962333 0.2128693 -0.083859 -0.063276745 -0.038725693 0.02150839 0.01363151 -0.023661967 0.16451938
0.09453461 0.13512453 -0.02452563 0.047450583 -0.04420616 0.024459772 -0.068809725 0.0010145499 -0.09455435 0.003971571 0.058676858 0.022685533 0.025983473 0.05511176 0.096093476 0.13327451 -0.09256054 -0.10754023 -0.08789252 -0.12990259 0.030857617 0.006699857 0.006262532 0.06078968 -0.079481974 0.1356801 0.029950235 0.05819501 0.053845964 -0.04921415 -0.048528437 -0.074474886
0.017773194 -0.0030586377 -0.07126319 -0.12863758 0.013330904 -0.005772904 -0.07646928 0.077747 0.085626654 -0.11133033 0.013514268 0.047278017 0.031195054 -0.030803235 -0.010854963 0.033685636 0.030776277 0.078584164 0.020948973 -0.024939975 0.018627746 -0.0863246 -0.010306089 -0.01441507 -0.0009772787 -0.06941699 0.032089725 -0.026020015 0.014410938 0.07975335 -0.002086278 0.046227295
0.054099005 -0.038847547 -0.11399869 -0.12257112 0.08603149 -0.03932254 -0.044042714 0.095330715 0.040534545 -0.031101983 0.076303504 -0.1183445 0.0070424555 -0.07051243 -0.028962014 -0.099753916 0.10944544 0.015130816 -0.06004382 -0.06615051 0.03969291 0.06491966 -0.018256918 -0.08942263 0.14100963 -0.11156553 -0.038887024 0.036880005 -0.10274006 0.09171171 -0.05039704 0.10227649
0.047252838 -0.09017985 -0.013070091 0.086803615 -0.024725853 -0.072231844 -0.032332778 0.063650854 -0.12215526 -0.037113544 -0.12197465 0.043666247 0.042184416 0.019716224 0.020573774 0.045249227 -0.030306354 0.024592927 -0.12343341 0.078184575 -0.118703075 -0.00200512 0.032179706 0.0545684 0.01759252 0.03408208 -0.07111181 0.045250338 -0.05147166 0.023142131 -0.13542905 0.07302743
-0.015840685 -0.032985605 -0.07615727 0.039638285 0.12987144 0.025135847 0.04550766 0.032776903 -0.07737263 -0.0132291885 -0.016056685 0.034974836 -0.0755805 0.02947796 0.08224275 0.0023246359 0.15353356 0.09665356 -0.11932757 -0.06916035 -0.098319 0.031664275 0.06576599 -0.12594546 -0.036185004 -0.029602148 -0.021047011 0.05948774 0.008037006 -0.017342897 -0.13254179 0.048680026
-0.035654534 0.056133 -0.04042026 0.0019775035 0.029054044 0.050570436 -0.02466529 0.06303254 -0.012717199 0.004131595 0.050567377 0.01319168 0.089212485 -0.012612689 0.041664116 -0.10192874 -0.07037949 -0.029510276 0.042372685 -0.09878334 -0.076177716 -0.059086632 -0.0467161 -0.026551383 0.03101751 0.08775736 0.07310648 -0.09649025 0.00026378853 0.050510243 0.0038690134 -0.007231004
-0.10987876 -0.10042135 -0.085662395 0.07145864 0.030601976 0.09206127 -0.00015373711 0.08863832 -0.082549825 0.098012395 0.08214426 -0.015136646 0.02711911 -0.028851693 0.021507146 -0.048988823 0.04868595 -0.0011197481 -0.06817399 0.089245774 0.10213871 -0.03245505 -0.11589768 0.051167697 0.11592553 0.04245866 -0.060191575 -0.010604169 -0.028472232 -0.026969502 -0.048223313 0.00072929484
