0.025940984 0.12732874 -0.09603208 -0.099603005 -0.13779412 0.06963535 0.06916097 -0.079047665 0.050706223 0.11329527 -0.12468067 0.061312944 -0.02486305 0.04303783 -0.018526673 0.06320277 0.092966706 0.022072777 -0.023477696 -0.101360776 -0.09493201 -0.044400044 -0.005054921 -0.007888854 -0.044090457 0.006098047 0.10738452 0.046448514 -0.07965878 -0.103296615 0.04131615 0.030252904
-0.15772076 0.050934173 0.1818831 0.08064063 0.20372437 0.22992335 -0.1909874 0.20359388 0.20451792 0.17127645 0.07205312 0.13535014 0.10686887 -0.11261332 -0.0024934446 -0.13440776 0.18556586 -0.05741542 0.17331313 -0.09944856 0.14594172 0.04960209 0.19174014 -0.02980988 -0.02869718 -0.06849631 0.14658834 -0.08544529 0.08341822 -0.024957769 0.012998743 0.015437473
-0.24802771 -0.034137122 -0.14538339 -0.13304307 -0.23240693 0.07578842 -0.047852185 -0.033346824 -0.12894985 -0.2423253 0.06430448 0.017237427 -0.04865399 0.0006425191 0.16079916 -0.037640974 0.0052353838 0.06956499 -0.22303842 -0.09527737 0.123473056 0.014657535 0.005466083 -0.04901115 0.0271958 0.00034083734 -0.059356634 -0.061142337 0.2662315 -0.023468124 -0.006358897 0.052591663
-0.09841334 -0.17249739 -0.21050847 -0.15263782 -0.013897218 0.059783403 -0.14106105 -0.21441096 -0.07761743 -0.08404775 -0.20877782 0.0043745865 0.010874491 0.11309986 -0.06772408 0.02063486 0.18398398 0.1274611 -0.108494245 -0.09400725 0.014332728 0.14245392 -0.1371932 0.020974208 0.011315248 -0.03617992 -0.06661666 -0.089130156 0.02570027 -0.032523282 0.107897215 -0.17929669
0.26787567 -0.11506233 -0.18851049 -0.07777952 -0.11020936 -0.041100156 0.35511997 -0.22880897 -0.14216542 0.11952172 -0.12039868 -0.15792826 -0.03686732 0.31615657 0.25047883 0.086926274 0.34458315 0.120934665 -0.10780725 0.29048952 -0.11358969 0.33698335 -0.024741834 0.23080707 -0.1619352 0.25937048 -0.13945408 0.20910688 -0.3144187 0.08352795 0.20204745 -0.26647958
0.23346032 -0.107963294 -0.09254854 0.084558904 0.0826651 -0.08049852 0.33939192 -0.0397123 -0.04454225 0.17933951 -0.14772052 -0.30998257 -0.13719593 0.16450118 0.16868389 -0.032327093 0.22237003 0.077112965 -0.20327772 0.21556845 -0.3208511 0.30534557 -0.13139914 0.33765036 -0.060735453 0.1741813 -0.1577514 0.21986127 -0.0703588 0.25824857 0.28086323 -0.19599538
0.1916615 0.037820525 -0.20229702 0.026392175 -0.076207176 -0.2163898 0.080764264 0.0013027772 -0.051317655 0.11318182 -0.10728853 -0.15932424 -0.1621765 0.10221812 0.14415973 -0.13272646 0.11238028 0.2168573 -0.13912916 0.09711794 -0.060387496 0.14104147 -0.01751301 0.16045195 0.07174549 0.010942017 -0.050246462 0.14976272 -0.121269725 0.16728637 0.29532233 0.02993393
0.028890409 -0.10159868 -0.27878234 -0.087289944 -0.010029405 -0.18996328 0.075196445 -0.0979449 0.013676887 0.12898658 -0.18995266 -0.017450053 0.008835213 0.14478458 -0.036517803 0.027123503 0.09306855 -0.028740648 -0.20095412 0.03178417 0.046953477 0.08396305 -0.0026095577 0.025202421 -0.0035030479 0.017097795 -0.21459442 -0.092337385 -0.027911209 0.06179312 0.059180718 -0.019350376
-0.018454477 -0.054618604 -0.14733964 0.01231607 -0.0807639 -0.14837316 -0.14604934 0.05230591 -0.027418442 0.025324153 -0.17422481 0.036788102 -0.10075833 -0.057289183 -0.029173924 -0.08196479 0.036751963 0.04169701 0.11756096 0.031403817 0.043572612 -0.04303959 0.025317252 0.08320828 0.107527256 -0.3223355 -0.10619983 0.029727625 -0.05727483 -0.20941022 0.1890059 0.057273608
-0.011957582 0.2883737 0.205206 -0.018028006 0.16824943 -0.14413872 -0.027798641 0.10946289 0.28283092 -0.020148784 -0.035527352 0.03219788 -0.056312468 -0.009836609 -0.11646401 -0.17149937 0.037922245 0.10479837 0.1767627 0.15586753 0.10969281 -0.0056160707 0.0038573202 0.023089012 -0.03387932 -0.12351097 0.036193144 -0.039444085 0.12195251 -0.01676944 0.0053921044 0.24093561
0.16538267 -0.21571277 -0.122771405 -0.124347664 -0.079017945 -0.11047294 0.042223796 -0.11192743 -0.2033081 0.07756426 -0.084635094 -0.0663314 -0.20297742 0.09330122 -0.045304738 0.11971398 0.13416217 -0.021700613 -0.30021426 0.039344516 0.002294793 0.31347147 -0.047253866 0.053776525 -0.06604895 0.10947019 -0.11407601 0.081785284 -0.03721248 -0.0052734893 0.19708331 -0.057593316
-0.092875615 0.13910522 0.07162066 0.048619192 -0.066907175 -0.2327094 0.12242808 0.0014247192 0.18723531 0.06389086 0.1402619 -0.18154348 -0.18554874 0.19327196 -0.14979395 -0.10948596 0.05504498 0.017088095 0.00027412912 -0.009716417 -0.019757703 0.06417512 -0.0013986542 -0.020337846 -0.10053336 -0.18588948 0.011617305 -0.11172603 -0.10931731 0.10660365 -0.019280909 0.12608665
0.118334085 -0.11693967 -0.007902761 -0.026524467 -0.36639065 -0.23217368 0.20662071 -0.22951476 -0.27031368 0.1313528 -0.19311394 -0.19732761 -0.066590935 0.11495178 0.09101653 0.24594915 0.019066095 0.06980096 -0.14616852 0.09829305 -0.12307999 0.052048277 -0.3918058 -0.042490892 -0.35286716 0.18921079 -0.07358756 0.30230245 -0.32947114 0.01204002 -0.088456124 -0.25436068
-0.07425275 0.075010024 0.047501747 -0.12620997 0.15338829 0.11371622 0.048335455 0.15972006 0.09202864 0.30002865 -0.14566775 0.15193228 0.10334154 -0.13139322 0.032737743 -0.064915396 0.18435723 -0.08698165 -0.056670506 0.0050390335 -0.01608383 -0.15652706 -0.011847369 0.014716995 0.19818799 0.01398149 0.14902328 0.16286156 0.044515762 -0.17424804 -0.10164957 0.065165035
-0.05650673 0.09877033 -0.08274913 -0.10417737 -0.060074143 0.27821755 0.02722538 -0.07094241 -0.1030082 0.17255262 0.20515354 0.20199415 -0.09776653 -0.17487969 -0.054945655 -0.23118517 0.0816388 0.053744968 -0.12867509 -0.1799923 0.06644447 -0.18730898 8.0979575e-05 0.33495888 -0.035866875 -0.05299306 -0.20910805 0.038898543 0.1813929 0.022361659 -0.16358365 0.18422435
0.16568202 0.14564246 0.036236852 -0.08011679 -0.18577862 -0.23866554 0.18598932 -0.07718712 0.0951384 0.0068737646 -0.1694393 -0.08281352 0.12220826 -0.06332134 0.08523321 -0.02464974 -0.045132793 0.05025098 -0.123103805 0.021539325 -0.18551148 -0.2899787 -0.043036524 -0.03024887 0.07957862 0.26392677 -0.23807637 0.16851526 -0.17622283 0.029661614 -0.013775728 -0.11218429
-0.008719388 -0.106339745 -0.09798333 -0.08742006 0.09164277 -0.0654779 -0.028224433 -0.16677451 -0.08201455 0.24088377 -0.031028923 0.0937057 -0.12922776 -0.13566884 0.18097173 0.026661903 0.083534345 0.11440136 -0.047676794 -0.051505566 -0.0053396635 -0.0068860864 -0.06562155 -0.008236427 -0.08524582 -0.19990078 -0.109738514 -0.0025156115 0.1353433 0.03942265 0.07316112 -0.065999545
-0.1420045 -0.18394858 -0.08361563 -0.15445223 -0.24283499 -0.08426053 0.094625965 -0.09713191 -0.08396806 0.059961002 -0.08148823 -0.045504086 -0.118656404 0.004994778 0.008319462 0.19473837 0.21239848 -0.026757909 -0.3820607 0.18239586 -0.1460107 0.0309574 -0.16064996 0.009571319 -0.06391794 0.0018476297 -0.16221566 0.06703988 -0.22592051 0.2768482 0.08217062 -0.2253172
0.14987667 -0.09322323 -0.12908621 -0.080890626 -0.09687359 -0.16064551 -0.053608604 -0.111732304 -0.10275084 0.1497582 -0.13309693 -0.09702222 0.009607923 0.17464198 -0.05287495 0.21667142 0.06278694 -0.003082682 -0.08255229 0.1211376 -0.3962369 0.29436812 -0.110831596 0.027872423 0.044839323 0.097690344 -0.0015789934 0.053534552 0.032871976 -0.019622974 0.04392296 -0.030371236
0.14598142 -0.0303571 0.12340585 0.1727986 0.038338427 -0.033848688 0.004815576 0.0076553077 0.037784416 -0.013431439 -0.14749347 -0.1559254 -0.13243118 -0.10589763 0.048494987 0.023883905 -0.030020013 0.040952507 -0.010349363 0.01429058 0.01906424 -0.04686151 -0.07550468 0.060902484 0.14688426 0.043431524 -0.12819475 -0.16683291 0.1340916 -0.0044564344 0.15962246 0.056569904
0.026840698 -0.12944515 -0.23990491 -0.098466314 -0.13933562 -0.28596854 0.18837309 -0.28381422 -0.16847157 0.036258828 -0.14233528 -0.2519591 -0.18600927 0.14655222 0.14497197 0.08496406 0.19316025 0.18101342 -0.16202816 0.098626226 -0.033271126 0.2829413 -0.009858674 0.02093985 -0.08883715 0.29655838 -0.22906561 0.13690026 -0.2984132 0.12290491 0.02217447 -0.18275087
0.31950492 -0.21990463 -0.2679674 0.02419196 -0.07004758 -0.29990768 0.093453765 -0.096320614 -0.17242782 0.28261366 -0.09617464 -0.21440166 -0.08175874 -0.1348823 -0.09366054 0.13484783 0.14725782 0.047671333 -0.11487855 0.1686243 -0.24259335 0.2381556 -0.0653471 0.25105992 -0.11882432 0.2912978 0.06486439 0.08774523 -0.28417277 0.046986494 0.016806636 -0.07818135
0.112925924 -0.13773426 -0.08522932 0.15916312 0.055073712 -0.060493868 0.04805365 0.015586359 0.17487095 0.12849878 -0.04624863 -0.031968944 -0.00261449 -0.11042742 0.09580066 0.027195483 0.09033689 -0.03797934 0.0493945 0.08744317 -0.10879408 0.05901799 0.12825266 0.07607775 -0.07254848 0.07207828 0.016556773 -0.025813458 -0.021755405 -0.057485987 -0.014826071 -0.2002728
-0.1824558 0.11830737 -0.13222568 -0.0043640747 -0.1854828 0.13777797 -0.18814056 -0.080580555 -0.045517474 -0.0070914477 0.09189652 0.081912495 0.05178227 0.018939938 0.04466254 0.119883284 0.055471558 -0.1225409 0.13238172 -0.21804409 -0.115845375 0.023516662 0.12396298 -0.124793 -0.08820038 -0.08186015 0.0898873 0.028665207 0.20036322 -0.2703513 0.051262196 -0.049810648
0.02021744 -0.0020558971 -0.011191718 -0.003851257 0.11403367 0.28941888 0.110911824 -0.023051536 0.014846484 0.1739272 0.10606474 0.07813105 -0.06538097 -0.026233967 0.21920875 -0.007840742 0.029243246 -0.048936583 -0.15163589 -0.023314366 0.20773152 -0.25555283 -0.09258495 0.06968392 -0.097825006 -0.019963643 -0.11832774 0.26385447 0.16766813 -0.03870166 0.0122093875 0.24198788
-0.055818494 -0.13482358 -0.15401104 -0.04671307 -0.2034449 -0.15399966 -0.050379205 -0.18407531 -0.069739535 0.08099141 -0.18427967 -0.07584113 0.05341271 0.1737146 0.15592363 0.27748218 0.060995452 -0.036122337 -0.11362903 -0.0034187045 0.04268406 0.15278454 -0.08178925 0.17682885 -0.01432807 0.15220882 -0.2014402 0.15161788 -0.058500737 -0.21278144 0.068726934 -0.14589936
0.18242466 0.066742726 0.013503773 -0.03324796 -0.02536223 0.07671485 0.19322205 -0.047415923 0.07601244 0.0022566505 -0.04637082 -0.16862893 -0.1251397 -0.07545785 0.24233331 -0.013445692 0.072107285 0.00781599 0.044680204 0.096117616 -0.2856101 0.18721999 -0.07180692 0.08442461 -0.046016816 0.17854989 -0.21794154 0.17463112 -0.16549215 0.093429826 0.10667367 -0.012890551
0.08593474 0.1643997 -0.07704395 0.007814801 0.07233447 0.22616298 -0.01169671 0.162252 0.10875116 -0.058024477 0.18921207 0.09445445 -0.03898571 0.07470422 -0.011211007 -0.1156041 0.23785941 0.12291992 -0.016320406 0.16561809 0.10438852 -0.094044656 0.21558946 0.17912145 0.034223534 0.1239416 0.067804724 0.051211316 0.15213542 0.204237 0.22090822 0.07204015
-0.24127543 0.021975294 0.18065564 -0.21635015 -0.0010272281 0.092689924 -0.1750215 0.12379982 0.07343383 -0.17825678 0.2004559 0.14014305 0.1526643 -0.09354181 -0.10862358 -0.22782704 -0.2726036 -0.23892693 0.13810195 -0.20103107 0.19663814 -0.18227042 0.18358278 -0.0890379 0.104672246 -0.25579026 0.17713399 -0.023936443 0.13587876 -0.24632153 -0.23497275 0.16100574
-0.1781325 -0.10710245 -0.013677202 0.08534325 0.12483503 -0.07917172 -0.22648953 0.09363811 0.0030767017 -0.06283248 0.0863179 0.19517079 0.15602481 0.04143534 -0.00957912 -0.0010493139 -0.15259178 0.035675306 0.14245275 -0.09107367 -0.1156589 0.005923861 0.12425366 -0.20304279 0.029574059 -0.09650362 0.14353922 -0.11137367 0.15526956 -0.08044856 -0.15117365 0.12619394
-0.34034267 0.270834 0.4486845 0.18855737 0.22964257 0.30407158 0.07846724 0.26546225 0.35007328 -0.026615892 0.108318254 0.3033748 -0.023492362 -0.15138197 -0.04045248 -0.17615426 0.01764895 -0.003337418 0.328801 -0.1966399 -0.011346233 -0.21452554 0.20772287 -0.09582575 0.12530205 -0.045318507 0.17770508 -0.16621688 0.28002104 -0.34206548 -0.290215 0.27782077
0.07961417 -0.1949329 0.022560736 -0.16483296 -0.18041156 -0.21328677 0.03905628 -0.05788589 -0.0031836727 0.15511116 0.0061668106 -0.023298137 -0.06256501 -0.0016171669 0.07724445 0.0059966086 0.14862041 0.097831815 -0.1014131 0.042742718 -0.12751512 -0.06785762 -0.067499496 0.08918085 -0.05454373 0.10589218 0.049874105 -0.056130297 -0.05319531 0.2027512 0.09708386 0.020434273
0.10085012 -0.0995993 -0.18701322 0.08661083 -0.13220836 -0.12355446 -0.053905513 -0.13143513 -0.09126621 -0.16593693 0.0050752317 -0.033256862 -0.040597156 0.35354233 -0.17652291 0.07798299 0.2130423 -0.010153744 0.060135294 -0.01533932 -0.05350519 0.12020856 0.059937384 0.15351829 0.18947071 0.03755974 0.09973218 -0.15092917 -0.03251394 -0.018528322 0.047720607 -0.08963329
-0.02443705 0.017933695 0.08114748 0.11370613 -0.020697754 0.017174972 0.0038824687 0.016004203 0.10418821 0.07346921 -0.0015583092 0.07203299 0.0108904485 0.027586078 -0.049923 -0.044351943 -0.024142051 -0.15258506 -0.14309168 -0.028446078 -0.18517745 -0.12257588 0.09442711 -0.07984365 -0.080651134 -0.074566394 -0.04431831 0.099397056 0.11096727 0.045043197 0.044831246 -0.058699135
0.0953083 0.15028815 -0.0129212 0.044831567 0.03331915 0.046491776 0.038090423 -0.16747777 -0.04831317 -0.18804178 -0.11791483 0.035323355 -0.08560373 -0.084769405 0.036207963 -0.19566403 0.13267992 0.14496592 0.09943813 -0.064535215 0.13962282 0.0432595 0.018145585 0.24103355 0.022616811 -0.12749702 0.10009162 0.08795645 0.12462191 0.059202977 0.09375099 -0.024457205
-0.035093583 0.07278428 0.19667454 0.15891626 0.04066047 0.19090235 0.025665684 -0.17015459 -0.01963625 -0.123657465 -0.050756622 0.19721074 -0.08312872 -0.08585593 -0.05018063 -0.1076253 0.051164772 -0.06532781 0.33779773 0.024047596 0.22165275 -0.124952406 0.08461984 -0.023997542 -0.039163098 -0.039195623 0.15097743 -0.03385449 0.260926 -0.1060913 0.08098889 0.101647116
-0.12796302 -0.04716169 0.1100298 -0.090666756 -0.0061415574 0.13487782 -0.18731798 0.013693814 0.23767117 0.020489842 0.13911422 0.04977558 0.1963207 -0.06708059 0.020065615 -0.118987344 -0.12316974 -0.24312869 0.19246428 -0.15400612 -0.06949521 -0.16237554 0.13749994 -0.15130702 0.06764846 -0.14776395 -0.031568993 -0.1009307 0.17855531 -0.076480456 -0.083331384 -0.090111636
0.009661461 -0.18618466 -0.15165684 -0.17548586 -0.1021426 -0.24746048 0.1959282 -0.04657299 0.020498328 0.036227614 -0.17479432 -0.06457221 0.046942554 0.18714064 -0.0029102317 0.03288599 -0.013429895 0.17740154 0.025211565 -0.017232375 -0.24232368 0.24112688 0.019280387 0.054999117 0.050675716 0.041445754 -0.029068688 0.055864487 -0.13586308 0.06301813 0.28259513 -0.09101992
-0.017079229 0.08537546 -0.006752773 0.10086944 0.057020117 -0.15395765 -0.035553455 0.0031134288 0.034828097 -0.07516203 -0.09690986 -0.02536199 -0.09088007 -0.03114724 -0.05780654 0.1440626 -0.03537385 0.025283664 -0.012947185 -0.08664005 -0.0012545767 0.007884133 -0.17825857 -0.119367875 -0.011584778 0.0005268605 -0.019352952 0.025330594 -0.046547893 0.016537871 -0.07018029 0.049868688
0.028474111 -0.021404115 0.06173639 -0.06492353 0.055595424 -0.030861815 -0.123402886 0.13631618 -0.0040465067 -0.09373031 0.07666543 0.095328666 0.0054827794 -0.13422589 0.037906226 0.035912946 -0.051792547 0.055322587 0.13939035 -0.16815788 0.10674478 -0.03245212 0.19602221 -0.010475572 0.096180364 0.041457403 0.13672519 -0.075660996 0.06982956 0.13734171 0.030812418 0.21469758
-0.021046175 -0.054752845 0.0017709611 -0.077076554 0.12711744 -0.021290705 0.0960182 0.19513617 0.2236748 -0.04608842 -0.041496977 -0.042739064 0.05485939 -0.023279151 0.0255508 -0.02758216 -0.17058688 -0.19325903 0.14247504 -0.0111342855 0.06950474 -0.011862838 0.01584164 -0.029434016 0.10365777 0.03296085 0.03147776 0.0883706 0.0041291537 -0.04506463 0.04394761 0.11609481
-0.015206737 -0.015869454 -0.0053366125 -0.17072394 0.0339147 0.026585136 -0.029925639 0.11251914 0.019722622 0.12523057 0.065356575 0.1473647 -0.040023193 -0.14195 -0.03241901 0.045304146 0.02401273 -0.10881033 -0.0022229298 0.07441867 -0.088594675 -0.062747195 0.12041258 -0.13916829 0.034438808 0.17976306 0.0043770913 0.10606429 0.084406614 -0.15675083 -0.16977829 -0.14811833
-0.082427666 0.14146467 0.26313308 0.0017152748 0.1973201 0.08961083 0.05639398 0.15693927 0.23421411 -0.07723131 0.19636035 0.1630718 0.06622104 -0.22120745 -0.027533544 -0.29547536 -0.13169318 0.100150816 0.10902573 -0.032352235 0.20118134 -0.058889806 0.12014229 0.10924714 0.060962483 -0.22132587 0.1740488 -0.108551726 0.2974042 -0.17581435 -0.078733474 0.06682429
-0.24426812 -0.1919868 -0.08121088 -0.118853144 0.07111774 -0.042305343 -0.18245944 0.036538858 0.1569362 -0.012429128 0.030912654 0.3392178 0.079445146 -0.1125151 -0.019311514 0.06393131 -0.0020124705 -0.017952487 0.24860533 0.041682098 0.12826532 0.010441065 0.097997494 -0.049035653 0.103507556 -0.10813334 0.02438515 -0.26753888 0.29056254 -0.123869024 -0.07857963 0.044692688
0.2322688 0.088184305 -0.019501138 -0.15902333 0.009481091 -0.05939594 0.17050993 -0.099296995 -0.13244835 0.15225163 -0.24213259 -0.050573863 0.11668685 0.110772416 0.060506117 0.20608878 -0.02842065 -0.07183269 -0.028597128 0.22331984 -0.22024153 0.19118875 0.1855274 0.07782715 -0.0622799 0.18955156 0.013153162 0.21754915 0.040134046 0.22984993 0.11692657 -0.12267762
-0.10744686 -0.060778942 0.039553266 -0.017755944 0.12910885 0.027957993 -0.030780828 -0.020523569 -0.07784103 0.03748198 -0.19747195 -0.09011402 0.12405906 -0.0038434872 -0.033486005 0.0256542 -0.028646234 -0.019599423 0.04216689 -0.018616918 -0.09553114 0.059702106 0.0025660607 0.12014467 0.031335283 -0.07049742 -0.1281464 0.020139962 -0.023474455 -0.057533577 0.15612906 -0.039274026
-0.2151883 0.014075371 0.102101505 -0.008933062 -0.14526312 0.22780357 -0.06990951 0.09428396 -0.0043829856 -0.12061506 0.24892879 0.24077591 -0.14701723 -0.15139218 -0.14450423 -0.17860112 -0.03045203 -0.07185993 0.12702389 -0.27139464 0.07203356 -0.16747443 0.079018846 -0.056436844 -0.0963887 -0.15432113 0.15966612 0.012971587 0.2464752 -0.30005217 -0.30395606 -0.007895629
-0.09281758 -0.22878122 0.11605961 -0.09823349 -0.08525324 -0.08473611 -0.019252453 0.042647276 0.13960229 0.09545875 -0.098525085 -0.03651922 -0.0050467327 -0.06474031 0.16277367 0.1170322 -0.026723096 -0.08641858 0.04490017 0.0044897473 -0.18204093 0.09142352 -0.012575181 -0.13496631 -0.07584159 0.10078516 0.0109076975 0.09055073 0.07154442 -0.016711064 0.25047573 0.050220117
-0.111031346 0.080904365 0.13878155 -0.078081094 0.05136196 0.11246602 -0.0084883 0.10759697 -0.040355694 -0.18406998 0.13419247 0.08923975 0.12691659 -0.09612104 0.06419354 0.016490879 -0.034509595 -0.24057283 0.1438964 0.06956485 0.13522063 -0.11370281 0.16382016 -0.02668258 0.18562889 -0.18168037 0.049257595 -0.0845049 0.071393386 0.038101338 -0.10010445 0.0056164083
0.2751676 -0.35073778 -0.14042562 -0.07801699 -0.13829395 -0.3059177 0.11475482 -0.26903796 -0.19967824 0.21495622 -0.26770315 -0.29332525 -0.21330346 0.2130251 0.16979796 0.076646425 -0.018483378 0.09527344 -0.2810047 0.10900874 -0.13830426 0.19521467 -0.1080277 0.04204533 -0.11068162 0.35635686 -0.07872543 0.02172269 -0.41671863 0.05264529 0.17984375 -0.06803337
-0.1648789 -0.15237802 -0.18062077 -0.037049677 -0.044534598 0.052185424 -0.13374245 0.035132278 -0.1670341 -0.099959426 0.1594179 0.12758955 -0.16667846 -0.013950988 -0.13969801 -0.07643239 0.013773288 -0.10210884 -0.14691949 0.03929218 0.18709522 -0.124051146 -0.03815015 -0.06600145 -0.033473644 0.14819488 0.10369427 0.0047215475 0.08931409 0.05066262 0.014032594 0.042161018
0.02319042 0.008759206 -0.23525396 -0.033312265 0.14350015 -0.031078657 0.010830689 0.057805724 0.08780301 -0.04136378 0.13837321 0.09654384 -0.04707313 -0.06408065 -0.0018738017 -0.038526185 0.09821846 0.07989413 -0.037903212 -0.006001687 0.21229696 -0.13400826 -0.063482 0.28939456 0.011841494 -0.0555228 -0.072214015 0.08498988 0.021451695 0.074321195 -0.07888998 -0.134484
-0.054731525 -0.12949516 0.02747129 0.06858593 -0.17380054 -0.010831419 0.033061188 0.06238756 -0.16420552 0.035790402 0.11329648 -0.052496333 -0.12745187 0.07264482 -0.008480812 0.029044984 0.005678694 0.049127985 -0.042089127 -0.099255085 0.047359966 -0.024111878 -0.042322617 0.0965435 -0.16887134 0.072783865 0.13514614 0.14674453 -0.28708738 0.01076306 -0.062577866 -0.030677179
0.0010944786 -0.08186178 0.018556494 -0.12928107 -0.16676575 0.012936994 0.07366095 -0.02909268 0.095936954 -0.021830715 -0.0033565492 0.2833524 0.040077057 0.08836396 -0.031881697 0.044049792 0.09934102 0.030909633 0.021730455 0.07888727 0.14856859 -0.12212712 0.21006498 0.0083462065 0.097783744 0.12608032 -0.11279756 0.10159193 0.18654852 0.037197754 -0.2147045 -0.008141146
-0.051724948 -0.0531919 -0.0806001 0.16663277 -0.085514486 0.03063239 -0.104885764 -0.18474804 -0.01956982 -0.01189728 -0.09450414 -0.058365043 -0.19401313 -0.083359234 -0.057722203 -0.07202593 -0.08122526 0.06684898 -0.08922279 0.07229104 -0.09940025 0.023085857 -0.19909278 0.01768599 0.04315547 -0.109115265 -0.25078946 0.069403484 -0.020005308 0.12695584 0.17230535 0.11191291
-0.27421144 0.035392035 0.08350775 -0.0025679797 0.08995663 0.098378316 -0.1845424 0.18061301 0.0014304846 0.03880251 0.079263456 0.11129832 0.115582764 -0.11423407 0.052461762 0.07509788 -0.078895986 -0.2293062 0.02076865 -0.15625003 0.14474417 -0.13083777 -0.076721504 -0.19368637 0.03376446 -0.0880458 0.25026593 -0.18757932 0.1351951 -0.19425076 -0.27995726 -0.1268706
-0.10037145 -0.0881551 -0.07032162 -0.028974785 0.09889352 -0.10495342 0.036027584 0.09101243 -0.055463873 -0.15872163 -0.09994749 -0.013632494 -0.033893388 0.039574448 0.09831727 0.040630627 -0.012968226 -0.08572593 -0.0074300026 0.0048829163 -0.108192675 -0.08514831 -0.05709744 -0.013959226 0.03041522 -0.19973531 0.14874394 -0.07057218 -0.10770782 0.15437995 0.0021092435 -0.037278373
-0.29612312 -0.038197782 0.21893209 0.037361655 -0.17043848 0.09817429 -0.0520261 0.12584707 -0.021058125 0.022774674 0.05542809 0.02050645 0.22726926 0.11063638 0.09524827 -0.054163184 0.14929986 -0.0447381 0.12549707 -0.0056386217 0.272265 -0.04043264 -0.08507137 -0.066312164 0.102304295 0.05637657 0.18592218 0.18160984 0.033683706 0.03167316 -0.16933332 -0.00996398
-0.15240222 0.012910308 -0.13500752 0.012570737 -0.102782525 0.024199378 -0.058761522 -0.08826422 -0.0050947224 -0.15618707 0.109824784 -0.010412128 -0.10017785 -0.10973983 -0.16500455 -0.19284932 0.04636642 0.040692896 -0.16415966 0.026952712 0.14472067 -0.109609924 -0.16614597 -0.17058943 -0.09852128 0.014999773 -0.020986274 0.0111087 0.017563283 -0.13991536 -0.02345335 -0.029237866
-0.11111373 0.0723433 0.21302961 0.027209856 -0.030885037 0.13551924 -0.0816568 0.27297503 0.10313345 -0.038468733 0.21155521 0.13816226 -0.055175573 -0.22793251 -0.03077778 -0.17467861 -0.18607025 0.03852715 0.2663173 -0.110057645 0.12961332 -0.36816612 0.106492884 -0.06333641 0.18022852 -0.18522708 -0.012407224 -0.15472339 0.3213815 -0.05221479 -0.23156193 0.32656938
-0.0955586 0.061395746 0.27545726 -0.08909806 -0.043313224 0.14294566 -0.15723695 0.05261212 0.10221127 -0.09247857 0.16805583 0.24822809 0.11070177 0.0055075963 -0.033885185 -0.1267238 0.038901363 0.025350189 0.19483292 -0.03592604 -0.023755243 -0.024093064 0.19534507 0.017638639 0.15331651 -0.03412436 0.055939782 -0.27805063 0.24046135 -0.06365188 -0.06855276 0.04706485
0.13128828 0.0507786 0.017296162 0.06519751 -0.020664517 0.12289642 0.102537915 -0.13863935 0.038041405 -0.051905867 0.042467088 -0.21948124 -0.049377654 0.08160648 0.09427736 0.09292767 0.0849558 0.19852518 0.09044278 0.061539833 -0.06239732 0.123063795 -0.02907446 0.07361054 -0.15921599 0.19736741 -0.067903616 -0.24487732 -0.10891979 -0.03408955 -0.12117582 -0.08554575
-0.13139288 -0.10551396 0.02697787 -0.10681194 -0.050973743 -0.11475953 0.028893141 0.004618351 -0.09187942 0.094967745 -0.0028683175 0.22238149 0.017264131 0.028368821 -0.04972852 0.15642825 0.08344397 -0.13934797 0.07592543 0.15780501 0.06258399 -0.06128322 -0.03305744 -0.1767488 -0.0120735625 0.24918397 0.02531962 -0.09512178 -0.03127146 -0.015108719 -0.120923035 -0.14940156
-0.08323469 0.092305176 0.047960263 0.11489745 0.008507053 -0.03999346 -0.060279697 0.11810927 0.14070408 0.13257167 0.062538795 -0.048298363 -0.13041745 -0.04976562 -0.01733813 -0.14972143 0.13454607 0.19100735 -0.31148645 0.12915432 -0.14959471 0.040231913 -0.076358005 -0.07528802 -0.07476571 -0.044741668 -0.13370073 -0.016544433 -0.05872886 -0.019193126 -0.17114629 -0.06752987
0.22142738 -0.056157667 -0.1413895 -0.11890469 -0.18939956 -0.14973846 -0.14773658 -0.20043844 -0.025416473 0.003927331 -0.14749183 -0.026550893 -0.010306653 -0.10821995 0.048414346 0.16914825 0.12495781 0.059409987 -0.05587425 -0.12185489 -0.13564871 -0.1038861 -0.06688516 0.14235128 0.0042060595 0.20808382 -0.16778052 0.1080663 0.03058324 0.0044305404 -0.18292761 -0.1758408
0.11310392 -0.16881004 0.029852277 -0.021465966 -0.09289449 -0.16789347 0.041047264 0.043165863 -0.10621115 -0.02063186 -0.21872039 -0.016328087 -0.0021231652 0.16016099 0.14882669 -0.0022219487 0.0332038 0.17368951 0.055671964 0.010264873 -0.108847916 0.2565429 0.101646565 -0.052600153 0.1930523 0.19773233 0.15822293 -0.10229564 -0.13676351 0.10485325 -0.017073922 -0.038751733
-0.15999421 -0.014855922 0.037970774 0.054563787 -0.22259662 -0.09631032 0.024301948 -0.10167439 -0.1310125 0.13174123 -0.05089936 0.10133779 -0.021706603 -0.18375404 -0.09867691 -0.03799464 0.03509736 -0.03746535 -0.03285587 -0.015504393 -0.027234245 0.056883838 -0.2575636 0.027051883 -0.05661297 0.1199846 0.08472401 0.10762062 -0.16380563 -0.061718035 -0.16659717 -0.076617025
0.03792425 -0.0032386847 0.13050115 0.07479218 0.15682562 -0.1592331 0.12655765 0.019293888 0.15110153 0.2105255 -0.11382357 -0.0061362693 0.081901245 0.14417319 -0.020116733 -0.075300984 0.065919936 0.052131537 0.16662084 0.24628673 -0.0765112 0.0788361 -0.06841668 0.15853442 0.09209552 0.12516129 -0.15142088 0.08297155 -0.09711944 0.15250134 0.042575713 0.173709
-0.17696476 0.14700048 0.21583869 0.18705694 0.02522387 0.07902015 -0.14138095 -0.12312104 -0.14881413 0.09824535 0.096387915 0.06690332 -0.13450587 -0.18607967 -0.09845832 -0.12497807 -0.16487467 -0.07232017 -0.10972034 -0.027850082 0.2155989 -0.17539008 -0.16939437 -0.07551027 -0.15558045 -0.2059363 0.032835267 0.01071479 -0.016126363 0.02117617 0.01728138 0.061341967
0.008392922 -0.044018213 -0.123816 -0.054114126 -0.21673818 -0.064556696 0.21969302 -0.12202864 -0.1344087 -0.016522845 0.0008839182 -0.16718589 -0.1240929 0.14829737 -0.045485016 -0.109728225 0.25031364 -0.015761726 -0.07806969 0.06169264 0.092827335 0.23494451 -0.110118344 0.19344264 -0.03882776 -0.06572066 0.10634614 -0.011102144 0.030520173 0.116178684 0.04192496 -0.11614396
0.092957295 0.1565031 -0.09980932 -0.06198547 -0.11996297 -0.03985591 0.14223604 0.03461102 0.00046455956 0.010953661 -0.08556114 -0.22569147 -0.0038585006 0.09979969 -0.1326607 0.05563922 0.06556004 -0.030027082 0.05634499 -0.048692137 -0.20407942 0.016410694 -0.073629215 -0.0112994695 0.16589825 -0.06527186 -0.06365318 -0.19578616 0.011892045 0.02532467 0.04756535 -0.0028170983
-0.036797557 0.072139 -0.013792153 0.104976244 -0.0659311 0.005130994 -0.2009202 0.18320866 0.08704639 0.07308645 0.12384206 -0.10927122 0.09189397 0.021633903 -0.082344696 0.0497397 -0.121495105 -0.06801887 -0.05881292 -0.066196166 0.09664025 -0.09024035 0.12109271 0.010083346 -0.024988443 -0.06453355 0.0061098877 -0.18886258 -0.032099884 0.019178115 0.00724139 0.06908769
-0.25138065 0.11319505 0.13313104 0.24437447 -0.031084554 0.024579931 0.028842876 0.050395668 0.17702219 0.10227413 -0.08522575 0.18289246 0.06688547 -0.08175462 -0.0216164 -0.14057489 0.1254334 0.15965694 0.031439155 0.17504442 0.032963753 0.1586484 0.031531926 0.046687055 0.21836396 -0.20497426 0.12990731 -0.26289344 0.0117320465 -0.097421385 -0.114104174 0.11971227
-0.16007206 0.0952105 0.23115554 0.14906879 -0.04214696 0.0052340585 -0.114097185 0.20956148 -0.058227103 -0.35151336 0.2076055 0.18829578 0.21652597 -0.17351763 -0.12950887 0.04170683 0.04718803 -0.21756016 -0.05480305 -0.08178042 0.1914682 -0.123393275 0.084690094 -0.22267744 0.16381942 -0.2881503 0.102344766 -0.20314151 0.050892174 -0.12519383 -0.15833007 0.24169572
-0.032657024 -0.15930198 0.029751029 -0.04005209 0.2154167 0.14522192 0.09479233 0.21636343 0.026427804 0.018420631 0.16302425 -0.023866722 0.06492851 0.09515829 -0.07285423 -0.040242493 0.04935053 0.0141299 0.08590461 0.123733185 0.053979263 0.041834947 0.1988659 0.057872597 0.030908244 -0.017993899 0.1714714 -0.1423512 -0.034488846 0.10098504 0.047835916 -0.1688814
-0.097634606 -0.03514685 0.019546574 0.027568562 0.12222806 0.044498622 -0.09518199 -0.019176044 0.02685128 0.06335309 0.14326522 -0.010392365 -0.06357864 -0.2511195 0.05874095 0.027322229 -0.17159438 -0.010721313 0.033288002 -0.09777201 0.07321462 -0.32485566 0.13553919 -0.31734484 -0.14948598 0.013767209 0.06489734 -0.08666592 0.059325017 -0.0620464 -0.049174365 0.27129614
-0.086809106 0.11310627 -0.14074846 0.13129868 -0.058317874 -0.18877557 0.1608179 -0.02273435 -0.05722081 -0.24426273 -0.16202076 0.04915522 0.21591555 -0.04000669 0.03634829 0.009771528 -0.033876665 -0.07193426 0.059825152 -0.107371725 -0.08369125 0.05806641 -0.14890422 -0.07227368 0.16728556 -0.03250915 0.044660825 -0.06927219 0.0001600337 0.06256312 -0.17901035 0.059522185
-0.085631326 0.019696176 0.05690771 0.0808032 0.016072571 0.10112242 0.0045916424 -0.012706882 0.09526248 -0.033911154 0.12237574 0.22262365 0.0048883175 -0.11871759 -0.04782537 -0.06591595 0.10348629 0.004763235 -0.12678501 0.05995486 0.050351143 -0.10077047 -0.052220106 -0.043174904 0.07002123 -0.17007379 -0.03540257 -0.06611654 0.25458303 -0.006494415 -0.061985064 -0.107470356
0.043153856 -0.10817003 0.003748631 -0.19421007 -0.08475861 -0.16565521 -0.08497027 0.11934618 0.22296658 0.007864502 -0.04787561 0.098377034 0.093204305 0.10680294 0.0778507 0.020568509 0.10052462 0.10047966 0.06022009 0.039575595 -0.23344389 -0.057361133 0.11956073 0.22034985 -0.045198627 0.05882031 0.021066673 0.17838359 -0.026546093 0.11168904 0.15414822 -0.07296837
0.12637207 -0.08873248 -0.3394902 -0.192262 0.03832534 0.039387185 0.121110074 -0.34294215 -0.33559477 0.23543811 -0.1762201 -0.19282453 -0.31014368 0.021463491 0.35339475 0.065614216 0.20062317 0.15960339 -0.43776116 0.16320455 -0.1433878 0.023122406 -0.12644312 0.24694745 -0.13625294 0.16591169 -0.16691509 0.20714442 -0.091707714 0.24061649 -0.031217752 -0.34717026
-0.0009129451 -0.11519043 0.043519735 -0.21421815 0.053628217 0.02664471 0.10591269 0.1244112 0.011325579 -0.07444387 -0.13844223 0.06861651 0.011285228 0.07469872 0.11767758 -0.15845749 0.049169242 0.007176998 0.034206413 0.0905742 0.12745085 0.12822486 0.0012157119 -0.033673666 0.09472896 -0.02876758 -0.10208487 -0.04042598 0.028108537 0.13262908 -0.11048446 -0.04839027
-0.113134176 0.17917342 -0.14398769 0.069495 -0.043127436 0.026410626 -0.20453036 -0.011462462 -0.0946377 -0.1368266 0.05668969 -0.012956075 -0.26519558 0.07726817 -0.07381103 0.1029205 -0.028056156 -0.097043864 -0.3018635 -0.18906382 -0.15048753 0.006018758 -0.19075188 0.020839857 -0.22043663 0.13681865 0.0011548364 -0.048572388 -0.22348505 -0.1084879 -0.107766785 0.19583663
0.11960601 -0.006246267 -0.0570328 -0.10873222 0.13050033 0.02204343 0.05917434 0.009960719 -0.04070972 -0.026686866 -0.10702836 0.1043404 -0.053188834 0.02140236 -0.08977043 0.09992517 0.07569431 0.021940937 -0.09623692 0.026170796 -0.005872964 0.1423849 -0.01827938 -0.0040034577 -0.10061014 -0.048103806 -0.030627904 -0.17453225 -0.05928008 0.11211378 -0.053802796 -0.0995384
0.33122933 -0.07194338 -0.13220222 0.0134242745 0.059476174 0.048577487 0.15072489 -0.2011313 0.13846835 -0.05981598 0.00875939 -0.17420071 -0.21083204 0.044466846 0.06214929 0.050614 0.0023301009 0.006176754 -0.10669992 -0.08370473 -0.09629649 -0.1448743 -0.031168144 0.15148085 -0.22226775 0.10416506 -0.12164989 0.042653706 -0.013579718 0.12860686 0.113967694 0.01734575
-0.069591 0.00019621868 0.07370787 -0.05396435 -0.11493513 -0.10375509 -0.030132698 -0.1771566 0.0063570524 0.05685562 -0.2294723 -0.15532894 0.08408279 0.07251837 -0.0007628285 -0.13927612 -0.052992363 -0.09761143 0.015496364 0.008811278 0.0596549 0.12682658 -0.010304043 -0.07549294 0.032119513 -0.27014244 0.06156693 -0.04982418 -0.1889765 0.26238316 0.26294798 0.05825433
-0.07871869 0.35453466 0.16622762 0.20997958 0.054453276 -0.09427101 -0.13243501 0.44829306 0.21644291 -0.053300332 0.26236463 0.110166736 -0.071094856 -0.109752916 -0.06904793 -0.12990238 -0.13851692 -0.019018982 0.32926214 -0.1451096 0.26423633 -0.12525903 0.17986473 -0.044129025 -0.15349032 -0.05950905 0.20284319 0.014464098 0.21055728 -0.108718865 0.0261164 0.11548425
0.028094107 -0.006088166 -0.065482415 -0.13508856 0.04580829 0.04146607 -0.06275313 -0.08387988 -0.024994766 -0.06774771 0.04382718 -0.008715019 0.11346263 -0.06409322 -0.053876314 0.053541802 -0.06986446 -0.1269588 0.061398122 -0.11286019 0.10648908 0.14393358 0.092071466 -0.11407305 -0.036512148 -0.09669578 0.0677382 0.005980832 0.15829456 -0.09710586 -0.048821323 -0.048354607
0.15504509 -0.07012506 0.14067198 -0.11987562 0.13390265 -0.009445262 -0.06167331 0.019853106 -0.018174184 -0.17711596 -0.004324281 0.020744557 0.040703136 0.025632706 -0.09871762 -0.1190054 -0.031225614 0.06410694 0.08889548 0.06328509 -0.06672908 0.029930556 -0.015645871 0.0367766 0.054848026 -0.0251325 0.10691812 -0.28779563 -0.031963877 -0.15685293 0.04116175 -0.13153186
0.11682823 -0.19897881 0.036003403 -0.052782442 0.11418148 -0.18701051 0.008117209 -0.056809824 -0.060384884 -0.010184289 -0.18945828 -0.1220032 -0.19266649 -0.0035885037 0.023772247 -0.1719212 0.18727209 -0.049761347 -0.2000374 0.06509911 -0.12476797 0.053790215 -0.12947243 0.052313708 -0.050927054 0.002286166 -0.110014886 0.12059145 -0.054661058 0.3829584 0.027883874 0.015279555
0.013307555 0.074435756 -0.041702893 -0.05570763 0.05706701 0.071871676 0.1619488 -0.010938054 0.065656 0.07890202 -0.13283606 -0.091813006 -0.043550815 -0.014621792 0.039180286 -0.08622666 0.05105663 -0.112413816 0.041310363 0.028614607 0.13393925 -0.033502854 0.12917812 0.07872512 -0.04933525 0.031095551 0.002168398 -0.012579857 -0.15019208 0.0005089329 0.011867999 0.11758556
0.007929369 -0.068849325 -0.045075476 0.07875637 0.17882413 -0.10278295 0.04486899 -0.093096495 -0.1586623 -0.010762569 0.15314357 -0.023748493 -0.29877862 0.015666569 -0.10373226 -0.04583639 0.07689146 0.05785652 -0.30619493 -0.06925402 0.15472704 0.041800484 -0.20158128 0.005451588 -0.0049680276 -0.1361961 0.13571312 -0.16463274 -0.30757785 -0.013826553 -0.052479487 0.089296885
-0.039311647 -0.045043353 -0.2482304 -0.08665101 -0.15117057 -0.2810479 0.3137287 -0.49474594 -0.11524176 0.0048984536 -0.046245426 -0.22367342 -0.07006902 0.17941843 0.14617528 0.20283362 0.023372557 0.039279576 -0.3048287 0.012335529 -0.118223034 0.17647763 -0.19572183 0.0111642005 -0.151536 0.1750228 0.02126518 0.27906078 0.0402441 0.08473564 0.22150853 -0.20158377
-0.09863976 -0.014732313 -0.030052781 -0.15024714 -0.03331342 -0.038573723 0.12130843 -0.022342747 0.1903791 0.059663374 0.115065016 -0.015783122 -0.033054274 0.04647758 0.18177503 -0.02807119 -0.19139959 0.13920677 0.045074515 0.05853335 0.14818816 -0.13716522 0.076037325 0.1143993 -0.050414808 -0.023263397 -0.029319411 -0.0425037 0.15556008 0.052302253 -0.112191886 -0.21302213
-0.07444948 0.039576642 -0.09479971 -0.009841036 -0.043064535 0.0031066455 0.13447635 -0.14525446 -0.035193983 -0.14389856 -0.101380594 -0.0891445 -0.07091828 0.17462388 -0.10932071 0.043258462 0.17521136 0.12627217 -0.1931427 -0.01034364 0.08719682 0.1424349 -0.23783766 -0.016621413 -0.17681345 0.21374814 0.015771128 -0.017702565 -0.12594764 -0.16991967 0.17120895 -0.06202473
0.09144551 -0.1808247 -0.05692752 -0.08290728 -0.13073374 -0.13971235 -0.09236948 -0.2023728 0.015092216 -0.051143058 0.13912755 -0.06261691 -0.07763009 -0.046808936 -0.027966646 -0.08749192 -0.06646199 -0.034222294 -0.19602585 -0.14160165 0.085047096 -0.0012750133 -0.003368907 0.13140815 -0.053236376 -0.07250409 -0.13524206 0.038845092 -0.0065391404 0.31785232 0.24987191 0.17669672
-0.042868353 0.031414315 -0.056891847 -0.116525784 0.022876501 -0.10979167 0.051646262 0.081406996 -0.08308722 -0.16838086 -0.026835978 -0.016306523 -0.0055179195 -0.10326397 -0.0076574334 -0.17745988 0.062281962 0.15087825 0.036277063 -0.03980766 -0.030583676 -0.10181263 0.110226385 -0.096138045 0.056575492 -0.034341622 -0.05273738 -0.12809235 0.104573 -0.08905352 -0.0473866 0.04140143
-0.16162044 0.13204499 0.038582735 -0.04798032 0.08642765 0.14964575 0.07482995 -0.062571764 0.06347034 -0.128476 0.08111 0.09594623 0.11478049 0.14826384 -0.004567764 -0.07721821 0.10661734 -0.101917 0.1091921 -0.0038108702 0.08329898 0.0575992 -0.13075389 -0.09580477 0.12863927 -0.07831834 0.07891188 0.016281279 0.03705051 0.038614992 -0.031600818 0.01972489
-0.0013776438 -0.044692725 -0.21223772 -0.004371752 -0.085407995 0.036678545 -0.07074016 0.0400988 -0.11440645 0.0044110063 -0.067639075 -0.0778748 -0.010164397 0.12716979 0.07144674 -0.06638279 0.06095782 0.063023835 0.017263705 0.15870893 -0.07775364 -0.01918067 -0.21584907 -0.04809362 -0.10945501 0.026474804 -0.08235402 0.18455859 0.018741803 -0.039860524 -0.11577793 -0.13553427
0.04039208 0.1849025 -0.043328725 0.07389993 -0.077028945 -0.03464884 0.13642476 -0.035776448 0.06529001 -0.06541496 0.025867159 -0.05974992 0.028111251 -0.08695621 -0.1159482 -0.0810954 -0.00097403553 -0.035850096 0.025478514 -0.0030523546 -0.045342322 -0.0997532 0.15376684 0.16768053 -0.088282354 -0.10595735 -0.023149287 0.06822851 -0.000609095 0.04201452 0.084728606 0.023915777
0.044477884 -0.011795966 -0.06768151 0.13649666 0.16627458 0.047874488 0.030648267 0.060730655 0.067540236 -0.274807 0.071411975 0.029232038 -0.056623586 0.098626606 -0.14836988 -0.17226766 0.02628909 -0.028607653 -0.03534928 0.025872644 0.18620676 0.18617287 0.038196735 -0.023083806 0.021570712 -0.23341951 0.09281073 -0.092823215 -0.0019820703 0.0040265876 0.059192713 0.06473216
0.11614253 0.1604195 0.054319374 0.15278235 -0.110069536 0.090663776 0.16872299 0.14583948 0.112804756 -0.08595483 0.15074782 0.02921985 0.046902876 0.16879268 0.16826558 -0.026797023 -0.02244074 0.16789587 -0.008927987 -0.024371821 0.19255319 -0.109614834 0.095706284 0.12841664 0.012394949 -0.19013575 -0.10971155 -0.109788746 0.041876398 -0.0016785585 0.13777673 -0.053019896
0.1593725 0.0046769273 -0.15707803 0.06319668 0.049222205 0.0044860933 -0.010673074 -0.1790354 -0.07941647 -0.1350801 0.0436866 -0.06966557 -0.15051213 0.15026212 -0.13948603 0.053418215 0.10966026 0.029003467 -0.21162966 0.060154337 -0.20321529 0.12235908 0.04699895 -0.056386586 -0.18855266 -0.12358889 -0.14248805 0.032873437 0.006639177 0.05015871 0.06924925 0.07104397
-0.1773929 -0.030331535 0.10549727 0.12091618 -0.07421567 -0.099523254 0.0717307 0.16247047 0.0709718 0.013600879 0.054670714 -0.017516624 -0.073699914 0.16768216 -0.016907709 -0.10221753 0.1437039 -0.042657074 0.15768297 0.013785655 0.099469274 0.12464752 -0.057562076 -0.03758641 -0.0139250755 -0.0033175678 0.11024524 -0.13913833 0.056013778 0.08381251 -0.12655164 0.07279781
0.018981125 -0.13608348 0.018340934 -0.018911188 -0.13811398 0.19461936 -0.15894178 0.15636839 -0.0664358 0.03235899 -0.022298519 -0.0034975912 0.10674157 -0.12641545 -0.061608866 -0.16186652 -0.009743831 -0.11941885 0.15290606 -0.12017321 0.02083209 0.05363531 0.20613459 -0.19366531 0.054276064 0.14864533 0.10730306 0.10153032 -0.021048095 -0.037373956 -0.18579893 0.18974082
0.122216284 0.13359529 0.044842843 0.1106453 0.018852115 -0.10173902 -0.0023938403 0.06153732 0.19540441 0.09415049 0.002058202 -0.08758687 -0.03927392 0.08689909 0.04262223 0.06462559 0.026555758 0.06581955 -0.19762607 -0.008513005 -0.23517565 -0.022974951 0.11494247 -0.1253961 -0.15094624 0.024356209 0.042603247 0.19544755 -0.043515213 0.1413206 -0.012442256 0.16195591
0.018389253 -0.0010079518 -0.047115617 0.07909067 0.012327285 -0.08317724 0.17415851 -0.05340136 0.04855127 -0.15668549 -0.016138425 -0.014114574 0.023772566 0.15238672 0.0002473774 -0.010790917 -0.022263786 0.068375506 -0.0487747 0.11423186 -0.07027075 0.08799413 0.07974827 0.11071139 -0.07940224 0.1643909 -0.04699657 -0.14186633 -0.030373445 0.0027028387 -0.049224164 -0.1131688
-0.05998639 0.095697016 0.23736022 -0.014543222 0.036576465 0.035038535 -0.12088039 0.012894482 0.0023081694 -0.054936677 0.02790763 0.098309115 -0.048276234 -0.14206403 0.08282229 -0.028039355 -0.0529963 -0.006709787 -0.042474512 -0.12800153 0.0025634898 -0.021575592 -0.026649032 -0.005749628 -0.032881603 -0.12072216 0.0066365674 -0.11641653 -0.06281421 -0.11017154 -0.05357518 0.1276018
-0.044644654 0.1295313 0.14299946 -0.1038319 0.10359934 0.115587294 -0.006697232 -0.043220676 -0.03443398 0.061015356 0.021202732 0.093855515 0.04370136 -0.015522442 -0.07726447 -0.09465201 0.22688207 -0.11709674 -0.01642635 0.13608615 0.12143175 -0.052398063 0.029769521 0.059365895 0.036852103 -0.12994684 0.038670264 0.10003391 -0.05932809 -0.119625136 0.13259135 -0.09019414
0.086889766 -0.035634406 -0.06251032 0.17722876 0.11270108 0.03983202 0.086059496 0.009572725 0.0012871024 -0.14835265 -0.13166653 -0.14466771 -0.08538735 0.13136436 -0.054163143 -0.025146991 -0.061215226 0.13248321 -0.09457592 -0.010305634 -0.12569778 0.027072953 0.05565263 0.13173255 0.0125445025 -0.040999148 -0.05314985 0.015602158 -0.011249303 0.14618838 0.057863522 -0.09274485
-0.15294236 0.35483122 0.33105573 0.10630021 0.020856913 0.27703145 -0.23017135 0.34380352 0.3678767 -0.09957991 0.3832535 0.26528078 0.13308798 -0.20603219 -0.121783055 -0.101203345 -0.050698716 -0.14403398 0.35758272 -0.11040845 0.13719986 -0.08535073 0.08829896 -0.24413015 0.2790979 -0.03862693 0.26891187 -0.10932902 0.24534182 -0.12129273 -0.0942475 0.3449584
0.27919823 -0.07713487 -0.0929882 -0.2062469 -0.14784028 -0.10630414 0.29004422 -0.028031481 -0.01214421 0.27398932 -0.08526688 -0.10517259 -0.061306573 0.29572418 0.06647956 -0.09377951 0.3012799 0.09840632 -0.099316165 0.12468503 -0.22227198 0.16317403 -0.07352195 0.28229874 -0.034792837 0.1516041 0.0047268183 0.054789674 -0.2645768 0.13888697 0.07753217 -0.23678835
-0.015771443 -0.23020189 -0.06778255 -0.14000615 -0.09979225 0.07653162 0.15221676 0.1339811 -0.020988792 0.1296747 -0.060240276 -0.12396095 -0.030126434 0.09762119 0.16941895 -0.19550808 0.4038607 0.25510797 0.060507417 0.25016078 -0.06692522 0.22270168 0.13137263 0.2744341 -0.015894698 0.0039869705 -0.07891418 0.14398904 0.03801387 0.13292708 -0.13694556 -0.08208808
0.11289314 0.13727069 -0.027918717 -0.044326622 -0.090463564 0.028565582 0.14148399 -0.048774246 0.07991362 -0.050827842 0.0069015766 -0.22123091 -0.03345029 0.0855849 0.065548874 -0.05286156 -0.07439571 -0.069780305 -0.10251252 0.057528965 -0.025380675 -0.024978805 -0.0542763 0.06862988 -0.124408364 0.08056399 -0.114935026 0.15627022 -0.10448563 0.07614643 0.04105682 -0.082850516
-0.11644154 -0.058588635 0.1921209 0.106047094 0.040089015 0.104187675 -0.21856861 0.10959501 0.079675294 0.010693835 0.14075723 0.07117389 0.1038945 -0.17991227 0.03432707 -0.15119132 0.040505465 0.004796845 0.1382335 -0.11743547 0.25066245 -0.15039729 -0.02231811 -0.09678083 -0.032125216 -0.11127251 0.09650075 -0.23268421 0.06689304 -0.060273852 -0.06659342 0.058356866
0.10005417 0.057660837 0.039522965 0.03921293 -0.10947687 -0.12394029 -0.28256905 0.028224545 0.093634404 -0.01500113 0.110522434 -0.13935843 -0.12949385 -0.09228827 0.0356001 0.1041797 -0.13678941 -0.25312886 0.083180785 -0.040201027 -0.06720938 -0.15301229 0.046636157 -0.10220126 -0.01871698 0.011952656 0.024146708 -0.08413272 -0.19241673 -0.065826476 0.10156263 0.05652514
0.2938062 -0.0161249 -0.23870963 0.06295463 -0.062182292 -0.12313209 0.12915783 -0.1966321 -0.01725227 0.021341424 -0.0075497204 -0.2126738 -0.108297855 0.2846417 0.015411584 -0.088472486 0.17607994 0.2345797 -0.21132949 0.23476718 -0.075609416 0.24383102 -0.12786244 0.24211498 0.035127904 0.3428959 -0.0022342433 0.026567679 -0.23181711 0.39887777 0.23277496 -0.08710457
0.13886732 0.08095768 -0.16625202 -0.18948652 -0.087760404 -0.0052022245 0.049106017 -0.14777574 -0.17229536 0.10529615 -0.18406972 -0.16777886 0.04328275 0.24820638 0.13282904 0.06327841 -0.0068951314 0.106896095 -0.016694155 0.06290098 -0.07493824 0.15830907 0.014865516 0.09521577 -0.141069 0.13655695 -0.09450388 0.06072663 -0.03632243 0.12638223 0.0037908042 -0.15487276
-0.039457154 0.014559409 0.0030774379 0.072691105 0.011827265 0.060765892 -0.07274806 -0.19718981 -0.023696477 0.20770895 0.053692795 -0.1887999 -0.14336681 0.018847464 0.01529445 0.117634155 0.13487467 0.18557978 -0.16033341 -0.031583764 0.0914046 0.20300063 -0.17596714 0.15750849 -0.06997546 -0.0236238 -0.10211931 -0.10390501 -0.22108197 0.10119962 0.0457534 -0.10056304
0.123185 0.1623338 0.05759369 0.21299674 0.12508628 0.0045335735 -0.028901014 -0.15562835 -0.13880125 -0.15918438 0.04141865 -0.08106078 0.06970238 0.030375067 -0.03704505 -0.10118357 -0.078674756 -0.12612477 0.031178707 0.040857244 0.059645172 -0.07723511 -0.103336126 -0.01911908 -0.075015776 0.050232034 -0.062887065 0.051038694 0.17173031 -0.024686987 -0.039934695 0.012353742
-0.2555229 -0.19177903 -0.1476526 -0.08164245 -0.14650583 -0.10809345 -0.045105502 0.15019216 0.10843111 -0.07692405 0.08256189 -0.09404837 -0.15191787 0.08193916 0.052822515 -0.12816575 -0.08537049 -0.08929931 0.14811407 -0.050876833 0.07192345 -0.24516805 0.18528953 0.011444273 0.14595869 -0.06435995 -0.020117704 -0.15933074 0.027807686 -0.19068076 -0.023355313 -0.058303196
0.03741561 -0.22556418 0.00024340164 -0.15352651 -0.09197588 0.05204639 -0.14860184 -0.10760583 -0.110321775 0.063976705 -0.08707344 0.084508315 -0.11344931 -0.038612217 0.06433765 0.052510813 -0.16343944 0.06477064 -0.10696589 -0.06581671 -0.054426145 -0.115758896 -0.17910099 -0.24164185 -0.03982142 -0.12314081 -0.011151347 0.24243402 -0.03165933 -0.09700868 0.028555214 -0.08006865
0.19998665 -0.0432861 0.021441545 -0.02265977 -0.04158983 -0.04429869 -0.0058689374 -0.066773705 0.004558588 0.056186028 0.026701817 -0.19628051 -0.13847047 0.10289223 0.20887563 -0.0055151265 -0.008221552 -0.038656607 -0.019334244 -0.019669428 -0.0925218 0.17143597 0.037964124 0.14510477 -0.13960844 0.08643762 0.0067667593 0.021047127 -0.16559377 0.03405267 0.15228389 -0.06234632
-0.14317684 0.21719857 0.040406868 0.123254426 0.13878848 0.19333558 -0.07192865 0.3161356 0.31101426 -0.016641755 0.01996744 0.23607355 0.12773089 -0.26358673 -0.004503882 -0.25199002 -0.048920006 -0.09476988 0.1679806 -0.1628599 0.20025921 -0.39989135 0.32086954 -0.018276671 0.23230247 -0.20052178 0.11492615 -0.07959026 0.13610342 -0.16762333 -0.06452131 0.252487
-0.2761532 0.0892042 0.17695795 -0.091147155 0.056026842 0.14705752 -0.17100856 -0.063014545 0.0055034654 0.021992527 0.14614883 0.028202327 -0.104375884 -0.28331038 -0.1976293 0.0032998836 -0.19896546 -0.12958299 0.021545293 -0.29245237 0.2958454 -0.32819217 0.03883947 -0.13438001 0.011465446 -0.27104315 -0.09678278 0.101513274 0.14783339 -0.024266634 -0.004831698 -0.02960947
0.084486656 -0.19102778 -0.17126358 -0.18290876 -0.080487646 -0.015838675 0.06946786 -0.29894993 -0.174552 -0.003417641 -0.008968691 0.025105596 -0.031632073 -0.096317835 0.017318921 0.114833295 -0.08459726 -0.09358086 -0.18146984 0.06459835 -0.10882079 0.08218858 -0.077006355 -0.12806456 -0.07823693 -0.049425855 -0.16027844 -0.06645453 -0.046452582 0.018175283 0.014107171 0.05439818
-0.0016885478 0.1716881 0.049912687 0.03953534 0.06455328 -0.03297367 -0.044425365 -0.036640413 -0.018737247 0.18998066 -0.12331043 0.11941515 0.07377113 0.04350783 0.15270202 -0.18390734 0.07362626 -0.108104065 0.25336707 0.06973391 -0.09986117 -0.12463365 0.10270376 0.18503873 0.13632867 0.049376547 -0.055833675 0.06565221 0.09275034 -0.10393672 -0.13807088 0.015047745
0.01758073 0.104876645 -0.0064235013 0.13382688 0.003021481 -0.040624302 0.013707456 0.12437618 0.17828107 -0.11255138 0.10634056 -0.064959064 0.09795157 0.12066353 0.071580924 -0.07564689 -0.052213904 -0.18272969 0.088976264 0.05061604 -0.08385659 0.117436685 -0.1801631 -0.13784713 0.047607716 -0.09234333 -0.10447235 -0.07621956 -0.047085494 -0.021321617 -0.09970639 -0.03475336
0.023904376 -0.05258561 -0.12027961 -0.021188186 0.015318435 0.003964544 0.08029608 0.12595233 0.011021987 0.17937498 -0.15187185 -0.052808776 -0.05282806 0.09205219 0.11667832 -0.21269909 -0.06449676 -0.018256318 -0.22301781 0.021790046 -0.13549855 0.18387623 -0.14494742 0.19232138 0.07425106 0.25182086 -0.10771132 0.18806303 0.032317247 -0.018175403 -0.01744897 0.05070767
-0.04252168 0.3354218 0.20480208 0.20735674 0.20053197 0.2729336 0.09415308 0.057228208 0.19234598 0.008925573 -0.07825868 0.17702985 -0.1453806 -0.15187569 0.015997415 -0.16231054 -0.045848347 -0.009655157 0.36186865 -0.09378606 0.16673698 -0.1319435 -0.15453771 0.033911455 -0.07183739 -0.09704058 0.302441 0.12013439 -0.0055376543 -0.1181034 -0.15340097 0.037325546
-0.074273735 -0.15170643 0.01098686 -0.115265384 -0.017581759 0.10363205 -0.29226232 0.09159367 -0.0062523438 -0.14870855 0.018412407 0.016286999 0.09944646 0.022541404 -0.12847681 0.10662946 -0.3491742 -0.043167476 -0.0019438865 -0.11375653 0.19156109 0.05248264 -0.008607309 -0.2843836 0.11647933 0.01652829 -0.13647147 -0.18713985 0.19738527 0.057918858 -0.17098635 0.07114995
-0.11451475 0.05967551 0.05347064 0.080432735 0.07745121 0.12980781 -0.0034370665 -0.009874938 -0.0242284 0.064030096 0.051197693 0.0362092 -0.090709694 0.034889877 -0.051943813 -0.07154773 -0.15282485 -0.16020401 0.040882178 -0.02407035 0.11563411 -0.08645024 -0.10972808 -0.18837756 -0.06678038 0.035893247 0.0037360226 -0.02218968 -0.008275118 0.014509256 -0.13474435 -0.11049935
0.099234484 -0.0032625655 0.032064088 -0.0011775717 0.1392515 -0.009623371 -0.0056628156 -0.1045577 -0.014728524 0.11926446 -0.0031274038 -0.03430208 0.08028115 0.015519882 0.06633265 0.028497757 -0.019278476 0.07705693 -0.071366765 -0.013131167 -0.013996947 0.075063534 -0.11331464 -0.014077777 -0.08726885 -0.08587729 -0.1327801 -0.009562469 0.093157604 0.07864304 0.07119029 -0.15981562
-0.20212899 -0.03341594 0.2997625 0.13803871 0.08384551 0.27268076 -0.009058704 0.10052336 0.37283304 -0.0330638 0.13611944 0.21480718 0.020664155 -0.121292114 -0.09440979 -0.3317268 -0.009375502 0.00081193715 0.35788387 0.031041041 0.2724254 -0.17140171 0.04014213 -0.14153323 0.07113124 -0.15390411 -0.09296521 -0.093395635 0.24180861 0.005282593 -0.07869539 0.309181
0.22940303 -0.13088457 -0.20324849 0.07092262 -0.023562616 0.028469782 0.18217734 -0.074335426 -0.17602366 0.052924655 -0.2218653 -0.27610472 -0.24940975 0.18935752 0.12576014 -0.21804142 0.078686364 0.2768282 -0.2195476 0.36688823 -0.06250098 0.20762521 -0.026738923 0.033846907 0.048632633 0.34173948 -0.055165466 0.067797594 -0.2866511 0.4562311 0.06441433 -0.2727122
0.0060967244 -0.0202086 0.042856123 -0.04846526 -0.084261484 -0.07363593 0.011710571 -0.15896201 -0.054019466 -0.17106645 -0.04691416 -0.015143971 -0.17428313 0.048781246 0.17348287 -0.10479207 0.14910813 0.056679275 -0.038437676 0.043145046 0.10536228 -0.01903594 -0.017856877 0.047664974 -0.05794582 0.09701132 0.2054397 -0.07858038 -0.123413965 0.096259765 0.114890024 -0.09535693
0.16381745 0.048862584 0.06751804 0.08498586 -0.06086353 0.030983225 -0.059081435 0.1230111 -0.0029671434 0.048268653 0.01656365 -0.055033907 0.09009153 0.12768984 -0.09402361 -0.08417262 -0.00057670777 0.077837415 0.032459404 -0.082329884 -0.03147201 0.17736217 -0.18256225 0.022623057 -0.09805473 -0.14040725 0.15131652 -0.051401325 -0.031520486 -0.0094328765 0.031823896 -0.04659215
0.10311678 0.06097907 -0.14016567 0.033551145 0.09131932 -0.13112935 0.05736285 -0.17169212 0.0060096886 0.15754834 0.03402103 -0.26783916 -0.009743333 0.28669783 0.013080388 -0.19523673 0.23056032 0.020540243 -0.06998337 0.24509047 -0.09778681 0.14280784 -0.065825656 0.039249 -0.06972971 0.11772174 -0.1345533 0.16726862 -0.13400096 0.23712097 0.10023803 -0.2036019
-0.00502976 -0.102351986 0.14835487 -0.035368547 -0.23435663 0.10771378 0.17104436 0.03184615 0.020215861 -0.032964747 0.053419437 0.123716466 -0.076956004 -0.11806847 -0.040410496 -0.054077715 -0.13141492 0.05157505 0.033434544 0.04734807 0.11038308 -0.07217279 0.0077112457 -0.07240179 -0.17935093 -0.18530662 -0.07658646 -0.10114421 0.030815681 -0.20177661 -0.20454064 0.16092329
0.25744683 0.0035096507 -0.09532199 -0.045877986 0.008691834 -0.12785332 0.082155086 -0.087470636 0.089171976 0.0425581 -0.17458664 -0.06571861 -0.0065873144 0.04331017 0.05322088 -0.13789658 0.01263385 -0.04113694 -0.23674911 0.14961638 -0.08488302 0.16357346 -0.16861282 -0.059259977 0.048038013 -0.06286478 -0.012871383 -0.15915729 -0.13747531 0.15601394 0.07696734 0.027185969
-0.088445246 0.059307493 0.30202335 0.11508565 -0.005472432 0.21496263 -0.08101667 0.29726294 0.26947057 0.008145625 0.025241576 0.319948 0.27945754 -0.18944566 -0.18846081 -0.015734214 -0.16149011 -0.0036085874 0.23659615 -0.0012035081 -0.0020648022 -0.20749877 0.25152847 -0.0666002 0.2853427 -0.15743631 0.08480114 -0.09328692 0.14508513 0.09252506 -0.18423241 0.09190777
-0.13270672 -0.09719297 0.061643153 0.05250785 -0.044784788 -0.04579519 0.13550402 -0.05103483 -0.109005116 -0.14513828 -0.13796213 0.060870875 -0.07377486 0.017618984 0.020902842 -0.15286776 -0.129284 0.09627058 0.09951971 -0.058320254 -0.17488626 0.06865443 -0.043117803 0.1829345 -0.054235358 0.11703631 -0.0025398235 0.07710469 -0.12617698 0.17245135 0.06644543 0.01488349
0.019114949 0.12907824 -0.17360397 0.04843443 0.12468294 -0.046724062 -0.23074499 -0.064116776 -0.20401552 0.108677514 -0.053647406 0.17030399 -0.009349156 -0.03137184 -0.11769017 -0.043273 -0.19223677 -0.13980123 -0.13974202 -0.06586607 0.100318246 -0.07124448 -0.1625688 -0.26249918 -0.19420542 -0.16865815 0.01563384 -0.025188219 -0.047568526 -0.049095042 0.091838464 0.009780874
0.09731135 0.06207926 -0.04547869 0.04432315 0.07888257 0.072994255 0.08047149 -0.19475928 -0.09356854 0.10926504 -0.038069732 -0.16702633 -0.09676995 0.025508959 -0.078842364 -0.09386939 -0.020829905 0.012639795 0.029515514 0.1655725 0.1214071 0.16983412 0.0641394 0.07638479 0.025866687 -0.13947827 0.07607218 0.0074601076 -0.015997587 -0.008355014 0.14742573 -0.055158317
-0.122193515 -0.13745403 0.025921479 -0.043195974 -0.09732376 -0.03960423 -0.20614474 0.0833828 -0.0690054 -0.025488403 -0.043492388 -0.04298257 0.10106509 0.10032419 -0.15856133 0.054412384 -0.12985587 0.03445957 -0.07107491 -0.0030441976 -0.04528742 -0.019878125 -0.045850717 -0.21589638 0.11731227 -0.01292835 -0.22115566 -0.10208801 -0.025761351 0.021307884 -0.29669943 0.08407589
0.20750195 -0.15097308 0.08953528 -0.13794236 -0.17264204 -0.044843916 0.027959663 -0.016445054 0.08647572 0.19234744 -0.061370622 0.010499341 -0.19307037 -0.04134844 0.0002949247 -0.07945292 -0.033437062 0.08101671 -0.1255742 0.0860037 -0.013079016 0.1144102 0.08078423 -0.066692464 -0.16534156 0.038850028 -0.06404146 0.004637534 -0.24590807 -0.037500273 0.12503786 -0.029476749
0.17136924 0.10147485 -0.048328444 -0.016350126 0.2004263 0.01899655 -0.09681151 0.10808163 0.13698873 0.10397046 0.1193034 -0.047722578 0.041766115 -0.044849418 -0.09806707 0.07472099 0.018836742 -0.13012269 0.039193735 0.038203847 -0.29215 0.03231534 -0.17424221 0.052971877 0.11777222 -0.16278751 -0.12287449 0.029110892 0.05951378 0.12114351 0.102419905 0.16380337
-0.07045466 -0.054875575 0.051290903 -0.22044067 0.09735132 0.08038529 -0.14005865 -0.04501161 -0.006416432 -0.05854796 0.051736 0.12504603 0.075697385 0.014062377 -0.16325259 -0.027923213 -0.17266992 -0.038406696 0.21511994 -0.08095038 -0.16364476 -0.18709396 -0.0073528606 -0.23460877 -0.06412812 -0.1535206 0.044503387 -0.14550027 0.16173103 -0.027122375 -0.19030519 -0.021147177
-0.03550183 -0.09202368 -0.07277585 -0.1114325 -0.12446667 0.05440619 -0.075092435 0.021964332 -0.16171278 0.0035138575 0.110860534 -0.061149806 -0.011865707 0.039534356 -0.009792352 -0.017803563 0.04380521 -0.052200157 0.09453703 -0.1671295 -0.08455046 0.120189935 -0.08575173 -0.045215473 0.10298647 0.03670192 0.089258134 0.05987628 -0.076269925 -0.04663424 0.08477011 -0.086954996
-0.013319242 0.001643123 -0.10991239 -0.23104773 0.0781989 0.018875943 -0.082341224 0.06897094 -0.061519206 -0.04867197 0.082505345 0.081575304 0.100468546 -0.1593753 -0.024329755 0.024800379 -0.17468223 -0.054574348 0.20295598 -0.074729115 0.009629534 -0.23273836 0.098632745 -0.15958996 0.15095533 -0.06420561 0.092003375 -0.058613777 0.0649403 -0.23987444 -0.0032807272 -0.0981203
0.16322477 0.053576488 -0.16275147 -0.13130726 -0.019862393 0.004248014 0.021153683 -0.010542191 0.024515858 0.031293277 -0.087621786 -0.14037192 0.086664125 -0.16939726 -0.1161065 0.02295766 -0.21956797 0.07799443 -0.017759198 0.07833908 -0.20110315 -0.05492258 -0.09323086 -0.120159104 -0.053546656 0.07194479 -0.15485287 0.0029758925 0.114814736 -0.12727375 -0.040197298 -0.05366592
0.10787194 0.17205228 0.07787374 0.18641259 0.021569068 0.033336177 0.13388887 0.16016577 0.29944384 0.142972 0.18955417 0.20891427 0.024541114 -0.1282941 -0.011630557 -0.24265583 -0.080045134 -0.057651605 0.11715682 0.19242199 0.1210754 0.0004273206 0.11198695 0.14925845 0.18528546 -0.040322516 0.059120085 -0.1048088 0.14287692 -0.05046158 -0.123094805 0.05070568
0.22291526 -0.076854296 -0.060598593 -0.25280827 -0.15340713 -0.13677882 -0.10079174 0.012562603 0.07828176 0.18615708 -0.16153027 -0.15513231 -0.0040553845 0.099839814 0.077794716 -0.066146314 -0.19557752 0.057838134 -0.111336 0.10117955 0.017989058 0.043885745 0.12655711 0.16624874 0.056579083 0.00093141914 -0.18635409 0.10467839 -0.07288141 -0.009238367 0.11789352 -0.19689924
0.36744753 -0.09982512 -0.10855395 -0.25880408 -0.084402226 -0.1857252 0.31909403 -0.13012516 -0.070120215 0.16361919 -0.21134152 -0.20453641 -0.052495375 0.30051658 0.2036235 0.19701691 0.17825072 0.08851563 -0.16732714 0.19623871 -0.20882283 0.35508785 -0.11215415 0.09302572 0.0345133 0.124253 -0.15450297 0.043954335 -0.13395359 0.20673147 0.20561934 -0.09887905
-0.20101455 -0.08225654 0.13437912 -0.17370038 0.063497655 -0.02317462 -0.058668733 0.1554544 0.1175886 -0.20920652 -0.046879426 -0.026108647 0.17075409 0.109178424 0.1141293 -0.22293068 -0.051459182 0.04274255 0.08823943 -0.1748239 -0.07665684 -0.19899555 0.052373968 -0.21883383 0.12703715 0.038806155 0.02923641 -0.015260199 0.14288218 -0.1769641 -0.22618064 -0.051154446
0.09529338 0.1368737 0.07117759 -0.06508307 0.19238445 0.060980346 -0.11989332 0.14999388 0.1604378 -0.03450374 0.07574507 0.07761677 0.1792655 -0.10030357 0.046657093 -0.13891862 -0.10609796 0.044438917 0.21427469 -0.029578986 0.0016163666 -0.18268935 0.25708914 -0.025489578 -0.014241099 -0.09368116 -0.09300046 -0.1753097 0.2820431 -0.026955707 -0.09863156 0.11837019
-0.09583513 -0.08622799 -0.07328191 0.11089263 0.013468846 0.09186492 -0.029082293 0.053542197 0.090612285 -0.058794197 -0.03713008 0.19278787 0.074999526 0.1050733 0.020137403 0.07995645 -0.13309944 -0.22163652 0.035453506 0.017205741 -0.17288989 8.553795e-05 0.09510845 -0.2888344 0.114945605 0.024605006 -0.10774632 -0.18004201 0.28004608 -0.085358694 -0.091905184 -0.04084183
0.056616295 -0.04737676 0.21349947 0.12466728 0.18089835 0.17361201 -0.18210982 0.23122713 0.23099948 0.1109358 0.1544602 0.058883846 0.0052097314 -0.02196303 0.08710495 0.06900488 0.07758485 0.024158236 0.27365208 -0.09204806 0.077646315 -0.099956125 0.11569151 0.1493372 0.10070467 -0.042270318 0.12306336 -0.041902944 0.173372 0.028141076 -0.047777727 -0.14091942
-0.0040007555 -0.10357689 0.023641123 0.11855679 0.04954965 0.07107729 0.11140622 0.078222364 0.05711433 -0.05131925 0.15341254 0.13390942 0.025517786 -0.0581599 0.091517486 0.059743516 -0.04548125 -0.046952553 -0.012604169 0.08263946 0.004135378 -0.161865 0.020014463 -0.0037908717 -0.0984129 -0.046620797 0.015182671 0.08377856 0.05744808 -0.05034312 -0.039537296 0.07688605
-0.049615644 -0.02449588 0.1259188 0.03062944 0.022222223 0.02618714 -0.06216802 -0.01895993 -0.05274037 -0.05996446 0.051126644 0.3081054 0.2320254 0.036416177 -0.20516087 -0.20220439 -0.24664232 -0.06171508 0.28584266 -0.1585379 0.089274295 -0.003611056 -0.051171426 -0.0735091 -0.11011742 -0.1495884 0.28043443 -0.14976497 0.2644914 -0.19216232 -0.27193823 0.07456816
0.005124307 -0.2580558 -0.19832632 0.012840416 0.032386977 -0.22094473 -0.13098693 0.13795558 0.076381125 0.08595686 -0.024521481 0.26274344 0.17196938 -0.06894969 -0.09920779 0.20259729 0.049842402 -0.16272987 -0.008280802 -0.16944098 0.037657335 0.1680518 0.14104979 -0.07303177 -0.082201816 -0.018687101 -0.067302965 -0.16031727 0.114371225 -0.05235261 -0.0690696 -0.054342497
0.113124825 0.10359791 -0.14249334 0.037188634 -0.046747915 0.11038016 -0.07404406 -0.0064542475 0.08843809 0.18953852 -0.35943505 -0.08242041 0.24617976 0.07908587 0.1880584 0.13165522 0.05028551 0.13514346 0.111046106 0.0373579 -0.15496688 -0.09078007 0.021828722 -0.028380802 -0.05454953 0.023799578 -0.16961297 0.14429824 -0.058865435 -0.18012942 0.1608122 -0.098957025
-0.06350513 0.062419243 -0.06534486 0.0030504896 -0.10385886 -0.03634387 -0.23051065 0.08372203 -0.0016253213 0.019751478 0.019606194 0.019369861 -0.024553869 -0.008599667 0.057653543 -0.044398814 0.10622642 0.07984785 -0.0068092723 -0.20053563 0.07952038 0.06609228 0.10270187 0.107766874 0.05474463 -0.083809964 -0.08208444 0.11508501 0.01763997 -0.078675725 0.12833975 0.11942147
-0.07576432 0.009804205 0.001486033 -0.023372019 -0.08560062 0.10051729 -0.10878846 -0.072681 0.01551465 -0.00043772042 -0.017919356 -0.031277932 0.046127364 8.663343e-05 -0.21330929 -0.16304411 -0.06569305 0.12606049 0.042154055 -0.013809887 0.03653203 0.05171768 0.121512935 0.13405342 -0.080303244 -0.017903045 -0.06789354 0.006023978 0.2545563 -0.22414823 -0.20044145 -0.21815251
0.01703119 0.13094318 -0.010245708 -0.12029242 -0.009815045 -0.018809645 0.06431339 -0.057501055 0.075823046 -0.0078112874 -0.20732905 -0.15894403 0.15260366 0.1209989 -0.21837595 0.12136937 0.027384078 -0.09562641 0.02499665 0.08674908 -0.070338905 0.17619325 0.08293868 0.0068204673 -0.00080892805 0.19746251 0.20923543 0.023176176 0.063615665 0.11654115 0.0060850116 0.06684244
0.002168808 0.28389412 0.0885916 0.10913222 -0.11551253 -0.07033722 0.050410222 0.11091315 0.10642894 0.047778796 0.037985407 0.008411546 -0.04098035 0.06396911 0.0030775326 -0.02318847 -0.027177634 0.029892012 0.0057239057 0.009407731 -0.07240299 0.057654243 0.09268767 -0.044731602 0.081057094 -0.06589329 -0.12878387 -0.07596037 0.021540774 0.09852831 -0.114724964 0.1779241
0.05492424 0.14533082 -0.05524167 0.13029279 0.15550578 0.04237052 0.13472281 0.08272872 0.080182485 -0.025788235 -0.18255508 0.07228436 -0.012641088 -0.08514616 -0.048922684 -0.013124478 0.0801845 -0.0096196905 0.24576323 -0.017949946 0.00022685718 0.031062951 -0.03506075 -0.12922288 0.19778247 0.18358679 -0.00079306937 -0.064012535 0.029787198 -0.041038856 -0.145698 -0.029581029
0.167965 -0.21452256 -0.15226932 0.10351917 0.07676479 -0.24622713 0.26015574 -0.21315579 -0.12401828 0.28620243 -0.13234632 -0.28065878 -0.10695786 0.3153717 0.292837 -0.0136977965 -0.010773314 0.08902715 -0.06895754 0.092296995 -0.038588446 0.3763417 -0.31589457 0.3100851 -0.09049504 0.17878075 0.06002084 0.12547381 -0.14591254 -0.0166218 0.116810374 -0.18684402
0.15401821 -0.11103144 -0.053629357 -0.0015317558 0.00044722392 0.0060214284 0.04296535 -0.03331887 -0.13944668 0.039368276 -0.1317555 -0.2763889 -0.12845646 0.2635163 0.017818676 0.12450688 -0.11964071 -0.06987216 -0.050869796 0.08270737 -0.13810207 0.14446132 -0.16848758 0.005215398 -0.061617274 0.07289627 -0.13013323 -0.032893624 -0.0925245 -0.04648056 -0.08694637 -0.096405506
0.19213593 -0.027586777 -0.13118291 -0.0726439 -0.25947624 -0.12110982 0.068715446 -0.1696743 0.06681422 -0.06322909 -0.18939993 -0.28061035 -0.09677371 0.09869852 0.03386359 0.019469399 0.1510836 0.06469546 0.005514183 -0.0104101375 -0.16870672 0.09640605 -0.18250127 0.13162594 -0.22900625 -0.10884296 -0.12802757 -0.00038573414 -0.15410165 0.1278274 0.15757951 -0.10552009
-0.07373066 -0.11142808 0.074319154 -0.04988713 -0.1533005 0.038307 0.016346715 0.056660734 -0.12243598 -0.07280038 0.0052345353 0.06273288 0.09579518 0.06829506 0.0013192883 0.030774647 0.10634209 0.08236596 0.03260224 0.080570325 0.06519356 0.018360248 -0.06565543 -0.011938282 0.021940382 -0.0021545272 0.09383803 -0.20718594 -0.014760871 -0.17125328 -0.0136567475 0.04277246
0.20215851 -0.3166607 -0.015066821 -0.024696166 -0.040218797 -0.21838972 -0.051250607 -0.04174506 -0.1698067 -0.079312965 -0.06891185 -0.1542478 -0.09758109 0.09328389 0.08847596 0.27717984 0.20220675 0.007999117 -0.23247127 0.1345309 -0.13613783 0.16068372 -0.1490135 0.14278199 -0.111541 0.061172057 -0.104330815 0.03197621 -0.056045193 0.031360153 0.19966497 -0.20515072
0.018334227 -0.09345653 -0.1260778 -0.047876883 0.06003872 -0.052795917 0.0010838944 0.10309127 0.026704846 0.21703786 -0.23421323 0.030410992 0.07823646 0.1927114 -0.18348505 0.04338735 0.113306895 -0.061357614 -0.020410253 0.013213214 -0.031397596 -0.012694755 -0.088562086 0.09011507 0.06801508 -0.08166331 0.037421525 0.041333005 0.012467112 0.054535598 0.06122869 -0.020366656
0.051879615 0.027439993 0.063852176 -0.06589475 0.052997176 -0.04390467 0.05505329 0.0767417 0.100246586 -0.047345452 0.0032232925 -0.09386513 -0.11452629 -0.09775694 0.005395199 0.066495806 0.08245377 -0.06739728 -0.06614085 -0.091324456 -0.039601948 0.099368505 -0.15163793 0.003899801 -0.020865712 -0.15042621 -0.10626152 0.013993034 -0.009481437 -0.024236485 0.09922191 0.0056855585
-0.08772245 -0.14480282 -0.27322572 -0.15680127 0.031879727 -0.10447627 -0.039876826 0.0139889335 0.011033827 -0.09571237 -0.25313735 0.07057616 0.019548375 0.17724043 0.07058609 0.13324316 0.010580777 0.0108713405 0.058097165 0.032085888 -0.07528131 0.24047586 0.06291487 0.111955255 0.0113795735 0.2489328 -0.032166485 -0.26201677 0.12998042 -0.14250837 -0.015902063 -0.043662094
0.08654798 0.12950286 -0.029345477 -0.052495915 0.030293897 -0.0993733 0.03352709 0.047907166 0.14159669 -0.060627744 0.0633518 0.08985205 0.11901755 0.037165284 -0.08406526 -0.086115725 0.0060300855 -0.022817526 0.13059127 -0.25237212 -0.026838806 -0.067311786 0.053116895 0.07713363 0.06264618 -0.22108123 -0.004747365 -0.12978102 0.007231199 -0.18327418 0.04877246 0.07847634
-0.078800745 -0.070845 0.09173125 -0.026535256 -0.22415815 -0.010693482 0.1875253 -0.1133116 -0.221322 0.04748556 -0.026577326 0.0143348165 0.14211442 0.28520772 -0.08988328 -0.1470413 -0.0570799 -0.04354295 0.019418323 -0.008094076 -0.14926282 0.24586314 -0.19983588 -0.05327798 0.1139522 0.23223665 -0.23814122 0.15694733 0.021241784 -0.017537618 -0.04969681 -0.16638157
-0.019425958 -0.12488564 -0.063621975 -0.034999296 -0.030748041 -0.12386922 -0.0073706396 0.02868556 -0.105994456 -0.0819234 -0.05082183 -0.1620362 0.13183133 0.013730482 -0.048529055 0.1081508 -0.011703368 -0.03567584 -0.0669954 -0.0502072 -0.13114405 0.075675614 0.15910041 -0.017803082 0.05432502 0.04601186 -0.083349295 -0.07139064 0.04727691 -0.12677278 0.3115541 0.0039796606
-0.028186768 -0.043891024 -0.028304236 -0.07856716 0.006627981 0.049656473 -0.14966594 0.07239507 -0.06510135 -0.07689751 0.19261281 -0.028351106 -0.0068662716 -0.039419383 -0.032291215 0.04147035 0.031691782 -0.012623481 0.10249578 -0.16748932 0.0697695 -0.060539927 0.039155032 -0.009542956 -0.117806226 -0.24181928 -0.0716512 -0.10755809 -0.09671026 -0.1802204 -0.05459051 0.12635584
-0.19000106 -0.010229552 0.025425348 -0.17476127 -0.13555515 -0.1923235 0.13850084 0.056897245 0.05535408 -0.063115455 -0.012033246 -0.12748228 0.16952369 -0.065963954 -0.07703987 -0.17660916 0.14516675 -0.17911495 0.12406283 -0.16589701 -0.1168066 0.0128994575 0.012071908 0.009206446 -0.03199191 0.0033393612 -0.12728818 -0.031214872 0.120388806 -0.056486804 -0.043119244 -0.020403609
0.21667023 -0.14976886 -0.0023903225 -0.06400043 -0.040738747 -0.15753594 -0.02804363 -0.14561132 -0.17681271 -0.08230285 -0.1631344 -0.20858167 -0.09661423 -0.15707794 0.19914705 0.1363422 -0.029415073 -0.09457513 -0.1359019 0.06265309 -0.018075708 0.08411533 -0.10482699 -0.02425301 -0.034500338 0.01486847 -0.11953569 0.01683488 -0.115505055 0.056420244 0.01906311 -0.15644874
-0.0010325104 0.17806685 0.056522865 0.1228529 -0.04580292 0.0037094797 0.17023304 -0.14190932 0.04360307 0.21205704 -0.084871896 -0.06411808 -0.06155074 0.22948171 0.0674352 -0.11092318 0.19795337 0.30622232 -0.047585715 0.20076273 -0.069288 0.18864383 -0.06684809 0.2722628 -0.07816346 0.20570815 -0.09110293 -0.06398978 0.031372223 -0.09114103 -0.019703632 -0.2522701
-0.14378734 0.16352162 0.16530922 0.04784888 -0.014759738 0.15516406 0.06515221 -0.057370875 0.063069135 -0.07761953 0.0674791 0.16650401 -0.08747066 -0.11531968 -0.1418787 -0.16515532 -0.057743337 -0.07743418 -0.09691777 -0.06060515 0.15308028 -0.0116431 -0.048291706 0.029773591 -0.10739356 -0.13922185 -0.06121458 0.006238132 0.08285844 -0.024387812 -0.08340353 -0.09107677
-0.032928787 0.13064416 0.027906807 -0.021653885 0.058061335 0.13024904 -0.008739189 0.013612985 0.0758764 0.07911038 -0.077159196 0.10537918 0.011942174 -0.011522488 -0.045351185 0.078310214 0.03051644 0.029482774 0.040769406 -0.08308349 -0.074397855 -0.11914234 0.0047433074 -0.009054361 0.08479913 0.069634184 -0.072276644 -0.026431365 -0.047848906 0.038310412 -0.06049703 -0.05790903
-0.098987944 -0.028938789 0.015154741 -0.17482823 -0.028524337 -0.03395045 0.110745296 0.05722183 -0.12062078 0.077208295 -0.14326717 -0.009499205 -0.03777022 -0.19251035 0.11653899 0.005436771 -0.13454671 0.078066744 0.105467565 -0.071685486 -0.003768243 -0.1122285 -0.10455881 -0.1755515 -0.05270342 0.19643727 0.06973047 0.003333826 -0.048961416 -0.00091870443 0.015437674 -0.17361374
-0.022735229 0.20775458 0.16899921 0.04090034 -0.017167902 -0.014194272 0.20655692 0.13620391 0.0938884 0.13706997 -0.0808316 -0.16994585 -0.13277932 -0.031172244 -0.10504107 -0.38473704 -0.058758646 0.08368013 0.05456616 0.122220345 -0.18681782 0.23167089 0.006830571 0.15471663 0.09996726 0.021121358 0.007040908 0.1511512 -0.08808033 0.119245686 0.12983549 0.09397979
-0.0029185738 -0.09917931 0.024256254 0.032519374 -0.048163895 0.05338514 -0.016461365 -0.009962477 -0.13598351 -0.17834905 -0.03800185 0.10289407 -0.011269638 -0.013181597 -0.04667255 -0.12411371 -0.15319134 -0.07796452 0.09094246 -0.056550153 0.06296936 0.014002538 0.056810617 0.15484695 0.044881582 -0.27417356 0.057276156 0.077164136 0.070569955 -0.015286982 0.13278091 0.0540739
-0.020731952 -0.10732966 -0.08030224 0.17210089 0.039203223 -0.054360762 0.005542194 0.04418967 0.120394774 -0.00049356476 0.12143948 0.20273519 -0.08888637 -0.05829498 -0.16692193 -0.09321264 -0.0014837148 0.07287687 -0.11682958 0.044589262 0.024973286 -0.14559747 0.120021276 -0.01703994 0.12492426 -0.09778455 -0.041075192 -0.023518799 0.29514247 -0.19542807 -0.16541187 0.20021474
-0.088369496 -0.10573119 -0.027098056 -0.069605805 -0.23604481 0.008934531 0.011036713 -0.3052621 -0.16624427 0.013728865 -0.18865398 -0.08610455 0.06314151 0.139298 -0.047498442 -0.018000849 -0.040190164 -0.19849876 -0.11526584 -0.22818695 -0.17929631 0.19648911 -0.17253157 -0.16316222 0.084422186 -0.008379477 -0.28477365 0.053187553 -0.09390394 0.008267142 -0.040360034 -0.02998169
0.033014894 -0.047032416 0.20230478 -0.03371002 0.095495716 0.068352856 -0.02435402 -0.027560327 -0.07330199 -0.1331194 0.07391641 0.052283406 -0.04493412 -0.09745913 0.04848926 -0.06557596 -0.12005034 -0.0035708607 0.2243258 -0.22602156 0.08438562 -0.18315811 -0.16197202 -0.05922742 0.18975398 0.070004515 -0.22187316 0.07959148 0.15132567 -0.043623503 0.052380368 -0.19513467
0.02979161 0.17686781 -0.06254834 0.0025639897 0.1411447 0.045042116 -0.015377551 0.08533755 0.02140353 -0.085815184 -0.084475406 -0.08907187 0.009296448 0.024047988 -0.01041108 0.023908608 -0.05847985 0.02975202 -0.025257474 -0.097241424 0.012666338 -0.035390746 0.0045787287 -0.09295315 -0.14919664 -0.1384135 -0.08895524 0.036416847 -0.18252383 0.00159699 0.13974324 -0.09428294
-0.12967163 -0.10129607 -0.09079011 -0.23279521 -0.17353036 0.14956556 -0.1741353 0.1444147 0.021879548 -0.061884962 0.10642325 0.010271406 -0.023013953 -0.23421618 0.026153052 0.05970504 -0.16559717 0.008179396 -0.027913475 -0.3018196 0.24771668 -0.27759004 0.032611527 -0.16763069 -0.00030634765 0.10312272 -0.038776267 0.23685482 0.08106973 -0.02025678 0.00045591473 -0.09396346
0.10743313 -0.102614224 -0.028846765 -0.04902878 0.07648495 -0.09809425 0.11986681 -0.08677649 -0.12952928 0.18754643 -0.058414802 -0.21475504 -0.24112467 0.13218376 0.17531459 0.0075753373 0.09281833 0.17149942 -0.2331042 0.11028189 -0.13075925 0.020949857 -0.086723484 0.24855508 -0.00090846495 0.16593131 0.015763188 0.16679846 -0.19538218 0.09807221 0.018239977 -0.02511666
-0.1571381 -0.180314 0.06767557 -0.17479524 0.08142876 0.09984498 -0.054646086 0.32823282 0.4080398 0.005361872 0.28715006 0.38511702 0.25449347 -0.26842833 -0.17917177 -0.09724622 0.017980319 -0.12389793 0.16555764 -0.035315473 0.21117157 -0.43265134 0.33037356 -0.03565754 0.24374577 -0.045821786 -0.099872775 -0.1487636 0.26861832 -0.092538945 -0.40463257 0.2116311
-0.09870577 -0.044322938 -0.008524428 -0.030401584 -0.0075176903 0.06092626 0.042356744 0.06823785 -0.017682828 -0.18201259 0.040115703 0.048358526 0.052773654 -0.07555032 0.081240535 -0.236784 0.1623813 0.09850233 0.05892937 0.17050354 0.010078932 0.081054874 0.08623528 0.12750135 -0.070611514 0.10629076 -0.0835976 -0.007659881 -0.06865936 0.09040283 0.005693995 -0.043110788
0.042754184 0.040749986 0.22828844 0.16986622 -0.07674585 0.17383783 0.16907197 0.38585657 0.32705975 -0.11188266 0.30447152 0.1551518 0.02683111 0.067287445 -0.024029637 -0.10999135 -0.1416511 -0.021771763 0.29243106 -0.061917484 0.11040075 -0.20240398 0.21757168 -0.08283501 0.19879153 -0.06839585 -0.027137047 0.025013948 0.23925099 0.032585237 -0.01730416 0.29243907
-0.2161872 0.099248625 0.25166795 -0.08096064 0.109452784 -0.012306413 0.104318686 0.040127363 0.22957672 0.09519991 0.14947283 0.075092286 0.017275812 -0.19914828 -0.058838286 -0.03343998 -0.14641091 -0.01741704 0.1281469 0.034683824 -0.08558209 0.15962856 0.026953068 0.042790517 0.19845298 -0.043399006 -0.029590333 0.009001278 -0.07834164 -0.10458608 -0.041487772 0.1394806
-0.15122421 -0.02785966 -0.077378064 0.015032942 -0.11353881 0.019700868 -0.0048710657 -0.0058935904 0.113485985 -0.033038434 0.21072008 -0.1008647 0.06603156 -0.10526957 -0.20163202 -0.028051207 0.066933885 -0.06049003 -0.0059435405 0.019800564 -0.052349526 -0.19289121 0.18006106 -0.12819569 0.1279579 -0.07021074 0.16157417 -0.194501 0.07775721 0.033619985 -0.051967505 0.092629164
0.15293032 -0.004796625 -0.090176545 0.06888449 -0.05387395 -0.087510124 0.04598388 -0.11782899 0.11440163 -0.16766319 -0.06977516 -0.09697452 0.122993164 0.040984996 0.19970606 -0.05503378 -0.08340514 -0.14627916 0.07547601 0.18870337 -0.084346026 0.020472027 0.026790787 -0.016290464 0.02123547 0.19336624 -0.049250375 0.01601486 -0.03964429 -0.151615 0.049389783 -0.11641888
-0.00481629 -0.29880497 -0.1968746 -0.31367928 -0.14310563 -0.058998957 0.01588765 -0.105748 -0.25273696 -0.08534347 0.01434801 0.043424252 0.056391347 0.010757415 0.04885926 -0.12036776 0.005870661 0.16907023 -0.12832496 0.007824664 0.19305518 0.026870474 -0.04458393 -0.057781693 -0.103191726 -0.0513227 -0.1395022 0.0051913345 0.11978199 -0.04024462 0.0026796083 -0.28892136
-0.31316277 0.17228788 0.40315917 0.025655292 0.12096471 0.20612642 -0.07575792 0.18766376 0.13655606 -0.17002097 0.053807452 0.116728455 0.22093123 -0.34160808 -0.11426586 -0.2999786 -0.043954622 -0.15055373 0.14359629 -0.21415369 0.015163442 -0.1553266 -0.05847057 -0.073411584 0.000701337 -0.15170631 0.011565748 -0.048704043 0.116116546 -0.15319148 -0.33185562 0.11284858
-0.040463585 0.045049418 0.21497586 -0.05629387 0.06857883 0.0789135 0.01935365 0.2570626 0.17277333 -0.041266117 0.16536213 0.14180315 -0.008099525 0.048059803 -0.031431273 -0.06319237 -0.05808175 0.024044607 0.13327955 -0.06986474 0.1486106 -0.12752604 0.27918884 0.11484624 0.1237936 0.023143126 0.17387183 -0.010659554 0.17173626 0.069264576 -0.10563558 0.3072236
0.21059562 -0.033167884 -0.05723923 -0.1739904 -0.11801759 -0.2550934 0.05894711 -0.035032917 0.06581897 -0.0032779404 -0.026681786 -0.007678734 0.026233753 -0.026000515 -0.14052013 0.05144998 0.0866643 0.09555699 0.05840671 0.10409225 0.17433672 -0.06607852 -0.05618664 0.05395276 -0.050995857 0.07351553 0.002042789 0.0066956915 0.17690165 -0.05445907 -0.051029075 0.08729143
-0.020124007 0.038509764 -0.17302409 0.022984615 -0.071774796 -0.10615636 0.10715437 -0.027329503 0.00826143 0.15744942 -0.05496483 -0.10454706 -0.027744627 0.081860654 -0.08211778 -0.0074227434 0.10820919 -0.013054449 0.12358397 0.056045577 -0.058502525 0.06021127 -0.0035987205 -0.041302983 0.12592866 -0.037022643 0.059608757 0.013233021 0.27943492 -0.19511582 -0.16384943 -0.064696446
-0.037817404 -0.06998568 -0.0916904 0.06364343 0.10919253 -0.06908762 0.027903263 0.03822116 0.12101628 -0.13452812 -0.19173506 -0.17688769 -0.062915206 -0.052782584 -0.1842953 -0.10158771 0.13899831 0.15304863 -0.025444314 -0.031080332 0.05683159 -0.009039396 0.0367039 0.09587142 -0.040717788 -0.13722084 -0.08940548 -0.12892066 -0.11933418 0.066355504 -0.012416642 0.08949082
-0.22015306 0.07817836 0.101021424 -0.06205092 0.062594675 -0.034815013 0.014959241 -0.0011945895 0.06032877 -0.057729438 -0.074311756 -0.050824873 0.14348404 0.039291345 -0.013271447 0.006144639 -0.014202697 -0.109198876 0.124739595 -0.0143447975 0.09284317 0.066782184 0.010765847 0.08112962 0.07975839 -0.24465357 0.11517026 0.08338279 0.20567586 -0.09308337 -0.1612536 0.015633296
0.124192916 0.069897935 -0.053571254 0.056708243 0.12949915 0.049150847 -0.06606052 0.07208851 -0.22717582 -0.13032454 -0.015865093 -0.16391237 -0.0906641 0.03937099 -0.040527582 -0.03931443 -0.047046233 -0.08784111 -0.21972649 -0.06843789 -0.07075387 -0.13634582 0.03568444 -0.05851656 -0.076414704 0.13658299 -0.04611557 -0.15412402 -0.15942952 0.075096846 -0.0002592669 0.047535498
-0.018987723 -0.057188198 -0.12643465 0.025633462 0.11725002 0.12683833 -0.18544762 0.08771676 0.11837499 -0.15326853 -0.00841763 0.16882178 0.059973102 -0.37162378 -0.16885175 0.1301721 -0.30112606 -0.2593032 0.054833278 -0.15915492 0.10665654 -0.27646595 0.32961938 -0.30707332 0.19384566 -0.07883686 0.17906009 -0.070179604 0.1616781 -0.10449794 -0.23915751 0.013530073
0.29231757 0.02161622 -0.2265478 -0.16512838 -0.113364935 -0.063598216 0.3340369 -0.30193645 -0.12528636 0.31173602 -0.18254124 -0.31440964 -0.23991652 0.33737072 0.2039815 -0.119716 0.20554656 0.22624683 -0.3200351 0.2176106 -0.1505577 0.62250537 -0.2711232 0.2688246 -0.05231643 0.34724346 -0.081003495 0.3741475 -0.28748184 0.14935222 0.32518074 -0.2961633
0.075756736 -0.033627532 -0.1965236 -0.06777127 0.0531395 0.039754957 -0.20095284 0.025590781 -0.07628926 -0.060388327 0.1319754 0.08156332 0.03237869 -0.14423676 0.017224334 0.13763155 -0.04528285 0.09388946 -0.032821164 -0.06330271 0.104633704 -0.19173838 -0.029289912 -0.2263401 0.041942365 -0.31589118 -0.037557166 -0.17084299 0.082731575 -0.06990311 0.0668121 0.13930044
-0.23826276 0.032856856 0.41814324 -0.065490425 0.26762488 0.30614075 -0.022983981 0.16081308 0.061152518 -0.1745228 0.14432393 0.20686738 0.10563902 -0.16270979 -0.29002875 -0.32002518 -0.10022934 -0.053151894 0.26651436 -0.24544102 -0.115637116 -0.34780735 -0.18073376 -0.09914251 0.29213643 -0.23821607 0.12822297 -0.14370166 0.3656359 -0.2713522 -0.24664284 0.094469376
0.27273488 -0.021263842 0.045101557 -0.1171211 -0.02689272 -0.24163073 0.23897897 -0.02257009 -0.11485647 0.10866225 0.0018826147 -0.15851548 -0.021650987 0.28999004 0.11216953 0.015424756 0.0435449 0.10255663 -0.054538697 0.045614574 0.07024466 0.38430947 -0.14920884 0.18901287 0.03044106 0.2811936 -0.114603564 0.3874866 -0.14624618 0.25350454 0.18844433 -0.05721647
0.11524214 -0.1089119 -0.079911835 -0.094141915 -0.1370578 -0.14653729 0.15323575 0.06467545 0.052791234 0.043098122 -0.10702371 0.002565698 0.032765254 0.028579447 -0.027580526 -0.08126602 0.16760749 0.14698775 -0.1856354 -0.0015508423 -0.11002881 0.07875478 0.020899082 0.12659101 -0.111504756 0.25705117 -0.063293286 0.072458446 -0.15624344 -0.10158694 -0.16048342 -0.0045410935
0.19231567 -0.013357819 0.016538192 -0.17824103 -0.04058445 -0.17469579 0.0050526084 -0.10156562 -0.09428865 -0.052140556 0.053162586 -0.046560984 0.046603523 -0.026100766 0.08532524 0.104894 0.105568856 0.073002756 -0.19074717 0.19090058 -0.12195478 0.083748564 -0.042763032 -0.051869847 -0.03171672 0.07032167 -0.14693525 0.1510329 -0.059815418 0.1699074 -0.1430833 -0.12662031
0.15342204 0.07166667 -0.022157522 0.08263849 0.00840589 0.034116697 0.22666481 -0.016320731 -0.13255422 0.0130525045 0.0010728185 -0.26110697 -0.19227155 -0.043243427 0.17107616 -0.052063305 0.110761136 0.07334728 -0.2438457 0.012561131 -0.1563329 0.13921478 -0.15219438 0.19683206 -0.08614443 -0.02093492 -0.030526241 0.2754772 -0.17120133 0.021121724 0.22282399 -0.10111096
-0.24118435 0.19067734 0.30420345 0.22031203 0.18077749 0.01166014 0.002877079 0.11249997 0.25011057 0.025575437 0.16818687 0.16530862 0.054179814 -0.13607737 -0.20571806 -0.26482892 -0.14529786 -0.07188291 0.16368148 0.2076165 -0.13658434 -0.07218574 -0.17398982 0.0021412075 0.18910915 -0.21019703 0.13715692 -0.13068621 0.0947536 0.19122364 -0.16138 0.20226802
-0.016369617 0.1267426 0.12017612 0.012061881 -0.007550465 0.041603245 -0.042690817 -0.103726804 -0.15779208 -0.0006640216 0.028579904 -0.04347163 0.0032522734 0.010272376 -0.19674605 -0.08422008 0.07445836 0.054016188 -0.1551504 0.060723804 0.11515395 -0.030778686 0.05722032 0.03705044 -0.10290208 0.0462513 0.22823706 -0.17859079 -0.023793008 0.10942396 0.034613576 0.012169981
-0.018337501 -0.08458432 0.08616048 -0.0017787595 -0.098372184 0.21436264 0.012531419 0.10492744 -0.11645187 0.124607176 0.094746195 0.13749465 -0.018324832 -0.14437217 -0.07510435 -0.18389265 0.0005411217 0.13430555 0.038563404 -0.07875391 0.11681787 -0.23222536 0.13141762 0.07119396 -0.05770977 -0.03231581 -0.008114209 -0.021761606 0.0387576 -0.020063512 -0.10798097 0.12501869
0.23235601 -0.18332215 -0.14795083 -0.063683555 -0.113195606 0.162665 -0.07143757 -0.032648288 -0.015538921 0.15580301 -0.10132042 -0.05255643 0.055105142 0.16884722 0.0038640061 -0.11493297 0.09452718 0.0291754 0.047220487 0.11127218 0.028764777 0.13766079 -0.09787182 0.061394125 0.109395236 0.045609757 -0.11346403 -0.16082267 -0.14485325 0.035394598 0.059324253 -0.07131005
0.2173722 -0.0009855446 -0.014351357 0.07805843 0.0026275853 -0.23612635 -0.2675671 0.16098821 0.020924525 -0.05637196 -0.01356896 -2.2465712e-05 0.04455477 -0.17177932 0.07494661 0.10537392 -0.07777886 -0.13249238 -0.14457746 -0.051748116 0.007111028 -0.07282008 -0.12079556 -0.21860346 0.022209065 -0.029109161 -0.094356544 -0.05430143 -0.1407763 -0.08058683 0.21398617 -0.015170073
0.1165155 0.08933456 -0.029778745 0.03677954 0.041430295 0.23888478 -0.08600615 0.20891635 0.022416126 0.08550428 0.03166558 -0.06523043 0.042369366 0.039488614 -0.06301162 -0.04433174 0.060437005 -0.010356057 0.06440743 -0.089339875 -0.08788156 -0.09573487 0.07343657 -0.093980625 0.13059695 0.049448334 -0.09099401 -0.0344072 0.022374228 0.058433708 0.078708455 -0.0042131906
-0.3667058 -0.09574625 0.16903584 -0.30613106 -0.030523855 0.045598995 0.013008543 0.30220494 0.31561634 -0.18666384 0.33124954 0.31349692 -0.055623785 -0.2322086 0.0027461415 -0.17139293 -0.064500384 0.089086816 0.15657973 -0.058043964 0.24832924 -0.1917943 0.25083742 -0.024772767 0.22763029 0.10618037 -0.14290747 -0.07697239 -0.03691633 0.020835953 -0.20011431 0.39573428
0.020701611 -0.047581192 -0.009373375 -0.035378616 -0.020987676 0.147687 0.104379475 0.012999264 0.038406346 -0.20328808 0.04333406 0.061558932 0.20318079 0.07916244 0.008578058 0.09418425 0.0040427474 0.118772924 0.2299132 -0.05256164 0.028808558 0.062259246 0.1872826 0.09252649 0.17325364 -0.020572305 -0.039825544 0.052104093 0.15778592 -0.018879544 -0.28148204 0.014158714
0.4064252 0.047813833 -0.16534822 -0.14211403 -0.06484106 -0.024594638 0.09534205 -0.16245313 -0.06604774 0.010049085 -0.092855126 -0.17028734 -0.116184905 0.23328404 0.059094034 0.037279323 0.19816728 -0.018395053 0.017171958 0.21692106 0.019995984 0.35231027 -0.059720106 0.22250775 0.074124105 0.22756578 -0.09537222 0.015332416 -0.05942986 0.04286102 0.19134207 0.006974218
0.19920132 -0.08739442 -0.29485184 -0.11560602 -0.031388175 -0.042943258 0.14633322 -0.017079182 -0.15878375 0.19044483 -0.14332013 -0.21637563 -0.17986712 0.26274067 0.2271695 0.10387696 0.07872263 0.03576947 -0.245354 0.12445221 -0.15010849 0.4121624 0.044270795 0.061572112 0.06746514 0.3908957 -0.15060367 0.047413792 -0.25005534 0.19599867 0.329829 -0.25760955
-0.03344045 0.004106651 0.005146011 0.05190497 -0.00031807926 0.089189805 -0.23416217 -0.029940607 -0.090412654 0.048333414 0.0036565268 0.07445977 -0.08040277 -0.105271 -0.07462761 0.1193286 -0.15613872 -0.10009822 0.004106314 -0.16758625 0.09242098 -0.062472343 -0.108939484 -0.13461302 0.10512839 0.12090784 -0.09816026 0.025296794 -0.020770757 -0.012297428 -0.06627638 0.055400897
-0.26877883 0.1468126 0.16754141 0.20636564 0.15154697 0.09772553 -0.25179136 0.25199127 0.40712017 -0.15723592 0.07847099 0.3317004 0.04594818 -0.2765359 -0.17010948 -0.1489333 -0.09497419 -0.0032700498 0.3284995 -0.10446545 0.12221298 -0.12597942 0.3427178 -0.091543846 0.066041976 -0.083475195 0.10650725 -0.0034237623 0.21646336 -0.1406919 -0.1780167 0.13831893
0.23161998 0.1748023 -0.041983847 0.25683543 -0.025863852 -0.040376753 0.24226217 0.06708235 0.036562245 -0.040064313 0.026281103 -0.31690052 -0.18818495 0.03599444 0.110785894 -0.037020184 0.06834719 0.122786194 -0.07275474 0.23386657 -0.052751757 0.23290779 0.00059013534 0.059521433 -0.051039975 0.26786518 0.17265719 0.30698237 -0.2132074 0.25189888 0.059673127 -0.13231632
-0.15796317 0.12830566 0.21348085 -0.042304706 0.0169891 0.026632082 -0.046094835 -0.11271126 0.05942819 0.0038132416 0.115719326 0.13624072 0.152284 -0.10707682 -0.10553198 -0.19819403 -0.16760807 -0.10550376 0.06428325 0.09320645 0.05380453 -0.29017925 0.029532602 -0.17370908 -0.003314681 0.02101273 0.11311286 -0.0836962 0.041769184 0.07378646 0.0015178851 -0.063748315
-0.11318431 0.111341365 0.04296725 0.11381033 0.10957325 -0.051634986 -0.23396923 0.057895478 -0.03137548 0.06768732 -0.006031947 -0.028886313 0.12241262 -0.23163022 -0.034921866 -0.124967724 -0.26285252 -0.22556101 0.0030093496 -0.2590641 0.14136194 -0.29279107 0.0040682093 -0.2138747 -0.03339281 0.022323525 0.054896038 0.027930422 0.04523556 -0.12723431 -0.15365301 -0.0720561
-0.008662041 -0.075222135 -0.0047209067 0.08441569 -0.13431747 -0.04837413 -0.18121816 -0.123153895 0.045683715 0.05449642 0.021515446 0.11186122 0.091977485 -0.22127758 0.0020255076 0.0041155014 -0.0032309573 -0.024937937 -0.04615205 -0.0033397428 0.07720899 -0.208914 -0.03920556 -0.024097495 -0.02902107 -0.083316274 0.045103922 -0.02901166 0.090799384 0.13555235 0.07885711 0.15298472
-0.03423723 -0.03309147 0.13179761 0.13635868 -0.07251297 -0.09329016 0.044465315 -0.027389893 0.01589246 -0.104111046 0.14672828 -0.06344034 0.0026904217 -0.053366315 -0.036571436 0.044485427 0.010957231 -0.09531915 0.089105144 -0.05486732 0.1782794 0.0684079 0.036544 -0.059247088 -0.064351425 -0.04871527 -0.011796309 0.036288768 -0.16134928 0.02163015 -0.035509847 -0.026811058
-0.035052426 -0.039023045 0.19035892 -0.15941562 0.0059001623 -0.090609044 -0.04757429 0.058166075 0.17420685 0.07388622 -0.17876951 0.019619366 0.17566699 0.12321836 -0.010035538 0.123193465 -0.12708366 0.0012829459 0.058567625 0.11851419 0.03210589 -0.20142688 -0.012226107 -0.17310685 0.05759252 0.2453279 0.03989538 -0.010313947 -0.00089315296 0.0893457 -0.04859469 -0.045843188
-0.07480385 0.23215745 0.048827037 0.21988167 -0.07340721 0.07792627 -0.24718939 0.047587346 -0.022578266 -0.13035166 -0.024596155 -0.02417699 0.050783586 -0.19819862 -0.07203191 -0.108416855 -0.014912661 -0.14329876 -0.0054662023 -0.26217932 -0.021528749 -0.19728436 0.03955135 -0.16656657 -0.0076123755 -0.36953387 -0.010486269 0.082785904 -0.056266762 0.039934143 0.11289273 -1.8399449e-05
-0.1627243 -0.064049944 0.00119394 -0.048484977 0.028147385 -0.15447474 -0.0708768 0.19695601 0.020993177 -0.21556075 0.15361618 0.038214292 0.10615551 -0.11313767 -0.010848463 0.055443373 -0.030116757 -0.109543405 0.14313562 -0.021627862 0.21895666 -0.06909548 0.15173464 -0.08302439 0.09508542 0.047935247 0.026848469 -0.10142529 0.01581161 -0.03477593 -0.16492964 0.24731848
0.2448314 -0.10704129 -0.089393534 -0.13397186 -0.06649774 -0.067716636 0.07826938 -0.2148801 -0.29366648 0.04415429 -0.2535882 -0.15700284 -0.056692902 0.021098496 0.029117009 -0.016419433 0.068891644 0.09786268 -0.08513136 0.12408 0.14084308 0.12597995 -0.24784818 0.07370928 -0.13227251 0.0249693 0.046363585 0.00724861 -0.15169297 0.18404353 0.18358059 -0.023052236
-0.17557344 0.028734306 0.04256405 -0.106353 -0.10191717 0.09632062 -0.07063679 0.16146219 0.13276185 -0.12988153 0.101084255 0.23367947 0.031189525 -0.20799413 -0.074119866 0.024933102 -0.15522788 -0.03847191 0.28513065 -0.038597617 0.109554395 -0.10390162 0.07476567 -0.06623977 0.24201751 0.036665462 -0.047120478 -0.14996319 0.22819039 -0.12792431 0.015478691 0.08217976
-0.33320153 -0.097125836 -0.09507516 0.07367257 0.066606954 -0.112795345 0.058941815 0.010575425 -0.101731606 -0.0071301144 -0.084452644 -0.021051483 -0.12927344 0.08337546 0.001322007 0.018515786 -0.15126994 -0.09986929 -0.031080285 -0.23973036 0.04067832 0.0628079 -0.017328454 -0.07569333 -0.026703779 0.0938639 0.027291574 0.066052936 -0.09696652 -0.052485038 -0.17073911 -0.020899568
-0.09618133 -0.118125655 0.15967354 0.0861113 -0.1029091 -0.07853741 0.031152394 -0.013382579 0.1285069 0.1034903 -0.05183606 0.17485851 -0.11013042 -0.018712448 0.026863936 -0.07090766 -0.11421049 -0.08454275 0.14640978 0.117067896 0.03477127 0.15215346 0.0771127 -0.19393396 -0.049781594 0.08874379 0.11644712 0.029043697 0.10644196 0.06786707 -0.14039706 0.014281255
0.11034163 0.050417326 -0.10809308 0.052011445 -0.031584382 -0.085526586 -0.0394491 -0.22529188 -0.025063967 0.061203923 -0.09050951 -0.005904889 -0.013603342 -0.18412203 0.038184255 0.027669778 0.004393828 0.004157495 -0.081353344 -0.06317588 -0.033579726 0.030247817 -0.1175317 -0.15253478 -0.11189684 0.08765082 -0.08609904 -0.086067736 -0.07049433 0.093194656 0.1301908 0.010226368
0.18563041 -0.17201035 -0.12295131 0.02272312 -0.16489945 0.021912938 0.07294843 -0.075289726 -0.30258018 0.031259183 -0.043468975 0.040048745 0.048652183 0.10589869 0.049227186 0.08874819 0.12753648 0.00611159 -0.016122457 0.017831067 -0.2660883 0.28087804 -0.094706394 0.15846016 -0.012625679 -0.004961778 -0.02574732 -0.06862977 0.019473605 0.12659173 0.057133496 -0.23777303
0.30892 -0.19416878 -0.1637127 -0.17727521 0.056563087 0.047187187 0.21626836 -0.107774794 -0.18493176 0.11245916 -0.068484716 -0.12821053 -0.0012267635 0.21449614 0.218063 0.13894863 0.2132217 0.20413846 -0.024361884 0.11843895 -0.08349131 0.12511508 0.030132458 0.24940509 -0.08623837 0.25667885 -0.17458077 0.11642337 -0.13396971 0.24747083 0.15617861 -0.2259953
0.02993935 0.22161166 0.21613126 0.037799638 0.057888195 0.114318214 0.045635372 -0.0036332652 0.07634007 -0.029019795 0.1898491 0.15918413 -0.0014112771 -0.029663512 -0.03817471 -0.1354335 0.12856515 0.17154276 0.15386234 0.07818712 0.11999925 0.10014888 0.2640042 -0.110297255 0.023994885 0.012472559 0.011936324 0.0807147 0.28850907 0.15528716 -0.14711976 0.13915744
-0.13020922 0.004734489 -0.008263304 -0.027049867 -0.13775425 0.06482943 -0.16401853 -0.07590143 -0.11222037 -0.15605496 0.16953783 -0.05317474 -0.04323841 -0.3683912 -0.0615466 -0.13225697 -0.21527562 -0.13078757 -0.059724644 -0.15041976 0.22890139 -0.27204168 0.016040226 -0.009550033 0.019166065 -0.24933966 0.026718428 0.111287594 0.12600277 -0.019646127 -0.020676266 0.11820851
-0.08613454 -0.02084416 0.19760615 -0.10599176 0.101907305 0.007814207 -0.2912448 0.22695181 0.22353789 0.0052914238 0.18425618 0.21140689 0.21764867 -0.06213109 -0.107684456 -0.07288395 -0.010609053 0.039141838 0.15341099 0.013287672 0.16704193 0.0028723504 0.21757115 -0.17327705 0.13788155 -0.16173708 -0.030780684 -0.12426111 0.120676205 -0.11870909 0.019429581 0.013432615
0.1103292 -0.12097966 -0.0027682993 -0.18954366 -0.15251653 -0.16461864 0.16765775 0.046806913 -0.02223285 0.10955807 -0.114797905 -0.08938315 -0.008968086 0.18587096 0.23495527 0.08167105 0.2424349 0.19672826 -0.075191304 0.12697408 -0.08333065 0.15544982 -0.11149144 -0.043432068 -0.032715227 0.1270041 -0.055291794 0.12697431 -0.17205654 0.21747088 0.08778139 0.05455576
-0.09877433 0.16997021 0.17285343 0.16110528 0.013506109 -0.0021688724 0.026761703 -0.10524268 0.03839551 0.24021992 0.017657451 -0.009546867 0.06970159 0.29912642 0.19806515 -0.114664964 0.10459457 0.03320063 -0.10596795 0.11535884 -0.0033337728 0.26436922 -0.14827104 0.10301539 0.16154696 0.1256824 0.058562346 0.04340245 0.052512668 0.26036817 0.01696335 -0.074173376
-0.2022757 0.026365202 -0.019326033 -0.009690267 -0.010165018 0.094781525 -0.17085576 -0.008159128 0.06475434 -0.15444538 0.008998833 -0.046845634 0.043877024 -0.020803032 -0.10114475 0.0520845 -0.08399043 -0.031788204 -0.020239197 -0.21645658 -0.1259282 -0.025009293 0.0012750038 0.00026110027 -0.032679096 -0.08222354 -0.0010132428 -0.033753153 0.052997656 0.003534835 0.050722405 0.07713082
0.10167484 -0.13911764 0.018316692 -0.22491679 -0.047821105 0.07561683 0.038725846 -0.21714224 0.043381188 0.056310736 -0.16249698 0.11871088 0.044572987 -0.105134144 -0.042446192 0.11756736 0.079063006 -0.06572212 -0.03802584 0.070448086 0.06977837 0.008861029 -0.10851998 -0.037254643 -0.0786303 -0.11052528 -0.20439836 -0.043177668 0.0836261 0.079518534 0.10104287 -0.0030928242
0.25323337 -0.22966765 -0.13948558 -0.13674654 -0.18030907 -0.20174827 0.17835163 -0.17414859 -0.34309405 0.26224107 -0.14893967 -0.1660636 -0.046582397 0.32777447 0.23446162 0.17555071 0.06692199 0.14079188 -0.20188162 0.119030744 -0.10007307 0.18963858 -0.17247103 0.17986225 -0.16875407 0.27934733 -0.13199694 0.14031918 -0.169462 0.188937 0.36672318 -0.11626915
-0.25663233 0.13832405 -0.13705222 0.21089596 -0.0019108794 -0.06470752 -0.13039723 -0.0126712285 -0.30924022 -0.21115911 -0.05300081 0.10755676 0.06407545 0.16941367 -0.09733995 0.117638886 0.07176264 0.016403893 -0.055770777 -0.2285712 -0.104841225 0.28061628 -0.2447521 -0.045822833 0.0029214802 -0.11671328 0.101927295 -0.027788391 -0.06768354 -0.06066048 0.11602142 -0.15573996
-0.18028346 -0.04568387 0.052343886 0.02603716 0.05303093 0.17998704 -0.15928806 0.038735565 -0.07092654 -0.016543223 0.10308342 0.23681903 0.058634542 -0.08204568 -0.08987544 0.017809823 -0.06413469 0.0921654 0.15908152 0.02464805 0.040328305 0.0019404931 0.038370147 -0.07428491 -0.10788168 -0.01134406 0.02651272 -0.051556975 0.045264598 0.025934726 0.096784465 0.059321478
-0.15210637 -0.07249171 -0.2491883 -0.07219531 -0.064319074 0.14440988 -0.04946862 0.004740823 -0.015038596 -0.009789098 0.09813237 -0.08117458 -0.17599814 0.034284316 0.14385475 -0.034690324 0.013665292 0.023353277 -0.34465367 0.036324255 0.072246656 -0.024401285 0.022305777 0.04788333 -0.23992482 0.14892887 0.033384055 0.04588848 -0.03245007 -0.0754676 -0.011234917 0.00051323307
-0.09919507 0.14190115 -0.11084605 -0.0061531393 0.124512225 -0.14860211 -0.05662186 -0.04075245 0.025821693 -0.0005558228 0.1415805 0.024615895 0.11325791 -0.03580144 -0.041779794 -0.23577434 -0.018034104 0.023026599 -0.102959655 -0.13035423 -0.026665946 -0.16410196 0.014558886 -0.01968838 0.051431853 -0.22224955 -0.09601335 -0.022704357 0.028856775 0.036759984 0.063117824 -0.033452693
0.525388 -0.25851277 -0.2560647 -0.09550894 -0.046141334 -0.20157066 0.37395996 -0.3656562 -0.22754587 0.18500516 -0.18336183 -0.30929875 -0.12711209 0.26741126 0.18069693 0.090353854 0.31668955 0.14961661 -0.37813723 0.3655559 -0.12754357 0.42734846 -0.10749253 0.29279363 -0.02902773 0.50867295 -0.16307767 0.10910642 -0.37586936 0.3336241 0.23323601 -0.31744304
0.2660302 -0.19149487 -0.2824138 0.008546742 -0.15069214 -0.05426934 0.037419092 -0.05133236 -0.1986239 0.18903393 -0.06364579 -0.26815796 -0.042250823 0.042625144 0.33481425 -0.14907485 0.19171868 0.20301838 -0.21306083 0.15873532 0.16590458 0.29355374 -0.056473024 0.08143551 -0.19062057 0.079436675 -0.18292254 0.2794906 -0.2018585 0.10827925 0.2317618 -0.2835296
0.1363901 -0.10947994 -0.094222374 -0.09135173 -0.09325212 -0.098749354 0.020289434 -0.1758491 -0.18958323 -0.02589897 -0.005588696 -0.0020906788 0.0924571 -0.06593333 0.17946084 -0.094512284 0.16569915 0.20766246 -0.023594795 0.047840692 -0.039789543 0.078351185 -0.06981738 -0.0076972637 0.04557444 0.049307827 -0.23053035 0.17801295 -0.018191764 -0.06337793 0.037891954 -0.20402424
0.043780938 -0.0489759 0.030415108 0.029543621 0.05082383 0.08505037 0.08785122 -0.00867577 -0.09790154 -0.09940954 0.04912215 -0.15694502 0.017209783 0.04931325 -0.12304478 -0.085839815 0.09806883 0.035093892 -0.115541846 0.025488058 -0.055302497 0.0038411503 -0.22364047 0.16497631 0.01527214 -0.09220978 0.09592269 -0.06943189 -0.012067543 -0.03180486 0.071952336 -0.12052706
0.21744394 0.011797302 -0.45474774 -0.034187354 -0.26265615 -0.18549477 0.23989505 -0.21469511 -0.10774656 -0.05226341 -0.22053723 -0.06649669 -0.02440576 0.29023448 0.004404363 0.10661959 0.112340204 0.1290138 -0.3396185 0.18740384 -0.2304402 0.31976402 0.05422138 0.18200271 0.038044248 0.2956546 -0.075513065 0.015874868 -0.13011324 0.22288431 0.083610035 -0.19702607
-0.18422082 0.20305002 0.19767365 0.062365778 -0.054960277 -0.2615544 0.10788874 0.31598076 0.14966318 -0.046428565 0.031359214 -0.029325334 0.15916243 -0.11462391 -0.07662891 -0.2730566 0.021707293 0.08701951 0.27389732 -0.08189017 0.0016519307 0.1460469 0.061998248 -0.03518405 0.11590126 -0.05985785 0.29316738 0.0060979617 -0.113871366 0.07778216 0.029652203 0.24052528
0.12747517 -0.12102186 -0.0058168126 -0.03830448 0.1762256 0.09977879 -0.04471823 0.14048123 0.17424558 -0.04109825 -0.021142066 -0.015189991 -0.057146613 0.10907879 -0.1052369 0.034654886 -0.02056644 -0.0657625 0.2029291 0.16908768 -0.05123771 -0.08942993 0.3018872 0.05889928 0.12893678 0.13118853 0.13472539 -0.00074079697 0.16646211 0.022781543 -0.118591666 -0.16203621
-0.042460173 -0.030666513 -0.11674181 -0.13591498 -0.10671558 0.07004808 -0.17843923 0.14149237 -0.08664819 -0.09237734 0.037892405 -0.036693957 -0.09896174 -0.24345149 -0.117664464 -0.018762274 -0.18477789 -0.015611488 0.07046177 -0.013352794 0.0037822858 -0.18173908 0.045848515 -0.017165197 -0.008522152 -0.13851649 0.13454136 -0.05376971 0.32587564 0.020939266 -0.17639995 0.16254987
0.0707851 0.11204166 -0.012583246 -0.045085628 0.0436991 -0.14541467 0.03415598 0.14458151 0.15415491 -0.016736558 -0.03333343 0.11804354 0.0009430999 0.089654885 -0.018231647 -0.22167975 -0.021250969 -0.093435265 0.07674405 0.11780103 0.07646858 -0.074266404 -0.0601999 0.07897434 -0.067113474 -0.04256351 -0.13484025 0.008781555 0.13113353 -0.02828583 0.019582892 0.06448748
0.27283943 0.00087683747 -0.08525349 -0.17302632 -0.18149501 -0.21732327 0.16023548 -0.05442615 -0.012372802 0.10256012 -0.2329271 -0.16545588 -0.055116024 0.11805895 0.0801542 0.22440194 0.14376165 0.16557683 0.0026528717 0.25746423 -0.1989846 0.15358807 0.08427403 0.2766655 0.02521095 0.3086691 -0.06469143 0.054975405 -0.105302945 0.23189238 0.106329225 -0.0547946
